-0.831178 -0.664703 0.511386 0.066330 -0.733372 -0.172934 0.969908 -0.960826 0.609404 0.794583 -0.295152 0.924188 -0.359934 -0.299793 -0.834053 0.859514 -0.014515 -0.266707 -0.867543 0.995992 -0.130359 0.537753 0.000476 0.685961 0.239331 -0.313334 -0.278524 -0.211481 0.794329 0.877683 0.279936 0.007561 0.634983 0.904533 0.647481 -0.715317 -0.174962 -0.060171 0.552258 -0.669123 0.855009 -0.755271 0.144388 -0.128426 0.757009 -0.998258 0.843183 -0.977486 -0.462390 0.147163 -0.561277 -0.427027 0.705871 -0.472844 0.463511 -0.452311 0.875849 0.685952 0.403833 0.849964 -0.587681 -0.244847 0.168999 -0.506097 0.834797 -0.567822 0.197278 0.212894 0.885557 0.593578 -0.645120 0.842220 -0.115060 -0.626695 -0.099448 0.672757 -0.670477 -0.834360 -0.525647 -0.543805 -0.116057 0.922719 -0.766999 0.111874 0.477743 -0.248810 0.913577 0.156186 0.581373 -0.450182 -0.426309 0.540883 0.803553 -0.727784 0.859362 0.891740 0.451696 0.974699 -0.141452 -0.608137 -0.367581 0.668445 -0.773481 0.766160 -0.015137 0.939855 0.079416 -0.055948 -0.778671 0.318598 -0.013814 -0.740729 0.263441 0.818692 0.289470 0.114412 0.312796 -0.061077 -0.303849 -0.893725 -0.570181 0.182743 0.185332 -0.206902 -0.952062 -0.859394 -0.103484 0.041703 0.279430 -0.913134 0.885927 -0.905733 -0.582186 0.207937 0.828989 0.288567 -0.544953 0.877974 -0.513425 -0.530082 -0.965346 -0.019269 0.877704 -0.232911 -0.566212 -0.429224 0.003888 -0.203459 -0.960007 0.719135 0.054598 0.239868 0.878128 -0.471268 -0.507079 -0.571454 -0.966738 -0.865499 0.228810 -0.637013 0.493634 -0.180297 -0.628783 -0.089707 0.618988 -0.703260 0.494218 -0.466410 0.627445 -0.861402 0.607260 0.629613 0.744727 0.459337 0.232057 -0.751649 0.967336 0.600737 -0.771358 0.761875 0.415464 -0.987085 -0.461285 -0.424515 0.088336 0.945383 0.968151 0.956235 -0.128538 -0.064060 0.533520 -0.865238 0.202327 0.689211 -0.795921 -0.915865 0.061014 0.548857 0.166208 -0.129418 -0.632008 0.796262 -0.452133 -0.250278 -0.662856 0.393508 -0.078273 0.942336 0.520218 0.349851 0.576405 0.848080 0.522717 0.227986 0.358312 -0.769980 0.075329 -0.291144 -0.232436 -0.233252 0.113404 0.919095 -0.116177 0.932561 -0.951596 -0.860996 0.137239 0.667822 0.749465 -0.477405 0.127044 -0.212944 -0.841808 -0.723782 0.380962 -0.051287 -0.060473 -0.196502 0.264708 0.911535 -0.925038 0.254081 -0.470197 0.328790 -0.557591 -0.831403 0.097670 -0.440979 0.230170 -0.529405 -0.241422 -0.172170 -0.732396 0.610679 -0.831033 0.057848 0.693044 -0.440592 0.950650 0.710518 0.114321 0.061486 -0.830266 -0.106905 -0.351878 -0.531635 0.503764 0.876232 -0.490831 0.741883 -0.644206 -0.105384 0.067689 0.194904 -0.032311 0.308352 0.421474 -0.104734 -0.371495 -0.918050 0.299878 0.477712 0.855168 0.360259 -0.280000 -0.506797 -0.061927 -0.275960 -0.280840 -0.799899 0.439410 0.842259 0.740405 -0.781410 0.447609 0.528838 -0.706242 -0.345508 0.911271 0.524210 -0.824751 -0.552526 -0.334104 0.014561 -0.413491 0.924593 0.206443 -0.841547 0.817678 0.492124 -0.451352 -0.047996 -0.928291 0.481440 -0.963293 0.457225 0.321522 -0.489983 -0.715066 0.202070 -0.200023 0.428134 -0.901137 -0.538397 -0.279055 0.894585 0.994689 -0.450108 0.295316 -0.450483 0.004729 -0.600600 -0.572325 0.763464 0.766227 -0.915468 -0.525981 0.581748 -0.295228 -0.385315 -0.245195 0.170031 -0.681250 -0.262538 -0.148781 0.418957 0.210974 0.137232 0.496859 -0.988460 -0.130988 -0.883828 -0.698473 -0.749706 -0.135987 -0.632873 0.640065 -0.996844 -0.335733 0.954005 -0.944958 0.064883 -0.635860 -0.139355 -0.938531 0.813904 0.171329 0.421689 0.849398 -0.517899 -0.690014 -0.190128 0.113625 0.865219 0.782045 -0.802403 0.442939 -0.865952 -0.260855 -0.785721 0.960491 -0.683899 0.597078 0.995606 -0.765308 0.365524 0.753979 -0.945601 -0.585319 -0.313387 0.014579 -0.364330 0.677612 -0.177761 -0.586404 0.703930 -0.458521 -0.675441 -0.195376 -0.534023 0.874270 0.143319 -0.972828 -0.472951 -0.195464 -0.565420 0.311117 0.018763 0.996319 0.438013 0.420362 -0.437935 0.987254 0.732627 -0.782834 0.394635 -0.023984 0.694683 -0.499512 -0.200057 -0.562772 0.103112 0.382523 -0.253006 -0.781394 0.814412 0.925238 0.095817 0.764479 -0.174242 -0.333152 -0.984348 -0.853296 0.865784 0.665370 -0.213105 -0.219853 -0.176402 -0.353758 -0.352250 0.732050 0.069856 -0.146995 -0.339033 -0.004409 0.245510 -0.082135 0.355461 0.288671 -0.900104 0.506340 -0.589354 -0.836960 0.950607 0.592290 -0.818075 0.965080 -0.983241 0.919925 0.518758 -0.492276 -0.106068 -0.803971 0.834380 0.902722 -0.272930 -0.669673 -0.705364 -0.505113 0.757000 -0.484415 -0.226556 0.366228 0.537557 0.583173 -0.817370 -0.269114 -0.534865 0.624130 0.663730 0.606568 0.001939 -0.246000 0.769154 -0.436525 -0.413095 -0.425419 -0.321135 -0.601951 0.962630 -0.778502 -0.645774 -0.125180 -0.553890 0.675661 -0.045719 0.522835 0.669111 0.096847 0.198923 0.911767 0.310880 0.418889 0.576271 0.176119 0.823193 -0.853193 0.809983 -0.281513 -0.140090 0.475994 0.929361 -0.226760 0.877621 -0.499188 0.543132 -0.562059 0.588627 -0.757600 0.756858 -0.929519 0.916417 0.478209 0.411681 -0.072961 0.747314 0.193545 0.020214 -0.878471 -0.363320 0.745204 0.329137 -0.625657 -0.429951 0.630896 0.495510 -0.791388 0.094815 0.849589 0.883843 -0.516981 -0.909931 0.083831 -0.677414 0.752718 -0.000536 -0.672955 -0.306722 -0.520964 -0.179383 -0.517886 0.935442 -0.876287 -0.915247 -0.467231 -0.104772 -0.965962 0.076743 0.651157 -0.975511 -0.543761 0.611026 -0.995315 -0.284817 0.439754 0.425494 0.489193 0.557565 0.690891 0.325883 -0.999059 -0.799383 -0.658023 -0.699062 0.213582 -0.014009 -0.051993 -0.231281 -0.025732 0.933029 0.388626 0.034108 -0.777855 0.384990 0.367612 -0.755154 0.980634 -0.856134 0.426261 0.869713 -0.791407 -0.783495 0.296571 0.791532 0.560361 -0.321921 0.659248 -0.251172 -0.158085 -0.886893 -0.346955 0.669885 -0.590351 0.466787 0.301279 -0.598548 0.877518 -0.163226 0.996879 -0.881251 -0.376473 0.220498 -0.404084 0.768817 -0.779112 -0.635388 0.801449 0.699735 0.447319 -0.495990 -0.696940 -0.507926 -0.233886 -0.365746 -0.801488 -0.508904 0.372963 0.714214 0.073885 -0.243110 -0.591116 -0.805938 -0.285235 0.578522 -0.238685 0.736138 0.473225 -0.655237 -0.741304 -0.791084 0.520023 0.421558 0.419781 0.686111 -0.569099 0.909908 -0.529258 0.349754 0.943788 -0.281679 0.648601 0.115763 -0.354140 0.526167 -0.446164 0.747586 0.740850 -0.335695 0.641976 -0.100475 -0.239690 0.798926 0.559924 -0.945032 -0.816642 0.829502 0.401064 -0.238661 0.430295 0.120356 0.215067 0.274446 0.387127 -0.573539 0.207660 -0.902643 -0.089511 0.859764 -0.641467 -0.381831 -0.746680 0.508690 0.357436 -0.531759 -0.715606 0.997977 0.209813 0.423026 -0.578731 -0.153745 -0.804279 0.128208 -0.038926 -0.749510 -0.600721 0.858305 -0.050377 -0.050317 0.856000 -0.230568 -0.442121 -0.793908 -0.431879 -0.386673 0.444598 0.688707 0.180755 0.382507 0.037720 0.945904 0.527555 -0.488526 -0.605409 -0.216266 -0.020797 0.686907 -0.111317 0.991875 0.269644 0.324939 -0.343280 -0.659866 -0.943672 0.011186 0.092519 0.242035 0.913862 0.881347 -0.721116 0.696538 -0.429971 0.808848 -0.105628 -0.339164 -0.854687 -0.671549 0.125097 0.943575 0.782245 0.464606 0.407847 0.701385 0.557667 0.830909 -0.673462 0.607632 0.197203 -0.574207 -0.250265 0.166764 -0.606327 -0.875279 0.097675 -0.000166 0.479857 -0.325548 0.943944 -0.222577 0.854930 -0.004659 -0.084946 -0.298048 -0.070032 -0.883868 0.260990 -0.159483 0.118085 0.820201 0.946773 0.481955 -0.453501 0.779234 -0.937075 -0.203287 0.109563 -0.910507 -0.539311 -0.533547 -0.617943 -0.349510 -0.698078 0.365092 -0.617352 0.258818 -0.831925 0.392634 -0.498895 -0.562553 0.887758 0.025273 -0.894030 0.359617 0.106009 -0.473135 -0.418839 -0.282274 0.536201 -0.482250 0.855426 -0.870075 -0.854693 -0.736429 0.800655 -0.366435 0.846428 -0.102091 0.934340 0.252946 -0.165089 -0.023709 0.425753 0.479182 -0.547313 0.931735 