0.680375 -0.211234 0.566198 0.596880 0.823295 -0.604897 -0.329554 0.536459 -0.444451 0.107940 -0.045206 0.257742 -0.270431 0.026802 0.904459 0.832390 0.271423 0.434594 -0.716795 0.213938 -0.967399 -0.514226 -0.725537 0.608354 -0.686642 -0.198111 -0.740419 -0.782382 0.997849 -0.563486 0.031599 0.623328 0.255720 -0.402590 0.286122 0.061617 -0.018533 0.963258 -0.397195 0.564276 0.082288 0.567501 -0.146114 0.835915 -0.395373 -0.270872 0.630169 0.838417 -0.857318 0.892244 0.044464 -0.829735 -0.611742 0.338880 0.781525 -0.302214 -0.871657 -0.959954 -0.047775 -0.885757 -0.530378 0.932288 0.816159 0.763937 -0.413283 0.125886 -0.178864 0.573238 0.084090 0.402865 0.131004 -0.872174 -0.077180 0.905707 0.896660 0.452398 -0.447057 0.458439 0.241090 -0.341682 0.323931 -0.730543 -0.055513 0.760150 0.658402 -0.339326 -0.508091 0.768433 -0.330433 0.327593 0.955610 0.272587 0.403432 0.824308 -0.018733 0.918301 -0.133656 0.693487 0.430868 0.875528 0.014660 -0.527600 0.938414 0.866123 -0.676774 0.750701 0.278901 -0.177909 0.201952 -0.471447 0.635922 -0.385084 -0.105933 -0.547787 -0.593261 -0.467360 0.073329 -0.192530 -0.617480 0.915739 -0.695294 -0.632032 0.084410 0.593459 1.031736 0.936248 0.434752 -0.178829 0.546282 -0.230567 -0.385002 -0.518099 0.204049 -0.463743 -0.706581 0.421639 -0.769642 0.572637 -0.608266 0.490143 -0.850940 0.900208 -0.858542 0.034818 -0.704791 -0.530277 0.654071 0.565450 0.408337 1.026826 0.361000 0.562897 -0.763976 -0.683208 0.100057 -0.792071 -0.812238 -0.547050 -0.026906 0.678450 0.199817 0.572383 -0.845527 -0.712260 0.965333 -0.608610 0.834295 -0.749063 0.995598 -0.891885 0.769114 -0.826751 -1.018076 0.856584 0.229858 -0.551016 -0.596302 -0.145053 0.916562 0.712251 -0.209673 0.152531 0.227017 -0.036186 0.444700 -0.713904 0.149144 0.576792 -0.330705 1.033593 0.195418 0.767922 0.451800 0.225217 -0.894831 0.495606 0.666477 0.850753 0.771180 0.677337 0.926694 0.475328 0.814478 1.026168 0.360202 0.009222 -0.697934 0.656360 0.775200 -0.822020 0.343723 -0.453326 0.314556 -0.494571 0.456479 -0.336776 -0.307765 -0.456147 -0.796617 0.317225 -0.558242 0.308041 0.017351 0.942931 -0.439916 0.092214 0.462337 -0.755844 -0.066571 0.204408 0.926484 -0.064700 -0.300342 0.721039 -0.105846 -0.990764 -0.307129 0.227775 0.714355 -0.477933 0.411141 0.016018 0.025920 -0.346128 0.453530 -0.583177 0.334286 -0.863471 -0.132306 0.409390 0.342864 0.275280 -0.305768 -0.630755 0.239382 0.281371 0.455738 -0.337320 0.519406 -0.557901 0.852729 0.363223 0.314946 -0.462454 0.068968 -0.810136 -0.452968 0.782822 0.411177 -0.750849 -0.706496 -0.227752 0.161912 0.223128 0.397608 -0.337460 0.600710 -0.411536 -0.378440 -0.620498 0.968726 -0.992843 0.666932 -0.280960 -0.617679 -0.088541 0.960811 0.870855 0.545006 0.376613 -0.762816 0.351236 -0.238600 0.591654 0.899835 0.846844 0.759999 -0.550564 0.638596 0.151873 -0.384321 0.803496 0.859185 0.834975 0.080960 0.146995 -0.729558 -0.452178 0.729158 -0.015202 -0.060523 0.775102 0.022998 -0.367871 -0.624790 0.408714 0.504428 -0.697495 0.235807 -0.013820 0.666390 0.459984 -0.619873 -0.502495 0.051419 -0.701674 -0.661665 -0.221445 -0.318677 0.879816 0.849573 0.265605 0.702901 0.587172 -0.082688 -0.330057 -0.211346 0.317662 0.229936 -0.371305 -0.612256 -0.795382 -0.736668 0.347706 -0.211130 -0.376164 -0.307277 -0.800928 -0.126937 0.902966 0.188337 -0.461113 0.380975 0.585275 0.050136 -0.626501 0.799874 0.259854 0.056303 -0.544632 0.127662 -0.185262 0.575350 -0.211223 -0.511346 -0.347973 0.471286 0.383832 1.048045 -0.290893 0.821816 -0.708514 -0.134999 -0.969497 0.580255 0.548292 -0.402554 -0.755505 0.743082 0.415575 -0.885500 -0.071151 1.000531 0.454360 -0.556140 -0.064921 0.726281 -0.818388 -0.805146 -0.277507 -0.546789 0.314240 0.618191 -0.736596 -0.883600 -0.807006 -0.010480 0.579826 0.407388 -0.080607 -0.722877 0.196482 0.184321 0.079987 0.204028 -0.251066 -0.386103 0.767000 -0.024401 -0.631644 0.261979 0.096801 0.252119 0.168508 -0.556651 0.642130 -0.872722 -0.861956 0.728298 -0.660701 -0.036533 -0.549018 0.667243 -0.335147 -0.204690 0.795344 -0.286721 0.676847 0.364821 -0.899148 -0.445654 0.584226 0.280351 0.710729 -0.366251 -0.553043 -0.569145 0.252579 -0.736082 0.384425 0.546812 0.370171 -0.657306 -0.223030 -0.398427 -0.210179 -0.643789 -0.228504 0.065692 -0.690552 0.125452 -0.884355 -0.194828 -0.227554 -0.352913 0.521014 -0.436718 0.349571 0.157435 0.843235 0.393567 0.668643 0.462162 -0.361921 0.332405 -0.926735 0.112823 0.725449 0.222281 0.241428 -0.021364 -0.201856 -0.299090 0.382274 0.581015 0.355625 -0.694248 -0.934215 -0.849059 0.417890 -0.620615 0.249406 0.401768 0.161944 -0.969527 -0.961388 -0.332974 -0.451814 0.338518 0.758627 -0.586606 -0.281860 0.364772 0.797879 0.324828 -0.370320 0.747184 -0.667299 -0.691085 -0.020760 0.636014 0.288385 0.832062 -0.617777 -0.210957 0.412133 0.748424 0.129693 0.447566 0.870547 -0.525671 0.847096 0.115224 0.891145 0.026935 0.123486 0.920520 0.677556 0.685056 0.217817 0.335785 1.012303 0.899309 -0.343288 0.755327 0.154737 0.298264 0.535775 0.577886 0.551653 -0.445811 0.208758 -0.058872 -0.666091 0.595704 0.722263 0.683831 0.315066 -0.158769 0.219462 0.172180 0.284935 0.103462 -0.687322 0.190339 -0.911512 0.404620 0.024171 0.659588 0.025323 -0.773949 -0.036821 0.021245 -0.875583 0.637342 -0.224845 0.261357 -0.116227 -0.675213 -0.173844 -0.505935 -0.186467 -0.964111 0.380000 0.045470 0.580381 0.102509 -0.162227 -0.127803 0.956796 -0.920528 -0.915830 0.190906 0.140915 -0.640176 -0.646216 0.171705 0.761152 0.385508 -0.148365 -0.182605 0.693344 0.914969 0.871573 0.768164 0.529770 -0.279021 0.073485 -0.561728 -0.044898 0.900973 -0.148788 0.677789 0.878069 -0.657524 -0.128144 0.531218 0.474271 0.761392 -0.561306 0.449839 0.855850 -0.391284 -0.252388 0.076576 0.050036 0.185769 -0.654789 -0.052806 -0.282195 0.303187 0.805728 -0.590354 0.306329 0.777963 -0.780445 -0.252888 -0.601995 0.294364 0.107671 0.279195 0.125506 -0.895621 0.089926 0.098104 -0.520760 -0.943739 -0.324108 -0.987798 0.794722 0.146147 0.519854 0.749017 0.848462 -0.677430 -0.126369 -0.038232 0.589579 0.276963 0.929434 -0.628128 -0.313997 0.812750 -0.267944 0.798863 0.495276 -0.038085 -0.545265 0.758036 -0.824061 0.678509 0.233707 0.424113 0.848341 -0.639933 -0.484682 -0.705863 -0.636293 0.186335 -0.676796 -0.790347 -0.600729 0.842168 -1.008962 -0.679386 -0.757465 -0.060072 0.299671 0.905428 -0.702802 0.287486 -0.858886 -0.212508 -0.007138 -0.116522 -0.515865 -0.653044 0.748650 0.076070 -0.634666 -0.928477 -0.140039 0.629617 0.467909 -0.329048 0.966372 -0.978495 0.029613 -0.636950 0.270327 0.335770 -0.388632 0.772962 0.288848 -0.323495 -0.859962 0.632609 0.691205 0.462516 0.363843 0.808374 -0.374121 0.516153 -0.513864 0.474066 -0.744295 0.128198 -0.948474 -0.833228 -0.670526 -0.511723 -0.757897 0.152125 -0.932828 0.743056 0.861070 -0.924372 0.815390 -0.102803 -0.525215 0.174342 -0.685046 0.202092 0.044549 0.727833 0.929961 0.118532 0.164500 0.458795 -0.549529 -0.463428 0.151769 -0.016073 -1.049139 0.812635 -0.336646 -0.615842 -0.007596 -0.228189 -0.407396 0.312779 0.263641 -0.118157 -0.474485 0.376571 -0.342239 -0.579580 0.499767 -0.467920 0.410888 -0.898425 0.756022 0.788388 0.283528 -0.286510 0.335920 0.053660 0.696000 -0.499415 -0.553269 -0.883395 -0.022028 0.741329 0.185556 0.050463 0.658713 0.901531 0.454961 -0.317210 -0.248548 -0.863328 -0.904966 -0.972917 -0.041792 -0.422467 0.412734 0.661450 0.047213 -0.038627 -0.808829 -0.580234 -0.010028 0.839008 -0.913211 -0.510283 0.422710 0.222482 -0.814283 0.923130 0.734938 -0.667812 -0.048105 0.514564 0.555010 -0.986040 0.157225 0.472924 0.487454 0.845144 -0.807192 0.575285 0.892870 -0.797039 -0.450207 -0.521358 0.619486 -0.809915 0.493461 -0.445573 -0.653399 0.875428 0.521724 -0.806637 0.962217 0.690546 -0.225345 0.354478 -0.168030 -0.185731 0.272972 -0.403128 0.201876 -0.721201 -0.836901 -0.208623 -0.601943 0.474060 -0.652219 0.884789 0.155215 -0.695809 0.310940 0.021705 -0.391298 0.859567 0.533895 -0.836663 -0.947106 -0.016788 -0.201400 -0.576869 -0.094700 -0.691079 -0.341083 -0.137277 -1.117836 0.163903 -0.852212 -0.258125 -0.811777 0.590677 0.680537 0.472681 0.910745 0.840607 -0.748534 -0.789900 0.071549 -0.666495 0.870404 -0.830834 -0.261087 0.146779 0.198961 0.350093 0.041336 -0.238788 0.644852 0.155357 0.843102 -0.556283 0.636346 -0.258367 -0.329021 -0.944546 0.577646 -0.163861 0.545041 0.985638 0.799352 0.771397 0.507774 0.336399 0.082744 0.314023 0.073742 0.178020 0.410030 -0.857017 0.470807 0.040009 -0.760627 -0.699462 -0.595641 0.535508 0.688562 0.470623 -0.631949 0.333679 -0.305127 -0.824408 0.652927 -0.975507 0.037015 -0.381361 -0.519101 -0.271500 0.493828 1.068462 -0.392553 0.078736 0.593006 0.949804 -0.651911 -0.322681 0.207496 0.362577 0.742106 -0.586811 0.246571 0.315655 0.705855 0.621270 0.546602 -0.943095 0.180814 0.235426 0.556314 0.459207 -0.707288 -0.876441 0.902755 -0.527733 -0.487822 -0.090931 0.005728 -0.102207 0.398157 -0.800350 -0.350344 0.768734 0.251168 -0.751296 0.739658 0.560333 -0.176423 -0.249723 -0.230476 -0.455516 0.163144 -0.880390 0.803097 -0.135602 0.762463 0.349914 -0.071193 -0.076320 -0.451423 -0.451337 -0.355521 0.352498 -0.236223 -0.555376 0.634757 0.050902 0.072895 -0.642418 0.679181 -0.746461 -0.419908 -0.657448 -0.926317 0.853509 -0.365736 0.703938 0.408712 0.280916 -0.617344 -0.932468 0.919433 0.550115 -0.774071 0.722815 -0.570244 0.880162 0.156322 0.471995 0.067079 0.746110 0.855826 0.427584 -0.216628 -0.639356 0.542958 -0.895361 0.183480 -0.515749 -0.409405 -0.092474 -0.105268 0.300817 0.448526 0.008336 0.200375 -0.961517 -0.475913 -0.604142 0.386741 -0.111805 -0.527280 0.306463 -0.570892 -0.143758 0.237349 0.085001 -0.149207 -0.691731 -0.699219 0.611924 0.872521 1.059688 0.054559 -0.480281 -0.616734 -0.244644 -0.113618 0.771327 0.249035 0.584962 -0.136930 -0.660942 -0.005113 -0.675232 0.237029 0.918738 -0.781533 0.738179 -0.681351 0.605499 -0.325661 0.014641 0.063832 0.289694 0.685752 1.209080 1.114164 -0.566008 -0.792614 -0.714857 0.810191 0.770243 -0.984459 -0.144176 -0.529719 -0.424067 0.646456 0.430776 -0.765046 0.112394 -0.022068 0.111830 0.228173 0.592234 0.126653 -0.595535 0.606453 0.346508 -0.741960 0.996568 0.100727 -0.062706 0.112903 1.197966 1.088568 -0.607746 0.978489 0.890696 -0.498827 0.983362 0.944372 -0.655845 0.744345 1.003839 0.071530 -0.824360 -0.448517 -0.321342 0.229299 -0.325488 0.530545 -0.963360 0.443645 -0.298989 0.744057 -0.427802 0.322087 0.362244 0.906529 0.231219 0.409177 0.014847 -0.936055 1.032098 -0.199058 0.929307 -0.728568 -0.377038 0.692759 -0.334327 -0.624759 0.381337 -0.323003 -0.927000 0.365836 0.881851 -1.052983 0.848576 -0.547926 0.230613 -0.703539 0.850757 0.351389 0.733593 -0.229485 0.077983 -0.705524 0.581765 -0.520643 -0.714075 -0.109744 0.762375 0.171527 -0.048640 0.786472 0.896133 -0.124572 0.952377 -0.694596 -0.626216 -0.538809 -0.306478 0.748359 0.270121 -0.377054 0.256448 0.066868 -0.249434 0.003671 0.388182 -0.964005 0.292872 0.425308 0.386144 -0.032247 0.687389 -0.577150 0.293837 0.357826 -0.055387 0.598140 -0.625113 -0.410466 -0.236030 0.343152 -0.520746 -0.607865 -0.936979 -0.733007 -0.207970 -0.650223 -0.223245 0.446446 -0.701581 -0.998138 -0.769525 0.490309 0.061104 0.047491 -0.514213 -0.431646 0.055409 0.735376 0.576075 -0.623456 -0.268258 0.362589 -0.120845 -0.932223 -0.213459 0.812257 0.840345 0.378426 -0.301652 -0.467659 -0.344842 -0.141312 -0.120460 -0.550528 0.024813 0.705938 0.048217 0.871253 0.217433 0.289024 0.969959 0.597412 -0.228927 0.177116 -0.389091 0.275876 0.443293 0.686513 -0.030429 0.001820 -0.968862 0.720981 -0.501590 0.037661 -0.847296 0.711065 0.253742 0.988389 -0.049918 0.542472 -0.743527 0.284067 -0.653229 0.035970 -1.005380 0.616637 -0.096367 0.045458 0.581840 -0.746390 -0.684580 0.746915 0.951863 0.178007 -0.450304 -0.475206 -0.608711 -1.032758 -0.881582 0.292514 0.065338 -0.656286 0.465522 1.072650 0.849546 0.704560 0.594437 -0.312541 0.346101 -0.778950 -0.874373 0.396079 0.688029 -0.366049 -0.268870 0.734643 -0.716407 0.709296 -0.232924 1.113152 1.066088 0.250533 0.555064 0.944309 -0.661639 -1.030363 -0.748838 -0.484170 -1.017773 -0.523462 -0.697194 0.570125 0.242480 0.714404 0.363338 -0.272467 -0.001352 -0.361387 0.201624 -0.800249 -0.095472 0.318687 0.580394 -0.344748 0.971893 -0.507049 -0.623714 -0.642638 -0.761357 0.352600 -0.663411 -0.570100 -0.650002 0.531080 0.960370 -0.519775 0.481797 -0.707242 0.240699 0.716920 -0.023188 0.430193 0.084137 0.965364 -0.147182 -0.836958 -0.714115 0.543667 -0.238967 0.412307 0.477325 0.635494 -0.212144 0.384975 -0.716560 -0.254757 0.862572 -0.215334 0.173470 -0.931131 0.813961 0.076999 -0.720859 -0.865301 -0.474963 -0.852229 -0.457975 -0.859172 -0.416723 0.860972 0.979025 0.489690 0.103358 -0.371130 0.095529 0.584680 -0.027623 0.502179 -0.030321 0.480901 -0.106248 -0.250051 0.109112 0.576993 -0.899889 0.487255 -0.390493 -0.831405 -0.887332 0.347180 -1.072073 0.852560 -0.522516 -0.792526 -1.042442 0.221013 -0.442386 -0.270121 0.504860 -0.000778 -0.490994 0.197353 -0.604854 0.514505 -0.861619 0.544915 0.145715 -0.213805 -0.037752 -0.831220 -0.744186 0.780025 -0.291319 0.407940 0.756478 0.230330 -0.115263 1.044202 0.146303 -0.166421 0.226617 -0.000695 -0.319565 -1.177226 0.377317 -0.203466 0.180277 -1.012099 0.705532 -0.268443 0.112704 -0.847252 -0.842493 0.475665 0.689836 -0.926968 0.079168 -0.341317 -0.151810 -1.036977 -0.336114 0.072794 0.991142 0.900250 -0.355691 0.493472 -0.146033 0.321698 0.368664 0.798694 -0.850852 -0.266536 -0.056739 -0.135205 -0.286575 -0.625440 0.753371 -0.914929 -0.371590 0.543033 -0.169283 0.796180 0.744632 0.016739 0.270492 0.193904 0.077272 -0.759805 0.640703 0.675994 -0.579812 -0.227912 0.309197 -0.541837 -0.404283 0.576332 0.719874 0.196830 -0.099351 0.124408 -0.001134 -0.082188 0.838578 -0.933285 -0.965144 -0.167995 -0.327825 0.876658 -0.103784 0.281326 0.661591 0.986221 -0.052318 0.054035 -0.007058 -0.901087 -0.921342 -1.047877 -0.618226 -0.848343 -0.839068 0.054073 -0.138351 0.139672 0.300912 0.263595 -0.222886 0.049821 -0.594269 0.466691 -1.042220 0.426060 -0.415270 -0.910573 0.584417 -0.410171 -0.007427 -0.598835 -0.101097 0.998482 0.512286 -0.896630 0.978086 -0.666834 -0.007755 -0.217987 -0.352786 0.251596 0.100281 0.272833 0.552435 0.131482 -0.833438 -0.727779 -0.776406 0.450991 0.410328 -0.206536 -0.737110 0.809886 -0.518492 -0.539721 0.238981 0.180765 -0.340561 0.165684 1.038017 0.587507 0.381003 -0.447760 0.562521 -0.219773 -0.538881 0.400611 0.326764 0.769618 -0.534256 -1.024579 0.219237 0.601179 0.249542 -0.305278 -0.258109 0.365441 -0.094157 -0.133925 -0.164469 -0.640582 0.700842 0.207616 -0.660087 -0.536861 0.805597 0.931607 0.791748 -0.483486 -0.023100 0.545412 -0.900306 -0.667952 -1.028413 0.583753 0.171083 -0.260594 0.254318 -0.459012 -0.502564 0.612872 -0.477504 0.684894 0.391028 0.827587 -0.602566 -0.967789 0.089783 0.354926 0.093401 -0.739738 -0.993054 0.078430 0.591624 -0.555311 0.602125 0.577181 0.282376 -0.906305 0.312197 -0.172212 -0.802285 0.670100 -0.074560 0.887725 -0.078707 0.678701 0.148427 0.525743 -0.755022 -0.032515 -0.838409 -0.970386 -0.574710 -0.925187 -0.461521 -0.356036 0.470295 -0.941979 0.862676 0.800325 -0.918488 0.022773 0.488112 -0.464865 -0.346640 0.065293 -0.129547 0.964244 0.174168 -0.802176 -0.195826 0.388122 0.879239 0.719496 0.293575 -0.178371 0.396675 -0.569379 -0.656877 0.644238 0.394222 -0.553563 0.595668 0.779828 -0.448840 -0.803334 -0.590576 -1.001583 -0.762647 -0.690270 0.834904 -0.679731 0.315043 0.294899 -0.122059 1.097336 -0.513253 0.740417 0.925941 0.548390 0.908651 -0.339079 -0.062363 0.851311 -0.588823 -0.843852 -0.417847 0.755894 -0.459671 -0.146528 0.345421 0.872017 0.275050 -0.000761 0.678170 0.846868 0.183078 -0.859062 0.886792 0.398688 -0.618997 0.645750 0.755397 0.871027 0.087890 -0.396862 0.704211 0.290844 -0.708406 0.590927 -0.151169 -0.709402 -0.656040 0.765729 1.052168 -0.335840 0.852380 -0.447280 -0.692020 -0.666121 0.356684 0.661140 -0.761063 -0.281503 -0.360839 0.902123 -0.516119 0.793237 0.950761 -0.692154 0.231001 -0.498441 1.078545 -0.085850 -0.985535 -0.128499 0.504537 0.713164 -0.772574 0.864720 0.389919 0.101668 1.077408 0.566573 -0.182859 1.044634 -0.886671 -0.470003 -0.514394 -0.557334 -0.099079 0.850095 -0.960934 0.077684 -0.482535 -0.305427 -0.078463 -0.085659 -0.483711 0.071347 0.348549 0.759186 0.254040 0.210716 -0.419741 0.248539 -0.893517 -0.861537 0.034927 -0.641277 0.920491 -0.734097 0.393306 0.956403 0.710935 1.009198 0.844657 0.826619 -0.424850 -0.700390 -0.833763 0.359828 -0.848960 -0.759515 -0.565401 -0.457064 -0.037571 0.534832 0.581083 0.515526 -0.714640 -0.312157 0.079867 0.435752 0.864238 0.757230 -0.226774 1.034084 0.886839 0.712561 -0.673864 0.761595 0.845917 0.512125 0.532192 0.491278 0.497961 0.416934 0.201859 1.011380 0.620712 0.406832 0.355420 0.691053 0.669345 0.929303 -0.629654 -0.298871 0.198203 0.703247 -0.958534 0.437079 -0.563706 0.156098 -0.144791 -0.737637 -0.132923 0.597009 -0.711770 -0.289223 0.147834 -0.657699 -0.766752 -0.137368 0.852122 0.777465 -0.597600 0.318639 0.053457 0.516579 0.254437 -0.414889 -0.062068 -0.265104 -0.487067 -0.350588 -0.615063 -0.458908 0.178618 0.586939 -0.752191 0.180231 -0.127382 -0.482490 -0.667054 0.807251 -0.145994 0.112500 0.164013 -0.085114 0.646709 -0.704699 0.296516 0.942733 0.256067 0.133097 0.518339 0.381461 -0.622626 -0.484123 -0.085481 0.728381 0.239436 0.865988 -0.806633 0.320497 -0.681282 -0.271752 0.957878 0.596196 -0.805986 -0.927088 -0.228112 0.237430 -0.244686 -0.011766 -0.159218 0.462781 -0.913570 -0.869246 -0.551376 0.753844 -0.601939 0.753973 0.520978 0.386621 -0.197350 0.036871 -0.215881 0.280731 0.643007 0.662847 -0.183416 -0.500896 0.369994 0.033910 -0.947109 0.894446 0.699097 0.898702 0.458089 0.872554 -1.047070 -0.928344 -0.067822 -0.353271 0.076755 0.851075 -0.877566 0.159101 0.935888 -0.338979 -0.199884 -0.844126 -0.765459 -0.677294 0.555358 0.177389 0.457415 -0.653172 -0.782627 -0.254736 0.808146 0.025866 0.553311 0.467311 -0.916501 0.543726 0.380422 0.749220 0.465565 -0.281835 0.578378 0.470379 -0.119841 -0.370726 -0.852985 1.028095 -0.448333 -0.569828 0.148031 -0.660504 -0.148212 0.942095 -0.494701 0.194201 -0.669079 -0.941189 -0.911952 0.429084 -0.833331 -0.696493 -0.465640 -0.682925 0.353403 -0.902546 0.839212 0.433062 0.614466 0.042310 0.130453 0.161320 0.819656 -0.171704 -0.321595 -0.224666 0.602934 -0.019114 -0.208238 -0.981060 0.243388 0.928497 -0.648210 -0.812276 0.941261 -0.113643 0.144788 -1.061273 -0.305305 0.260472 0.746591 0.215973 0.589311 -0.692640 0.610717 -0.008563 -0.641945 0.324060 -0.588669 -0.982437 -0.585010 0.669558 0.258914 -0.622077 -0.382699 -0.920739 0.194196 -0.870825 -0.022534 0.987548 -0.860055 -0.762215 0.945638 -0.486726 -0.736438 0.626572 0.173464 0.416772 0.837911 -0.770007 -0.210039 0.745658 0.519781 -0.551467 0.946970 0.007880 0.378654 -0.675583 -0.655693 0.883138 -0.575333 -0.127450 0.654004 0.794353 0.288566 -0.782430 0.840959 -0.518125 -0.661650 -0.178605 -0.511050 -0.483580 0.015074 -0.762026 -0.146885 0.254952 -0.859593 -0.662690 -0.157563 -0.835435 -0.362832 0.673605 0.733890 -0.936902 -0.927885 0.689074 0.084829 0.532611 -0.935106 0.593560 0.508522 -0.380405 -0.521550 0.128968 -0.601600 0.766598 0.352171 -0.776595 -0.727664 0.760053 0.105525 -0.403605 -0.949666 -0.885937 0.093761 0.207381 0.493626 0.352782 0.577302 -0.601496 0.407100 -0.852336 0.909312 0.104716 -0.743830 -0.962300 -0.079335 0.502444 0.645397 -0.003112 -0.009487 0.131362 0.639576 0.485604 -0.732197 -0.960888 0.327140 0.655620 -0.643050 0.440720 0.217625 0.387482 -0.736766 0.547741 0.504188 0.422569 -0.227549 0.001183 -0.306835 -0.718144 0.178333 0.970467 -0.619340 0.266275 0.193311 -0.270250 0.215992 -1.009103 -0.905587 -0.153244 0.043669 0.109778 0.984366 -0.367240 -0.339543 -0.747187 -0.200403 0.804593 0.764483 0.036914 0.398936 0.232232 -0.564284 0.679197 -0.291527 0.896489 -0.007204 0.312882 -0.395050 0.446897 0.492148 0.934251 0.512710 0.994906 -0.012369 -0.451154 -0.421847 -0.794634 -0.422087 -0.299585 0.051552 0.551096 0.874742 0.084907 -0.640430 -0.647211 0.195906 0.092167 -0.682753 0.181450 -0.868218 0.702654 -0.690865 -0.529088 0.294465 -0.062175 -0.902687 -0.965476 -0.738154 -0.125027 0.597102 0.765278 -0.400305 -0.060060 0.680309 0.605326 0.561974 -0.718632 0.808276 -0.905832 0.074844 -0.058619 0.802404 -0.246143 0.822620 -0.865444 0.280985 0.293399 0.216314 0.562424 -0.601937 0.259805 0.176493 -0.355494 0.524087 -0.699880 0.491482 0.660781 -0.658741 0.703447 -0.566094 0.791015 0.378568 -0.011366 -0.183172 0.059836 -0.413450 -0.658519 0.432328 -0.487243 -0.443046 -0.730210 0.214486 -0.642431 0.229467 0.312178 -0.455752 -0.488883 -0.497535 0.579174 0.882444 -0.294696 -0.343657 -0.043176 0.284956 -0.859501 0.137597 -0.299187 0.721680 0.331937 -0.784909 -0.995774 0.133602 0.574054 -0.017135 0.970979 -0.379189 0.632735 -0.659462 0.843770 0.880068 -0.090397 -0.612438 0.362477 0.236546 0.497170 -0.522018 0.484404 0.697244 -0.246007 -0.086614 0.504122 0.392270 0.554371 -0.584080 -0.385895 0.540149 0.320177 0.014428 0.130379 -0.347084 0.229718 0.103015 0.842928 -0.160328 -0.811178 0.811216 0.481866 0.722433 -0.867881 0.517733 0.819188 0.023645 0.775452 -0.002675 -0.935141 0.123954 0.431884 0.513522 -0.119746 -0.827548 -0.447957 -0.524350 0.615885 0.943626 -0.347822 0.944801 0.399206 0.982180 -0.026703 -0.497379 -0.293544 -0.736703 0.711122 -0.522703 0.036461 0.817783 -0.756423 -0.448510 0.591862 -0.730049 0.901068 0.201673 0.115385 0.602126 -0.823918 0.147691 -0.313050 0.572416 -0.231049 0.674991 0.750849 0.155183 0.908845 0.150257 0.026982 -0.478074 0.090711 -0.599818 -0.471519 -0.870299 0.003799 0.217811 -0.697164 -0.303153 0.619848 0.361564 -0.537292 0.762327 0.748618 0.899019 0.949683 0.561490 0.099929 0.036269 0.108497 0.318641 -0.641840 0.895348 -0.036624 0.001441 0.400346 -0.437865 -0.910408 0.256382 0.704783 0.096315 0.818340 -0.130946 0.664542 -0.580921 -0.061189 -0.400730 0.463043 0.206899 0.156104 0.023924 -0.578157 0.566084 -0.278154 -0.900315 0.401870 -0.364904 0.706469 -0.356940 0.776940 -0.112543 0.917436 1.019689 -0.349771 -0.272904 -0.045355 -0.950196 0.301513 0.045962 0.328175 0.051237 -0.774132 0.208986 0.900284 0.803728 0.440565 -0.288521 -0.771490 -0.186870 0.800141 0.356696 0.798003 -0.799613 -0.154937 -0.549966 -0.673374 -0.657226 0.142534 -0.970757 -0.098509 -0.118039 -0.144349 -0.194563 -0.159564 0.506758 0.795082 0.561190 -0.191728 -0.160681 -0.132625 0.814568 0.000130 0.951868 0.616358 -0.296297 0.318774 -0.722349 -0.094190 -0.892705 -0.934530 -0.773585 0.878242 -0.746375 0.077136 -0.649008 -0.439625 0.375533 0.469662 -0.438814 -0.749134 -0.682785 0.399568 0.008799 0.157651 -0.089045 -0.358314 0.026665 -0.473249 0.381876 0.803981 0.340118 0.161238 -0.132261 0.434336 -0.108145 0.576111 -0.308365 0.109289 -0.527417 -0.231363 0.155236 -0.380032 -0.428987 0.323580 0.711143 -0.084068 0.872078 0.051491 -0.569093 -0.526938 0.331644 -0.266434 0.843246 -0.594368 0.923881 -0.246089 -0.142028 -0.190114 0.251008 -0.764498 -0.361662 -0.357874 0.408127 0.509989 0.943479 -0.897485 -0.073661 -0.480312 0.080063 0.233782 0.167831 -0.859464 0.895267 0.774579 0.507060 0.623059 -0.239017 0.466636 -0.260109 0.172982 0.896585 -0.877500 0.916180 0.853524 -0.639105 0.797139 -0.380405 0.273925 -0.311333 0.880711 0.494971 0.319515 -0.492201 -0.171303 -0.276617 -0.703538 -0.164160 0.575996 -0.182350 0.904935 -0.059361 -1.010343 -0.869291 -0.199287 0.860365 0.702408 -0.431292 -0.388881 0.125960 0.321469 0.729588 0.078463 0.415652 0.661355 -0.062905 0.835940 0.552441 0.541908 0.065677 -0.823835 0.434088 -0.422636 0.474770 0.813099 0.211224 -0.933930 -0.906707 -0.909698 0.685430 -0.036079 -1.029006 -0.401551 0.027324 -0.795043 0.609020 -0.121655 0.864280 -0.814634 0.438082 0.102411 0.483812 0.290552 -0.768271 -0.069422 0.032549 0.223870 -0.228571 -0.396650 -0.222180 0.876565 -0.310093 1.107022 -0.715822 0.981907 0.840869 0.534394 -0.843315 0.865003 0.539370 0.754881 -0.037680 0.670696 -0.452538 0.959504 0.829489 -0.819557 -0.122408 0.797025 -0.651925 -0.633807 -0.073355 0.890843 0.703495 0.159149 -0.223695 -0.339385 -0.696889 0.487585 0.147372 -0.108240 0.153872 0.678359 -0.136614 0.349262 0.654549 -0.394269 -0.284211 0.650777 -0.417533 -0.595380 0.543446 0.465136 -0.975058 -0.903013 0.500851 1.011537 -0.717615 -0.568197 0.850542 -0.330038 -0.369718 -0.393304 -0.575169 -0.779193 0.689287 0.128453 -0.169384 0.863665 -0.458973 0.859394 -0.359794 0.608617 0.423704 0.330992 -0.303138 -0.144236 0.971597 0.580917 -0.339540 -0.568724 0.935135 -0.805096 0.939503 -0.914944 -0.703405 0.369678 -0.923382 -0.464110 0.565079 0.729711 0.092554 -0.860966 -0.694181 0.446994 -0.715990 0.979810 -0.385118 0.097768 0.821604 0.172347 0.015095 -0.625108 -0.471579 -0.880776 0.706041 0.338354 0.232325 0.559229 -0.131131 0.806096 1.031891 -0.128120 -0.850714 0.759627 -0.135192 -0.680947 0.170511 -0.058268 -0.119024 -0.246652 -0.302141 -1.007941 -0.089879 0.045350 0.571127 0.295838 -0.008791 -0.849098 -0.466608 -0.151588 0.254153 0.265110 0.128671 0.796943 0.609249 -0.208020 0.082744 -0.234140 -0.622358 -0.944059 -0.306257 -0.775659 -0.074336 -0.181482 -0.808120 0.909656 0.206867 0.478689 -0.172193 -0.874634 -0.807149 0.659066 -0.754575 0.221458 -0.274518 0.754691 -0.514714 0.779863 1.032784 -0.120573 -0.428807 0.244021 -0.687512 0.668298 -0.000388 0.928457 -0.587603 -0.835953 -0.325052 -0.277423 -0.795340 0.436665 0.114186 0.178684 -0.673246 0.405101 -0.008090 0.481855 -0.217894 -0.981468 0.684792 0.041961 0.653830 0.874955 -0.783067 -0.648034 0.741365 -0.295587 -0.919999 0.714319 0.731853 -0.406339 -0.083023 -0.937940 -0.770793 0.920371 0.820678 -0.400767 -0.941992 -0.364632 0.506698 -0.626611 -0.776109 -0.324526 0.431886 -0.553260 -1.002655 -0.315205 -0.887544 -0.112048 -0.283233 0.777827 0.890634 -0.595138 0.798734 -0.825681 -0.256805 0.454524 -0.065420 -0.235087 0.126730 -0.297342 0.260011 -0.896425 -0.472340 0.489176 -0.994430 -0.408856 -0.762741 -0.745743 0.337805 0.832417 -0.470897 0.528631 -0.581354 -0.727970 -0.812970 -0.341769 0.042550 -0.747778 0.453822 0.709490 -0.816852 0.427476 -0.854977 0.846728 0.626354 -0.175387 0.258362 -0.443215 0.465969 -0.565389 0.053920 -0.230870 -0.527869 0.877673 -0.512174 -0.404617 -0.434097 -0.157743 -0.104965 -1.032874 -0.296064 0.733132 0.656265 0.397399 -0.952175 0.808808 0.938583 -0.004759 -0.829577 0.554457 -0.175607 -0.749450 -0.044008 -0.077788 -0.945612 -0.453484 0.664251 0.368103 0.000788 0.194626 0.780335 -0.685146 -0.868071 -0.663849 -0.772747 -0.220667 0.045968 -0.159914 0.647497 -0.826087 -0.099064 -0.486666 0.935398 -0.487922 0.780527 0.904756 -0.512589 0.876176 0.078822 -0.417049 0.390079 0.847789 -0.207837 -0.712432 -0.251528 -0.089452 -0.190558 -0.615230 -0.768687 -1.043018 0.749577 -0.897496 -0.574684 -0.907845 -0.458038 -0.311958 -0.102815 0.842438 0.619336 -0.315566 -1.013967 -0.454636 0.201701 -1.035077 0.194927 0.198082 -1.035027 0.662646 0.098475 0.052901 -0.793020 -0.536892 -0.149739 0.043781 -0.259105 0.531997 -1.093645 0.651552 -0.894341 -0.684275 0.842725 -0.972305 -0.534939 -0.749832 -0.882484 0.158132 -0.053935 0.076982 -0.028143 -0.439031 0.790769 0.098365 0.289445 0.213671 0.136990 -0.457492 -0.556927 0.149852 -0.839377 0.413728 -0.920145 -0.576885 -0.973435 -0.051314 0.429720 -0.184345 -0.281601 0.521904 -0.384224 -0.031293 0.799301 -0.588722 -0.078187 -0.697509 -0.343269 0.083740 0.476911 0.601157 -0.764194 -0.333610 -0.557894 -0.734329 0.818078 0.793943 0.505723 -0.063023 -0.710009 0.860428 -0.950477 -0.562453 0.484808 -0.807356 -0.106997 0.431949 0.388952 -0.495666 -0.642564 -0.858360 -1.007829 -0.073852 0.001473 0.814912 0.381581 -1.000577 -0.770063 -0.922057 0.355059 0.970122 0.993975 0.709152 -0.360612 -0.546267 0.935452 -0.559892 -0.799400 0.384172 0.336304 -0.486171 0.327409 0.489397 0.203647 -0.108907 0.780831 -0.862131 -0.561509 0.153809 -0.372453 -0.229549 0.246731 -0.334802 0.738174 -0.621862 -0.396075 0.325898 -0.355419 0.025482 0.512782 0.801456 0.005297 0.472183 0.547006 0.619006 0.881495 0.391546 -1.015345 -0.835200 -0.082342 0.421892 -0.225774 -0.632874 0.003476 0.940205 0.199370 -0.367147 -1.012368 0.566675 0.742951 -0.403737 -0.605993 0.189999 0.396366 -0.827903 0.543636 0.959897 0.417199 -0.947688 0.019325 -0.056843 -0.984568 0.960753 -0.632269 0.542258 0.562984 -0.642795 0.082565 0.667918 -0.433904 1.058565 0.223017 0.388122 -0.593074 1.072151 0.233986 0.558217 -0.323036 0.197140 0.153153 -0.487249 0.940573 0.519200 0.575558 0.130329 0.631472 0.014007 0.127267 0.084605 0.228991 -0.882483 -1.032971 0.236694 -0.925159 -0.614164 -0.114718 0.709395 -0.145116 0.924430 0.444938 0.488424 0.958361 -0.501910 -0.354138 -0.827923 -0.608860 0.781481 0.666960 0.034868 -0.047094 -0.252030 0.409497 -0.338807 -0.898688 -0.115477 0.810522 0.731313 -0.953354 -0.041369 -0.244944 0.271047 0.094084 -0.187042 -0.452407 0.185497 0.312757 0.345804 -0.126955 -0.874665 0.175739 -0.900998 0.333943 -0.050191 -0.592859 0.884123 0.086837 -0.159272 0.696942 -0.275345 0.798550 -0.441967 0.363148 0.191779 0.246944 0.429532 -0.843083 0.068050 0.111790 -0.744923 -0.922783 0.946391 0.422675 0.063754 -0.170633 0.988309 -0.724597 -0.905596 0.308398 0.028761 -0.855471 -0.528573 0.126003 0.482516 0.473376 0.648968 0.488986 -0.368916 -0.524837 0.117190 0.250239 -0.718156 0.755064 -0.385935 0.502590 -0.044114 -0.988399 0.758652 -0.937616 0.209000 0.880877 -0.991300 0.182583 0.369883 0.118086 -1.007618 0.373763 0.423850 -0.874354 -0.322649 -0.525790 -0.737146 0.127468 0.614353 0.834574 -0.283450 0.289800 0.269852 0.250387 0.802161 -0.485152 -0.433358 -0.898067 -0.796529 0.180707 0.720457 0.209959 0.278826 0.337239 0.236291 -0.501019 0.176744 0.264631 0.645763 -0.491582 -0.546064 0.683624 0.881511 0.851051 0.752902 -0.482759 -0.694071 -0.994955 0.629251 0.919397 0.836413 -0.644939 0.225478 0.220451 0.609192 0.657976 -0.824166 0.168264 0.861447 0.356542 -0.227212 0.020804 -0.419154 -0.963182 -0.795903 0.009592 0.163919 0.438007 -0.380458 0.633291 0.825365 -0.768859 0.444195 0.623418 0.951615 0.922812 0.901860 0.959332 0.574005 0.839737 0.803005 0.901597 0.097416 -0.026534 0.510789 -0.836269 -0.356374 0.787721 0.368150 -0.504863 -0.032795 -0.972774 0.422167 0.527320 -0.954029 0.654610 -0.413445 0.275487 0.119829 0.190568 -0.094355 -0.047460 0.464454 -0.607170 -0.391462 0.395788 -0.673970 -0.447530 0.477808 0.870283 -0.653823 0.198238 0.781436 0.466361 -0.937548 0.378464 0.601496 -0.301694 -0.132464 -0.194212 0.135847 -1.128368 -0.105957 -0.302690 0.527982 0.200148 -0.483370 -0.772916 -0.528791 0.654847 0.483014 0.411951 -0.357414 0.024031 0.857140 0.318662 -0.525596 -0.965677 0.775495 0.848194 0.998824 -0.856990 -0.093657 0.898165 0.611346 0.155255 -0.032325 0.085217 -1.097819 -1.084710 -1.043394 0.178174 -1.062476 0.155319 -0.861048 0.715982 -0.650851 -0.365360 0.964326 -0.218884 -0.686941 0.507190 -0.616007 -0.013557 -0.496920 -1.012347 -0.728589 0.001796 -0.804558 -0.930304 -0.280379 -0.659074 -0.757664 0.893181 0.896187 0.615774 -0.018282 -0.120794 -0.257562 -0.014684 -0.041040 0.044824 -0.492296 0.176438 -0.821541 -0.417422 -0.168501 -0.577675 0.193825 -0.116392 0.438740 0.579491 -0.558580 0.531166 -0.424992 -0.029325 0.689334 -0.130003 0.860175 1.066233 -0.088610 -0.110665 -0.943593 -0.007545 -0.367934 -1.075363 -0.356281 0.713752 -0.096426 0.683644 -0.002601 -0.828859 -0.295803 0.383790 0.270647 -0.204836 -1.031252 -0.745737 0.463144 0.250487 0.155266 -0.326193 -0.189923 0.573591 -0.626035 0.410209 -0.526487 -0.750585 -0.639830 -0.468209 0.972937 0.083776 0.274832 -1.050417 -0.924915 -1.054545 -1.041118 0.013643 0.912740 0.129499 -0.319193 -0.196214 0.291037 0.331581 -0.717348 -0.270339 -0.671802 -0.692832 0.033569 0.622164 0.523322 -0.835755 -0.526975 -0.639872 0.770572 0.063699 0.888179 -0.737725 -0.000516 1.027145 -0.117926 -0.167558 0.007906 -0.907401 -0.084183 0.331343 -0.683855 0.034289 -0.785161 -0.983077 -0.963888 -0.128475 -0.077443 0.534641 -0.645039 0.240900 -0.687392 -0.416561 0.517581 0.290927 -0.653652 0.067491 0.488371 -0.055448 0.538864 0.281915 0.696722 0.127314 0.529448 -0.421293 -0.038284 -0.764050 0.453960 -0.786433 -0.485420 -0.676121 0.361425 -0.486146 0.208762 0.558390 -0.393268 0.405643 -0.398062 0.671910 -0.088045 -0.187334 -0.124144 0.240151 0.520274 -0.579986 -0.425089 0.986379 0.487316 0.994813 -0.279467 -0.104884 0.228164 -0.643646 0.940864 -0.370521 0.014480 0.087529 0.023593 -0.616113 0.020845 0.301828 -0.373134 -0.685852 0.904937 1.006200 -0.866919 -0.368937 0.353010 -0.446076 -0.711688 -0.633001 0.501803 0.186205 0.663211 0.145766 0.523148 -0.926746 -0.205356 -0.023737 -0.851116 0.520347 0.727658 0.199665 0.924490 0.680768 0.922134 -0.228495 -0.463214 -0.223239 0.066103 0.509924 -0.910152 0.794906 -0.796395 -0.859971 0.771140 -0.862662 -0.180731 0.281083 -0.171066 0.130048 0.745764 -0.485305 -0.773654 0.260406 0.331314 0.789497 0.360077 -0.736920 -0.100082 0.561792 0.923920 -0.339183 -0.147143 0.717649 -0.688600 -0.248150 -0.456072 -0.084205 0.716914 0.844065 -0.174348 0.779903 0.604352 -0.312366 -0.931947 0.599833 0.040023 -0.100899 -0.021589 1.014817 0.997777 -0.469828 -0.808904 -0.796317 0.775728 0.546808 -0.922809 0.235377 0.894656 -0.021999 -0.326927 0.547281 0.489680 0.489763 0.338344 0.859118 -0.585180 1.033225 -0.106827 0.911793 0.703160 0.278303 0.856198 0.496263 -0.661635 0.922560 0.198184 0.522621 -0.159714 1.006198 0.229306 -0.195820 -0.509825 0.344823 0.052727 -0.728937 0.010013 0.141963 0.418499 -0.273380 -1.021985 -0.916183 -0.578433 0.683409 0.751352 0.756456 0.497028 0.896419 0.663082 -0.929364 0.941219 0.482334 0.833297 0.795722 0.018575 -0.727424 0.725782 -0.841499 0.570316 -0.434371 -0.923400 -0.230977 0.278860 -0.480162 -0.785165 -0.628195 -0.202786 0.176621 0.595021 -0.574475 -0.858919 0.788239 -0.444313 -0.515873 0.351941 -0.864724 -0.799973 -0.454925 -0.861724 0.908735 0.104774 -0.922213 0.445886 0.033216 0.882235 -0.575335 0.154984 0.640241 -0.513868 -0.411373 -0.976615 -0.543567 0.403890 0.403949 0.046879 0.725347 0.964215 0.984325 0.022934 0.542280 -0.714026 0.028442 0.190975 -0.306513 0.377501 -0.870005 -0.142559 0.623120 0.211655 0.029875 0.565530 -0.586893 0.112633 -0.045990 0.289433 -0.027541 0.270959 -0.759658 -0.560491 0.739586 0.024600 -0.310002 -0.721100 -0.516936 -0.718212 0.373922 -0.750908 -0.878198 0.239135 0.149126 0.558601 0.352776 -0.919254 -0.626329 -0.896698 0.536027 0.068412 -0.032176 0.196828 -0.623108 0.875890 -0.355792 -0.463384 -0.046903 0.527908 0.761856 0.919878 -0.028552 -0.731392 -0.505976 -0.404588 0.223661 0.236753 -0.067454 0.775847 0.389946 -0.827741 0.858843 0.422442 0.310837 -0.062825 -0.215621 -0.241978 0.143178 0.553871 -0.110001 -0.316972 -0.303015 0.799691 0.813457 -0.153997 0.718950 -0.527294 0.466467 -0.296034 -0.853295 0.334791 -0.262771 -0.018417 0.556720 0.308306 0.649876 -0.243516 -0.503410 -0.477292 -0.548536 0.910084 -0.304308 -0.658540 0.264463 -0.915139 0.459620 -0.759598 -0.138323 -0.312612 0.994630 0.748214 0.408972 -0.514005 0.573207 0.098901 0.370326 0.339458 0.730313 -0.162418 -0.827974 0.820666 -0.820081 -0.045767 -0.151970 0.706917 -0.760375 -0.419508 -0.288452 -0.209113 -0.000926 -0.090700 -0.365839 0.838825 0.489683 -0.974339 0.944502 0.086063 -0.482427 -0.109652 0.753017 -0.818063 -0.378554 0.019858 -0.364458 1.108406 1.061929 0.884205 0.449670 0.696223 -0.314281 0.535974 0.511924 -0.133560 -0.446233 -0.623697 -0.337088 -0.366245 -0.247355 -0.068314 0.264334 0.881767 -0.887554 -0.954168 0.768466 0.731424 -0.675108 0.863561 -0.328594 -0.578796 -0.535020 -0.901793 -0.617269 -0.097992 0.051284 -0.072931 -0.097702 -0.079249 -0.298469 -0.746331 -0.453571 0.307789 0.637271 0.956912 -0.903678 0.948937 -0.864695 -0.486722 -0.565739 -0.090703 0.629780 0.832755 -0.161085 0.811937 1.125381 -0.361336 0.474108 0.982843 -0.830415 0.856512 -0.728845 -0.443266 1.028132 -0.309430 0.506903 -0.004590 0.593286 -0.603955 0.895004 -0.728970 -0.433852 -0.612073 0.501590 -0.906988 -0.770571 0.511874 -1.039823 -0.647987 -0.840716 -0.485347 0.315915 0.831164 -0.490748 -0.850154 0.667947 -0.783279 -0.499040 -0.191347 -0.858080 -0.287262 -0.261105 -0.527908 0.325219 -0.217587 0.153194 -0.245866 0.738346 -0.293284 0.064306 0.515643 -0.069819 0.536709 0.856215 -0.590305 0.579350 -0.919263 -0.964329 0.703003 -0.512691 -0.773811 -0.602540 0.797485 1.118992 -0.411302 0.699861 0.444776 -0.160195 -0.685012 -0.576131 0.020683 0.076314 0.204883 0.463424 -0.647082 0.959111 -0.396878 0.032956 0.594919 0.204037 -0.959750 0.117517 -0.772208 0.600456 0.039657 -0.314530 0.359286 0.180336 -0.198447 0.275554 0.651060 -0.016795 0.255669 0.197683 -0.113655 0.885704 0.000315 -0.544220 -0.314740 0.389842 -0.140973 0.623243 -0.632997 0.984166 0.008623 -0.359836 0.833513 0.513565 0.554853 0.517906 -0.113372 0.746816 -0.279616 0.133807 0.503108 0.833553 0.923240 0.073213 -0.009922 -0.437827 0.931470 -0.563829 0.473609 0.233270 0.726713 -0.581737 0.118740 -0.240140 -0.134481 0.735870 1.008116 0.610021 0.275684 -0.683828 0.486996 -0.786711 -0.116520 0.466387 0.954999 -0.413928 -0.008101 -0.159142 -0.512511 0.712509 1.045443 1.064980 0.498790 0.806054 -0.160137 -0.644424 -0.635541 -0.165795 -0.159583 0.838875 1.026242 -0.475808 -0.789919 0.058173 0.190596 -0.055597 -0.251665 0.146295 -0.510007 -1.027773 0.454319 -0.914145 -0.654859 -0.611905 0.494314 0.066697 -0.513788 0.107485 0.554186 -0.801505 0.082149 0.544783 0.670818 -0.123910 -0.602225 -0.976424 0.210447 0.175450 -0.190089 0.001317 0.157754 0.277026 0.148815 -0.810304 -0.581444 -0.931634 -0.092654 0.538602 -0.433650 -0.086090 -0.028301 -0.388461 0.243439 0.369564 -0.894147 0.510058 -0.494896 -0.225087 -0.342029 1.000443 -0.159057 0.731292 0.549447 -0.522435 -0.333473 0.949884 -0.535064 0.748490 0.091209 0.321806 -0.139330 -0.672905 -0.435675 0.909636 -0.536453 0.003676 -1.010018 0.311949 -0.464766 -0.426076 -0.722840 0.500749 0.182624 0.503958 -0.172071 0.370370 0.088314 0.389208 0.914853 0.771537 0.345645 -0.377605 0.232472 -0.232491 0.095980 0.838803 -0.276476 0.562764 0.637893 0.816312 -0.125943 -0.452619 -0.874856 0.454535 -0.557394 -0.476383 -0.572229 -0.666651 0.959075 0.003692 0.009691 -0.820646 -0.525087 -0.648479 0.940206 0.531366 0.662091 -0.095596 -0.308313 0.311230 -0.602969 0.950013 -0.930793 0.778047 -0.262850 0.037457 0.572853 0.486638 -0.297244 0.362960 0.498405 0.679017 0.831406 0.519105 0.111424 -0.738689 -0.814686 0.653497 -0.212735 -0.912621 -0.342365 1.025984 -0.384179 0.462139 1.137210 -0.722054 -0.333172 0.549501 0.004314 0.322861 -0.046141 0.434935 0.226822 -0.225927 0.084860 -1.011660 -0.989062 -0.149265 0.607620 -0.155561 -0.688625 0.019663 -0.505651 -0.894963 -0.378420 0.684624 -0.467612 -0.241905 0.343162 0.534454 0.207550 1.245971 0.260183 0.532628 0.304609 0.175485 0.548021 0.820928 -0.300109 -0.494509 -0.047784 0.308926 0.645114 -0.959702 -0.765150 -0.107245 -0.937004 -0.726084 0.782276 0.652094 0.083595 -1.070741 -0.271620 0.616808 -0.796375 0.312661 0.301926 -0.075859 -0.690370 -0.223833 -0.819479 0.265541 -0.198031 0.316682 -0.445718 0.935070 -0.563340 1.001947 0.510468 -0.177690 -0.743934 -0.628028 -0.772140 -0.963922 -0.477430 -0.519734 -0.051783 -0.322154 -0.134418 -0.321795 -0.686676 0.943567 -0.271118 0.012632 0.539869 0.050267 -0.580165 -0.131118 0.670246 -0.426481 0.528507 0.750602 0.693291 -0.739015 0.045798 -0.786930 0.933042 0.178641 -1.000807 0.353920 -1.033412 -0.766583 0.756475 -0.797968 -0.810797 -0.745528 -0.214956 0.285352 -0.070380 0.655260 -0.964424 0.222723 0.623440 -0.286414 -0.765789 0.150949 0.632476 -0.348865 -0.979873 0.454011 0.259121 0.638688 0.280625 -0.100552 0.606154 0.970376 -0.091724 0.475094 0.134796 -0.094434 -0.106482 0.096013 0.158974 -0.267829 0.540471 0.674497 0.121663 -0.697701 -0.010732 -0.973155 0.931805 -0.040337 0.132635 0.406294 0.621894 0.465669 -0.344135 0.387049 -0.762910 -0.281261 -0.067307 0.514493 -0.728540 1.018293 -0.615885 0.856440 0.847724 0.201796 0.333582 -0.063208 -0.807617 -0.573400 -0.700011 0.629587 0.313000 0.757288 0.280745 -0.589588 -0.977698 -0.842318 -0.705242 -1.174286 0.090237 0.653044 0.497506 0.028728 0.322817 -0.685905 -0.459545 0.545608 0.002375 0.463611 0.144129 0.261296 0.309481 0.423730 0.071980 0.116571 -0.310337 -0.406331 -0.689518 0.119230 0.210311 -0.342854 -0.262590 -0.500493 -0.676416 -1.055835 -0.189114 -0.694513 -0.802798 0.434585 -0.506861 0.546503 0.192934 -0.959513 -0.326710 -0.468927 -0.654305 0.322711 -0.746858 0.413551 -0.303626 0.311537 -0.342000 -1.031096 -0.311586 0.777657 0.089063 0.552759 -0.427168 0.693954 -0.337934 0.763060 -0.727626 0.332107 -0.785038 -0.290403 0.435443 0.254347 0.276702 0.697147 -0.305005 0.705898 0.280570 0.825760 0.731844 1.018347 -0.414103 -0.828765 0.275264 -0.235386 0.510350 0.778583 -1.038029 -0.873891 0.758782 -0.166188 -0.940567 0.191326 -0.705402 -0.387033 -0.147067 -0.028254 -0.589929 0.200427 -0.543495 -0.158864 -0.867612 0.801006 1.054172 0.268432 0.456256 -0.424188 -0.135239 -0.211003 -0.370203 -0.287428 -0.231602 0.144109 -0.143450 0.857981 0.869745 -0.570333 0.680938 0.859102 -0.361382 0.648245 -0.387981 -0.329119 -0.152970 -0.043094 0.345073 0.730292 0.985378 0.885980 0.151976 -0.662248 -0.358873 -0.013762 0.995053 -0.636701 -0.919848 0.417120 0.051549 0.078907 -0.785879 0.779505 0.915319 -0.071666 -0.113733 -0.106344 -0.221683 -0.228704 0.306891 -0.344950 -0.365999 0.919960 -0.664577 0.347871 -0.284636 0.177527 -0.789694 1.085638 0.031722 -0.909364 0.832927 0.881938 -0.727410 -0.851882 -0.308132 -0.774976 -0.416952 -0.043865 0.670542 0.779747 -0.841122 0.878620 0.545619 -0.958184 -0.267398 -0.558279 -0.020822 0.791627 0.257308 -0.730476 -0.524743 0.971849 -0.740386 -0.245866 0.141198 -0.049519 0.972706 0.357886 -0.048512 -0.215640 0.361151 -0.449550 -0.480428 0.529972 -0.271453 0.405088 0.781754 0.408088 -0.603183 0.302508 0.059564 -0.604500 0.274537 -0.241074 -0.330291 -0.678475 0.235126 0.634544 -0.862899 -0.471375 0.962959 -0.517893 -0.721760 -0.807885 0.393796 0.598408 0.159543 0.289203 -0.148313 0.858196 0.893077 -0.918178 -0.574941 -0.410109 0.675040 0.228764 0.835551 0.378733 -0.443839 -0.764755 -0.262663 0.747476 -0.135643 -0.687554 -0.449847 0.492174 -0.273711 0.837670 0.155003 -0.308095 -0.864826 0.059929 0.302054 -0.335549 0.377733 -0.266689 -0.727205 -0.679299 0.826458 -0.009434 -0.802476 0.794592 0.137657 -0.296551 -0.739048 -0.288584 0.864638 -0.823627 -0.793238 -0.541938 -0.417907 0.095475 -0.698303 0.411796 0.519223 -0.077650 -0.059408 -1.075566 -0.430350 -0.871517 -0.234684 -0.061158 0.357998 -0.854883 0.609418 -0.391446 -0.228802 0.762626 -0.155306 -0.453922 -0.225688 0.096040 -0.694986 0.762365 0.682030 -0.457888 -0.360696 0.657688 -0.080549 -0.171965 -0.820721 0.478726 1.026217 -0.431466 -0.082300 0.253349 0.247960 0.934421 0.403874 1.014325 -0.841576 -0.743341 0.010833 0.455652 -0.793868 -0.564860 0.919236 0.055976 -0.700623 -0.135553 0.497350 -0.033535 0.880996 0.724822 -0.207175 0.733788 -0.532306 0.466676 0.400755 0.367527 -0.707240 0.789610 -0.046029 -0.793664 -0.977242 0.827890 0.565868 0.403016 0.869952 0.046511 0.524945 0.940156 0.135421 -0.679624 0.261762 0.387112 -0.319598 0.185206 -0.698998 -0.091945 -1.019206 0.771254 0.795004 0.904063 0.635491 -0.262955 0.665369 -0.911571 -0.772820 0.191163 0.619442 -0.468825 -0.245292 -0.462520 -0.092572 -0.178030 -0.650536 -0.561602 -0.695547 1.130324 0.350872 0.639346 0.994654 -0.637118 0.731066 0.139599 0.655422 -0.600056 -0.726424 0.899789 0.363710 -0.818059 0.750523 0.254493 -0.820210 0.370258 1.057667 1.004979 0.645295 -0.725185 -0.017478 0.160543 -0.124231 0.631597 0.495444 0.550281 -0.517209 0.754734 0.776152 -0.517049 0.607044 -0.090981 0.880664 0.456374 0.146207 0.537848 -0.511477 -0.366820 0.919082 -0.365173 -0.308494 0.319435 -0.060801 -0.570074 -0.331333 0.295523 0.922488 -0.288396 0.004235 0.433801 -0.072960 1.009051 -0.556934 0.511117 0.592903 0.793760 0.012113 0.802015 0.319237 -0.388704 -0.879638 -0.166864 0.446892 0.942293 -0.776558 -0.462154 0.393447 -0.410941 0.306559 0.404090 0.339776 0.978767 -0.237017 -0.633454 -0.465086 0.306478 0.459714 -0.721418 0.906218 -0.615510 0.611294 -0.364430 -0.674037 0.937595 -0.855928 0.704875 0.548575 -0.057420 0.353113 -0.205669 0.470636 0.349797 0.512053 -0.180197 0.279482 0.668136 0.439443 -0.238250 -0.630680 -0.232687 -0.837283 0.818135 -0.208410 -0.054390 0.987510 0.238738 -0.688657 0.412853 0.525244 -0.908515 0.830046 0.093381 -0.244639 1.040044 -0.043352 -0.205996 0.689875 -0.457864 0.617690 -0.027372 0.226359 0.133592 -0.520199 -0.234454 -0.929893 0.779442 -0.494334 0.509548 -0.413918 -0.001263 -0.703076 -0.321027 -0.476407 -0.042609 0.575301 -0.433802 -0.738674 0.829936 0.940933 0.562530 0.793883 0.712207 -0.248524 -0.440449 0.666634 0.530820 0.197813 0.302438 -0.991274 -0.112418 -0.574708 0.303161 -0.869419 -0.948775 -0.799312 -0.393492 -0.443109 0.710238 0.147701 0.431878 0.965789 0.854733 -0.984040 -0.034591 0.451130 -0.411887 0.149191 0.234344 -0.453699 -0.214727 0.067295 -0.747364 0.459034 0.573630 0.944656 0.052621 -0.168587 0.292772 0.103495 0.783474 0.664873 -0.621319 0.914055 -0.508006 -0.714132 -0.897557 0.135384 0.045140 0.909059 -0.663480 -0.528406 0.821985 -0.768671 -0.457763 -0.170379 0.627684 0.104513 0.979833 -0.187065 0.529427 -0.309043 0.915354 0.891947 -0.770856 0.483730 0.824864 0.281900 -0.684069 0.059114 -0.694207 -0.957833 -0.284481 -0.437328 0.929620 0.281734 0.208813 -0.908976 -0.667101 -0.821998 1.002829 -0.337979 -0.390519 0.763631 -0.344097 -0.120177 -0.634828 -0.853245 0.953206 -0.652969 -0.042135 0.496415 0.056412 -0.104375 0.403086 0.261193 -0.661486 0.134319 -0.609116 -0.460609 -0.821207 -0.418212 -0.419047 0.041328 0.422936 -0.369740 -0.786629 -0.412510 -0.353586 -0.493890 -0.352858 -0.452107 -0.021290 0.053471 -0.910951 0.578663 -1.017101 -0.415622 0.876954 -0.932992 -0.101870 -0.096436 0.660753 -0.919072 0.771360 -0.037439 0.210064 -0.983063 -0.915917 0.497935 -0.414492 -0.617253 -0.610241 0.213415 0.277322 0.717761 0.720761 0.348373 -0.880881 -0.736114 0.695144 -0.348215 -0.324538 -0.342415 0.770085 -0.116101 -0.579617 0.908126 0.595231 -0.714976 -0.893635 -0.321515 0.269853 0.601511 -0.381134 -0.031211 -0.450017 0.807299 -0.040830 -0.335482 0.487079 0.587507 0.010941 0.770755 -0.292490 -0.858725 0.328319 -0.754793 0.362631 0.380989 -0.557722 0.115119 -0.825744 0.299915 -0.993267 -0.805580 -0.598432 -0.440585 -0.820272 -0.929893 -0.080919 -0.795250 -0.378153 -0.865137 0.792198 0.257478 0.062163 -0.599678 0.109550 -0.905257 -0.018056 -0.528843 0.637920 0.946050 -0.890472 -0.799433 -1.003306 0.364886 -0.583331 0.447074 0.048833 0.138246 -0.207844 0.526398 -0.325172 -0.052716 0.778366 0.136304 0.573043 -0.997484 0.170229 -0.528694 -0.806369 0.792504 -0.384595 -0.905535 0.044722 0.663228 -0.576090 -0.883695 0.704061 0.316816 -0.449279 0.426354 0.260372 -0.352536 0.573200 0.408771 -0.645240 -0.624554 0.166873 0.567189 0.657320 -0.975367 0.249460 -0.552237 0.164951 0.046396 0.597894 -0.303241 0.037111 -0.258793 0.246055 0.425385 -0.356169 0.865857 0.384846 0.593611 0.422784 0.602450 0.646140 0.287057 0.014506 -0.818308 -0.303962 -0.572578 0.114386 -0.536420 -0.965474 0.631240 -0.065135 0.187903 0.275895 -0.466232 0.343468 -0.493439 0.032996 -0.574382 0.541284 -0.305528 0.229549 -0.353680 0.500698 -0.681875 0.867227 0.908205 -1.041172 -0.018442 0.430650 0.534378 -0.255529 0.164579 -0.274466 0.847914 0.582470 0.543385 -0.706235 -0.358192 -0.978515 -0.726228 -0.775145 -0.183172 0.541128 0.524888 0.447511 -0.193618 -0.981675 -0.429337 0.357937 0.775033 0.187325 -0.550025 -0.803036 -0.481467 -0.481620 -1.093475 -0.566942 -0.302672 0.090135 -1.126270 -0.873770 0.909628 0.290527 0.135089 0.848204 -0.116006 -0.413583 -0.902604 0.379685 -0.385442 -0.453023 0.745845 0.504467 0.950373 0.256977 0.019488 -0.142374 0.464540 0.548921 1.035590 -0.124902 -0.536970 -0.799111 -0.029254 -0.003525 -0.046021 0.077431 0.363576 0.529049 -0.762512 0.584202 1.028391 -0.752496 -0.170906 0.068059 -0.932629 0.655271 0.688391 -0.823802 0.115444 -0.680228 -0.392322 -0.148621 0.879093 -0.283388 -0.654263 -0.119427 0.384535 0.440000 -0.852806 0.212695 -0.768125 -0.289428 0.624774 0.378351 0.683461 -0.422555 -0.487339 0.382660 -0.574518 -0.190841 -0.151597 -0.694290 0.109594 0.803819 0.319999 0.062229 0.321336 0.015572 0.254602 -0.579282 0.385835 1.048606 0.555692 0.319433 -0.484810 0.435936 0.871769 0.636498 -0.193454 -0.908994 0.053716 0.278537 -0.123727 -0.366042 -0.367302 -0.174141 0.422944 0.101141 -0.969582 0.682836 0.933753 0.001581 0.962870 -0.082544 -0.397025 0.273519 -0.978829 0.910365 -0.600437 0.483328 -0.415191 0.728125 0.232190 0.624163 -0.312353 0.486150 0.026198 -0.341188 0.385647 1.086759 -0.143137 -0.707127 0.116639 0.826315 0.128939 0.738502 -0.492013 -0.610265 -0.170537 -0.414922 1.048575 -0.334582 0.411373 0.929680 0.629019 -1.004536 0.315690 0.863389 1.116956 0.540769 -0.009070 -0.712863 0.067238 -0.981138 0.894133 0.874365 0.709583 0.182984 -0.455728 -0.195321 -0.026351 0.487177 0.279954 -0.783704 0.280802 -0.672136 0.875737 0.806326 -0.323289 -0.299065 -0.788246 -0.406796 0.361242 0.608983 -0.411638 0.178844 0.796957 0.772399 -0.281453 0.582068 0.178819 0.533257 0.839374 -0.723625 0.756313 0.891027 -0.833610 0.060143 -0.245645 -0.169968 -0.801893 0.925455 -0.609721 0.442137 -0.973464 0.658419 0.711102 0.847623 0.299235 -0.713947 -0.452725 0.495890 0.005827 1.036251 0.314847 0.513202 -0.051162 -0.210743 0.147307 0.473686 -0.730595 -0.682521 0.143392 -0.814417 -0.429536 -0.353098 -1.020892 -0.033840 0.983026 -0.063249 0.742008 -0.869823 -0.189423 -0.797214 0.666600 -0.122732 0.702836 0.257165 -0.266424 -0.012491 0.647427 0.429816 -0.291185 -0.504005 0.239924 0.668339 0.802940 -0.930361 -0.647311 -0.147022 0.635829 -0.226964 0.254835 -0.286562 -0.014931 0.985650 0.417144 0.022941 -0.121452 0.367335 0.954753 -0.361878 0.622505 -0.089519 -0.212113 0.190165 0.666708 -0.523830 -0.435217 -0.480873 0.604100 1.096536 0.686674 -1.006011 -0.591576 -0.193026 0.575380 -0.763325 0.008750 -0.858209 0.241553 -0.337831 -0.132876 -0.487522 0.326535 0.820790 -0.535073 -0.155053 -0.047879 0.432312 -0.734383 -0.126839 -0.957614 0.861787 0.682440 -0.184295 0.072230 0.419388 0.456653 0.599805 0.844616 -0.125812 0.414648 0.406559 -0.214690 0.889463 -0.651422 -0.442467 -0.822796 0.310285 -0.410561 0.395389 0.842987 0.403798 0.815273 0.253940 0.208230 -0.669707 0.947083 -0.913138 0.661734 -0.800893 -0.045383 0.689754 -0.932745 -0.298333 -0.380385 0.169769 0.943870 0.815315 -0.364670 0.745113 -0.315524 -0.952835 0.097852 0.399910 -1.015070 0.445353 0.946949 -0.828130 -0.281586 -0.610422 0.429100 -0.528987 0.832247 0.342308 0.742157 0.123077 0.589213 0.690511 0.187733 0.235738 0.892058 -0.854235 -0.027886 0.904580 -0.267012 0.383040 -0.070547 -0.363049 0.192274 0.495288 -0.618290 -1.117225 0.631634 0.498832 0.372243 0.624482 -0.039742 0.275441 0.836523 0.757772 0.966950 0.495447 -0.540500 0.875920 -0.298863 -0.827988 -0.041285 -0.739710 0.825522 -0.831655 0.549101 0.678590 -0.816291 -0.621529 0.571832 -0.034303 0.857342 -0.359612 0.708194 0.223000 -0.716740 -0.764099 0.246558 -0.902259 -1.112521 -0.232406 -1.025706 0.170517 -0.638442 0.969615 0.085976 -0.739692 0.332738 0.433412 -0.858926 -1.002249 0.521184 0.090423 -0.713717 0.530445 0.104600 0.679590 0.075462 0.417426 -0.743209 -0.157060 -0.466246 -0.705886 0.640975 -0.515345 0.654226 -0.891433 -0.191918 0.068165 -0.561612 -0.069250 0.916594 -0.547002 1.044096 -0.871230 -0.720722 -0.089178 -0.535363 0.572964 -0.758830 -0.453467 0.596344 0.800405 0.643620 0.835498 0.291176 -0.163204 0.735436 -0.431583 -0.551201 -0.767414 0.623698 0.104808 -0.457008 0.299192 0.605636 -0.673465 0.558516 -0.634706 0.341298 0.844258 0.203051 0.073671 -0.920895 -0.014314 0.299817 -0.656616 0.754279 0.665204 0.875932 -0.860165 -0.823546 0.427598 -0.921639 -0.987939 0.532720 0.573572 -0.015189 0.443914 -0.732444 0.589827 0.673831 0.894916 -0.275400 -0.763395 0.116670 -0.761581 -0.518528 -0.425376 -0.492001 0.594118 -0.836597 0.504242 -0.247613 -0.757492 -0.690195 -1.006721 -0.493319 -0.708882 0.690729 -0.546823 -0.501266 -0.895735 -0.807542 -0.175131 -0.736215 0.781932 -0.552464 0.342615 0.230381 -0.303686 -0.188611 -0.200054 -0.488823 0.474152 -0.007778 0.617513 0.533814 0.351060 0.967445 0.003807 -0.869151 0.474150 0.756195 -0.626643 0.964077 0.808399 -0.025751 -0.649488 0.625058 0.545540 -0.022313 0.811882 0.733120 0.795262 -0.925630 0.507104 -0.779161 0.364258 -0.296875 -0.107892 -0.831683 0.518701 0.369501 0.576555 -0.500946 -0.097801 0.116037 0.867791 -0.130356 0.085495 -0.162931 -0.013960 -0.435509 -0.381117 0.393475 -0.425493 -0.522749 -0.644549 -0.106885 -0.906237 0.814551 0.844127 0.864264 0.678828 0.658677 1.025530 0.207164 0.940323 0.371433 0.895044 -0.197313 0.499845 0.382123 -0.855240 0.056633 0.854744 0.032278 -0.856069 0.667863 0.890720 0.254651 -0.399457 -0.039676 0.842122 0.284199 -0.800918 -0.686945 0.623197 -0.425380 0.178153 0.688838 -0.505106 0.101021 0.674807 -0.817386 -0.188440 0.657001 0.367529 -0.344535 -0.100377 0.160293 0.324552 -0.668156 -0.528696 0.476691 0.354609 -0.740655 -0.503931 0.552267 -0.931058 -0.630303 -0.161597 -0.266239 0.358785 -0.357547 0.805010 0.522547 -0.069537 0.513010 -0.744059 -0.750353 0.331184 -0.190379 0.358114 -0.076168 -0.005893 1.067578 -0.581354 -0.806032 -0.445539 0.226403 0.270945 0.919049 0.527475 0.666638 0.375722 -0.036202 -0.943157 0.857371 -0.464522 -0.834084 -0.640107 0.364947 -0.275779 0.552843 0.929825 -0.358438 0.262109 0.013943 -0.768540 0.511938 0.230734 0.512518 -0.793635 -0.482655 -0.718196 0.061512 -0.618875 -0.401600 0.196391 -0.025965 0.796693 -0.615773 -0.123220 0.416356 -0.755888 -0.641299 -0.595074 -0.632483 -0.752119 -0.133146 -0.582292 -0.541814 -0.818651 0.231314 -0.784265 -0.800563 0.884381 0.435950 0.193178 1.022723 -0.112602 -0.731918 0.412851 -0.002930 -0.381357 0.538494 0.994349 0.041956 -0.884655 0.107977 -1.034435 0.995849 0.732480 -0.060248 0.384717 0.941850 0.255558 0.711024 -0.838239 0.339900 -0.527567 -0.447939 0.933203 -0.274877 0.772447 -0.891920 -0.133311 0.521136 0.492175 1.037663 0.394315 -0.800681 -0.912606 -0.286400 0.137346 -0.246856 -0.763736 0.034131 0.689204 -0.562481 -0.606956 0.876267 -0.536293 1.011033 -0.199745 0.751825 0.944191 1.011703 0.412934 1.055376 0.395545 0.936696 -0.428643 0.180093 -0.457257 -0.684199 0.357231 0.435214 0.729670 -0.354905 0.227468 0.100825 -0.172142 0.368768 0.814547 0.849130 -0.985227 -0.855803 0.152637 1.040001 -0.431208 0.604865 0.882695 -0.072674 0.430324 -0.508945 -0.482244 0.279017 -0.616932 0.851099 0.281008 0.693004 0.781681 0.921457 -0.010727 -0.607557 -0.972906 -0.927424 0.644970 0.706404 -0.221612 -0.062402 -0.188947 0.467354 -0.777662 -0.349625 0.604160 -0.431337 -0.188334 -0.239159 -0.630429 0.168829 -0.858290 -0.869311 0.961371 0.467572 -0.462683 -0.614549 -0.326095 -0.185945 -0.664662 1.071535 -0.383096 -0.840417 0.742659 0.453614 -0.632668 0.757497 0.584338 -0.928370 0.468185 -0.762108 -0.148162 -0.793071 1.064145 0.493578 0.033580 0.600973 0.793519 0.636205 -0.737036 -0.843970 -0.247664 -0.732955 -0.833437 -0.335227 0.742671 -0.347055 0.123980 -0.409239 0.664485 0.513478 -0.500238 -0.988317 0.437651 -0.750104 0.585810 0.915839 -0.988325 0.076078 0.843896 0.422720 0.651487 0.081570 0.791278 0.497523 -0.720712 -0.350497 0.099837 -0.906712 -0.731134 0.235124 -0.880431 -0.112070 0.483881 -0.753663 0.564171 0.333615 0.101239 -0.161886 0.822979 -0.528222 -0.899506 -0.652090 -0.299620 0.716180 -0.395532 -0.856698 0.552278 -0.481921 0.565524 0.726197 -0.882146 -0.015170 -0.395013 0.812478 -0.472723 -0.066617 -0.515464 0.488471 -0.073306 -0.346067 -0.199159 0.109271 0.579096 -0.667934 0.459906 0.300464 0.645965 -0.591423 0.846073 0.514457 -0.005716 -0.841966 0.879951 0.603663 0.769504 -0.494605 1.024018 0.496353 0.059969 0.422743 0.100212 0.094349 -0.614409 0.680046 -0.058437 -0.129752 -0.348497 0.392151 -0.553444 0.624426 -0.930384 0.206234 -0.175083 0.735046 0.632578 -0.787378 -0.191331 0.230450 -0.347165 -0.109672 -0.229732 0.618687 -0.035274 -0.316805 0.420628 -0.049915 0.087669 0.321860 -0.593329 -0.939864 -0.311770 0.476647 0.287809 0.190101 0.270327 -0.775041 -0.887978 0.935264 0.644539 -0.438024 0.697834 0.793743 0.882629 -0.568242 0.366105 0.356717 -0.370254 -0.645547 -0.387472 0.230948 0.160911 0.386545 -0.032287 -0.719886 0.908776 -0.766673 0.139164 -0.097891 0.543517 0.541974 0.155463 -0.668968 0.133278 -0.650718 0.508458 -0.565624 -0.369555 0.627793 -0.526283 -0.631872 -0.686473 -0.931168 -1.062361 0.988027 -0.508931 0.467443 0.354447 -0.006385 0.773569 0.895375 -0.516417 0.108689 0.266708 0.290901 0.293182 0.102118 0.544995 -0.466067 -0.760136 0.137725 -0.874584 0.266188 0.505657 0.378253 0.741754 0.113584 0.961292 -0.523192 -0.308143 -0.683433 -0.289118 -0.064941 -0.538838 -0.250473 -0.074614 -0.190622 -0.825541 -0.803411 -0.859526 -0.953742 -0.791120 -0.557769 0.047074 0.356145 0.732469 -0.606030 -0.327998 0.326046 -0.072729 -0.225042 -0.470305 0.188276 -0.846357 -0.794889 -0.232777 1.095438 0.214557 -0.526654 -0.607982 0.994957 -0.028280 0.118654 -0.067278 0.321499 0.760302 0.829642 -0.548771 -0.888119 -0.856250 -0.578144 -0.931044 -0.747022 -0.120820 0.149504 0.823505 -0.320564 0.607174 -0.610674 -0.924999 -0.358330 0.249952 -0.215061 1.073339 0.518349 -0.103137 -0.487039 0.522049 -0.805240 0.271691 0.951359 -0.812921 -0.837672 0.055936 0.132426 0.683520 -0.107220 -0.028555 -1.006935 -0.049198 0.007148 -0.576993 0.020853 0.426305 0.422650 -0.663204 0.127936 -0.839420 -0.970410 0.657414 -0.624702 -0.209657 -0.029036 0.079209 -0.305676 -0.471463 -0.935904 0.481467 -0.918803 -0.743329 -0.287106 -0.964996 -0.552387 0.018193 0.050680 0.560542 -0.348280 -0.991181 -0.540803 -0.379380 -0.038366 0.619246 0.213230 -0.841835 -0.048450 -0.287137 -0.432663 -0.766543 -0.020202 -0.285771 0.895576 0.198942 0.375821 -0.111314 -0.609555 -0.727500 0.412127 -0.537058 0.730809 0.418572 -0.253555 -0.458512 0.518763 0.140926 0.450458 -0.435268 -0.329974 -0.872475 -0.389552 0.234730 -0.072655 0.743413 -0.170367 -0.899848 0.903705 0.977207 -0.071226 -0.408385 -0.806636 0.700773 0.221243 -0.891277 0.041803 -0.338561 -0.020057 0.440697 -0.101739 -0.647320 0.891660 -0.228007 0.883223 -0.402388 0.166681 0.377252 0.695186 -0.407109 -1.071475 -0.618778 -0.134805 -0.227606 0.808913 0.859418 -0.478854 -0.269527 1.013995 -0.560052 -0.447949 -0.188605 -0.052947 -0.179133 -0.397614 -0.886284 -0.067832 0.660653 -0.283327 0.853757 0.057620 0.724227 -0.683802 -0.052702 -0.637878 -0.870600 0.477941 0.485184 0.495784 0.301794 -0.698179 0.723627 0.844730 0.201747 -0.604314 0.659887 -0.002085 -0.163764 -0.781428 -0.039891 0.223842 -0.122881 0.726347 -0.900934 0.707627 -0.654044 -0.893149 -0.434063 0.940308 0.001039 -0.419783 0.011240 -0.364279 -0.209078 -1.080689 -0.018043 -0.081044 0.488210 -0.361405 -0.318075 -0.087694 0.021572 -0.646746 -0.204141 -0.811739 -0.371382 -0.655792 0.167430 0.448513 -0.457640 0.997924 -0.392822 0.431316 0.727626 -0.396186 0.049015 -1.031824 -0.071492 0.810937 -0.935173 0.850753 -0.731826 -0.025934 -0.509966 0.074705 -0.007673 0.651042 -0.764778 -0.316978 -0.559271 -0.051000 0.604909 0.340758 0.231051 -0.685346 0.569035 0.845088 -0.432522 -0.401238 0.230940 0.139862 -0.400272 0.767891 -0.498185 -0.741020 -0.467094 0.770258 -0.586719 0.460072 0.358346 -0.680315 0.277250 0.706099 0.385602 0.929320 0.001414 -0.414171 0.725029 0.221777 0.306837 -0.881510 -0.837230 -0.158189 0.481217 0.345083 0.071043 -0.078891 0.086077 0.663797 0.514683 -0.731668 -0.238973 -0.910173 -0.872324 0.378301 -0.544725 -0.266034 0.086616 -0.189315 -0.878003 -0.461850 0.177821 0.507765 -0.606613 -0.241048 0.605380 0.511782 0.333164 0.211551 -0.336852 -0.493571 0.305766 -0.210549 0.255088 -0.346252 -0.653752 0.574857 0.125251 -0.989955 0.094728 0.442268 -0.186296 0.211285 0.597403 -0.811459 0.648800 -0.703101 0.273500 -0.539723 -0.540218 0.847317 0.671643 0.993016 -0.759365 -0.641816 0.500593 0.640181 0.607774 -0.319462 -0.721657 -0.915714 0.916935 0.034019 0.353162 -0.429317 0.072918 0.551655 -0.989867 -0.937365 0.610143 0.182871 0.593464 -0.525937 -0.619694 0.241368 0.047832 -0.753859 0.673172 1.100150 -0.297471 1.141916 0.906456 -0.808844 0.958514 -0.974831 -0.422618 0.391656 0.577949 -0.940486 -0.854935 0.991676 -0.717482 -0.914122 -0.014017 0.457720 -0.536168 -1.077658 0.201750 -0.224429 -0.882307 0.256815 -0.860575 1.003382 0.619058 -0.453358 0.264737 -0.677329 -0.386364 -0.255783 -0.645431 0.220524 -0.291755 -0.912671 0.372001 -0.430589 -0.901911 0.886141 -0.834284 0.883603 -0.824138 -0.648871 0.850020 -0.685836 -0.799815 -0.255745 -1.003329 0.162288 0.170076 0.549564 0.905168 0.318404 -0.531172 1.031903 0.334767 -0.814882 -0.435937 -0.516345 -0.621725 0.066258 0.234755 -0.216809 -0.838315 0.780022 -0.365228 0.588106 -0.483454 -0.147220 0.545934 -0.295492 -0.291186 0.590334 -0.098635 -0.538606 -0.962085 0.687915 0.673804 -0.617855 -0.325557 -0.448241 0.729744 -0.386777 0.950150 -0.640876 -0.336535 0.246268 -0.666978 0.019926 0.655321 -0.343170 1.044881 -0.309844 0.201227 -0.898662 -0.518541 0.807167 0.627521 -0.070243 -0.358879 0.116823 0.512669 0.254068 0.115162 -0.236030 -0.801198 0.199412 -0.731171 0.520192 0.288458 -0.262574 -0.963139 0.114538 0.382979 1.005171 0.426026 0.890199 0.085697 0.562158 -0.267761 -0.543249 1.037132 -0.564396 -0.028916 0.112510 -0.540290 0.330387 -0.105002 -0.976942 -0.867079 0.542933 0.434090 0.864526 -0.042714 -0.863318 -0.530402 -0.191941 -0.107051 -0.526790 -0.791406 -0.636680 0.332239 -0.513859 0.666240 -0.166435 -0.574240 -0.096991 -0.431551 0.543050 -0.702619 0.070189 0.666578 -0.699355 0.379657 -0.464751 0.372915 0.762201 0.883894 -0.487868 0.990184 -0.947166 0.752977 0.140631 -1.047823 -0.147605 0.216048 -0.481628 0.765634 -0.425730 0.471805 -0.464784 0.291459 -0.098924 -0.151128 -0.303887 0.708137 0.382723 0.854877 -0.823796 -0.390752 0.966673 0.129106 -0.824330 -0.755428 -0.643114 -0.190382 0.757432 -0.648337 -0.361899 -0.871182 -0.880249 -0.622306 0.805651 0.447221 -0.305728 -0.260706 -0.135475 0.453655 -0.270355 0.386283 -0.584687 -0.046109 -0.466626 0.660085 1.049166 0.432165 0.424604 0.326773 -0.021009 0.448418 0.836605 -0.077075 -0.521284 -0.842555 0.238006 -0.022148 -0.301703 -0.109552 0.375910 0.224878 -0.146616 0.769739 -0.899600 -0.042178 0.332070 -0.101937 0.724444 1.081881 -0.916166 -0.718971 0.159377 -0.290247 0.464894 1.032420 -0.352181 0.393862 0.216735 0.653757 -0.351972 -0.832058 0.009656 -0.383267 0.154075 0.596179 -0.342171 -0.625289 -0.206811 0.221969 0.284065 -0.774364 -0.418897 -0.678634 0.993025 -0.391221 0.201468 0.262828 0.318778 -0.396669 -0.066497 0.206027 0.022235 -0.504151 -0.772387 -0.718270 -0.695073 -0.596589 0.738513 0.493880 -1.008885 -0.584779 0.636095 0.163160 -0.142563 -0.098631 -0.171212 0.310294 0.139332 0.526013 -0.475372 -0.571706 0.760486 0.088399 -0.350941 0.817229 0.730111 0.568962 -0.434506 -0.073997 -0.844569 0.893795 -0.654400 0.212942 -0.733906 -0.777192 0.567171 -0.451791 -0.154697 0.328565 -0.873316 -0.191800 0.697957 0.977010 0.902116 -0.447345 -0.421656 -0.408916 0.762484 0.799649 -0.837599 -0.546220 -0.598168 -0.692432 0.757354 -0.036686 0.680557 0.301657 -0.507560 -0.359037 -0.817410 -0.124487 -0.544286 -0.691112 -0.998955 -0.283058 -0.215519 0.582628 0.438638 0.229410 -0.025444 0.504505 0.852814 -0.451281 0.098947 0.611448 -0.002495 0.783806 -0.694116 -0.030450 0.826506 -0.118955 0.707583 -0.900698 -0.354123 0.129230 -0.011084 -0.653171 -0.572459 0.697948 0.154994 -0.399691 -0.593344 0.615387 0.135297 -0.528154 -0.535547 0.502544 1.057901 0.735286 -0.378273 -0.197852 -0.077646 -0.716435 0.193807 -0.993974 -1.033941 -0.564974 -0.966998 -0.452367 0.649514 0.728105 0.060252 0.060063 0.833033 0.778632 -0.547657 0.008914 -0.560514 -0.138328 -0.436310 0.599984 0.719545 0.065496 0.313017 -0.584886 0.427364 0.662278 0.838367 0.291896 0.055530 -0.759079 -1.028697 -0.999010 -0.302231 0.578252 -0.641155 -0.023327 -0.877539 -0.644109 0.323405 0.635496 -0.802002 -0.472230 -0.035553 -0.760159 -0.504930 0.354429 0.129903 -0.042946 -0.492932 0.799991 -0.476708 0.672333 -0.349276 0.817663 -0.930839 -0.995179 0.109379 0.666389 0.165526 -0.672033 -0.832958 0.624850 -0.456775 0.108783 0.194012 -0.123145 -1.014682 0.424912 0.285593 0.599951 0.157433 0.717083 -0.828902 -0.884813 0.884342 -0.326845 0.681294 0.098180 0.605761 0.766978 -0.304609 -0.791138 0.351325 0.300596 0.746219 0.294306 0.246089 0.053375 0.244155 -0.180426 0.576822 0.621161 -0.595454 -0.823405 -0.495224 0.638853 0.135788 -0.252145 0.037740 -0.480563 -0.668401 -0.830113 -0.681391 -0.492612 -0.740389 -0.637530 0.255257 1.014401 0.393212 -0.227360 0.525305 1.003332 -0.108120 -0.233654 0.206553 -0.282702 -0.751146 -0.182228 1.006127 0.665877 0.559714 0.470776 -0.078989 0.945730 0.762990 0.744169 0.627882 -0.242607 -0.523764 -0.427822 0.428524 -0.203161 -0.143146 0.910328 0.413926 -0.008288 1.073034 -0.462620 -0.180881 0.357431 0.307767 -0.782545 0.040214 -0.834392 0.115927 -0.463666 0.076805 0.484384 0.288126 -0.102129 -0.290865 -0.259750 -0.668361 0.859632 -0.233023 0.987932 0.481708 -0.891674 -0.250017 0.940426 -0.216511 -0.587101 -0.151918 0.492298 0.999404 -0.706776 -0.393677 0.696594 -0.440281 0.196797 0.029986 0.742288 0.572805 -0.669850 1.121884 -0.523701 -0.582247 -0.064712 0.865398 0.666865 0.708510 -0.529599 -0.901790 1.081354 -0.767071 -0.206196 0.887698 0.692415 0.111972 -0.235006 0.717119 0.699897 -0.071965 -0.480829 0.071944 -0.289897 -0.438700 0.453798 -0.381056 0.029540 -0.196748 0.976610 0.114327 -0.659333 0.963668 -0.187832 -0.249465 -0.564530 0.790339 -0.513025 1.100006 0.557557 -0.196326 -0.811467 0.325123 0.012851 0.189146 0.399161 -0.077321 1.079033 1.053335 -0.456543 0.503269 -0.326546 -0.241836 -0.653261 0.283253 0.180851 0.861087 -0.841674 -0.396887 -0.176217 0.926149 0.487141 -0.101143 0.670861 -0.720072 0.352395 1.018047 1.034350 0.718721 0.747208 0.211618 -0.501111 1.115087 -0.226495 0.632639 0.214450 0.889384 -0.458528 -0.008667 0.737662 -0.300196 -0.714257 -0.679765 0.649547 -0.134400 0.980299 0.251844 -0.054048 1.003024 0.682795 0.477918 0.562988 -0.065164 -0.772911 0.217855 0.090875 0.411078 -0.326804 -0.263838 0.106015 -0.503375 1.024415 0.767923 -0.284111 -0.510237 0.274465 0.328156 -0.720405 0.564483 -0.841007 0.942331 -0.630818 -0.515623 -0.628261 1.095038 0.289821 0.981262 0.016924 0.883547 0.553680 -0.643556 0.281964 0.185859 0.147443 0.077106 0.735842 0.880648 -0.535186 -0.526147 -0.362194 0.679437 -0.066340 -0.163924 0.428037 0.223330 0.097942 -0.429415 -0.422903 0.350724 -0.908304 -0.359492 0.206921 -0.646250 -0.010505 0.278454 -0.837162 1.187557 0.091507 0.041558 0.885392 -0.261037 0.316139 -0.230734 0.337303 -0.832446 0.836647 0.102571 -0.923075 -0.645825 0.594905 -0.088297 1.060409 -0.451692 0.264594 0.297122 0.616746 -0.594182 0.824535 1.109578 0.708645 0.737020 -0.509821 -0.343358 0.757187 0.430832 1.053427 -0.796068 0.398751 0.031585 0.081531 0.076845 0.363751 -0.810184 0.845339 -0.335483 -0.628107 0.724376 0.784334 -0.540600 -0.914189 0.351672 0.126632 0.980842 0.800168 -0.643284 0.335831 0.244778 -0.228303 -0.139706 -0.170805 -0.841219 -0.333478 0.726246 -0.021250 -0.310463 0.012111 -0.183492 -0.346064 -0.759620 0.663478 0.317225 -0.026846 0.853294 0.163336 0.674208 -0.789337 -0.144182 0.448406 -0.383766 -0.117144 -0.295213 0.686816 -0.137568 -0.727208 0.987000 -0.935280 0.338009 -0.434102 -0.028912 -0.639754 -0.293297 0.584329 0.876083 0.526754 -0.837277 -0.231488 -0.755715 -0.183736 0.008892 0.851146 -0.651275 -0.706218 -0.297174 -0.799048 0.372988 -0.618464 -0.522058 -0.680839 0.939318 0.155327 0.205327 -0.369032 -0.197684 -0.950382 -0.107740 -0.188828 -0.852504 -0.786407 0.325365 0.019460 -0.494999 -1.010495 -0.397021 -0.558708 0.633104 -0.126581 0.269886 0.893574 0.546228 -0.749363 0.667761 -0.942354 -0.475926 -0.480021 -0.519944 -0.910236 0.117768 0.040679 -0.570414 -0.022045 -0.831813 0.651763 0.655493 0.084814 0.813592 -0.395464 0.856518 0.810061 -0.217352 0.237026 -0.019459 0.309451 0.392593 0.750649 0.981418 0.066613 -0.463596 0.278472 -0.187042 -0.803863 0.502741 -0.358355 -0.519728 -0.864072 0.208486 -0.017306 -0.786921 -0.802709 -0.999432 -0.353681 0.209393 -0.815189 -0.645164 -0.049332 0.234249 -0.957939 0.440285 0.155878 -1.005237 -0.743373 -0.536420 0.048536 0.846664 0.899038 -0.273231 0.830619 -0.113887 0.355822 0.080197 0.771676 0.684944 -0.437537 -0.596669 -0.757665 -0.281393 0.567184 0.195245 -0.018945 0.864639 0.244066 0.602291 0.085281 0.462456 0.922824 -1.025209 -0.260396 -0.954665 0.428367 0.943599 -0.917007 0.922387 -0.550388 0.084808 0.748386 -0.695694 0.974996 0.634537 0.120042 0.349666 -0.323120 -0.094468 0.071016 0.293332 0.331505 0.294612 -0.934761 0.008855 -0.416594 0.041183 -0.175995 0.790945 -0.342609 0.937214 0.264016 -0.350858 0.869906 0.996381 -0.299242 0.544166 0.977523 -0.278668 0.549564 -0.569600 0.983063 0.256496 -0.420514 0.843185 -0.146907 0.734490 0.197219 0.532060 -0.356723 -0.694560 -0.160369 -0.916592 0.679191 -0.088570 -0.019219 -0.814975 0.943924 0.933030 0.900876 -0.506893 0.618602 0.103784 0.103187 0.751335 0.145817 0.768886 0.393067 0.145281 -0.355853 -0.169073 0.468675 -0.426214 1.046818 1.043401 -0.658260 -0.225548 0.704323 0.635284 -0.532605 -0.457650 0.987288 0.336810 -0.416626 0.581122 1.124434 0.624822 0.705235 0.823976 0.158285 0.434683 -0.732657 0.051696 -0.420576 0.390455 -0.042355 0.804443 0.246235 -0.875487 -0.338587 0.719953 -0.178109 -0.968412 -0.780775 -0.238895 -0.991507 -0.331368 0.785852 0.877802 -0.727622 -0.874202 -0.636070 -0.902491 0.223251 -0.168734 0.560475 0.145308 -0.919827 0.005894 -0.085686 0.490584 -0.514194 0.226339 -0.280203 0.179925 -0.387072 0.360569 -0.325905 0.744136 0.477712 0.328387 0.514950 -0.757499 0.349840 0.826427 0.263450 0.608050 -0.458266 -0.010638 0.330580 -0.363955 -0.008387 0.629680 -0.280200 -0.886201 -0.764716 0.978964 0.166643 -0.565951 0.033337 -0.825419 1.033734 0.497581 0.238375 -0.516260 -0.573309 0.786209 0.825407 0.007302 0.507632 0.168613 -0.670486 0.085703 0.710898 0.748420 -0.110864 -0.233111 0.125724 0.143828 0.611030 -0.615200 0.764108 -0.484921 0.842639 -0.782344 -0.503052 -0.915655 -0.763031 0.763448 -0.369343 0.179762 0.716432 -0.569072 -0.434794 -0.029231 -0.112592 -0.019296 -0.204759 -0.350907 -0.981241 -0.628982 1.036563 -0.638556 0.421503 0.540738 -0.994361 -0.903987 -0.796514 0.094114 0.408090 0.884325 0.442837 0.013988 -0.709491 0.344344 0.285118 -0.076307 0.547319 0.349426 -0.571195 0.927672 -0.393575 -0.820137 -0.588599 0.259756 0.165286 0.155680 -0.799267 -0.907180 -0.959545 -0.729851 -0.645635 -1.020343 -0.432845 0.651859 0.449612 -0.391158 0.994253 0.807466 0.775036 0.290315 0.637470 0.280045 -0.655925 1.053674 -0.284117 0.441457 -0.314370 -0.992449 -0.091840 0.113253 -1.002150 0.573449 0.309958 -0.731083 -0.268781 -0.439891 0.741186 0.050332 -0.413229 0.690664 0.211878 -0.132317 0.606029 0.843197 -0.223244 0.265383 -0.474658 -0.280533 0.053235 -0.671230 -0.966688 -0.318597 0.633576 -0.650640 -0.337208 -0.798656 0.782517 0.346694 -0.681831 -0.185753 -0.586110 -0.868236 -0.633845 0.875457 -0.236058 0.245965 -0.505148 -0.619553 -0.919158 -0.196167 -1.080175 0.427806 0.967973 0.813522 0.333816 -0.245659 0.044716 0.912569 0.490280 -0.904467 -0.727980 0.490300 -0.220979 0.822913 0.789310 0.404913 -0.856233 0.640602 -0.330669 -0.756961 -0.567696 0.307643 -0.256359 -0.062828 0.177719 0.320166 -1.077334 0.355112 0.597582 -0.821150 -0.526741 0.774859 0.673303 -0.455899 0.571954 0.075676 0.316218 -0.452077 -0.013445 -0.307233 -0.300494 0.215574 -0.807228 0.539588 0.117747 -0.916613 -0.115780 0.013802 0.650533 0.704488 0.631501 -0.788516 -0.125325 -0.906070 -0.118466 0.791120 0.421697 -0.006924 0.513671 0.235604 0.265420 -0.919519 0.000816 -0.027309 -0.378727 -0.528749 -0.926514 0.913756 0.184479 0.013462 -0.353512 0.906899 -0.699424 -0.071137 0.339651 0.311526 -0.099177 -0.666918 -0.468619 -0.386486 0.865059 -1.061879 -0.243803 -0.228383 -0.812455 0.903859 -0.121624 0.728582 -0.137977 -0.605808 -0.026432 -0.806796 -0.525243 0.845329 0.185161 0.184412 -0.383778 0.247380 -0.011499 0.758574 -0.714690 0.702170 0.616550 -0.468739 -0.308981 0.094997 0.888836 0.622235 0.267204 -0.716899 -0.676823 0.337223 -0.543129 0.274430 -0.803321 -0.388705 0.052827 0.063166 -0.603518 -0.944977 0.449628 0.234673 -0.739992 1.066410 0.472704 0.471158 0.039581 0.935665 -0.304990 -0.934272 0.636575 -0.107669 0.763118 0.279619 0.488296 -0.570768 -0.727033 0.171789 -0.961815 0.714386 0.730621 -0.417792 -0.002095 -1.050859 0.588367 0.218838 -0.310535 -0.129200 -0.725619 -0.051113 -0.060364 0.899018 -0.355098 0.226664 0.652125 0.841994 -0.389428 -0.266311 0.635577 0.225785 -0.234399 0.379681 -0.833761 -0.470280 -0.460930 0.445694 -0.113126 -0.009401 -0.150332 0.161370 -0.389507 -0.697894 0.374267 0.607324 -0.572037 0.312770 -0.194750 -0.007148 -0.720844 0.341431 -0.633930 0.233566 -0.022227 -0.258172 -0.648327 -0.456959 -0.492027 -0.036514 0.280606 -0.805871 -0.868114 1.027468 0.565314 -0.691891 -0.371711 -0.721738 0.835224 0.656495 0.025490 -0.658291 -0.688664 0.555506 -0.189567 -0.874997 0.136205 0.036287 0.510530 1.062404 -0.566118 0.696099 0.135866 -0.365102 -0.209552 0.969935 0.235327 0.089022 -0.481696 0.742296 0.905287 0.678264 0.811489 1.017920 0.733491 0.454736 -0.695576 -0.670995 0.463747 0.851744 0.426792 -0.669849 -0.738322 -0.806791 0.816121 -0.101909 -0.691470 0.100828 -0.616643 0.831924 0.068335 -0.270373 0.445158 -0.815853 0.289251 -0.813215 -0.831979 -0.538228 0.095559 -0.433817 -0.855694 0.055436 -0.693686 1.038581 0.097217 0.975679 0.277667 0.109222 -1.163231 -0.381887 -0.025981 0.700123 -0.121496 0.021922 0.845460 -0.119017 -0.786820 -0.723472 0.916840 -0.339409 1.030877 -0.001811 0.376114 0.398117 0.122378 -0.490440 0.404923 0.093116 -0.026365 -0.414842 0.701762 0.094947 0.610958 0.885897 0.104186 -0.484355 0.642422 -0.715745 0.705137 0.855662 -0.163359 -0.548177 0.440516 0.712284 0.892075 0.418197 -0.336508 -0.758140 0.692899 -0.331217 -0.088813 0.710191 0.490506 -0.883175 -0.076941 -0.485278 -0.378433 -0.551989 0.691113 0.567082 -0.064331 0.310787 -0.255708 -0.407794 0.118689 0.696201 0.149527 0.053151 0.882352 -0.398164 -0.250758 -0.195404 0.452691 -0.501198 -0.268517 0.414987 0.993031 0.528730 0.749371 0.623133 1.028342 -0.438488 0.204237 0.496478 -0.334747 -0.797226 -0.978536 0.227049 -0.450862 0.716426 -0.139069 0.642671 -0.070806 0.530597 -0.812939 -0.702578 0.225917 0.200158 0.269971 0.099474 -0.871009 -0.769935 -0.928485 0.782669 -0.207897 -0.150356 0.127867 -0.366319 -0.723080 -0.123040 -0.773387 -0.746409 0.380942 0.418630 0.626278 0.951607 0.582478 0.699823 0.251267 -0.787776 0.432918 -0.867165 -0.559657 0.663432 0.981645 -0.262235 -0.109770 0.318234 -0.911661 -0.902517 0.509487 -0.652275 -0.812441 0.234561 0.071709 0.011089 -0.591692 0.709407 0.252623 0.253389 0.921483 0.479119 -0.389221 0.336127 0.177424 -0.393901 -0.073610 -0.111088 0.875143 0.118245 -0.711186 -0.992021 -0.087171 -0.220200 0.683964 -0.099671 0.428185 -0.542876 -0.876883 0.459291 -0.405909 0.653251 0.841268 -0.223821 -0.105985 -0.088514 0.792016 0.309123 -0.349677 0.061765 -0.447992 -0.454364 -0.487182 0.198793 0.953763 0.824499 0.748171 -0.131899 -0.344150 0.710472 0.981226 0.051985 0.841510 -0.066507 0.627252 0.294535 0.704375 -0.003757 0.839030 -1.058897 -0.389158 -0.476735 0.660330 -0.467774 0.387379 -0.414132 0.478532 0.217880 -1.049267 -0.841687 -0.630671 -0.366985 -0.114508 0.020970 0.900155 -0.194921 -0.218076 0.733377 0.658400 0.556499 0.560395 0.736731 -0.653950 0.043791 -0.571510 -1.109620 -0.551234 -0.682176 0.128355 -0.582542 -0.720897 0.807334 0.023223 -0.985631 -0.579810 -0.499027 -0.325048 -1.037944 0.801154 -0.214134 -0.734048 -0.688587 0.485908 0.186827 0.327141 0.389794 0.973253 -0.773885 0.253567 0.750590 0.596992 -0.546235 0.166899 0.803447 0.645095 0.843792 0.948193 -0.761205 -0.766917 0.113387 -0.249124 -0.432575 0.063736 0.853185 -0.374278 0.502297 -0.524210 0.437972 0.617844 -0.583163 -0.731827 0.956659 -0.330126 0.768865 0.126188 1.070412 0.255656 0.206588 -0.846476 -0.818707 -0.303315 0.554358 -0.187818 -0.889215 0.539766 -0.444588 -1.022542 0.548227 -0.140912 -0.753854 -0.211461 0.676289 -0.126524 0.860822 0.552660 0.501806 0.370973 -0.944024 0.017986 0.026526 -0.627000 0.251381 -0.032529 0.077644 0.138895 -0.770897 0.054761 -0.910971 0.175366 0.067013 -0.589292 -0.990974 -0.269752 0.277136 -0.866183 -0.667146 0.873446 -0.750208 0.970214 -0.199975 -0.475685 -0.259754 -0.566787 0.269707 -0.449862 0.959322 -0.123734 0.918201 0.951735 0.772875 -0.070444 -0.639254 0.143165 0.988243 0.413733 -1.016511 -1.010018 -0.611240 -0.769943 0.324522 0.496527 -0.404377 0.374301 -0.609526 1.059312 0.641552 -0.208260 1.038710 0.879298 -0.244850 -0.267995 -0.745167 0.387677 0.053378 0.593274 0.906221 -0.042428 -0.719899 0.814245 -0.101527 -0.931346 -0.235263 0.253691 0.051914 -0.338667 -0.376819 0.185715 -0.266385 -0.063953 0.235369 -0.930256 -0.445044 -0.959786 0.510244 -0.033940 -0.910687 0.082383 0.769407 0.972647 -0.134599 -0.669004 -0.428627 0.066830 0.712040 0.554530 -0.538444 0.608452 -0.469109 -0.246825 0.453077 0.439438 -0.203543 -0.777631 -0.299580 0.890373 -0.102087 0.170530 -0.019582 0.659350 -0.717358 -0.605783 0.786967 -0.139854 -0.591268 0.277700 0.860187 -0.521450 -0.765972 0.390914 -0.664408 0.048253 0.722989 -0.171027 0.947762 0.425227 -0.583807 -0.574836 0.046957 -0.078677 0.206020 -0.431591 -0.633646 0.995680 -0.295429 -0.059140 0.812313 0.609220 -0.644095 -0.040169 0.359160 -0.485553 0.229513 0.154138 0.461042 0.598069 -0.812552 0.073392 0.939545 -0.541046 -0.539141 -0.795539 0.340603 -0.821472 0.072659 0.317522 0.609728 0.475559 0.707266 -0.324985 -0.685034 -0.108492 0.230599 -0.283293 -0.155290 0.940674 0.749714 -0.217085 0.617833 0.942914 0.548669 -0.073011 -0.544603 -0.372934 0.796509 0.621486 -0.833030 0.997410 -0.279309 0.999391 -0.668829 0.176451 -0.728080 0.724884 0.440031 0.324562 -0.095819 -0.075105 -0.306421 -0.269751 0.774078 0.025957 0.597787 -0.072011 0.736202 -0.546722 -0.130986 0.341187 0.023104 -0.678279 0.191015 -0.558731 0.079689 0.405287 -0.012139 -0.200325 0.009468 -0.001548 -0.302784 0.717437 0.004148 0.078437 -0.032034 0.240001 -0.359441 -0.765316 -0.583067 0.674272 0.318228 0.114011 -0.619477 -0.018227 -0.845784 0.919811 0.890011 0.758188 -0.784582 -0.459620 -0.004939 0.150195 -0.272687 0.997274 0.450070 0.624464 0.241879 -0.718856 -0.661909 -0.766697 0.285388 0.097914 0.991618 -0.687398 -0.964383 -0.125372 0.466733 -0.279389 0.178687 0.934247 -0.559485 -0.532621 0.071200 -0.211984 0.418374 0.067382 -0.385251 0.195097 -0.125926 -0.135965 0.695635 0.724153 0.803990 -0.802858 0.466706 0.103297 0.770114 -0.310802 0.416611 -0.863131 -0.026245 -0.300600 0.096883 -0.085038 -0.132800 0.183322 0.847699 -0.602426 0.943446 0.031671 -0.636233 -0.582527 0.442074 0.386535 0.173282 -0.147144 -0.444775 0.849417 0.981124 0.248107 -0.516864 0.470009 -0.268940 -0.873247 0.584025 -0.823874 0.175450 0.356968 -0.097660 -0.383389 0.336646 0.785100 0.246099 -0.376340 -0.156291 -0.806452 0.773730 -0.362427 -0.346093 0.788290 0.664755 0.020990 -0.749392 0.177548 -0.532510 0.455906 1.014898 -0.164801 0.106102 0.764715 0.899615 0.417868 0.161470 -0.395656 0.500473 -0.264836 -0.199639 -0.251948 -0.997529 0.654533 0.330725 0.538504 0.619651 -0.278796 -0.805779 -0.624515 -0.135493 1.004270 0.115143 0.567057 0.851533 -0.178299 -0.366550 0.980881 0.880446 -0.123680 0.330534 0.652333 0.587773 -0.717570 0.401244 0.456889 0.635892 -0.461683 -0.897831 0.218792 0.216550 -0.092267 -1.034701 0.378656 -0.317889 0.392519 -0.091869 -0.746092 -0.948401 0.174646 -0.286268 -0.001877 0.178842 0.847768 -0.428478 -0.078938 -0.498502 -0.026873 -0.147196 -0.708177 0.837145 -0.910866 0.876236 0.390745 -0.672533 0.234061 -0.131565 -0.933805 0.764397 -0.049717 0.288774 0.152894 0.964562 0.291766 -0.512896 -0.401917 -0.292525 0.508037 -0.061734 -0.164593 -0.325666 0.669822 0.855560 0.832428 0.400519 -0.753154 -0.359917 0.865814 0.278231 0.493775 -0.961680 0.080450 0.654340 0.923588 -0.471824 0.977422 0.192514 0.476475 -0.937525 0.076543 -0.530816 0.312893 -0.831550 -0.574339 -0.346778 -0.292755 0.130629 0.450794 -0.758142 -0.911432 -0.645551 0.007871 0.719443 -1.038337 -0.326659 0.123570 -0.690012 0.374778 -0.120790 0.557674 -0.037237 0.035766 -0.222486 -0.453957 -0.187164 0.227924 -0.615471 -0.994330 -0.340834 -0.647923 -0.029502 0.076717 0.706478 0.213388 0.609818 -0.601964 0.962136 -0.255879 0.892343 -0.732946 -0.194850 -0.869262 0.168436 -0.409416 -0.842520 0.872393 0.570443 -0.563076 0.390255 -0.353502 -0.833882 -0.754433 0.360231 -0.317561 -0.487515 -0.851593 -1.066830 -0.101479 -0.842581 -0.363400 0.342437 0.236931 0.841201 0.145209 -0.481437 0.571939 0.648043 -0.479912 -0.727066 0.512382 -0.242476 0.175217 0.640726 0.890815 0.597756 0.778806 0.912914 0.396110 -0.626271 0.108140 0.576743 -0.750157 0.089199 -0.052588 0.040347 0.619470 0.116015 0.007754 -0.431017 0.332469 0.720096 -0.937765 -0.288357 0.652762 0.285318 0.208757 0.162239 -0.120217 0.772953 0.547504 -0.596700 -0.577949 -0.451614 -0.976067 -0.491033 -0.649722 0.995821 -0.775960 0.245776 -0.976699 0.024097 -0.095267 -0.574309 -0.828153 0.844936 0.457454 0.818503 0.009693 -0.462459 -0.451243 -0.519332 -0.677113 -0.432082 0.192049 -0.959466 0.870921 -0.531695 0.291444 -0.215202 -0.904533 -0.322437 0.170338 -0.331866 0.376747 0.336450 -0.099021 0.297126 -0.019303 -0.186305 -0.378786 0.159169 0.915553 0.497701 0.488832 -0.932379 0.400397 0.007193 -0.954042 -0.433211 0.603300 -0.420633 0.101628 -0.911567 0.305584 -0.632439 -0.811441 0.224162 -0.255970 0.352905 -1.000956 -0.041951 -0.799752 0.308363 0.427479 0.203866 -0.659744 -0.913412 -0.463772 0.441492 0.022422 0.229904 -0.391541 0.019493 -0.183651 -0.833020 0.165350 -0.637411 0.278242 0.342573 0.075087 0.120864 -0.849037 -0.702971 0.280703 0.414595 -0.403306 0.358343 -0.360770 0.448748 -0.163956 -0.266375 -0.756489 -0.291699 0.797435 0.498235 0.986272 -0.735706 0.710785 -0.386964 0.757413 -0.202707 0.909039 -0.575662 0.870523 -0.165558 -0.274816 0.174995 0.317759 -0.764235 -0.327634 -0.456416 0.271313 -0.312019 -0.460469 -0.897424 0.301542 0.897874 -0.258667 -0.357734 -0.390877 0.389051 -0.177514 0.350839 0.233827 -0.640281 0.348973 0.507787 -0.915651 0.975615 0.285287 -0.097170 0.917200 0.748588 -0.191932 -0.207644 -0.490781 -0.994484 -0.863057 -0.311391 -0.393534 -0.411647 -0.998096 0.294447 0.293194 -0.295708 0.512798 -0.340246 -0.479576 -0.863477 0.231436 0.047361 0.552545 -0.886977 -0.539066 -0.174793 -0.525942 0.813867 -0.671457 -0.438160 0.758339 0.561907 0.413681 0.657217 0.284984 -0.756270 -0.616968 0.795766 -0.764704 -0.429643 -0.499277 -0.173557 0.124288 -0.394197 -0.785876 -0.479493 0.154420 0.518878 0.050469 0.499387 0.713085 -0.648907 -0.417624 0.215131 -0.594327 -0.019339 0.983350 -0.157808 -0.250093 -0.733914 0.313179 -0.619201 0.792102 -0.350773 -1.011029 -0.017922 -0.158654 -0.522349 -0.116755 0.106767 0.011031 0.452606 1.026723 -0.737791 0.970517 -0.830863 -0.195845 0.064831 0.740565 0.842044 -0.512149 0.310375 1.109513 0.060478 -0.451873 -0.504502 1.014096 -0.509413 0.222363 -0.349466 -0.433478 -0.652756 -0.125477 -0.751610 -0.010399 0.003639 0.410162 0.919539 0.441519 -0.662716 0.084513 -0.401631 0.804536 0.130108 -0.135187 0.652554 0.105893 0.478397 -0.470236 -0.362190 0.193551 -0.015650 0.873440 0.173343 0.936594 -0.721664 0.425598 0.755418 -0.422885 -0.597824 -0.889773 -0.003401 -0.248866 0.247022 0.492570 0.908642 -0.788597 -0.078900 0.866842 0.794808 0.318810 0.044111 -0.615653 -0.031473 0.864314 0.069746 -0.512917 -0.123973 -0.521910 0.031766 0.523687 0.640286 0.970333 0.311755 -0.337662 0.711105 0.422862 -1.071186 0.290247 -1.121786 -0.661906 0.714267 0.189330 0.393080 -0.063284 -0.309393 0.315827 0.339174 0.743168 0.227818 -0.026516 -0.239455 0.986241 0.206185 0.683615 0.858895 -0.691266 -0.809537 -0.259373 -0.259807 0.149675 -0.817431 -0.864615 -0.109134 0.268843 -0.353073 -0.568360 -0.474733 -0.529803 0.986538 -0.244714 0.185790 0.683347 0.981016 -0.368651 -0.225725 -0.170918 0.942828 0.949372 -0.746475 0.046483 -0.122762 -0.000555 0.001338 -0.907000 -0.246173 -0.079764 -0.715320 -0.154518 0.440966 -0.141811 0.704976 0.492666 -0.106295 -0.438011 -0.426573 0.399990 0.186375 0.444509 -0.758508 0.166908 -0.732680 0.511368 0.012704 -0.724170 -0.946870 0.544013 -0.283882 0.863068 0.354891 -0.101073 -0.207634 -0.758278 1.043806 0.942982 -0.663396 -0.372683 -0.401036 -0.600646 0.248165 -0.955075 0.311395 0.065319 0.405194 -0.955524 0.746502 -0.711711 0.775131 -0.069422 0.766432 -0.883192 -0.800737 0.954131 0.264565 -0.140196 -1.013666 0.379483 -0.586970 -0.301046 0.247328 0.902444 0.809353 -0.712130 -0.821290 0.758400 -0.927148 -0.659947 -0.749490 -0.308375 -0.134259 0.677530 -0.181967 -0.942406 -0.097597 -0.520447 -0.621224 -0.347462 -0.224706 -0.754376 0.606885 -0.507821 -0.964346 0.583086 -0.686829 0.505947 -0.485562 -0.660360 -0.006778 0.276499 0.513229 -0.521132 0.118818 0.161521 -0.404822 0.196426 -0.048744 -0.267389 0.697844 0.317988 0.546226 -0.487508 0.198787 -0.510641 -0.278717 -0.894697 -0.017012 0.200987 -0.223702 0.715952 0.151463 -0.807533 -0.863098 0.346149 -1.071123 -0.411226 -0.000730 -0.161147 0.277544 -0.837822 0.855716 -0.466017 -0.478356 -0.069369 0.675747 0.166485 -0.689934 -0.289891 0.894836 0.848799 -0.864189 0.474628 -0.553696 0.336135 0.984983 0.231964 0.380573 -0.134575 -0.849263 -0.948261 -0.400773 0.443951 -0.571726 -0.200751 -0.127223 -0.391211 0.617647 0.933859 0.146739 -0.321835 -0.985627 0.018434 0.227966 -0.392097 -0.816840 0.091216 0.808017 -0.722786 0.744203 0.634768 -0.792136 0.881543 0.114916 -0.193274 0.226202 -0.005907 0.662997 -0.463648 -1.136987 -0.992320 -0.293683 -0.454452 0.542869 0.438598 0.527244 -0.500881 0.859789 0.065143 -0.522524 0.103906 0.884945 -0.347942 -0.676405 0.306970 0.294599 -0.741971 -0.758428 -0.042984 -0.416793 0.998858 -0.419367 -0.167479 0.877598 0.626756 0.264633 -0.081549 -0.330758 0.144627 0.530551 -0.361993 0.374784 -0.386219 0.439497 -0.059491 0.846768 -0.019474 0.506561 0.795194 -0.790135 -0.825299 0.051973 -0.792654 -0.199024 0.125053 0.336406 0.921124 0.411975 0.594993 -0.133400 1.072787 0.552956 0.378104 -0.376165 0.288775 0.082094 -0.860778 -0.622416 0.846378 0.527829 -0.684528 -0.300606 -0.235209 -0.229509 -0.895560 0.800367 -0.236589 0.311356 0.519846 -0.344760 0.454430 0.482532 0.483446 0.543114 -0.889143 -0.396190 -0.102249 -0.982643 -0.956984 -0.574520 -0.153035 -1.115458 -1.093007 -0.724834 -0.298175 0.363035 0.450315 0.054794 1.035324 0.460372 -0.542027 -0.870669 -0.847890 0.305822 0.044070 -0.516122 0.351703 0.896872 0.639537 -0.400823 -0.717545 0.053153 0.964729 0.748343 -0.388056 -0.884003 -0.561462 0.472314 -0.938278 -0.696095 0.829630 -0.126199 -0.694933 0.873510 0.371633 0.215151 0.490903 -0.005871 -0.765555 0.393166 -0.563292 -0.237564 0.619031 -0.230351 -0.769543 -0.294815 0.134102 0.379793 -0.657309 -0.294729 0.869677 -0.405271 0.776683 0.857496 -0.556396 -0.652589 0.895479 -0.323547 0.692521 -1.070838 -0.035272 0.712109 -0.037809 0.491209 0.863754 -0.525549 -0.322838 0.117363 0.360425 -0.186790 -0.450893 0.856601 0.634226 -0.794736 -0.426793 0.771922 -0.332419 0.572119 -0.012353 -0.050804 -0.697879 -0.136615 0.600530 -0.929681 -0.309648 0.766788 -0.661675 -0.476420 -0.443196 -0.812871 -0.345391 0.655379 1.011032 0.677492 0.073212 0.658597 -0.943068 0.656104 -0.152036 0.412966 -0.457310 0.439718 0.337366 -0.864116 0.321756 0.793366 0.752912 -0.992370 0.389441 -0.242963 0.066216 0.718408 0.668265 -0.490984 0.684191 -0.678479 -0.537365 -0.840524 -0.074941 0.012294 -0.678915 0.510184 -0.406535 -0.772586 0.139326 0.653092 0.986682 0.230269 0.436970 -0.051773 -0.247690 1.005346 -0.939330 -0.981195 -0.979103 0.494458 0.833148 0.755030 0.595199 0.301435 -0.343698 -0.430181 -0.044832 -0.810538 0.084929 -0.397916 -0.460811 0.450655 -0.418460 0.341191 -0.620009 -0.074026 -0.163015 -0.029885 0.212357 1.017261 -0.241005 0.306305 0.234542 -0.930533 0.810729 0.943512 0.981186 -0.963091 0.976548 -0.987904 0.609328 0.902720 0.943022 0.139510 0.040717 -0.614402 0.586669 0.907924 -0.499813 -0.480983 -0.675513 -0.169617 0.836919 -0.097262 -0.796185 -0.781516 0.815201 0.041775 0.204125 0.010896 -0.104711 0.661439 0.826487 -0.908129 0.729168 0.859808 -0.959488 0.729473 0.960779 1.119024 0.811064 0.608426 0.948156 0.618085 -0.412252 -0.145796 0.795752 0.950996 -0.496756 -0.809597 -0.581324 -0.164123 0.090929 -0.705601 0.649245 0.185962 -0.551310 0.448841 1.043519 0.371056 -0.984845 -0.145270 0.056916 -0.915706 -0.043887 -0.167706 1.042550 0.105934 -0.379776 1.044082 0.099021 -0.647535 0.384644 -0.146650 0.745612 0.765028 0.477089 0.472272 0.692495 1.035433 0.700844 -0.870397 -0.206419 -0.250908 -0.588000 -0.504190 0.760410 -0.379808 0.583782 0.709828 0.989644 0.799920 -0.422006 0.083401 1.021316 0.605048 0.925953 0.909009 -0.372524 -0.539289 0.822958 0.616424 -0.402213 -0.001693 -0.786802 -0.775080 -0.265800 0.806415 0.815302 -0.565834 0.800605 0.463994 -0.439254 -0.404752 -0.920655 -0.211899 -0.282375 0.735628 0.356614 -0.573021 0.452144 0.372120 -0.674009 -0.905272 -0.469956 -0.821990 0.547878 -0.720629 0.992047 -0.924700 -0.390743 0.626430 0.431462 0.074720 -0.435220 0.781769 0.402867 0.289690 0.459894 0.081473 0.654522 0.204932 -0.563715 -0.955840 0.443944 -0.583302 -0.250253 -0.729382 -0.847681 -0.832351 -0.198215 0.657674 0.538729 -0.021343 0.617890 0.856424 0.008623 0.157650 -0.908360 0.017459 0.153508 -0.360039 -0.396712 -0.347300 0.730220 0.154397 -0.654473 0.072861 -0.603605 0.863127 -0.902380 0.915350 -0.155434 -0.509271 -0.655064 -0.092573 -0.326065 -0.384446 0.059753 -0.219704 0.313151 -0.342464 -0.767085 -0.762353 -0.734667 -0.921648 0.273257 0.394304 -0.850749 -0.751703 -0.462407 -0.225304 -0.168097 0.168026 -0.507354 0.962113 0.510300 0.538267 -0.692595 0.265316 0.622516 -0.779403 -0.892818 -0.886755 -0.855281 -0.465130 0.094127 -0.113546 0.141202 -0.849000 0.663081 -0.605246 -0.248141 0.850896 -0.355275 0.049725 0.925757 0.909327 -0.563190 -0.923354 -0.827212 -0.021015 -0.137949 0.004420 -0.886823 0.332923 -0.056660 0.654204 -0.074863 0.241446 -0.121168 -0.512341 0.453897 0.033234 -0.359536 0.663462 0.483153 0.630834 -0.567098 -0.461707 0.758218 -0.966749 -0.167710 -0.625877 0.851769 0.494971 0.412383 0.752162 0.452231 0.914060 0.912278 0.596859 -0.163639 -0.338130 -0.478186 -0.106470 1.025162 0.442822 -0.507232 -0.147442 -0.320749 0.392689 0.378900 -0.792807 -0.616045 0.945624 0.760955 0.788522 0.565759 -0.826439 -0.738456 0.192407 -0.800565 0.182767 0.647660 -0.951562 -0.277395 0.190615 0.881062 -0.857670 0.053899 0.703076 0.634424 0.743944 -0.692886 -0.864250 -0.355961 -0.699221 0.571144 0.148010 0.183962 -0.738211 -0.485514 -0.500134 -0.620654 -0.129948 -0.562575 -0.825625 -0.364616 0.908201 -0.680304 -0.065370 0.214694 -0.482384 -0.856643 -0.008816 -0.369818 -0.136959 -0.863436 -0.522440 -0.028184 0.071140 -0.971328 -0.438121 -0.131851 -0.603339 -0.308479 0.522193 -0.237241 -0.707687 -0.351188 0.838450 -0.483568 0.146211 -0.647422 -0.047284 -0.997115 -0.305689 0.080009 -0.365585 -0.267140 0.421418 0.616076 -0.947784 1.015075 0.779927 0.020056 -0.365346 -0.288364 0.115426 0.002280 0.579740 -0.776874 0.113401 -0.863572 0.082418 0.551378 -0.164856 -0.420755 -0.803249 0.087376 0.263783 -0.916765 0.666070 -0.589945 -0.624881 -0.388860 -0.526901 0.179545 0.678914 0.089195 0.965792 0.165293 -0.210226 1.031417 0.253690 -0.368379 -0.025453 0.732588 0.211867 -0.878657 -0.209971 -0.213250 -0.668579 0.897750 -0.075336 0.411443 0.420418 0.783876 -0.937258 0.689715 -0.062454 0.367892 0.713533 -0.423771 0.732190 -0.895887 0.155962 -0.881725 0.279276 -0.080404 0.272886 0.262954 -0.936670 -0.932833 0.171018 0.195083 -0.412667 -0.780491 -0.056900 0.798461 -0.674361 0.727806 -0.471075 -0.324857 0.627861 0.520750 -0.847724 0.095335 0.347868 -0.827315 -0.257220 -0.730490 0.527902 -0.608789 -0.296575 0.114062 -0.596382 0.878679 0.284102 0.672476 -0.293342 -0.506542 -0.150962 -0.207112 -0.438148 -0.864869 0.936261 0.148840 -0.642614 -0.157210 -0.109472 -0.352393 -0.431694 0.450861 0.338612 -0.762924 0.066313 0.524635 0.347337 -0.577902 0.743886 0.999064 -0.483195 0.054497 -0.735851 0.197869 -0.783348 -0.286667 0.086982 0.457274 -0.600708 0.947270 -0.902629 0.365568 -0.373744 -0.341087 0.473267 -0.537305 0.739256 0.779970 0.416732 -0.292519 -0.467107 -0.939433 -0.678073 0.928420 -0.672363 0.327751 0.451766 0.587457 0.674768 0.082527 0.538679 -0.817620 -0.909917 0.828161 0.422517 -0.615025 -0.435925 -0.254912 -0.966875 0.094148 -0.449725 -0.869815 -0.575606 0.072268 -0.266917 0.945170 0.719805 -0.393417 0.841307 0.245301 0.401953 -0.597223 0.253543 0.620570 -0.742978 0.510304 -0.012682 0.746502 0.120516 -0.306638 -0.226548 -0.302248 -0.052213 -0.007747 -0.508372 -0.436615 0.514505 0.252788 0.203432 0.547440 -0.673083 0.683404 0.644780 -0.166358 -0.109585 -0.525908 -0.188514 -0.271904 0.104228 -0.394110 0.895128 -0.581991 -0.083796 0.048831 -0.967307 0.223235 -0.392540 0.062014 -0.098234 0.800016 0.836432 0.759464 -0.616172 -0.177141 -0.155989 0.086336 0.329478 -0.639537 -0.620361 -0.535926 0.884995 -0.294313 -0.773147 0.536472 0.496785 0.210256 -0.932928 -0.747141 0.893508 0.090808 -0.230824 0.655111 0.450788 0.726346 -0.237413 0.540362 -0.020110 0.459292 -0.320457 -1.078579 0.161173 -0.491497 0.825841 0.690852 0.306763 -0.327547 -0.181993 -0.441435 0.006698 0.111607 0.144770 -0.128746 0.757827 0.448414 -0.516768 0.253370 -0.356086 -0.495254 0.467036 -0.512166 0.603148 -0.678270 -0.789058 0.130535 -0.871294 0.091770 -0.218688 0.125792 -0.541235 0.524703 0.248117 0.774580 -0.965055 0.076559 0.458082 0.271137 0.758512 -0.750849 0.993605 -0.215991 0.356796 0.143562 0.697384 0.180585 -0.413350 -0.798952 -0.608994 0.211436 -0.247397 -0.991088 0.833603 -0.547818 -0.623090 -0.893113 0.696017 -0.480096 0.200043 -0.416070 0.827252 0.809406 -0.916715 0.080490 0.539561 -0.928141 -0.861737 0.069902 0.480319 0.899215 0.320824 0.498483 -0.284783 -0.316412 -0.423891 -0.654320 0.753221 0.123877 -0.439170 -0.716128 -0.500273 0.425374 -0.722754 -0.731137 0.883973 -0.350545 -0.606343 0.595575 0.286762 0.673314 -0.855603 0.127457 0.446669 -0.828413 -0.848556 0.096441 -0.642804 -0.643789 -0.809506 0.919897 -0.689378 0.445528 0.244029 -0.087328 -0.998008 0.842552 0.297787 0.917141 0.057356 0.879064 -0.866938 0.509140 0.303518 -0.581073 0.740438 0.162770 0.108582 -0.795521 -0.267904 -0.602289 0.791130 -0.200591 0.394010 0.322497 0.077395 0.698058 -0.518769 0.495274 -0.914945 -0.441698 0.237651 -0.695803 0.942931 -0.533317 0.164442 -0.965406 -0.647420 -0.559342 0.849598 0.341652 -0.703431 -1.017542 -0.217555 0.592063 -0.557891 -0.397598 -0.297596 0.553925 -0.280216 0.384433 0.851390 -0.350831 -0.690374 0.458216 -0.921116 0.467121 0.206561 -0.438869 -0.089151 0.266853 0.088481 -0.829928 0.484317 0.022358 -0.355537 -0.367928 -0.016170 -0.018519 0.050167 -0.162400 -0.769658 0.402815 -0.117902 0.119116 -0.071986 0.327294 0.641673 0.601383 -0.191629 -0.527214 0.097788 -0.198985 0.203144 0.417283 -0.628390 0.375400 -0.148703 0.503008 0.818515 0.728112 -0.330087 -0.221308 0.806890 -0.887206 0.775672 -0.537709 -0.218553 -0.294377 0.281145 0.807164 0.551553 0.641882 0.138551 -0.549162 -0.264773 -0.938103 0.653637 -0.586315 0.706038 -0.356395 0.069683 -0.174176 0.563643 -0.713990 -0.826032 0.760777 0.485349 -0.076678 0.164573 0.215351 -0.409442 0.814682 1.024691 -0.565160 0.927209 0.691168 -0.243391 -0.399781 -0.635409 -0.891184 -0.650952 0.932924 0.698426 0.437070 -0.741443 -0.531185 0.539039 -0.849133 0.065843 0.320164 -0.199175 -0.965345 -1.007785 -0.841235 -0.803902 -0.881582 0.870090 0.666756 0.105694 0.101330 -0.021357 0.723918 -0.061136 -0.083891 -0.957525 -0.263619 -0.443408 -0.211070 0.308313 -0.069476 -0.128624 0.608633 -0.278411 -0.426280 0.150776 0.199632 0.183477 -0.246430 0.350146 -0.834944 0.941806 -0.994833 -0.853637 0.923585 -0.802377 -0.647481 -0.871148 -0.823787 -0.855398 0.231175 0.282866 0.086201 -0.136335 -0.881379 0.907782 -0.113279 -0.162403 -0.523169 0.661158 -0.899920 0.278464 -0.482586 0.803931 -0.776577 0.242750 -0.045371 0.424320 -0.606819 0.642312 -0.308901 -0.497370 0.560891 -0.298807 -0.349190 0.567316 -0.023252 0.076743 0.680348 0.084876 0.194256 -0.127508 -0.611901 -0.791487 0.728055 -0.534387 -0.861821 -0.341617 0.288287 -0.447494 -0.786164 0.454752 0.987916 -0.110428 0.252400 -0.797899 -0.895579 -0.795439 0.596867 -0.521770 0.832293 -0.726412 -0.021137 0.464464 0.056972 0.708885 0.030443 -0.985054 -0.228194 -0.305659 0.180842 0.968484 0.550821 0.496299 -0.789430 0.352074 0.983589 -0.667203 0.914780 0.260356 -0.103650 -0.784845 -0.272510 -0.150974 0.062379 0.981223 0.038425 0.146680 -0.814020 -0.385296 0.589476 -0.945802 -0.048018 -0.406555 0.473430 0.943601 -0.707741 -0.495394 1.042211 0.089149 0.149157 0.125046 0.058370 -0.253473 -0.337797 0.239484 1.007108 -0.374765 0.574512 0.889226 0.850890 -0.594561 -0.930383 -0.412386 0.260926 0.119585 -0.467121 -0.725362 -0.758337 -0.281218 -0.091641 0.828366 -0.301020 0.812292 -0.577757 -0.779993 0.876561 -0.250525 0.797654 0.838624 0.789223 -0.077299 -0.103743 -0.510799 0.544046 -0.869112 -0.531945 -0.872697 0.658810 -0.659437 0.975683 -0.939306 -0.602848 -0.461694 0.302768 0.501648 0.067564 0.574146 0.739718 0.764084 -0.526051 0.579010 -0.524149 -0.693917 -0.976497 -0.351519 -0.885578 -0.227022 0.288459 0.707841 -0.469086 -0.003883 -0.273061 0.447227 0.513453 -0.682158 0.637408 -0.981418 -0.530849 0.243660 -0.609378 -0.528511 0.305542 -0.299309 -0.020051 -0.366390 -0.748292 -0.919345 -0.808515 -1.045621 0.779331 -0.350163 0.533909 -0.672385 0.015198 0.616620 -0.010653 -0.031993 -0.663359 -0.849220 -0.088326 -0.113692 0.346157 0.870547 -0.457157 -0.017256 -0.654640 -0.758266 -0.032149 -0.223209 0.461748 0.345878 0.258168 -0.146617 -0.809203 -0.739304 0.422787 -0.680338 -0.638693 0.681210 -0.610011 -0.797212 -0.591083 0.974358 -0.448876 0.276977 0.496542 0.384837 -0.599412 0.962658 0.817591 0.649606 0.098115 0.271119 0.575065 0.611308 -0.877025 0.759192 0.653460 0.013921 -0.463095 0.165665 -0.621534 0.788213 0.885023 -0.598769 0.970539 0.339715 -0.278111 -0.653779 0.052062 0.128472 -0.427673 0.351537 0.063940 -0.036828 -0.166588 -0.276762 -0.384128 0.450935 -0.253751 -0.495466 0.227254 0.791102 0.548859 -0.415637 0.181730 0.510604 -0.722274 -0.115295 -0.444634 -0.179506 1.001868 -0.190385 -0.519554 0.744570 0.132419 -0.550974 0.109533 0.875580 -0.185857 -0.932231 -0.067260 0.211011 0.531289 -0.956868 -0.659899 -0.590660 -0.316658 -0.093417 0.896563 0.534542 0.436250 0.022582 0.057212 -0.283793 0.411526 -0.786955 -0.708292 0.764820 0.155525 -0.133289 -0.595607 -0.097043 0.506605 -0.103922 -0.309206 -0.331720 0.364830 0.722928 -0.465305 -0.846561 1.027898 0.554972 0.416569 0.534529 0.566430 0.883802 -0.910139 -0.579895 -0.179381 -1.107933 0.838665 -0.828847 -0.114354 -0.043739 0.162099 -0.455025 0.394704 0.540211 -0.737145 -0.655385 -0.831437 -0.331164 0.337422 0.784117 0.577932 -1.006714 -0.559664 0.015168 0.895778 0.199314 0.183746 0.796350 -0.555326 -0.566555 0.304306 -0.852287 -0.633515 0.354257 -0.606288 0.051511 0.270970 -0.576376 0.538637 -0.396542 0.687898 -0.168047 -0.090524 -0.098110 -0.940498 0.258089 0.390734 -0.535981 0.931330 -0.286309 -0.690522 0.654187 -0.131575 -0.145005 -0.573193 -0.317902 0.828490 0.510532 -0.570069 -0.687938 0.995487 0.690975 -0.727565 -0.721771 0.166492 0.131447 0.691945 -0.341212 0.732627 0.483201 0.197057 0.241614 -0.922108 -0.720086 -0.686969 -0.575654 0.543734 0.771858 0.019553 0.598342 -0.465100 0.223727 0.036677 0.276343 0.965523 0.518586 0.934686 0.612288 -0.228492 -0.890597 0.713459 -0.229153 0.915505 -0.730855 0.296303 0.074149 0.284281 -0.015309 0.762660 -0.181849 -0.672406 0.088013 -0.685314 -0.338185 0.373194 -0.356624 0.108302 -0.056151 -0.544507 1.025822 -0.567680 -0.129404 0.262824 0.514422 1.084391 -0.010268 -0.298836 0.775141 -0.466310 0.487688 0.888382 -0.712687 -0.678009 0.755791 -0.573924 0.572569 -0.124160 0.663485 -0.559021 -0.271638 -0.231017 0.001115 0.817313 0.082789 0.729342 0.332464 0.788561 -0.180118 -0.854121 -0.878008 -0.153863 -0.329673 -0.108426 0.941341 0.760066 -0.170999 -0.126413 -0.570142 -0.552901 0.326690 1.029124 -0.563473 0.599267 -0.551822 