-0.480379 -0.215085 1.047397 0.409396 -0.375934 -0.996722 -1.289791 -1.451136 0.663212 -1.388662 -0.752241 -0.886358 0.146071 -0.304043 -1.047571 0.169163 -0.139249 -0.598017 -0.906475 1.480394 0.604453 0.879211 0.837669 0.611088 -1.618454 1.364162 0.066826 -1.901772 -0.623577 -0.148781 -0.386210 -0.142773 0.341441 -0.900347 -0.947421 -2.317763 0.806751 -1.195901 -1.304228 -0.623533 -0.243566 -1.434019 -1.385675 -0.772549 0.378984 -1.448744 1.161824 2.063333 1.757190 -0.317051 0.523116 -0.718082 -2.139979 0.633228 0.186424 -0.755076 -0.511826 -0.694966 -1.856613 1.449047 1.707530 0.310196 0.718646 -1.634000 -1.029047 -0.003323 -0.129152 -1.002053 0.883533 -0.815437 -0.903484 -0.908281 -2.053909 1.260529 -1.924471 0.325437 -0.409003 0.978233 -0.309041 0.241592 -2.043721 -1.052313 -0.108531 -1.518230 -0.124585 -1.815202 -1.437711 0.292284 -0.225762 -0.051875 0.323244 -0.453510 -0.217369 -0.280396 0.513625 -1.272765 -0.940406 1.223685 -1.390003 -1.267712 -1.623624 0.350097 0.795619 1.509439 1.428131 0.035694 -3.115676 0.464173 -2.286189 1.276196 0.377552 0.435933 0.349782 -1.121454 -1.400094 0.615894 -1.677432 -1.449735 -1.031972 -0.499354 0.677070 1.482523 0.615313 -0.650505 0.113877 1.161557 -0.449914 0.113897 0.009188 -0.013379 -0.693522 -1.102565 -1.791954 -0.798968 -0.855753 -0.313648 -0.077343 -0.967989 -0.199494 0.850385 -1.403095 0.683635 -0.751033 -0.701487 1.333069 0.192259 -0.699802 0.919552 0.629194 0.110297 -0.903645 -0.164347 -0.457074 0.219672 1.420262 1.206987 -0.426113 0.725960 0.004139 -1.689097 -0.953676 -1.837962 -0.507692 0.312325 -0.665587 -1.317029 0.650462 0.519378 -1.605197 1.286406 -0.345022 -1.150396 -2.201914 0.481079 -1.111556 -0.201815 -1.302187 1.044141 -1.786548 -0.269808 0.112106 -0.215590 -1.056598 -0.549001 0.206654 -1.317336 -0.723366 0.105403 -0.112587 0.221630 -0.028297 -0.107592 0.843682 1.002520 1.052444 -1.429227 -1.253574 -1.199428 -1.862311 -1.391383 -1.535868 -0.514411 -1.581883 1.880826 -0.667202 0.520591 1.036274 0.262641 -2.154659 0.299005 0.998231 0.799520 -0.116436 -1.393498 0.117259 0.618507 -0.499717 -0.502914 1.268590 0.314667 0.469001 -1.771338 -0.539364 0.244178 0.514252 -0.527585 -0.363006 -0.477872 -0.243954 -1.895950 -0.830926 -0.618584 0.394841 -0.958983 -0.554495 -1.297014 0.524790 -0.117289 -0.704403 0.939589 0.695105 -1.420788 1.435007 -0.147236 -1.253030 -1.663972 0.723200 0.852385 -1.804338 0.374670 -1.009061 -0.103919 -1.003102 0.752199 -0.580750 -0.641994 0.172719 -0.455683 -0.246778 0.253409 0.460675 0.399770 -0.582494 -1.234514 -0.273513 -0.141431 -2.872447 1.000621 -1.527008 -1.246688 0.255280 -0.769202 0.971345 0.123484 -0.798190 0.389386 0.206717 0.547175 -1.268715 0.769887 1.464762 -0.944232 -0.219656 -1.119951 0.537518 -1.468911 1.336042 -0.975825 0.552217 -1.191448 1.190316 -0.861465 -1.220971 -0.766854 1.097069 0.505359 1.042366 0.382081 0.676688 -0.496295 1.782891 -2.603547 0.729921 -1.722306 -1.132836 0.718471 0.889132 -0.503055 -0.182865 0.364227 -0.513091 -1.362344 -0.241081 -0.179624 -1.340502 -0.315746 -1.769249 0.656881 0.199147 -0.021457 -0.550009 -1.925749 1.025974 0.033879 0.471276 -2.294133 0.204431 1.188792 -0.517476 -0.734014 -0.699663 -0.968072 -1.299126 -1.238112 -0.124362 -1.021061 -0.324931 -0.444967 -0.687957 -0.559996 0.024807 0.251262 -1.089265 -1.484094 0.707152 0.194313 -1.026480 0.787115 0.683249 -1.373808 -1.645172 -0.042366 0.251126 0.723021 -0.505475 -0.158790 0.437610 -1.223088 -0.881927 -0.714911 -0.229825 -1.064051 0.332032 -0.358432 -0.152394 -1.711447 -1.948457 -2.523498 -2.155534 0.217043 -0.471344 -1.998586 -1.083347 -0.539115 0.737207 0.323617 0.420890 2.075915 0.289864 0.374231 0.351798 -1.543595 -0.346915 1.008130 0.958242 -0.945546 -0.202720 -0.485532 0.300211 -0.606664 -0.094996 2.030459 0.808721 0.498215 1.154886 -0.568081 -1.258310 -0.807267 -0.980524 -1.578997 0.540086 1.680266 -0.050396 -0.536572 -1.609090 -1.325704 1.588822 -0.344773 -1.226443 -1.992630 -0.982473 -1.109545 -0.845424 0.538085 -1.321169 -0.105705 0.285916 0.004879 0.995635 -0.256952 -0.527513 0.572837 0.414641 -1.264921 -0.392010 -2.365198 -0.031057 -1.499764 0.412125 0.278092 -1.021613 -0.338237 1.653784 1.705955 -0.003029 -0.521741 -1.575812 1.103902 -1.554172 -1.168657 -1.729755 0.079466 0.620249 1.398075 0.402366 0.152282 -1.246629 -1.233317 0.418398 -0.671618 1.491039 1.166207 0.333060 1.425196 -0.132028 -1.136001 -0.140268 -0.829932 1.089511 -1.000726 -0.080630 -0.828636 -1.159910 0.899960 -0.439600 0.381660 0.280397 0.966326 -0.823383 0.681529 -1.379421 -0.828496 -2.393312 -1.463294 0.515394 -1.673352 0.380840 -0.439636 -1.175492 -0.976288 -0.737096 -0.286839 -1.600406 -0.793717 -0.544685 0.150136 1.071542 1.405696 -0.304783 1.321818 -0.443085 -0.062208 -1.328448 0.414776 -1.022878 -1.404105 -1.555176 -0.706690 -1.762480 0.316781 -0.044286 -0.559878 0.139564 0.538690 1.136023 -0.037528 0.031289 0.050749 0.471709 -1.171125 -2.123953 -2.073810 -0.679928 0.630649 0.583648 -1.705214 -0.323373 -0.335871 -0.120903 0.552088 -0.198024 -0.271103 0.486174 0.588363 -0.298929 -0.760665 0.517551 -0.358022 -0.159027 -1.197917 1.080651 -0.048089 -0.602070 -0.584222 -0.119106 1.176821 -0.660130 -1.322966 0.099450 -0.231485 0.788146 0.499235 0.951934 -1.291468 0.896519 0.375873 -1.929615 0.298973 -1.054863 -0.956259 -1.377580 0.494694 -1.498050 1.592436 -0.151649 -0.337839 2.158075 -1.234953 -1.837345 -0.685085 0.205881 -1.390560 -0.963927 -1.039459 0.731862 -0.704785 0.514760 0.657221 -0.430984 0.325485 -1.312643 0.225603 -1.708342 -1.023053 -0.753632 -0.124581 -1.158197 -0.876041 -1.294274 0.990698 -2.154839 -0.905681 -0.946468 1.444094 0.731037 0.208374 -0.486508 0.285144 -1.443631 -2.034139 -0.405538 1.506605 0.976694 -0.931843 -0.434323 -0.357121 0.293038 -0.464729 -0.563747 0.460156 -0.427901 -0.794730 0.009160 0.919663 -1.256103 1.488278 0.263340 -0.710367 0.646759 0.136439 1.352822 -2.178239 -0.546510 0.152672 -0.100630 -0.621950 0.376699 0.183777 0.331793 -0.933811 -0.811567 0.444177 -1.512609 1.660608 -0.664055 0.091405 0.232062 0.047876 -2.064565 -1.700690 -0.160752 0.515261 -0.470056 -1.263796 -1.276838 0.075996 -1.212689 -1.724944 1.181820 1.463171 -0.959269 -0.089634 -0.301819 0.479006 -0.970963 -1.883687 0.945565 -1.280100 -1.701749 0.053681 -0.266907 -1.630276 -0.628328 -1.102964 -0.260276 0.041708 0.777602 -0.556869 0.538846 1.714009 -0.777046 -1.884148 -2.067058 0.714462 -1.027412 -0.232096 0.522444 -0.521397 1.077080 0.498344 1.178379 -1.416040 -1.090257 -0.880494 -1.361520 0.000410 -0.236129 0.831582 1.166796 -0.102543 0.230897 -0.459459 -0.814334 0.056976 -0.544862 -1.712414 -2.269218 -1.546625 -0.775502 -1.303322 1.524503 1.840224 -0.082367 0.684995 0.908946 1.205436 -0.353170 -2.488702 0.734454 0.443572 -1.113993 0.678110 -0.068474 -0.811109 0.475017 -0.368396 0.512725 -0.031170 0.955827 -0.169414 0.041018 0.693906 -0.643152 0.557460 -1.436782 -0.661472 -0.500364 -1.100001 -0.298560 -1.750038 -0.289077 -0.746656 -1.887878 -1.060429 -1.207360 -1.280807 -0.039241 0.396869 -1.116742 0.506452 -0.406918 -1.456352 1.421037 -1.738196 1.101491 -0.469391 -0.736974 -0.974979 0.999931 1.381865 -0.839055 -0.094375 -1.858047 -0.636759 1.296011 -0.624910 -1.236295 -1.615067 1.220577 1.264940 1.025354 -0.881579 -1.078440 0.551485 -0.762332 -0.665375 1.326436 -1.010077 -1.626015 0.440023 -0.805317 0.107249 -0.584422 -0.200094 -1.017743 0.923115 0.385600 -0.627029 0.096126 1.553038 -0.740335 -0.378791 0.646941 -0.787110 0.249825 0.111152 0.769275 -0.752472 0.032287 -0.310647 -1.273099 -1.710840 -0.721674 -1.237219 0.525354 1.050617 -0.716865 1.525973 -0.539764 0.724370 -0.167820 -0.516436 -0.553122 -0.798765 0.139712 -1.206860 -0.436375 -2.400947 0.006545 -0.687388 -0.754009 -0.443560 -0.958351 -0.481622 -0.220591 0.439285 -1.662771 1.086775 -2.113805 -0.209102 -0.814545 -0.304934 -1.905912 0.145289 0.359208 -0.977165 -0.720767 1.150857 1.434882 -0.779514 0.177624 -0.500986 0.772443 0.512178 -1.235127 0.675928 -1.135927 0.554477 0.183003 0.208237 1.988866 -0.172713 -1.339034 -1.846011 0.767460 -0.661223 -1.584227 0.885112 1.469905 1.185791 1.633063 -1.038004 -0.738445 -1.231175 0.759153 -1.701194 -0.239664 0.862584 -0.944279 0.398863 -0.095966 -0.489678 0.928655 -0.453989 -0.449346 -0.183095 -1.160073 -0.757242 -1.462710 0.420971 0.132531 -0.462457 0.558538 -0.277079 -0.511077 0.206383 -0.860318 1.184611 -0.729746 0.026507 0.552172 -1.025225 -0.749488 -1.769732 0.033634 -0.801834 -0.853868 0.578889 -2.007783 -1.244802 1.468458 -0.907465 -0.004791 -1.170803 -0.673335 -2.132849 -1.570042 1.427731 -0.787816 1.395483 0.254760 -1.162506 0.611754 -2.050658 1.062312 -1.873026 -1.549259 0.774202 -0.077699 -0.600525 0.028312 0.880347 -0.517560 1.103151 -1.386744 1.072692 0.826707 -0.143840 0.460897 -0.836029 -2.320372 -1.140901 0.220440 0.571757 0.205641 0.357919 -0.116366 0.383812 -1.491885 -0.979078 -0.220941 -1.553564 0.880570 0.335941 -1.221174 0.379025 0.305644 -0.645354 -0.073043 1.262902 -0.604777 -0.966193 -0.154417 -0.397444 1.874643 0.012119 -1.054952 -1.421228 0.316893 -1.415935 -1.460653 -0.714921 1.588202 1.011639 0.637858 1.272804 0.375518 -0.551912 0.271247 -1.274006 -1.114420 0.468243 0.670696 -0.145980 -1.947761 0.612745 -0.153154 0.055925 -0.797391 0.183749 -1.201968 0.449968 -0.642195 -1.182240 -2.281320 1.839222 -0.230587 -0.647311 0.557706 -0.948962 0.008692 -2.221030 0.037595 -0.063695 0.792619 -0.387258 0.619945 1.536776 -0.535459 -1.013500 0.137538 0.493414 -0.724856 0.573299 1.066722 -1.091676 0.180566 1.492723 -0.119207 -0.359944 -1.233907 -1.464725 0.295873 -0.338423 -1.640825 0.146724 0.452500 -0.498867 -0.158919 -1.732161 -1.393317 0.494761 0.184533 0.770855 0.120254 -2.014240 -0.440554 -0.413274 -2.082485 -0.027447 0.944529 -1.866527 0.436819 0.824630 -0.269962 -1.120855 0.635086 -1.208419 -1.047091 -1.153978 -0.025681 0.698250 -0.926526 -0.742907 -0.693662 -0.375585 1.512385 0.987233 1.494114 -1.341975 -1.346331 -1.227478 -1.153194 -2.005185 -1.173669 -0.230424 0.319786 0.498185 0.275555 1.261492 -0.827744 1.034937 1.187105 0.438350 -0.285899 -1.313017 -1.787863 -0.516446 -0.958062 -0.487771 1.042799 -0.805751 -1.702314 -1.950091 1.356882 0.637213 0.239680 0.020400 0.352432 -0.633993 -0.438802 0.493112 -0.457421 0.101153 -1.737705 0.783329 -0.677915 -0.539516 -0.268641 -1.708367 -0.250004 -0.613098 -0.679849 -0.791415 0.184429 0.329264 -0.563193 1.137683 -1.212011 -1.746636 1.302176 1.078486 -0.133579 -1.684208 -0.603585 -1.265653 0.707096 0.034571 -0.620721 -1.928941 0.492628 1.462967 -0.825803 0.132052 -1.345960 0.071791 0.006640 -0.420715 -0.462257 0.772245 1.285206 0.956013 -1.329802 -2.782303 0.288114 0.695748 0.111839 -0.375308 0.187218 -0.002020 -0.224471 -0.715384 -0.699284 1.619407 0.288677 -0.882235 -1.108855 -0.532243 0.763220 -0.713753 -0.464383 -0.265184 -1.099127 0.099669 0.567909 -2.030040 0.650316 0.357789 -0.806821 -0.771290 -1.258605 -0.491007 -1.396395 -1.126479 1.102274 -1.923943 1.660584 -0.051035 -0.598888 1.178867 1.277343 -1.265058 -0.238562 0.018096 0.960382 -0.055052 -0.034714 -0.622906 -1.144241 1.651852 0.189104 0.039501 1.139559 -0.493433 -0.389259 -0.789215 0.634674 0.460396 0.422265 -0.836160 -2.004730 -0.653329 -0.377397 -0.426453 -0.028166 -0.996723 -0.158940 -0.807288 -0.512250 -0.869764 -0.926648 -1.715178 -0.143602 -0.863762 0.836398 -1.235812 -0.152237 -1.963939 -1.732297 -1.708253 0.682133 1.562203 -1.318091 1.748935 -0.320295 -0.974780 0.896563 0.116352 -0.896472 -1.009253 2.040645 -0.819080 -0.866955 0.528682 -0.129826 0.251225 0.405141 -2.971869 -0.335001 -2.268595 -0.837569 0.327864 -0.204007 0.285466 -0.444649 -0.656111 -0.081112 0.646981 -0.320852 0.486352 -0.403601 -0.707048 -0.602231 -0.942924 -1.083975 -0.327059 0.045681 -0.618586 -0.530612 0.354645 -0.866078 0.397850 0.934051 1.113314 0.774295 0.550583 -1.020836 0.079218 0.648635 0.811702 -0.773610 0.246815 -0.653984 -1.491625 0.393534 1.532639 0.479570 -0.802183 -2.168040 -1.262375 0.668622 -0.551076 1.639466 -1.427133 0.345784 -0.569712 0.829998 1.485303 1.472206 0.477593 -1.449637 -0.283667 -1.498873 0.166295 -1.196010 0.471632 0.025269 0.393824 -0.420363 -1.783982 -0.318191 -1.064908 0.207695 -1.559467 -0.794927 0.495386 0.395307 -1.337331 -0.003563 0.405978 -0.392548 -1.156666 0.696608 -0.928554 -1.821487 1.409521 -0.161654 0.374611 0.618845 0.452830 0.632616 -1.905374 0.857616 -0.764058 -1.126484 -0.242875 -0.753709 -2.091047 -0.244085 -0.700475 0.694581 -1.733582 -0.612405 -2.090767 0.101118 0.045411 1.427014 0.633331 1.713959 0.528686 -0.659531 -0.922219 -1.165196 -0.321260 0.099563 0.624901 -0.703778 -1.376029 0.935799 0.694089 -0.575112 -0.585778 0.505136 -0.551826 1.381811 -0.755986 -1.270366 0.121812 -0.241247 -2.053142 -0.461947 -0.373909 -1.323380 -0.115111 0.688884 -0.579503 -0.596593 -1.190770 -1.582480 2.024442 -0.164475 -0.582484 2.329602 1.494167 1.251793 -0.441474 -2.157726 1.068215 -0.222930 -1.312097 -1.060431 -0.059367 0.677556 -0.584679 -0.306980 -1.894293 0.598787 0.831415 -1.211987 0.071778 0.978703 0.069261 -0.154636 -0.396635 -0.589641 -0.845510 1.380415 -0.875881 -0.144947 -1.353834 0.302161 -1.238716 -0.531986 0.458622 -1.161026 -0.882097 -0.168994 -1.252945 -0.588721 1.003833 -0.591563 -0.266498 -1.049178 -0.255806 1.027874 -0.087798 -1.406432 -0.357742 1.178820 0.951346 0.162976 -1.032025 -1.157314 -0.830683 1.070999 -0.925763 -0.348396 0.384634 -0.804620 1.430398 -0.250159 0.618902 -1.608626 0.518838 0.761010 0.717768 -0.291190 0.932208 0.834730 0.725142 -0.045337 -1.262925 -0.546382 0.610089 0.264033 -1.377276 -1.037661 -1.221465 1.513733 -1.398227 -1.542982 -0.807476 0.624598 -0.346376 -0.835003 0.073501 -0.552319 -1.418731 -1.068263 1.350002 -1.517900 0.081295 0.607697 0.589791 -1.906857 0.231881 1.625202 -0.899268 -0.981883 -0.962234 0.801900 -0.383324 0.434399 -1.145932 0.411797 -0.457358 0.070697 -0.214162 -0.959831 -0.116335 0.046660 0.234652 -0.594687 0.516085 0.322426 -1.486632 0.734168 0.214728 -0.502528 0.215783 -0.029267 -0.106998 -1.440029 -0.817616 -2.054412 -1.310186 1.611094 -0.138215 -0.728031 -1.496566 -1.090848 1.687036 -1.365905 0.264359 -0.400704 -1.563743 -0.857644 1.931260 -0.067098 -1.584200 0.152515 -1.578177 0.477106 -1.108379 0.272536 -1.404385 -0.141303 0.916330 0.352478 -0.662972 0.840131 -1.379933 0.739578 -0.564291 -1.580752 0.899424 0.525721 -2.076597 -0.855800 1.496234 -1.443557 -0.823688 -0.392217 -1.868481 -0.137050 -0.138639 0.716330 1.009327 0.825384 0.703948 -0.781153 0.113265 0.748122 0.653968 -0.358366 -0.466859 0.649135 -0.606796 -0.600040 -0.860076 0.941872 -1.004398 -0.668318 -0.438160 -1.454350 -0.909677 -1.764428 -1.040470 -0.310822 -2.081060 -1.029834 0.548204 -1.057245 -0.127528 -0.172795 -1.258515 0.716948 0.671282 -1.400244 1.688216 1.516522 -0.454468 1.713806 -1.898960 0.545263 -0.930767 -0.205628 -1.187558 0.813724 0.689748 0.875268 0.405199 0.687709 -1.805005 1.426174 0.617031 -1.863954 -0.093353 -0.388376 0.335968 -0.798041 -0.829529 0.561196 -0.768102 -1.125669 -0.253135 -1.303459 -1.019303 -0.350925 0.762102 0.551888 -0.527528 0.163973 0.459998 -0.975857 -0.697450 -1.588557 -1.282459 -0.461698 -2.165325 -1.138420 -1.730376 -1.019202 0.437933 -1.127363 -1.104083 0.555867 -0.392509 1.395452 -0.805522 -0.929376 -2.137897 1.394623 -0.010661 -0.712878 0.389009 -0.374844 -0.157821 -0.921804 1.554594 -0.821305 -0.227970 0.540800 0.071380 -0.683450 0.683616 0.079957 -0.149055 0.062964 -0.544757 0.592437 1.470257 0.497648 -0.297000 0.466528 -1.269559 -1.087319 -0.642503 -1.079972 0.954157 0.376957 -1.017578 -1.607568 -0.098582 -1.798198 -1.134958 -1.013640 -0.078678 0.852819 1.182416 -0.489941 -0.780103 0.990002 0.699718 0.113815 -0.780203 -1.610044 0.438213 1.075755 1.117298 -0.109876 -1.128081 -0.174976 -1.444038 -0.975343 -0.871216 0.270822 0.321024 0.820011 -1.372140 0.427258 -0.046591 0.227566 -0.394712 -1.430645 0.231427 -0.372575 -0.384416 -0.721585 -1.613966 -1.463956 -0.221838 -0.049266 1.028727 -0.624541 -1.860538 -0.096582 -0.804133 1.420081 -0.243327 0.941473 -1.710393 1.038913 -1.177755 1.044017 -1.648245 1.191745 1.423016 0.868289 -1.132180 -1.326145 1.656850 0.529333 1.072524 -0.078489 -0.622082 -1.023957 -0.723174 1.126000 0.732010 1.163941 0.399135 -0.723320 -1.482218 -0.748403 0.417870 -0.237372 0.502020 -1.727673 -0.487203 -0.277287 -0.655082 0.762221 0.523735 -2.567741 -1.422078 0.745994 -2.518858 0.401555 0.943906 -0.726019 -0.780936 0.419103 -1.082746 -1.052629 -1.442416 0.066126 0.524174 -0.196575 0.006518 -1.078034 -1.001925 -1.154845 -0.508538 1.227206 0.766330 -0.331712 -1.864340 -2.548761 -1.221211 1.259668 -0.985012 -1.446869 0.557114 1.454252 0.786969 0.126548 1.584170 0.210548 -1.296926 -0.306683 -0.581748 -1.899664 -0.298247 1.139554 -0.993549 0.099113 -1.899929 1.243195 0.331068 -1.162740 -0.516251 -1.407292 1.152897 -1.267425 0.658375 -1.091666 -1.428806 -1.891812 0.029516 -0.974683 0.936426 -0.417340 -0.955171 -0.272543 0.325498 0.542907 -1.222828 -0.634776 0.216020 -0.555360 0.900164 -0.388313 0.468890 -0.071793 1.081646 0.586823 -0.150778 0.504691 -0.982997 -0.957521 0.552531 -0.482967 -0.464594 1.697554 -1.348767 -1.187227 -1.910610 -0.078184 0.894116 -0.926237 -1.221106 -0.343060 0.217465 0.566279 1.253175 1.506857 -1.888470 -2.074869 -0.846260 0.500173 0.694648 -0.403936 -0.395678 -0.953090 0.844322 -0.450712 -0.257596 1.695797 0.082648 0.744724 -1.177758 -1.294575 -0.928380 -0.143702 -1.902823 -0.418185 -0.193223 -1.044343 -0.250731 1.118941 -0.992876 -1.302706 0.782614 -2.345212 1.075278 0.738140 -1.464040 -0.615195 -1.230387 -0.256610 -0.008197 0.312733 -0.081763 0.011388 -1.050790 1.260656 -0.984891 0.907011 0.595406 -1.738081 0.618374 -1.739661 -0.472207 0.458133 -0.355695 1.313389 0.501175 -0.344660 0.232982 -1.038577 -0.107239 0.304408 0.931910 -1.707210 0.637747 -0.158886 -0.082389 -1.017251 -0.218575 0.438473 -1.242215 -1.033296 -1.542331 -1.111023 0.222000 -0.556331 -0.912121 0.363809 -1.245419 -0.982325 1.340345 -0.216933 -1.504094 -0.526056 0.068759 0.798566 -1.192925 0.118148 0.527400 -2.246390 -0.156260 -1.234369 -1.453739 0.593160 -1.711967 1.431852 0.559995 -0.735564 -0.809273 -0.134580 -0.545615 -0.235312 0.441632 0.672579 -0.764017 1.352212 -0.246281 -0.635724 -1.006290 0.247659 -0.992505 -0.916307 0.108761 -0.593167 -0.915889 -1.390131 -1.154001 -0.517191 -0.243437 0.454312 -0.136631 -0.043994 -1.953919 0.090391 -0.767067 -0.261039 -0.462205 0.636632 0.967781 1.780054 -1.354441 -0.479856 -1.239076 0.738514 -1.190814 -1.850257 2.343601 1.241546 -0.671340 -0.607668 1.355606 -2.458048 -1.084999 -1.829168 0.650552 -0.439109 -0.571202 1.081088 0.042183 -0.205901 -0.450873 -0.557420 0.410527 -1.067748 -0.113699 -1.259596 0.380511 -0.740714 0.337703 -0.549774 -0.082307 0.042836 0.156990 0.166555 -0.929970 -0.773486 1.136227 -0.414277 -0.895298 -0.253901 -2.151872 -0.253734 -0.038578 -0.313031 0.199787 -0.113313 1.756581 -0.357080 -0.824869 0.379713 1.180479 0.662195 -1.936089 0.443591 1.514978 -0.697753 1.964741 0.961372 -1.246392 -1.693908 -0.985303 1.019351 -2.243168 -0.974054 0.094605 -0.062624 0.742080 -0.962014 -0.749791 -0.561741 -1.230001 0.889795 -1.337302 0.370700 0.808789 -0.043146 -0.856754 -0.074834 0.060468 0.836394 0.307943 -0.506639 -0.795992 1.685492 -1.023176 -0.512627 -1.003175 -1.295132 -0.373606 -0.356256 -1.514559 0.510168 -0.528794 -0.396168 0.940713 0.190358 -0.674686 -1.004729 -0.111473 -0.294504 -1.320338 -0.767117 -0.905365 -1.516764 -0.173536 -0.563709 -0.169880 0.791428 -0.619063 -1.185233 -0.054610 1.138455 -0.411084 -0.543191 -0.942885 -0.654269 -0.508540 -0.056524 0.571350 0.856639 0.798484 1.563535 -2.533930 -0.595141 0.916453 0.703585 -1.551280 -0.333685 0.858451 -1.155865 0.045223 -1.462798 1.872647 1.857574 0.038816 -0.879707 -0.519972 0.088805 -1.948121 1.278706 -1.171394 -0.223625 0.142096 -0.712116 1.274658 -1.064040 -0.705404 -0.642785 0.889121 -1.397124 -1.700650 0.254830 -1.056154 -1.141213 0.893198 -1.726233 -0.177745 -1.211620 1.646917 0.090372 1.147075 -1.717097 -0.503420 0.183954 -0.415775 0.096781 -0.722974 -0.102526 0.598514 -2.458136 1.016662 -1.969969 0.342588 0.613969 0.514198 0.991734 -0.138361 0.914120 0.041182 -0.927490 -1.346476 0.300260 -0.224082 -0.825277 0.299651 -0.737435 -0.686945 0.967673 0.083962 -0.762181 -0.150859 -0.694555 0.207065 1.265225 -0.100272 -0.144650 0.670323 -1.261417 0.705641 -2.545764 -0.650002 0.685274 -0.059763 -0.989173 -0.063495 1.319114 0.316019 -1.189646 -0.263089 0.622663 -0.605416 0.908196 -1.248772 0.754033 -0.475788 -0.223235 0.456600 0.442737 0.891378 -2.091804 0.317076 0.376160 0.106529 0.074522 -0.753868 -0.261905 0.504000 -0.431519 -1.311502 0.397121 0.565143 0.097467 0.225147 -0.598449 -0.380810 -1.543550 -0.834032 -1.449432 -0.401138 0.457488 -0.182519 -1.507660 0.976858 1.183109 1.866596 -0.796476 0.788603 0.984352 0.533448 0.379912 -0.768799 0.569613 -0.778350 -2.421476 -0.284624 -1.086899 0.973733 1.425488 -0.666400 -0.732405 0.067129 0.330036 0.657253 -1.425266 0.109683 0.464320 -0.331816 1.004587 0.588849 -2.154456 0.347358 0.465123 0.920665 -1.647077 -0.308308 -0.960532 -0.204833 -0.757909 0.261462 1.508999 0.412234 -0.391963 -1.135549 0.290409 -0.928489 0.002411 -2.119406 -1.203761 0.270596 -0.391057 0.411311 -0.341495 -0.084460 -0.123613 -1.352482 0.210693 0.959217 0.060483 -1.624790 -1.187846 0.869574 1.019289 0.772655 -0.237809 -0.771045 0.865142 -0.265478 1.640078 -1.072205 -0.009145 -0.967378 0.893484 -0.121446 0.491713 -1.992999 -0.749703 0.450585 0.566079 -0.125827 -2.159037 -0.790421 -1.349660 0.752421 -0.451426 0.384016 -0.339308 -1.078085 0.388880 -1.228611 -1.451251 -0.538583 0.183400 -1.640693 -0.947652 0.615790 0.501660 -1.162198 0.503800 -0.059298 1.087650 -1.146276 0.934388 0.908449 -1.817309 -1.139321 -0.758806 0.513439 -2.035888 0.308301 0.997456 0.777394 0.417642 0.302104 -0.442619 1.170548 -1.531236 -0.796304 -1.787565 -1.030214 -0.084328 0.820439 -1.377906 -0.509360 -0.503952 0.685301 0.391121 1.445466 -0.274279 0.643744 0.216089 -0.854220 0.776689 -0.940994 0.554999 -0.730567 -0.525359 0.335342 0.778596 0.040385 -1.096453 -0.068095 -0.476903 -0.604764 -1.903009 1.415125 -0.883851 0.171977 -1.397404 -0.352155 1.020110 0.267375 -0.643925 -0.834272 -2.705431 -1.061691 0.411311 -0.117160 0.999293 1.018727 -1.268464 -0.584795 0.774900 -0.932103 -2.203818 0.528157 0.104762 -0.244389 -0.313982 -1.242093 1.118827 -1.508714 1.077925 -1.228501 0.294010 -0.917649 -1.133471 1.077991 -0.127808 -0.661125 -0.074200 0.045555 0.306875 -0.613093 -2.830257 0.028652 0.502986 -1.574062 -0.147231 -0.861792 0.214565 0.556993 -0.650877 0.431029 0.435369 -0.576406 0.694745 0.536668 0.931550 -1.491961 -1.238434 1.435244 0.687733 0.465630 -0.289773 1.057931 -1.179753 -1.295439 -0.668376 -1.009131 0.570591 0.902301 -1.129013 0.038119 0.697522 -0.645223 -1.353955 0.797932 -0.305306 0.514941 -0.243431 0.768883 -1.948838 -1.883779 -1.281205 -0.375668 1.170501 -0.854300 -0.308907 -1.320678 -0.402966 0.221083 -0.496645 0.652444 -0.225844 0.661402 1.860647 0.697241 -1.944260 -1.152520 -1.260935 0.091085 -1.464110 -0.047911 0.187167 0.804150 -1.390570 0.421299 0.070842 -0.250421 -1.977002 0.845788 -2.344265 -0.479086 -1.006568 -0.195979 1.191951 -0.181031 -1.622153 0.165687 1.377128 -0.053387 0.437614 0.565476 0.487460 -0.488629 0.282931 -0.646345 0.369746 0.325281 0.844152 -0.554749 -1.722400 -1.807983 -0.889404 -2.376402 0.398680 0.932258 0.854370 0.504778 -1.390619 0.211946 -0.488580 -0.826335 0.063745 1.378648 1.337013 1.130782 -0.537757 0.316489 -0.605301 -1.097569 0.851059 -0.809411 -0.212298 -0.287390 -1.706230 -1.547786 -0.139105 -0.836791 1.265499 -1.826252 -2.204160 1.160526 1.200048 1.075171 0.551012 1.567733 -0.356391 -1.049044 0.797934 1.439796 -1.230762 -1.589065 -1.745567 0.817861 -1.181517 -1.597886 -0.338292 -1.308594 -0.069058 -0.878537 -1.929496 1.603841 -0.424691 0.493176 0.906965 -0.959314 -0.468643 -0.082455 0.099274 -0.337866 0.415627 1.290293 -0.831924 -0.435326 -0.015945 0.436654 -0.792604 -0.913818 -0.569016 -1.406779 -1.198737 -0.507948 -0.469581 -1.457527 -0.636164 -0.227271 -1.278259 -0.699314 0.634148 0.261524 0.334957 0.524487 -1.449146 1.299455 -0.127647 0.498869 0.001720 -0.856327 -1.468545 0.583715 -2.842879 0.707469 -0.305967 -0.120775 0.172720 -1.079829 1.224241 -2.003684 -0.090651 -1.757300 -0.607936 -0.615729 -1.714819 -0.344733 0.898646 -0.967605 -0.421286 0.257807 0.923634 -0.941666 -0.325002 -0.974702 1.490866 0.368863 -1.157312 -0.453114 0.364288 0.606828 1.148737 -1.393106 0.543807 0.498156 1.447398 -1.018237 -0.455838 -0.791932 0.085775 1.298706 0.313551 0.456555 -1.262854 -1.307517 -0.777077 -1.598793 0.335073 -0.419498 -1.752575 1.951040 0.565573 -2.567559 -2.461805 0.066825 0.493829 0.748137 0.178540 -0.100301 -0.061397 0.397405 0.951354 1.551452 -1.130816 0.411948 0.102759 0.115081 1.295808 -0.926093 0.093788 0.141745 -0.943856 -1.268818 -1.502106 -0.472303 0.237106 0.437297 -0.912225 -1.361245 0.595048 -1.939133 -1.432839 0.424020 -1.524748 1.491194 -0.675893 -2.065029 0.383128 0.956888 -1.169348 0.701503 -0.059597 -1.191904 -1.843595 -1.159173 1.034579 -0.458886 0.788563 -1.621500 0.767298 -0.771035 -2.455328 -1.443150 -0.533332 -1.382505 -0.514997 -1.124387 0.071747 0.392014 0.736885 0.260412 1.075327 0.603470 0.245883 -0.626533 1.128557 1.083818 -1.386972 -0.901938 -1.553653 0.131628 0.782016 -1.157798 1.494213 1.181340 -1.144764 -0.539304 -1.178342 -0.535233 -0.969920 -1.377834 -0.175024 -0.001457 -1.526633 1.498242 0.627835 -1.439036 -1.063040 -1.986707 -0.445447 0.897325 0.801330 -0.374456 -1.255778 -1.184192 0.834329 1.230819 -1.099549 1.770375 -0.833867 -0.005527 -0.463876 -0.402914 -0.084419 0.639143 -0.407682 -0.972870 0.158932 -1.235260 -0.072032 0.931801 -1.633269 0.307993 -0.476728 1.028906 -1.755400 -0.660602 0.507673 0.143858 -0.499907 -0.070203 -1.236639 -0.589562 -0.680912 -0.623618 -0.334963 -1.055717 0.267406 1.130683 -1.177106 0.124552 0.202615 1.722152 -0.429094 -0.253276 -0.115423 0.538632 -1.294678 -1.661568 0.855508 0.518617 -0.957893 0.333941 0.825713 -2.717251 -0.287462 -1.651462 1.704344 -0.808255 0.210616 -1.402184 -0.217066 -1.472206 0.798568 0.323761 -0.051739 0.327849 -1.301383 -1.537923 -1.635024 1.013171 -0.725960 -0.875483 0.932552 0.875314 -0.223074 -0.347322 0.693616 -1.271396 0.297335 0.504329 -0.396154 0.345004 0.201844 -1.242244 -1.377689 0.938627 -0.798571 0.458988 0.709746 -0.082800 -0.246787 -1.316235 -0.132454 1.813664 0.215521 0.680188 -0.784116 1.053739 1.148411 -1.079997 -0.905700 -1.320724 -0.563567 -1.383937 0.694580 -0.834873 -1.492756 0.398582 1.508854 0.512051 -1.260225 1.000679 -0.467205 -0.212378 0.236772 -2.180362 -0.153993 -0.765734 0.258073 -1.118776 -0.698699 0.843998 -1.831471 -1.439481 0.973977 -0.801675 0.312340 0.122283 0.498261 1.164723 0.104534 0.066796 0.194856 -0.313558 -2.160234 -0.730310 -1.533708 -0.304384 -0.834801 0.782664 -1.706567 0.827808 1.404902 0.701834 -0.180957 0.701360 0.364395 -0.013354 0.668052 0.902853 -0.367181 0.109290 0.453793 0.123577 -0.306525 -0.366101 0.848194 1.117413 1.237265 -0.185290 -0.906059 -0.273686 -0.157159 -2.014801 -0.038079 -1.161456 -1.359346 -1.739010 -0.509452 -0.714424 -0.553997 -2.165639 0.329969 0.953148 0.790038 0.046920 0.534602 -0.870307 0.286254 -0.464709 -1.516420 -1.262251 0.069782 0.597151 -2.566092 -0.922690 -0.833784 0.077408 -1.005771 1.034868 0.633114 -0.086028 0.065405 -1.761577 -1.431332 0.744357 0.972136 0.631602 1.313337 -1.229501 1.483548 1.582360 1.106020 1.662215 0.980737 0.852075 -0.295088 -0.688060 -1.496183 1.213372 -1.098427 -1.165689 0.312936 -0.924973 -1.390899 -1.057933 -0.316065 -0.848430 -0.429534 -1.237826 0.850617 0.383416 0.203131 1.091916 -0.437060 -1.979178 -1.586121 -0.731260 -0.186119 0.162328 -0.695197 -0.500370 0.536449 -0.827597 -0.672973 0.485013 -1.313731 -1.692229 -0.626669 -1.796680 -1.213086 0.695591 0.333459 -1.269082 0.824257 -1.731165 0.452093 1.683296 -0.623123 0.136106 0.231347 -1.191969 -1.183162 -1.768679 1.055275 0.377510 -0.713270 -0.880406 0.999902 -1.407059 0.769994 -0.361597 1.185010 -1.434308 0.664137 0.576934 -0.802861 0.968128 0.310651 1.017987 -1.221441 0.835063 -1.783947 -1.120328 -0.224866 1.069508 -0.947101 0.666394 -0.047239 -0.646115 -0.882450 -1.868810 -0.130443 -0.564284 -0.584428 -0.196563 0.151739 -1.337462 1.494854 -1.131981 0.840361 -0.302468 -1.549155 1.849555 0.184997 -0.163801 -0.498670 -0.275212 -0.627221 1.415591 1.014519 -0.306226 0.566409 0.496188 1.011947 0.480259 -0.169468 -0.526838 -0.805483 -1.769735 0.199052 0.833996 -0.349564 -0.466774 0.901599 -0.932140 0.458982 -1.387166 -2.765523 -2.085646 -0.375191 0.399498 0.094524 -0.929077 -1.271020 -0.085634 0.058150 -1.123425 -1.355769 -0.190197 -1.678362 0.339813 -1.523582 -0.911647 -0.318983 0.228904 1.961444 -0.404802 0.773265 0.926977 0.571107 -0.559202 0.870168 -1.029445 1.555165 1.700003 0.744588 -0.215615 1.136901 0.250409 -1.583212 0.388362 0.949026 0.658761 0.317130 -0.727801 1.615603 -1.569954 0.140300 -0.010651 -1.662018 -0.467441 1.533841 -1.916717 0.000246 0.738890 -1.349260 -2.694294 -1.178189 -0.042492 0.829999 -1.475232 0.026292 -1.042036 -1.366764 -0.953532 -0.857068 -1.745932 0.069479 -0.726424 0.626297 -1.702900 0.797842 0.137047 0.550413 -0.790435 0.858646 -0.301218 -0.149363 -2.094916 0.917231 1.207880 -1.125769 -0.564218 -0.609432 0.457375 0.083627 -0.902231 0.335178 1.791239 0.554390 -1.219044 -1.112238 0.266773 -0.282761 1.027831 -0.945673 0.461969 -0.019488 -0.707624 -1.275319 -0.880919 0.146362 0.561817 -0.993060 -1.481412 -1.163365 -0.349620 -0.817941 -0.181265 0.264463 -0.401353 -1.662488 -1.287419 -0.992440 -0.634898 -0.933575 -0.058102 0.602162 -1.261011 -0.312726 -0.578515 -2.291854 1.382092 -0.191187 1.271782 0.465361 -1.519018 0.215968 1.618026 1.386414 -1.929821 0.013667 -0.651320 -1.260169 0.295591 -1.674034 0.838668 -1.558488 -0.428351 -0.239271 -0.168341 -0.138265 -0.441784 -0.051049 0.000890 0.616304 -1.117170 0.462022 0.137865 0.231088 0.975986 -0.046444 0.384011 0.971874 -0.882165 -1.690249 -0.504047 -0.596361 -0.025285 -1.920426 -1.495770 1.877300 0.666952 -0.195199 -1.617569 -0.281755 -2.351978 0.333096 -0.210282 0.087184 -0.825855 0.481293 -1.872216 -1.366283 -0.825829 -1.647550 0.210025 -1.132377 1.299582 -0.335935 1.309484 -0.134859 -0.181615 0.538996 -0.593290 -1.662707 1.693968 0.728658 1.078984 -1.448736 -0.201416 0.057649 -1.460441 -1.180842 0.675055 -0.518451 -0.912411 -0.000999 0.006424 1.318856 -2.150020 -0.090212 1.364508 -0.530955 0.044627 0.758858 -1.687517 -0.897813 0.660926 -0.438613 2.092631 -0.093735 0.237223 -0.225294 -1.561278 -0.268746 0.600118 -1.638041 -0.088487 -0.174327 -0.674819 1.328350 -1.010907 -1.203246 0.914099 0.980441 -1.154806 -1.137410 -0.059887 -1.151352 -0.772395 1.134545 -0.565788 -0.441751 0.721574 -0.649090 0.556640 0.118664 0.972485 -0.342656 -0.086621 -1.072357 -0.872780 0.362510 -1.941158 -0.891555 0.005287 -1.290202 -0.801294 -2.415596 -0.204654 -0.166472 1.300983 -0.501399 -0.709354 -0.712946 -0.801254 0.277539 -0.226821 0.727854 1.325498 0.031958 0.214924 -1.165844 -1.366215 0.236681 -0.733599 -0.651154 -0.043872 -0.801954 0.428405 1.327883 0.608745 0.122201 0.626487 1.845239 0.491548 1.239857 -1.576107 -0.369046 -1.223247 -1.516473 -1.474521 1.159424 0.524008 -0.289776 -0.133288 1.254389 -1.155368 -0.687871 -0.208391 0.278614 0.218420 -0.370800 0.091314 -2.668581 1.236719 -0.376511 -2.252474 -0.980221 -0.370090 0.395765 -0.457482 -0.458890 -0.212581 -0.947010 -1.734187 -0.303969 -0.446121 0.122515 -0.778918 -0.854579 -0.389015 0.212374 -2.311856 0.381813 -0.449540 -0.198844 -0.336274 0.028546 -1.895495 2.135141 0.571467 -1.730971 0.767260 0.881339 0.531907 2.634795 0.486749 -0.537846 -2.426872 -0.709135 -0.834033 -0.875021 0.469501 0.133053 1.157890 -0.725053 -0.787514 1.004197 -0.646070 0.341430 -1.057892 -1.795464 1.256646 -0.856292 0.360393 -0.522707 -0.406542 0.049518 -0.398020 -1.364272 0.649473 -0.925685 -1.245441 -1.680447 0.972764 1.042771 -0.501952 -1.057377 -0.372791 -0.780682 0.710897 0.324900 0.031705 -0.553834 -0.339536 0.280649 -1.236664 0.634361 -0.870677 0.468188 1.185206 -1.578745 -0.929071 -1.259045 0.972611 -1.452445 0.383185 -0.352259 -0.680991 0.854803 -1.603758 0.401865 1.183460 0.045627 0.025475 -0.021339 1.477416 0.225719 0.038105 -0.439247 -1.602365 -0.545886 -1.785102 0.639391 0.650108 -0.217494 -1.486758 0.121032 0.017606 -0.888641 -1.775106 -0.531708 -0.083957 -1.144859 -0.138702 0.733247 0.047324 0.016402 -1.207869 -1.313901 -0.546529 -0.993229 -0.732374 0.130273 0.508777 -0.778111 -0.260718 -1.865197 0.653643 -0.985283 0.646322 -1.813303 -1.179555 -1.023820 1.330539 0.568912 0.342600 -1.343554 0.197278 1.704240 -1.277701 -0.951690 1.434359 0.025666 -2.020556 1.067704 -1.333264 0.411359 -0.418246 -0.123452 1.049791 1.065000 0.441108 -0.254768 -0.095484 0.406174 -1.556286 -0.637763 0.559785 -0.198350 -1.842054 -0.838282 1.838929 -0.366181 -0.975958 -1.036122 -1.377574 -0.147376 0.184977 0.415006 -0.550184 0.777591 -1.237330 1.166541 -1.075087 0.217473 -0.854624 -1.043427 -1.196207 1.432409 -0.590261 -1.196689 1.009920 -0.489826 0.594841 -0.330802 -0.658676 -0.468605 1.432910 -1.233757 -1.322790 -0.375921 -0.576230 -1.223517 -0.126828 0.352200 -1.028891 0.262682 0.432944 -1.089948 -1.331971 -0.881257 0.449114 -0.671395 1.300076 -1.577432 0.102682 0.498026 0.135348 0.659059 0.025805 0.191842 -0.515572 -0.024563 -0.617449 0.260453 -1.100958 0.147546 -1.839967 0.551015 -0.193968 0.254382 -1.340483 0.165696 -1.005685 1.338371 0.841725 0.343651 1.222628 -0.271651 -1.145047 -1.014103 -0.298028 -1.254240 -2.066394 -1.856557 1.583690 1.112320 -0.282907 1.233532 -0.998436 -0.509692 0.241694 -1.725372 -0.444482 -0.254375 -0.630225 -1.075330 1.191198 -1.818290 0.821610 -0.908180 -0.050365 -0.360508 0.207058 -0.553331 -0.902780 0.394632 -1.232295 0.801466 0.334638 -0.230581 -0.593678 -0.533401 -0.961583 -1.233514 0.088138 -1.853798 0.289227 -0.685951 0.605596 -1.199505 -1.319663 1.404892 -0.575783 0.262855 0.588291 -0.030617 0.418210 0.949894 1.396840 -0.701637 -1.390087 -0.406448 -1.698764 -0.800506 -0.989699 1.564709 1.340083 -1.856574 0.043234 0.199007 -0.228797 -1.033082 -1.755467 -0.279115 1.120282 -1.230774 -0.135733 0.794670 0.733915 -0.327858 -1.315506 -1.608760 -0.404304 -0.323809 1.041809 -0.971136 0.081830 0.042035 -0.296858 -1.117312 -0.670571 -1.356063 -0.884312 0.597085 -1.105325 -0.691520 0.276918 -0.041265 0.844233 -1.009195 -0.375786 0.496653 -1.671661 1.062431 -0.488967 0.307572 -1.999260 -0.106454 -0.926509 1.138198 0.301741 -1.591178 -1.331904 -0.674110 -1.198270 -1.617634 1.419031 -0.972322 -0.943567 -1.027881 -0.613543 -0.782273 -0.354586 -1.032163 -1.499251 1.147414 0.738360 0.243527 -0.252049 0.080531 0.889564 -1.333794 0.699881 -0.248710 0.520046 -1.892881 -0.818329 -0.609043 -0.022541 -0.614037 0.021688 -0.693716 0.221969 0.907175 -0.447138 0.863473 -0.708532 -0.161772 1.948701 -0.157533 1.827848 -2.483814 -2.405637 0.974119 -1.812751 -0.486907 -0.903578 1.066022 -1.345669 0.111452 -1.043983 -0.104670 0.414433 0.440009 0.761171 1.343554 -0.912645 -0.162143 -0.790667 -0.220939 0.078357 0.256074 0.261188 0.119465 -1.857433 0.663163 0.607430 0.529675 0.043723 -0.268726 -0.838859 0.655713 -0.219400 -0.718957 -0.932594 -0.176964 1.785237 0.469639 -1.181328 -1.221081 -0.654135 1.259931 -0.372270 0.320064 0.306833 -0.986427 -0.454518 1.327444 0.840559 -0.777055 -1.992840 0.886367 0.131117 -0.124758 -2.483269 0.592781 0.793990 1.625008 0.346607 1.388018 -1.055407 1.067004 0.116979 0.781036 -0.929335 0.791254 -0.343311 1.302665 -1.416840 0.398223 -0.506059 0.125159 -0.746542 -1.951099 -0.623179 0.115628 0.822659 0.566766 -0.662518 0.269291 0.642070 0.180741 0.055837 0.109713 0.381794 -1.396800 -0.531697 -1.392272 -1.670835 -1.507520 -2.369125 -0.241883 -0.211291 0.217942 -0.360260 1.154887 -0.912804 -1.565473 1.124712 0.702473 -1.114203 0.858827 0.482415 -1.574168 -1.461870 -0.434265 -1.050254 -0.582762 1.533122 -1.258330 -1.328613 -0.208012 -2.590901 -0.381492 -1.001545 -1.349912 0.855678 -1.339170 -1.166588 -0.591232 -0.899780 -0.281529 -0.281889 1.194120 0.461996 -0.878336 0.690465 -2.034946 0.039602 -0.577278 1.339714 0.023840 0.506018 -0.890110 -0.212890 0.873470 -0.604018 -0.773982 -1.058219 -1.960483 -0.758996 -0.580342 0.076272 0.234890 0.534624 -0.847521 1.547176 1.002787 0.187843 0.487882 -1.916643 0.392180 0.570818 -1.102065 -0.802124 -0.978921 0.179893 0.575794 0.850433 1.333287 -0.945895 0.213829 -1.208686 -1.314848 -0.591318 -0.442082 -0.371674 0.525927 0.182275 0.446262 -0.789152 -1.574296 -0.394914 0.307737 0.501696 -1.256561 0.006475 -0.301770 0.036952 -1.950840 0.895637 0.401011 1.327547 0.300537 0.190802 -0.801178 0.456162 -1.225883 -0.692892 -2.025196 0.217056 0.131697 0.077773 -1.128459 0.488831 -1.112051 -0.569056 0.701663 0.054217 1.321070 0.755441 -0.741942 -1.313780 0.141444 -0.883578 0.614668 1.982893 -0.221835 -0.766015 -1.227848 1.125906 -0.018163 0.760537 -0.973039 -0.190062 -1.136474 -0.436803 0.110869 -1.025864 0.482938 0.736910 0.922292 -1.059833 -0.848326 -0.031478 -0.179887 -0.007504 0.503321 -1.157833 -2.734066 -1.148578 2.415687 1.007403 0.582832 -0.225459 -1.365328 -0.135002 -0.327892 -1.912941 -1.193882 0.601050 -1.256971 -0.536827 -0.698759 -0.956965 -2.140185 