0.182552 -0.772845 -0.140994 0.525310 0.796580 0.411837 0.434691 -0.389903 0.224012 0.210908 -0.891578 -0.211158 0.185003 0.466903 0.019201 -0.718349 0.097984 -0.924240 -0.169345 0.220619 -0.447595 -0.913324 0.174543 -0.487949 -0.994421 -0.071632 0.105432 -0.386894 0.334107 -0.190561 0.203650 -0.085637 -0.040279 -0.883795 -0.960144 -0.156283 0.661044 0.610178 0.328970 -0.157414 0.103456 0.341664 0.434914 -0.807643 -0.463290 -0.424424 -0.687843 0.455680 -0.554263 -0.223767 -0.249389 0.437034 0.250987 0.655431 0.780552 0.381389 -0.598013 -0.360169 -0.958742 -0.832839 0.743727 0.161890 -0.245356 -0.341297 0.328820 0.101815 0.498011 0.050020 -0.179969 -0.026620 0.819610 0.454951 -0.797859 0.506285 1.033312 0.094612 -0.790953 -0.699561 -0.549433 -0.407470 0.220861 0.391078 1.038244 -0.360041 0.320930 0.887273 0.749592 0.633534 -0.342122 0.986372 0.864585 -0.798978 0.315434 -0.274504 0.434774 -0.971122 0.307180 -0.217220 0.792888 -0.911036 0.505809 0.313227 -1.085148 0.473090 -0.316020 1.003440 -0.647721 -0.107551 -0.940538 -0.429544 0.358854 0.398411 -1.240831 0.484434 -1.184737 0.130262 0.323353 -1.120703 -0.209727 -0.933395 0.904113 -0.459003 -0.564586 -0.051549 0.020062 0.608429 1.136061 -0.887892 -1.067917 0.828678 -0.302714 0.823823 -0.135447 -0.305392 0.149961 0.460623 -0.267261 0.292965 -0.582327 -0.290722 -0.767548 -0.763319 -0.827470 -0.603552 0.631521 -0.568042 0.605010 0.110960 -0.858778 -1.139320 0.261611 -0.680941 -0.440584 0.536250 0.446771 0.558068 0.114276 0.563889 0.814487 0.363800 0.020380 -0.642631 -0.006211 0.537258 0.028701 0.837554 0.638040 0.885068 0.179401 -0.797597 -0.549940 0.144902 -0.639252 -0.219705 0.431026 0.962192 0.008275 -0.043738 -0.413193 0.338708 -0.056783 -0.985432 0.542302 0.897278 0.743969 0.065105 0.124449 -0.288102 -0.402990 -0.045147 0.949372 0.836270 0.305047 -0.361348 0.665839 -0.523671 -0.257716 -0.000075 -0.606531 0.883159 0.376236 -0.548157 -0.107571 0.143600 0.164535 -0.538038 0.381693 -0.738786 0.888072 -0.649566 0.570077 -0.495419 -0.394920 0.330830 -0.876407 -0.742891 -0.667769 0.263124 -0.182879 -0.138055 -0.960612 -0.130071 -0.434780 0.329515 0.639294 0.932328 0.880742 -0.929918 -0.097415 0.819170 0.974237 -0.591999 -0.432635 -0.094316 0.724684 0.985678 0.046832 0.127313 -0.561965 -0.435263 0.690470 0.944459 0.051447 -0.848566 0.270108 0.584139 -0.501525 0.355850 0.084738 0.560176 -0.708883 -0.198254 -0.707413 -0.301265 -0.770754 0.915364 -0.222364 -1.081699 0.552832 0.597683 1.007438 0.501788 1.011749 -0.503690 -0.857917 0.688596 -0.401511 0.371817 0.303679 -0.408208 -0.892625 -0.441266 -0.601553 0.464624 0.082626 1.215891 0.046778 0.452456 0.378301 0.648503 0.004624 0.340275 -0.384573 -0.028872 -1.099924 -0.191419 -0.098085 -0.264256 0.149958 -0.135879 -0.692490 -0.027747 -0.717668 -1.137346 0.759380 -0.581989 0.876627 -0.911386 0.849137 -0.235166 -0.207738 0.724678 0.772636 0.448961 -0.026025 -0.662353 0.145058 0.922347 0.909294 -0.761366 0.921711 -0.422838 0.605190 -0.664483 0.775798 0.535737 0.083627 -0.298057 -0.652258 -0.712281 0.422889 -0.249522 0.187974 0.809687 -0.083252 0.141637 -0.883577 -0.317366 -0.094847 0.818641 0.979797 0.710443 0.572354 0.186691 0.261784 -0.123599 0.548709 -0.646497 -0.255598 0.419603 -0.184833 -1.027605 -0.960168 -0.363068 -0.646545 0.790952 0.729211 0.921703 -0.449282 -0.810615 -0.891504 0.888665 -0.273185 0.713469 0.722595 0.771466 -0.120627 0.814976 -0.358572 0.790063 0.638849 -0.530989 0.647460 0.086737 0.670812 -0.005319 0.570468 -0.090992 0.508758 -0.718840 -0.568314 1.027774 -0.662821 -0.703201 -0.492345 -0.061356 -0.830223 -1.049147 -0.233685 -0.132413 -0.644605 0.056445 -0.106292 0.026371 -0.180937 -0.310108 0.006236 0.149209 -0.853964 0.633300 0.040725 0.745475 -0.213876 -0.246311 0.089394 0.668067 -0.531104 -0.725460 0.142627 -0.472810 -0.481178 0.048879 0.063242 -0.437433 0.298510 0.862510 -0.010683 0.224265 -0.455603 0.794922 0.708250 0.721812 -0.490515 -0.170414 -0.610303 -0.019706 0.459552 0.788542 0.266076 -0.118142 0.228418 -0.056614 -0.561911 0.821868 0.568519 0.731805 0.797825 0.900424 0.697251 -0.328406 -0.305699 -0.875962 0.769548 0.349303 0.113739 0.137054 0.437199 0.950520 -0.622976 -1.072049 0.654872 0.892172 0.949021 -0.809968 -0.427789 -0.846215 0.074747 1.104281 0.984050 -0.729662 -0.132627 0.124111 -0.115687 0.323398 -0.146566 -0.371006 -0.035954 -0.283688 -0.387295 -0.402963 0.188798 0.223993 -0.140884 -0.031276 -0.291971 0.635669 -1.140149 0.949059 0.613507 -0.612021 1.033654 0.248435 -0.698010 0.995709 0.512340 -0.275942 0.759762 -0.270927 -0.039826 0.796181 -0.141483 0.856784 -0.173246 0.961760 0.211036 0.699705 -0.609333 -0.739273 -0.844144 0.305732 -0.347274 0.650917 -0.637900 0.684748 -0.530149 0.022032 0.108722 -0.727906 -0.096755 -0.382717 -0.225609 -0.104434 0.842711 0.176954 -0.451672 0.358573 -0.806237 -0.629805 0.890162 -0.001694 -0.796712 -0.303824 -0.308788 -0.056091 -0.422790 1.091341 -0.125469 0.217563 0.892463 0.372707 -0.474749 -0.419979 -0.449182 -0.115178 -0.657666 -0.154828 -0.992823 0.448510 0.227474 0.062440 1.049792 -0.567757 0.913671 0.841230 0.631573 -0.370841 0.330785 0.473625 -0.294565 0.085126 -0.487159 0.211587 0.719806 0.337413 -0.666184 -0.341428 0.111965 0.255355 0.872539 0.173948 -0.870077 -0.731884 0.879156 -0.310863 0.462234 -0.632548 0.818757 0.401069 0.333688 0.250159 -0.540970 0.425713 0.567456 -0.736516 0.371116 -0.053580 -0.128594 -0.598524 -0.424516 0.864527 0.666709 0.186340 -0.080385 0.468852 -0.343867 0.238768 -0.914827 0.724891 -0.504370 0.976387 0.019488 -0.333481 -0.528165 -0.166532 0.641974 0.912207 -0.146845 0.362953 0.503918 -0.608842 -0.485212 0.861504 0.527094 1.189267 -0.788662 0.017932 -0.103396 0.091540 0.393846 0.528325 0.068008 0.277815 -0.258675 0.923507 -0.214451 0.274971 0.367112 -0.577615 -0.063866 0.786816 -0.460376 0.781919 -0.458962 0.009829 -0.270223 -0.914779 -0.110523 0.517447 0.296538 -0.611966 0.865721 0.878969 -0.938319 0.249701 0.741646 -0.515021 -0.594337 -0.237064 0.628028 0.913371 -0.568555 -0.701149 -0.083447 0.059457 -0.593022 0.519625 -0.893877 0.712209 -0.805589 0.205775 0.699067 -0.109900 0.120464 -0.999122 0.835250 0.685592 -0.898350 -0.240179 0.021550 0.589332 0.095737 -0.350030 0.289397 0.097442 -0.920715 0.051305 0.566591 -0.549417 0.639023 -0.081588 -0.470585 -0.773319 0.565781 0.419402 0.279574 0.817398 -0.168008 0.364872 0.739786 0.121015 -0.222718 0.178564 0.849135 0.654457 0.604946 0.706804 0.272570 0.363886 -0.783317 -0.761223 0.020027 0.209580 -0.062019 -0.642586 -0.634510 -0.245317 0.346207 0.884695 0.320676 0.165199 0.047716 0.828981 0.303273 -0.431464 0.322196 -0.512303 -0.414608 -0.831730 0.956421 -0.587571 0.455301 -0.257734 0.654647 0.233671 -0.723518 -0.034618 -0.347998 0.683010 -0.426535 0.127956 0.730191 0.404771 -0.713321 -0.243223 0.616532 -0.286310 0.718428 0.003946 -0.246616 0.073659 -1.035118 0.820052 0.030445 0.403903 -0.560399 -0.779861 0.877828 -0.133809 -0.198200 0.863177 0.346604 -1.001787 -0.581421 -0.129990 0.254323 -0.432676 0.711481 -0.924806 -0.451864 -0.713855 0.242681 -0.688947 0.596879 0.543835 -0.299262 0.178192 -0.733663 -0.514404 -0.732459 0.046794 0.846703 -0.606314 -0.307117 -0.372147 0.781907 0.168606 0.009127 0.701831 -0.931767 0.702136 0.535117 0.267525 0.641822 0.764459 -0.956693 0.089881 -0.406285 0.742448 0.024897 0.028302 0.847467 -0.735835 0.226938 0.532559 0.702577 1.042532 -0.104093 -0.986446 -0.557200 0.354708 0.153268 -0.867369 0.686380 0.829306 0.343440 0.072515 0.951472 -0.014082 0.184972 0.708428 -0.526902 -0.520635 0.480240 -0.611777 -0.477350 -0.492651 0.051044 -0.725580 0.601549 -0.973091 -0.818397 0.886325 0.121042 0.728988 0.674126 -0.007603 -0.408604 0.737922 0.362493 0.734094 -0.190918 0.442289 0.304450 -0.321569 -0.733444 -0.373256 0.754183 -0.794457 0.617471 -0.073473 0.908872 -0.931601 0.393510 0.383936 -0.546225 0.912648 0.882904 0.498144 -0.819800 0.475285 0.528170 -0.643799 0.367813 -0.369079 -0.915019 0.036346 0.616958 -0.328897 -0.242863 -0.008351 -0.605205 0.564609 -0.568853 0.691201 -0.764384 -0.305831 -0.687245 0.981203 -0.098087 0.919986 -0.098293 -0.199234 0.978224 -0.711243 -0.811547 -0.566567 -0.803039 -0.937885 0.926715 -0.628069 0.544741 0.443853 -0.265150 -0.077870 -0.927949 -0.197063 0.936097 0.695902 0.466911 -0.309045 -0.317359 0.864082 -0.761603 0.110335 0.553030 -0.523543 0.802228 0.851742 -0.541247 -0.319983 0.772504 0.358212 0.483740 0.742856 0.650748 0.669369 -0.832191 0.846451 0.727935 -0.910420 -0.788261 0.280626 0.532964 -0.063276 -0.807918 0.599251 0.741472 -0.880245 0.291453 0.202127 -0.199234 0.965724 0.067095 0.042463 0.076839 -0.401057 0.518073 -0.133513 -0.555912 0.979534 0.542873 -0.790673 0.316270 0.019153 0.940146 -0.038939 -0.302427 -0.890380 -0.202092 -0.579564 -0.817199 0.010013 0.686119 0.701221 0.929825 0.855766 0.295972 0.658524 0.956358 -0.417312 -0.151952 -0.221552 -0.470957 0.906273 0.819545 0.597610 -0.494675 0.324619 -0.536352 -0.051093 0.285867 1.010847 0.147423 -0.379596 0.023069 0.089344 0.567398 0.710145 0.180857 -0.634194 -0.881448 0.374279 0.358498 0.796461 0.070335 0.295551 0.651274 -0.628191 -0.055749 0.616406 -0.072821 0.795405 -0.610680 0.453680 0.719255 -0.802461 0.052454 -0.791088 0.531131 0.503781 0.141876 -0.174008 0.518056 -0.697624 0.449459 -0.452612 0.383940 0.001033 -0.755751 -0.423175 0.367874 -0.639262 0.936005 -0.268789 -0.829949 0.013489 -0.982977 0.818092 0.362806 -0.047835 0.440692 -0.722418 -0.246236 0.813740 0.738998 -0.540803 -0.987793 -0.192475 -0.335603 0.528577 -0.687034 0.815527 -0.641167 0.824250 -0.893488 0.791043 -0.631859 0.490956 -0.199588 -0.385240 -0.946349 -0.833600 -0.027621 0.984756 -0.116680 0.139793 -0.012230 -0.111738 -0.056381 -0.649479 0.837980 -0.630404 -0.382409 -0.403590 -0.810333 -0.626763 0.048123 -0.796528 0.163527 0.703020 0.747270 0.475148 0.522216 -0.911622 0.312240 0.624702 0.872752 0.667491 0.101306 -0.324317 -0.737748 0.154167 -0.164532 0.242456 0.139378 0.715722 -0.640223 -0.878431 -0.398881 0.298081 -0.543234 -0.554029 0.670945 0.086042 0.036555 0.842866 0.457199 -0.915740 -0.953793 -0.376080 0.786273 0.769235 -0.918848 0.292519 0.851847 0.389151 -0.091871 0.736506 0.047019 -0.992558 -0.587870 0.319148 0.155154 0.244671 -0.462789 -0.708344 -0.060607 -0.096658 -0.591214 0.554734 -0.794273 -0.125775 0.982205 0.873706 0.952143 0.026916 0.702685 0.397708 0.101968 0.745705 -0.991562 -0.115936 0.504735 -0.908111 -0.821906 0.355446 0.481753 0.091892 0.078232 -0.459305 0.101213 0.475860 0.844385 -0.763642 -0.291299 -0.615401 -0.480418 0.657534 0.295535 -0.072362 0.196982 0.492021 0.800687 0.178148 0.344177 0.744456 -0.794091 0.043891 0.153202 0.289159 -0.229202 0.141163 -0.817951 -0.720478 0.254181 -0.633220 0.632020 -0.266540 0.441818 -0.280745 0.256312 -0.483575 -0.800666 0.102853 -0.240085 -0.099746 0.487757 0.289932 -0.458584 -0.225462 -0.784371 0.744910 -0.758870 1.005088 -0.083422 0.587307 0.739111 0.104420 -0.377720 -0.121219 -0.591321 0.390785 -0.979885 -0.415343 0.658920 0.272381 -0.048108 0.293546 0.990686 -0.621863 -0.984987 0.235294 -0.085053 -0.804851 -0.664935 0.673183 0.105634 0.812631 -0.048966 0.642706 -0.412682 0.166577 0.381620 -0.167536 0.164491 -0.714292 -0.111178 0.393873 0.028393 0.769650 0.795864 -0.583302 0.796746 -0.620515 -0.919614 0.060877 0.318817 0.372700 0.053046 0.699664 0.377148 -0.708165 -0.397640 0.570111 -0.374094 -0.727418 -0.337948 -0.560417 0.221644 -0.693551 0.018895 -0.624046 0.688690 0.847031 0.526563 0.975529 -0.739108 -0.577245 0.369813 0.293375 -0.807261 0.162425 0.711879 0.987056 0.547720 0.799200 0.054622 -0.138632 0.175684 -0.891242 -0.432871 -0.449573 -0.602369 0.173626 -0.876265 0.021851 0.443166 -0.207832 0.462678 -0.335387 0.101593 -0.515541 0.038272 -0.209011 -0.669327 -0.426807 -0.229587 -0.406225 -0.006152 -0.860419 0.891407 0.189167 0.306070 0.603271 0.181460 -0.143769 0.403921 -0.764157 0.725587 -0.418957 -0.653172 -0.706644 0.135174 -0.256403 0.460623 0.259106 0.769022 -0.092331 -0.939704 0.237944 0.575241 0.161195 0.723378 -0.383599 0.951932 -0.940406 0.191705 -0.275677 -0.344038 -0.814256 -0.135565 -0.453185 0.377704 -0.829035 -0.844192 -0.440136 0.032856 0.556873 -0.198594 -0.246821 -0.863254 0.147886 0.043386 0.270277 0.893305 -0.490857 -0.463820 0.667697 0.416353 -0.405780 -0.090451 -0.005995 0.759149 -0.367569 0.613942 0.713991 -0.312106 -0.195522 -0.557115 0.345015 -0.003035 0.310112 0.890458 -0.626394 0.484634 -0.954426 -0.062750 -0.484097 0.602891 0.740579 0.271488 0.741539 -0.112272 -0.679223 0.019520 -0.213058 -0.168192 0.555515 -0.544326 -0.748227 -0.845174 0.368684 0.250172 0.918642 -0.999610 -0.132866 0.632965 -0.305500 0.670868 -0.919772 -0.960967 -0.329797 0.394798 0.932580 0.045444 -0.122499 0.974625 0.987320 0.399499 0.583468 0.729366 -0.319805 0.326831 -0.379308 -0.001838 -0.651568 0.411092 0.837094 0.904985 0.867289 -0.910001 -0.936938 0.238259 0.340783 0.983103 0.238499 -0.794747 0.621459 0.935901 0.886870 0.705300 0.976574 -0.445163 0.093747 0.908366 0.603544 0.970907 0.886812 0.593424 0.376779 0.466970 0.324235 -0.946758 -0.205786 0.950777 0.056302 0.146725 0.360703 -0.107783 0.052379 0.228306 -0.017323 0.119575 -0.532416 -0.669901 0.106833 0.710110 -0.461687 -0.268142 0.645292 -0.577827 -0.569248 0.620927 -0.020028 0.525546 0.531767 -0.412644 0.503226 0.419428 -0.818298 -0.123362 -0.106452 0.507536 -0.072097 0.690469 0.463266 0.992814 -0.164990 -0.181568 -0.118317 0.889888 -0.953779 0.872529 0.018474 -0.485344 -0.798502 -0.877220 -0.770476 -0.257902 -0.148717 0.877596 0.168110 0.287715 0.503979 -0.844645 -0.186463 0.037104 -0.257424 -0.682251 -0.544032 -0.073706 0.198488 0.351701 -0.563066 -0.871132 0.043002 0.901030 -0.879239 0.877586 -0.275534 0.008464 0.777665 -0.225943 -0.119509 -0.209568 0.294149 0.085396 -0.084062 0.523560 0.828969 0.771913 0.405384 -0.000989 0.061283 -0.092094 0.155579 0.881287 0.945773 0.898463 -0.804746 -0.595333 -0.171402 0.399865 0.758827 0.269834 0.530596 -0.199384 0.170830 0.651716 -0.319765 0.891699 -0.336562 -0.543648 -0.327159 0.545621 0.248264 0.966279 -0.371639 -0.827251 0.495542 -0.545176 0.944286 -0.097566 0.459171 0.006847 0.813621 -0.382830 -0.116342 0.760667 -0.482222 0.081160 -0.836983 0.354018 -0.517055 0.924128 -0.376392 -0.988002 -0.275956 0.795973 0.668350 0.410723 0.694626 -0.670565 0.872867 -0.637290 0.876491 0.122611 -0.666479 -0.498063 0.293277 0.829609 -0.039049 0.239401 -0.267172 -0.576488 -0.752091 -0.454921 0.039682 0.136507 -0.692901 0.564591 -0.779260 -0.524971 -0.080086 -0.294415 -0.594181 0.545137 -0.280587 0.130512 0.344415 -0.608130 -0.452382 0.042131 -0.277352 -0.581327 0.411194 -0.396705 0.543074 0.750151 0.103100 -0.158994 0.581953 -0.934702 -0.918008 -0.682129 -0.508269 -0.667615 -0.137497 0.537178 0.462724 0.170184 0.104007 0.686952 0.648602 -0.977408 -0.607676 -0.944838 0.568417 0.112427 0.188302 -0.083946 0.504271 0.733933 0.960753 -0.767915 -0.841637 0.371856 -0.171100 0.110200 0.916993 -0.467671 -0.311637 -0.941613 -0.396618 -0.004910 -0.487686 -0.099030 0.997178 -0.900050 -0.527917 0.092371 0.132388 -0.916145 -0.294758 0.258218 -0.472204 -0.230143 -0.205776 0.534758 0.970180 0.742497 0.142177 0.766524 0.750123 0.445393 0.914948 -0.041571 -0.837424 0.629448 -0.825907 -0.885096 -0.968673 -0.243057 -0.765693 -0.250227 0.850543 -0.365776 0.709922 0.803245 -0.267139 -0.876585 -0.148314 0.935293 -0.646900 0.536495 -0.011908 -0.299046 -0.580006 0.788572 -0.613318 -0.758124 0.430596 0.627819 0.896969 0.045645 -0.080830 0.880814 -1.003292 0.145510 0.457027 -0.832813 0.243254 0.503975 0.063943 0.454402 -0.734814 0.001733 -0.929657 0.918304 -0.443641 -0.283172 -0.866906 0.494401 -0.484281 -0.708043 -0.060541 0.500275 0.053847 0.286185 0.382340 0.477396 0.600755 -0.216825 -0.029863 0.604145 0.722822 0.884642 0.233048 0.788299 -0.010064 -0.269991 0.851029 -0.723609 -0.695349 -0.148781 0.619509 -0.379666 0.693901 0.573407 -0.477386 -0.615101 -0.722692 -0.501420 0.826862 -0.107991 -0.064362 -0.336281 -0.585350 1.056735 -1.053730 0.566696 0.364273 0.685890 -0.615105 -0.732753 0.005962 -0.806759 -0.805320 -0.595674 0.869462 0.120749 0.126530 0.813899 0.417006 0.605979 -0.368008 -0.189011 -0.838708 -0.571420 -0.866628 -0.374333 -0.256882 -0.450088 0.061041 -0.504454 0.373257 0.976318 0.226290 0.605301 0.917547 0.219172 0.281500 0.420263 -0.141180 0.719927 0.593013 0.852173 0.859663 0.783855 -0.599783 0.638458 -0.107233 0.584195 0.383713 -1.022558 0.088241 -0.898298 -0.162964 0.264288 -0.437028 0.004526 0.751934 0.361284 0.652647 -0.067298 0.720289 -0.171051 -0.150067 0.056170 -0.491022 -0.248949 -0.745167 0.756169 1.061699 0.044520 0.506784 0.619451 -0.006863 0.515610 0.453264 0.430117 0.079063 -0.886900 -0.130515 -0.570605 -0.752733 -0.902280 -0.505697 0.112472 0.378692 0.003720 -0.933074 0.156395 -0.769297 0.413760 0.962157 -0.862550 -0.553246 -0.091328 -0.015621 -0.037026 0.544122 0.471607 -0.276718 0.583432 -0.364124 -0.650858 0.113139 0.552833 0.682800 -0.441091 -0.076938 -0.267017 -0.258184 0.874712 0.097581 -0.178192 0.917211 0.548249 0.826959 0.408716 -0.273157 0.910672 -0.616263 -0.186099 0.386114 -0.594831 -0.067692 0.973358 0.249266 -0.914379 -0.062361 -0.208343 0.416949 0.756043 -0.647053 0.944879 -0.915231 0.491320 0.480128 0.870272 0.961369 -0.648702 -0.465159 -0.355125 -0.914702 0.599917 0.379324 -0.949904 0.157903 0.359556 0.501355 0.818613 0.137845 0.894501 -0.220540 -0.326554 -0.768731 0.670635 -0.499328 0.599923 0.774972 0.369696 -0.649653 0.402604 0.114195 -0.174291 0.263018 0.179137 -0.748964 -0.347970 -0.015317 -0.713381 0.158000 0.672730 -0.219516 0.233859 0.173584 -0.757038 0.457643 -0.566865 0.508806 -0.013832 -0.673665 -0.198751 -0.270043 0.103978 0.265267 0.240173 -0.214669 0.731398 -0.205844 -0.291154 0.268325 0.155253 0.819013 -0.838450 0.769291 0.281087 0.333802 -0.956601 -0.878115 -0.713272 -0.730803 0.147021 0.889475 0.027005 -0.647276 -0.100341 0.340073 0.712045 0.384191 -0.116385 -0.274947 0.661399 0.579685 0.425382 -0.450442 -0.035424 -0.474840 0.432289 -0.322667 0.288569 -0.938689 0.811167 -0.773696 -0.924714 0.983855 -0.856124 0.359391 0.430573 -0.774858 0.423367 0.777125 -0.451325 -0.437739 0.399073 0.511254 -0.183510 -0.655469 -0.117861 -0.194426 0.655309 0.679674 0.497724 0.225867 0.410612 -0.312931 0.807807 -0.711521 0.431900 0.143834 -0.046845 -0.228452 0.073773 -0.397515 -0.029529 0.170414 -0.391989 0.219625 -0.460362 1.096129 0.301388 0.853736 0.588145 0.830762 -0.529522 -0.080492 0.479911 0.450216 0.238221 -0.696577 -0.973845 -0.137004 0.896345 0.575960 -0.938618 0.354023 -0.665221 0.743177 0.364633 0.659698 -0.036506 -0.725095 -0.683959 -1.056144 -0.017195 0.331490 0.313529 0.597102 0.780269 0.506238 0.884520 0.625720 -0.052749 0.616575 -0.822770 0.978789 0.260824 0.340422 0.100146 0.330739 0.575987 1.014555 0.256976 0.075933 0.849362 -0.480333 0.461596 0.610960 0.865218 0.084170 -0.335048 -0.911425 0.212871 -0.158603 0.105768 -0.542823 0.867917 -0.490370 0.069642 0.424501 0.894379 0.140028 0.261670 -0.322104 -0.196508 0.445041 -0.343855 -1.055368 -0.236279 0.653268 0.252446 -0.778641 0.701495 -0.175502 0.157935 0.616726 0.256887 -0.712769 0.090925 0.283724 0.368089 0.738562 0.312699 -0.666431 -0.494927 -0.521180 -0.184809 -0.667095 0.000152 0.810749 0.775994 0.016044 -0.283669 0.173837 0.783824 0.645075 -0.504491 -0.483500 0.687650 0.350000 -0.702132 0.068372 0.514097 -1.086719 0.895075 -0.141032 0.470007 0.398270 0.320030 0.141267 -0.369047 -0.616012 -0.142017 -0.817122 -0.119345 0.279305 -0.509575 0.637991 0.605119 0.739745 0.549315 0.608318 -0.391427 -0.550376 -0.490502 -0.463300 -0.871803 0.227981 0.399507 0.663820 -0.401433 0.474046 -0.007225 -0.566520 0.253696 -0.094987 0.332908 0.047638 -0.761100 -0.249302 -0.852347 -0.208667 0.288579 0.152240 -0.068554 -0.871493 -0.363164 0.769389 -0.943650 -0.888074 0.479107 0.581751 0.921880 -0.796695 -0.709403 -0.412388 -0.262912 -0.531787 0.754884 -0.905940 -0.826603 -0.512701 0.517878 0.083437 -0.102400 -0.102336 -0.916381 -0.653731 -0.924678 -0.860619 0.117312 -0.536591 -0.115231 -0.668770 0.677731 -0.824346 -0.395797 -0.765020 0.653114 -0.195428 -0.744700 0.284081 -0.349336 -0.739663 0.429640 -0.114483 -0.306670 -0.915872 0.096821 -0.438370 -0.836470 0.534418 0.030771 0.893421 -0.166387 0.975675 -0.131646 -0.169344 -0.794868 0.238420 0.225831 0.229402 0.794506 -0.791527 0.656802 0.425726 -0.699031 -0.448959 0.773737 -0.619153 0.279502 -0.663052 0.598072 0.914301 -0.856444 0.168622 -0.394001 -0.017276 0.311130 0.939625 0.737850 0.669658 0.236949 -0.336670 0.476002 -0.866670 -0.348935 -0.603278 -0.003490 -0.159959 0.687589 -0.896876 -0.855736 0.029500 -0.606718 1.190092 -0.173010 -0.280926 -0.815701 -0.481517 0.088620 0.369571 -0.177139 -0.119308 0.384918 0.340143 0.913070 0.935963 -0.477600 0.290325 0.908942 -0.812789 -0.114954 0.239043 -0.210220 -0.576666 0.409605 0.543370 -0.092318 -0.536115 -0.726122 -0.639501 -0.387314 -0.397484 0.731833 0.131218 -0.399851 -0.330782 0.994230 -0.301470 0.035676 0.301396 -0.678219 -1.205136 -1.008228 0.704383 0.512033 -0.975695 0.537158 0.730799 0.206798 0.409324 -0.918703 -0.709264 -0.257753 -0.129794 -0.494321 -0.751472 -0.693563 0.365990 -0.384356 -0.169896 0.841907 0.322100 0.407949 0.541128 -0.751361 0.900271 -0.946010 -0.868538 -0.329182 0.237709 0.365953 -0.033754 0.397338 0.719690 -0.083353 -0.269820 0.736981 -0.628199 -0.378965 0.127465 0.923009 -0.324850 0.334697 -0.103322 0.737851 -0.956084 0.043824 -1.143527 0.310300 0.343967 -0.309636 0.540736 -0.336936 -0.910723 0.128829 -0.078745 1.206155 0.104422 0.189834 -0.391233 -0.471524 -0.069288 0.687300 0.897194 -0.662566 -0.612566 -0.644502 -0.955239 -0.148227 0.218717 0.097645 -0.081102 1.008702 -0.526666 0.341222 0.642274 -0.215746 -0.718969 0.603592 -0.595985 0.894307 -0.606205 0.906968 -0.268017 -0.724626 0.137885 0.817513 -0.520262 -0.922336 -0.132212 -0.041985 -0.525883 0.614685 -0.343655 -0.697015 0.978271 0.098227 -0.217182 -0.943747 -0.905312 0.915305 0.199948 -0.071612 1.075940 0.770901 -0.651405 0.512221 -0.447766 -0.230722 0.003174 -0.002374 -0.475937 0.580111 -0.073676 0.214358 -0.994113 1.093848 0.020605 -0.482674 -0.906877 -0.956993 0.557869 -0.385209 0.733205 -0.779942 -0.301377 0.741705 0.332243 0.529559 0.711680 0.537414 0.511640 -0.126667 -0.710287 0.488767 -0.269808 -0.324932 -0.205123 0.300719 0.440622 -0.909037 -0.788466 0.826562 0.747431 0.327046 0.226539 0.627986 0.239043 -0.690063 0.734282 -0.540269 0.726733 -1.051545 -0.903489 -1.002390 -0.249791 0.878919 0.624903 -0.667660 0.346340 0.054991 0.864384 -0.496319 0.407418 0.329090 0.092948 -0.993858 -0.814554 -0.819560 0.206893 -0.782849 -0.030507 0.234621 1.057687 0.936745 -0.345750 0.806962 0.530564 -0.072391 0.720892 -0.559378 0.079101 0.960560 -0.153496 0.356438 0.818629 0.282345 -0.228188 0.314180 -0.897482 -0.735431 -0.670486 0.910336 -0.520731 0.820612 0.318862 0.754435 0.930859 0.301999 -1.021561 0.415969 0.838001 -0.096376 -0.454778 1.143896 -0.352615 -0.148682 0.285790 -1.021294 0.908305 0.332568 -0.444956 -0.121563 -0.092555 0.579483 -0.494764 -0.184340 0.155929 -0.023328 -0.899537 -0.159003 0.315880 -0.714543 -0.329763 -0.916917 -0.593688 -0.967700 0.822720 -0.764574 0.757631 0.861132 0.243501 0.284246 -0.359151 0.794547 0.240903 0.418684 -0.272561 -0.372813 0.401143 -0.519358 1.118934 -0.975415 0.774086 0.071930 0.420371 0.932851 0.812987 -0.786534 0.052161 0.827052 0.561236 -0.344654 -0.833876 -0.517049 -0.349097 -0.264468 -0.146142 -0.688249 0.070583 -0.556164 -0.853244 -0.736422 0.803932 -0.298907 -0.938140 0.084235 -0.565150 0.100366 0.589683 0.230306 0.694315 0.446441 0.553014 0.400166 -0.558468 0.154054 0.065320 -0.792202 0.557200 -0.653677 -0.930936 -0.010347 -0.027407 -0.651679 0.360643 0.764079 0.123789 -0.906808 -0.833091 0.887370 -0.686547 -0.782897 -0.802970 -0.872909 -0.010111 -0.750494 -0.062254 -0.159051 0.267803 -0.453209 -0.838784 0.011350 -1.201347 0.973444 -0.689352 -0.843747 0.043433 0.919742 -0.122394 -0.520958 -0.386020 -0.245698 0.530681 0.584659 0.165723 0.116110 0.291972 -0.919495 0.260103 0.447192 -0.965546 0.467560 0.399969 -0.674439 0.607879 -0.595086 -0.256846 -0.136454 0.096958 -1.163804 0.324186 0.401624 -0.082311 0.282667 -0.040401 0.605508 0.899278 1.022179 0.363188 -0.465163 -0.565286 0.887694 0.258046 0.892508 0.592124 -0.695364 -0.044712 0.021236 -0.551798 -0.938550 -0.393532 -0.221127 0.318533 1.033807 0.111578 -0.042263 -0.858848 0.643841 1.043254 0.196992 0.698550 0.096690 -0.302516 -0.179983 -0.524989 0.531176 -0.561008 -0.529596 0.367456 0.789769 0.185770 0.939473 0.806447 -0.780076 0.910715 0.506673 -0.158867 -0.089569 -0.930288 0.174930 -0.166089 -0.220757 1.055425 -0.539489 -0.418644 0.149763 0.684696 -0.489170 -0.097987 0.523002 0.655157 -0.093848 -0.379348 -1.000123 0.676211 -0.048447 0.809082 0.796194 0.290632 -0.231477 0.679353 -0.925245 -0.421301 0.400491 -0.446140 -0.641695 -0.172702 0.085888 0.214986 0.062256 -0.725271 0.761430 0.613159 -0.519310 -1.136760 -0.707938 0.412721 0.533211 -0.278595 -0.649728 -0.032750 -0.389038 0.061416 0.936612 -0.132913 -0.422061 -0.314409 -0.994354 -0.282934 -0.989105 0.201467 -0.418461 -0.545738 -1.143208 0.366856 -0.142917 -0.678701 -0.417948 0.901778 0.453649 0.499640 -0.761771 0.144474 0.123046 -0.610112 0.326864 0.397203 0.958343 0.070632 -0.882363 -0.877860 -0.699233 -0.121187 0.131443 1.022628 0.410389 0.770064 -0.420890 0.854656 -0.611783 -0.468301 -0.079987 -0.333912 0.013143 0.348016 -0.733299 1.002686 0.649264 -0.254839 1.075997 -0.039112 -0.677032 -0.805474 -0.700451 0.644506 -0.282416 0.698409 -0.292725 -0.464370 -0.130551 0.156994 -0.451786 0.035385 -0.859070 0.628071 -0.071589 0.438872 0.268053 0.671753 0.480521 0.729001 -0.787794 -0.690306 -0.345791 -0.006052 0.524137 -0.228797 0.226088 -0.009281 0.377451 -0.102023 -0.885426 0.764964 -0.134482 -0.436197 0.232457 0.654155 -0.748910 -0.938900 -0.955277 0.261493 0.313146 -0.461501 -0.905677 0.709698 -0.589702 -0.055302 0.031675 0.672063 -0.474084 -0.444015 0.183966 -0.253059 -0.079821 0.927984 1.079064 -0.497256 -0.636095 -0.099320 0.505594 0.892865 0.801910 0.748120 0.301760 -0.023294 -0.666497 -0.206621 -0.356558 -0.899965 -0.436989 0.427918 -0.866121 0.131399 0.595251 0.493776 0.363192 -0.346423 -0.525912 0.051362 0.242119 -0.268655 -0.563225 1.023150 0.574156 -0.795339 0.885850 0.943465 -0.414911 -0.163395 0.472252 -0.559252 -0.279392 0.184735 0.910873 0.574159 0.372026 -0.392620 -0.914693 0.697758 0.403919 -0.334225 0.139134 0.572353 0.783070 -0.323861 0.069485 0.185077 0.353689 0.493611 -0.840263 -0.448544 -0.727471 -0.379424 -0.429130 0.801706 -0.209888 -0.551345 0.761602 0.353640 0.310923 0.226207 0.811675 1.000549 -0.548110 0.692699 0.586636 0.781160 -0.688460 0.699610 0.476117 0.693717 -0.670816 -0.373541 0.210160 -0.900261 0.304433 -0.726495 0.258424 -0.347666 0.838665 0.424919 0.228307 -0.882986 -0.962866 0.817852 0.914995 -0.209884 -0.747145 0.697167 -0.842747 0.567004 -0.065585 0.908848 0.521614 0.335883 0.632065 0.080986 0.124104 0.953196 -0.241403 -0.377384 0.594706 0.056326 0.206498 -0.156715 0.148847 -0.470134 0.149557 -0.637402 0.144621 -0.006632 0.785220 -0.617368 0.039163 0.786321 -0.822641 -0.005584 -0.420912 -0.548019 -0.297399 -0.315159 0.986101 0.613974 -0.318055 0.486035 -0.021389 -0.721781 -0.417494 -0.911815 -0.828330 0.301926 -0.311430 0.789598 -0.644445 0.905458 -0.371092 0.498689 -0.596148 0.758952 0.874854 0.534491 -0.277956 0.656103 0.943074 0.787305 0.463730 -0.886083 -0.203089 -0.979831 -0.466488 0.456099 -0.283827 -0.497026 0.102457 0.410724 0.984928 -0.932595 0.659364 -0.449872 -0.895005 0.876710 0.883786 -0.230756 0.672331 -0.759590 -0.310654 -0.724588 0.703032 0.085075 -0.945425 0.609444 -0.347482 -0.220985 0.289061 -0.415177 -0.448890 -0.316855 -0.330331 0.328375 -0.262100 0.182822 -0.195788 0.438049 0.669744 0.860590 -0.135801 0.693250 0.905079 -0.471825 -0.753341 1.015208 -0.615531 -0.915299 -0.210471 -0.937204 -0.696789 0.478321 -0.669649 -0.931964 -0.418832 -0.627496 0.656405 0.202275 0.154395 -0.083204 0.760623 0.707869 0.605084 -0.584644 0.034852 -0.662791 0.625544 0.826075 0.802621 0.306699 0.650911 -0.325846 -0.022450 0.571051 0.191235 0.233794 0.562091 0.547185 0.277372 -0.662294 0.572525 0.625186 0.822389 0.937116 0.681313 -0.617383 -0.670776 0.349735 0.575702 0.431506 -0.746063 0.296003 0.171716 0.882221 0.788446 -0.809874 -0.802025 0.401138 -0.966150 0.981458 -0.297398 0.665201 -0.356077 0.699946 0.209430 0.799554 -0.085253 -0.251867 0.344850 -0.794778 0.127165 -0.020988 0.849332 -0.079592 -0.107282 0.534754 0.278848 0.223210 -0.165618 -0.140742 -0.329420 0.095176 -0.799927 0.819833 -0.051493 0.972743 -0.985878 0.165760 0.369512 -0.987044 0.153799 -0.913121 0.672492 0.808033 0.779973 -0.140197 0.587163 -0.314019 0.648233 -0.042660 -0.125628 -0.275246 0.966408 -0.290848 0.650549 -0.131775 -0.766181 -0.045719 -0.938086 0.048725 0.843688 -0.264163 -0.840569 -0.974203 -0.447714 0.059300 -0.993415 -0.445933 -0.765526 0.389492 -0.432984 0.372394 0.419468 -0.772069 0.168032 0.211355 0.106311 -0.265466 0.863730 -0.247336 0.704925 -0.273918 0.507173 0.684986 0.421972 0.155028 -0.502184 0.631370 -0.916205 -0.420049 -0.312713 0.939336 0.275858 -0.177602 0.947531 0.833300 0.900917 0.965792 -0.615074 -0.855902 0.345005 -0.052211 0.492081 -0.216492 0.134514 -0.362663 1.012261 -0.746844 0.418570 0.837401 0.013169 0.084836 -0.412533 -0.513899 -0.264772 -0.941604 0.631825 0.242260 0.677685 0.731239 0.805369 -0.653136 0.671669 0.103550 0.195239 0.580655 -0.081170 0.073106 0.567173 0.285764 0.214382 -0.096068 -0.775608 -0.306231 0.694819 0.368345 0.340079 0.686676 0.623653 -0.303483 0.537849 -0.357846 0.804176 -0.855001 0.114996 -0.445059 -0.829514 -0.249386 0.788107 0.825633 -0.509442 0.594517 -0.829736 -0.878372 -0.307079 0.338664 0.734039 0.591896 -0.599482 0.295833 -0.131097 0.625877 -0.807992 0.093641 -0.706901 0.894203 0.685348 0.598485 -0.892718 -0.674813 0.084633 -0.319090 -0.848011 0.256409 0.819748 -0.272146 0.387466 -0.470440 -0.548383 0.274230 0.061605 -0.953985 0.292605 0.203300 -0.259806 -0.285489 -0.052214 -0.656709 0.130864 -0.760971 0.109016 -0.241798 -0.648237 -0.820949 -0.001728 -0.706544 -0.305820 -0.302071 0.867019 -0.164381 0.124976 -0.090635 0.555537 0.190444 -0.746849 0.336117 0.845706 0.533823 0.984846 -0.696454 -0.245941 -0.000894 -0.608540 -0.786097 -0.824771 0.066912 -0.009863 0.130004 0.329854 -0.969987 0.314222 -0.464244 -0.149240 0.766707 -0.293345 0.860436 -0.990912 0.416993 -0.536221 1.001581 -0.845486 0.461265 -0.102754 0.728373 -0.415451 0.140026 0.198112 -0.426183 -0.279748 0.066710 -0.190180 0.562324 -0.911972 0.237645 0.742190 -0.675323 -0.752930 -0.310740 0.370900 0.591848 -0.291969 -0.273167 -0.930006 0.632211 -0.521230 -0.102728 0.420881 -0.534662 -0.751753 0.941302 -0.528136 -0.504707 0.348710 0.372179 -0.723355 -0.831462 -0.488039 0.359463 -0.456862 0.236414 -0.635268 0.400857 -0.343732 -0.494324 -0.308138 -0.532873 -0.281181 -0.160200 0.264642 -0.832558 -0.452730 0.977015 -0.049625 -0.428784 0.687703 0.386900 0.472213 0.049499 1.016041 0.673287 0.039958 -0.473733 -0.799417 -0.582616 0.921563 -0.642971 -0.496704 -0.546997 0.739030 0.084951 0.683947 -0.832447 -0.443236 -0.633565 -0.306177 0.128764 -0.102395 0.346862 0.919719 -0.892271 0.555416 -0.555597 -0.879205 -0.490019 -0.000461 0.617805 0.863787 -0.564304 -0.292321 0.837175 -0.974461 0.830266 -0.612910 -0.736535 -1.005626 -0.789209 -0.405980 -0.324792 -0.247686 -0.753952 0.680988 -0.699872 -0.469639 -0.834813 -0.247062 0.237897 0.308484 0.614621 -0.313032 0.218452 0.759362 -0.853895 0.627561 0.777838 -0.421695 -0.345549 0.434798 -0.477045 0.089200 -0.819237 -0.592990 0.052816 0.896808 -0.233931 0.349563 1.039729 -0.128639 0.974868 -0.375408 0.578798 -0.695996 -0.732936 0.872215 -0.136553 -0.597122 -0.462550 -0.931575 0.729431 -0.853694 -0.244828 -0.123215 0.955455 -0.035890 -0.510500 0.603818 0.567282 0.218537 0.061661 -0.806953 -0.854376 0.261060 -0.444191 0.352654 0.127499 0.191129 -0.288070 0.087143 -0.918060 -0.430355 0.718187 0.685922 -0.091525 0.972454 0.542031 0.817437 -0.528905 -0.901393 0.934669 -0.975681 -0.717422 -0.345343 -0.042323 -0.925030 0.617096 0.424248 0.797356 0.224698 -0.571514 -0.218360 0.422387 -0.261065 -1.031919 0.786470 -1.002642 0.174795 0.009701 -0.247495 -0.692925 0.093052 0.265794 0.947541 -0.278819 -0.848268 0.926492 -0.765634 0.956665 -0.747335 -0.658941 0.921838 -0.735200 -0.398315 -0.398584 0.133892 -0.297099 -0.837325 -0.446919 -0.593536 0.420116 0.160906 0.254180 -0.262857 0.812157 0.266452 -0.473130 0.921680 -0.523422 0.547514 -0.385266 -0.309428 -0.367197 0.740836 -0.387221 0.315320 0.961966 -0.507065 0.620313 0.913442 -0.263073 0.819891 0.841740 -0.028391 -0.577776 -0.524626 -0.879852 0.247970 -0.373728 -0.316569 0.626049 -0.968313 0.819776 -0.122879 -0.115684 0.698669 -0.906601 0.419833 0.579565 -0.454110 -0.105229 -0.870468 0.256598 0.494139 0.981240 0.888452 -0.219749 0.989677 -0.595124 -0.567155 0.941780 0.146467 -0.634501 0.797068 -0.869012 -0.148992 -0.709806 -0.875525 -0.938209 -0.139332 -0.080549 0.665535 -0.163188 -0.257335 -0.500310 0.571605 -0.566515 -0.317411 -0.115745 -0.935465 0.184851 0.791207 -0.840614 -0.581571 0.246843 -0.765945 -0.650806 -0.844997 -0.820987 -0.360189 -0.569411 -0.868306 0.844855 -0.254069 0.706290 0.898451 0.735999 -0.816351 -0.891205 0.621933 -0.014925 0.011648 0.279581 0.851125 0.686366 0.802363 0.426278 -0.865067 -0.553942 -0.663577 -0.795859 0.711722 -0.945613 -0.586830 -0.912464 0.325791 -0.276781 -0.590700 0.265739 -0.169316 0.092178 0.793481 0.029326 -0.060418 -0.382051 -0.228243 -0.224502 -0.790090 -0.108576 -0.203246 0.857664 0.901307 0.314033 0.796271 0.732038 -0.154106 0.142588 0.682954 0.352820 0.527179 1.116316 -0.086615 0.401546 -0.483391 0.194112 -0.442312 0.197994 1.006139 -0.829843 1.042220 -0.296006 0.904137 -0.403393 0.380569 -0.550391 0.588099 -0.396804 -0.338805 -0.393480 -0.224610 -0.060690 -0.347434 0.443518 0.664227 -0.897262 -0.532569 -0.403156 0.187926 -0.330472 -0.555547 -0.397618 -0.480696 1.429238 -1.235647 -0.218426 0.290574 -0.172362 0.670356 -0.587908 0.062534 1.037559 1.308758 -0.004458 -0.400363 0.247044 0.750989 -0.973747 1.097273 -0.681991 -0.261994 -0.148569 0.493126 0.436606 -0.752460 -0.272918 0.520152 0.143905 -0.930763 -0.561750 0.853765 -0.158002 0.093040 -0.820041 -0.592413 0.244513 -0.338078 0.497528 1.313404 0.001283 -0.882354 0.096729 0.142390 0.462123 -0.989719 0.766468 -0.293022 0.926832 1.082311 -0.129162 -0.946766 -0.463804 0.965110 0.772374 0.801230 0.958232 -0.547803 0.301155 0.240374 -0.791416 0.489779 -0.501841 0.186646 -0.391943 -0.077931 0.230793 0.813558 1.006483 -0.419653 0.991172 -0.340364 -0.213025 -0.165071 0.838240 -0.367795 -0.174461 0.523737 0.707834 -0.513817 -0.071000 -0.809846 -0.576679 0.919845 -0.593441 -1.060540 0.714695 -0.865933 -0.800497 -0.260186 0.195463 -0.561463 -0.320010 0.821170 0.626090 0.507297 -0.542405 -0.338307 -0.050262 -0.495582 0.214794 0.043001 0.167928 -0.977326 0.732865 0.179598 -0.351945 -0.366885 -0.304150 -0.720233 0.304765 1.104995 -0.185353 -0.671030 0.751015 -0.217176 -0.986535 0.909665 0.387667 -0.240997 -0.464322 -0.705649 0.015597 0.184692 -0.750374 -0.840019 -0.384873 -0.288411 0.523496 0.759858 0.161981 -0.437269 -0.345040 -0.822733 -0.670072 -0.853179 0.419499 0.259324 -0.123382 -0.134595 0.650946 -1.090871 -1.003828 -0.699294 -0.706479 0.805767 1.084149 -0.607863 0.485235 -0.290354 -0.593974 -0.845233 0.223092 0.873445 0.147268 0.776949 -0.596473 1.241105 -0.891535 0.133804 -0.006766 0.440803 0.628950 0.876188 0.041139 -0.467680 0.928852 0.097785 -0.212813 0.034360 0.746537 0.017977 0.259869 0.560997 0.683739 0.532293 0.112398 -0.021849 1.144009 -0.126476 -0.904637 -0.250531 -0.297033 0.243523 -0.564793 1.018558 0.182411 -0.405670 0.471437 -0.244776 0.490736 -0.330064 -1.089766 0.650579 -0.448471 0.781606 1.040069 -0.465547 -0.171076 0.644780 0.649615 -1.016191 -0.396671 -0.138936 0.839571 -0.381068 -0.407370 -0.279513 0.868250 -0.504591 0.036802 0.866871 -0.069351 0.449910 -0.091354 0.160330 0.611919 0.829850 -0.909031 0.160475 -0.936780 -1.302101 1.427790 -0.003781 0.813898 -0.445592 -0.260933 0.749848 0.251009 0.399225 0.248617 -0.393284 0.758632 -0.871108 0.084760 0.093866 -0.179979 0.623197 0.635234 -0.594228 1.023014 -0.249370 -0.734882 -0.374610 -0.534024 -0.462221 -0.854852 1.228609 -0.125497 -0.593710 0.378490 0.788003 -0.500605 0.627966 -0.337592 -0.533637 0.601573 0.281781 -1.042969 -0.185574 0.022437 0.817575 0.135697 -0.333309 0.407285 -0.460005 0.823403 0.972689 -1.254354 0.385947 -0.822646 0.916792 -1.073396 -0.740246 -0.122793 -0.512056 0.575400 0.354012 -0.219317 -0.348310 0.527798 0.606191 -0.492252 -0.787344 -0.424163 -0.208594 -0.755073 -0.646358 -0.661160 -0.613481 0.021584 0.676796 0.859852 -0.619140 0.929676 0.195169 -0.386215 0.969624 0.141571 -0.381825 -0.516178 0.294063 -0.627101 0.056987 1.195953 0.660062 0.693269 0.382034 -0.316857 -1.010912 0.658702 -1.013528 0.648252 -0.721920 -0.754273 -0.378907 0.357035 -0.436610 0.219542 0.326139 -0.340630 0.454605 -0.371201 -0.195824 0.682443 -0.312209 0.870468 -0.611589 -0.592914 -0.123987 0.720159 0.676554 -1.064898 0.799687 0.024884 0.760856 0.602211 -0.308569 0.044909 0.791506 -0.663480 -0.095511 1.035613 -0.621749 -0.094796 -0.772932 -0.193001 -1.001980 -0.004530 1.099130 0.635375 0.862233 0.407126 -0.259333 -0.683231 -0.199244 -0.651819 0.673443 0.257416 -0.056080 -0.064455 -0.095956 0.231876 -0.538863 0.786780 0.209241 0.764793 -0.626261 -0.920440 0.101023 -0.103747 0.034084 0.414671 0.510492 1.043694 0.647704 -0.737992 0.891343 -0.639394 0.919562 0.447877 -0.872523 0.338581 0.529703 -0.461799 -0.773822 -0.411717 -0.023474 0.862280 0.921571 1.020374 -0.311113 -0.174872 0.309314 0.267741 -0.304618 -0.533596 -0.173075 0.022258 -0.478955 -0.756221 -1.085167 0.469873 0.673358 0.556285 0.749929 0.349204 0.668309 0.224462 0.763278 0.658819 -0.194954 0.877444 0.141760 -0.330515 -0.595028 0.396660 0.014324 0.402583 0.466539 0.140358 0.313516 -1.028969 0.886774 -0.252338 0.621971 -0.645539 0.232033 -0.732814 0.301906 0.600257 -0.358660 0.463749 -0.221992 -0.672556 -0.023074 -0.618363 0.653302 -0.134469 0.792215 0.335195 -0.382036 -0.196827 0.288108 0.546220 0.314694 0.781642 -0.102669 -0.801792 0.267128 -0.547517 0.359126 -0.296991 -0.473052 0.320390 0.261021 0.997036 0.785766 -0.803396 -0.957288 -0.009072 0.653765 -0.210159 -0.636153 -0.352791 0.297178 0.470870 -0.173474 -0.417212 -0.662000 -0.163176 1.010814 -0.483007 0.548326 0.083596 -0.918572 -0.258354 -0.125040 0.301744 0.229098 -0.930093 0.360658 -0.317481 -0.444389 0.757973 0.883797 0.696990 0.739188 0.566656 -1.022887 0.650141 -0.320212 0.738582 -0.671672 0.197178 -0.774674 0.162313 -0.232120 0.257126 0.895021 0.042377 -0.751897 0.719161 0.291700 0.844497 0.032137 0.653398 -0.481396 1.058089 -0.428426 0.755246 -1.009645 -0.736078 -0.519070 -0.493510 0.767594 -0.873394 -0.554721 0.596420 0.932057 -0.355988 0.035944 -0.317675 -0.675478 0.233861 0.779312 -0.256869 -0.825476 -0.738687 -1.143789 -0.736884 0.152484 -0.771824 -0.925094 -0.481906 0.882222 0.396017 -0.973967 -0.221227 0.163329 -0.189403 -0.678342 0.163220 -0.093564 -0.238475 0.801330 -0.248191 -0.128920 -0.562050 -0.956646 -0.095433 -0.075611 -0.160666 0.451740 0.239786 -0.867293 0.115212 0.994388 -0.630075 0.672700 -0.993094 -0.265552 -0.363494 -0.454280 -0.273682 -0.059986 -0.851122 1.017135 0.360930 -0.351593 -0.061505 -0.860040 0.012939 -0.867267 -0.056339 0.741360 0.888505 0.632713 -0.033071 -0.807535 0.646320 0.697366 -0.037710 -0.371972 -0.062283 -0.762639 -0.239408 -0.640376 -0.512594 -0.002405 0.626815 -0.644488 0.840732 -0.814401 -0.395189 -0.307106 0.770694 -0.025923 -0.355814 -0.316766 0.531977 0.620962 -0.120636 -0.484488 0.605119 0.810667 -0.419923 0.670312 0.389132 0.363655 1.061040 0.181523 0.185434 -0.079255 0.647241 -0.850361 0.523213 -0.692541 -0.524628 0.875294 0.530276 -0.768034 -0.768315 0.408763 -0.446868 -0.017326 -0.695362 -0.738798 0.867399 -0.228011 0.063884 0.557808 -0.648242 0.885431 -0.928495 0.967091 0.645218 -0.458540 0.488797 0.135916 0.803703 0.540300 -0.683218 -0.119650 -0.577243 0.819489 0.159210 0.798718 -0.884788 0.400397 0.869921 1.000139 0.928252 -0.732183 0.140193 -0.590477 0.025108 0.388073 -0.229977 -0.251748 -0.942037 0.768579 -0.757986 -0.674666 0.515333 -0.367045 -0.721266 0.610130 0.048371 0.825684 -0.415752 0.162177 0.338736 -0.052628 0.504093 0.783969 -0.232366 -0.441725 0.497168 0.139136 -0.724101 0.280394 -0.159322 0.965136 0.232282 -1.072234 -0.688480 -0.638470 0.336938 0.076506 -0.038372 0.741358 -0.228516 0.480398 0.685301 -0.570234 0.900152 -0.859029 -0.879950 -0.061041 0.982490 -0.144093 0.762205 0.195927 0.836998 0.636669 -0.338688 -0.475300 -0.448393 -0.695711 1.016269 -0.600286 0.622262 -0.351616 -0.630781 -0.130682 -0.148899 -0.239230 0.245291 -0.637998 0.846712 -0.772723 0.940285 -0.306448 0.657757 0.507236 0.287663 0.795274 0.843729 0.253643 -0.383056 0.549182 -0.851164 -0.595292 -0.277507 1.084254 -0.981909 0.639767 -0.110194 -0.544331 0.873064 -0.406299 -0.388724 0.828999 0.267449 0.438912 -0.602527 0.901909 0.881437 -0.486578 0.604951 -0.932624 -0.915223 -0.534336 0.997780 0.581687 0.799013 0.590384 0.421762 0.090131 -0.733490 -0.169135 0.282865 -0.396783 0.699338 0.204589 -0.401749 0.289916 0.742731 -0.077740 0.296689 -0.652263 0.696660 -0.117376 0.637957 -0.248580 0.592502 0.723337 -0.372646 -0.012065 0.735002 -0.463783 0.283653 1.027882 -0.296982 0.133925 0.532834 -0.340978 -0.497838 -0.032055 0.715651 -0.117291 0.713014 0.043138 0.439935 0.281154 -0.445700 0.899373 -0.272889 -0.730479 -0.329003 0.870715 -0.424054 -0.524041 -0.070672 -0.773905 0.158256 -1.223727 0.569615 1.005599 0.047073 0.383597 -0.655099 -0.769548 0.664153 0.329633 0.311248 0.275548 0.842469 0.702212 1.024072 0.580862 -0.601306 0.616450 -0.171630 0.712042 0.153000 0.172845 0.755268 0.917683 0.337741 -0.732909 1.120978 -0.895649 -0.225812 -0.416090 -0.515251 -0.954737 -0.484575 0.867149 1.043569 0.843732 0.225770 -0.626725 -0.661597 -0.050596 0.535989 0.187344 -0.927875 0.585818 0.013703 -0.965790 0.295603 0.379119 0.714165 -0.894619 0.053214 -0.066727 0.480807 -0.485473 -0.038920 -0.379399 -0.101014 -0.299863 -0.457662 0.799917 0.304895 -0.378152 0.695001 -0.964850 -0.226968 0.694402 0.983354 -0.677533 1.248130 -1.009212 0.139543 0.632700 0.278124 0.130271 0.240808 -0.799874 0.221752 -0.791863 0.708826 -0.083275 -0.429689 -0.313309 -0.975574 0.779692 0.266608 0.221017 -0.905208 -0.927563 0.782421 0.002834 0.701566 0.189314 0.802142 0.508236 0.323782 -0.771532 0.003287 -0.009068 -0.392415 -0.061249 0.069978 0.690161 -0.481273 -0.670654 -0.186552 0.783975 -0.333038 0.858659 -0.760898 -0.680312 0.109902 -0.349831 0.157127 0.275695 -0.585435 -0.896221 -0.943725 -0.269674 -0.995265 1.093896 0.770827 0.677712 -0.166651 0.421020 0.136377 0.944483 0.782363 0.988762 0.092971 -0.725373 -0.084812 -0.654699 0.763949 0.293863 -0.385919 -0.474908 0.228852 0.504945 -0.411629 0.248273 0.611857 0.561277 0.736045 -0.563681 -0.262825 -0.795103 -0.405036 -0.262373 -0.226467 -0.362473 -0.756529 -0.573470 -0.562592 0.479426 0.722080 0.611257 0.196687 0.594225 0.339952 -0.695205 0.908750 -0.717142 -0.512696 0.599040 0.478850 0.173795 -0.722818 -0.685285 -0.475024 -0.271592 0.775733 -1.021089 -0.902846 0.478538 -0.328290 -0.331136 0.537634 0.144536 0.530894 -0.495883 0.862743 1.016754 -0.150902 -0.999278 0.021364 -0.167041 0.582112 -0.699413 -0.790397 -0.333129 -0.533096 -0.872488 -0.278893 0.141232 0.759754 -0.391439 -0.746237 0.930991 0.334014 -0.301826 -0.523715 -0.407919 -0.167964 -0.299828 -0.789719 0.171607 0.448581 0.949728 -0.836877 0.080549 -0.542444 -1.084311 -0.055490 0.367629 -1.077478 0.986728 1.211117 0.643128 -0.753022 -1.027255 -0.602640 0.001047 -0.577759 0.624135 1.004954 0.972032 -0.913089 -0.934178 0.758047 0.319676 -0.256570 -0.521771 -0.857861 0.550460 0.024127 -0.598449 -0.405320 -0.799570 -0.729680 -0.079984 0.320354 -0.344297 -0.137028 -0.756183 0.689512 0.027777 -0.877160 0.565644 -0.389037 -0.767446 0.672559 0.312734 0.341547 0.941229 -0.376093 0.189271 0.849799 -0.125615 0.454225 0.666204 1.010937 -0.598642 0.979498 -0.976360 0.578556 -0.080660 -0.395008 -0.779069 0.372228 -0.159402 0.011454 -0.382568 0.308049 0.916486 -0.142856 -0.111726 -0.031915 0.043662 -0.457619 0.488470 0.317285 -0.958196 -0.346096 -0.188629 -0.877918 0.115153 0.879169 0.998242 0.948440 0.508636 0.406613 0.922524 0.388142 0.194667 0.932727 0.094575 -0.660391 -0.594331 0.347978 0.753457 0.036711 -0.770853 -0.880098 -0.691644 -0.567538 0.202143 0.338075 0.043155 -1.051935 0.554884 -0.502549 0.440747 0.686085 0.381164 -0.620424 0.736140 -0.536214 -0.997132 0.920777 -0.533372 0.203550 0.322489 -0.749664 -0.438535 -0.439926 -0.673147 0.633800 -0.249008 -0.358391 -0.086875 -0.681302 0.916652 0.036440 -0.988558 0.268857 0.545920 0.303924 -0.624858 0.749614 0.044549 0.029954 0.136699 -0.200295 -0.662472 0.249344 -0.309380 -0.316598 0.286011 -0.601324 0.063086 -0.551144 0.527631 0.389471 0.150558 -0.843655 0.526663 -0.326403 0.025234 -0.856206 0.635954 0.243080 0.841932 -0.332367 0.763905 0.827242 0.945450 0.341149 0.258350 -0.587444 0.076944 -0.822470 0.253105 -0.843279 0.067916 0.718462 0.379355 0.746377 -0.614581 -0.388613 -0.842536 0.518106 0.043127 0.855763 -0.021630 -0.777056 -1.078104 -0.532184 0.108570 -0.057884 -0.283001 -0.360487 -0.848497 -0.298995 0.467836 -0.859610 -0.352685 0.371471 0.564221 0.892363 0.761799 -0.343455 -0.957907 0.074665 -0.110418 0.158565 -0.110358 -0.808250 -0.105171 0.428762 -0.178723 0.031117 0.026763 0.903225 -0.074719 0.888492 -0.811056 -0.010623 -0.498629 0.282456 0.942267 0.129540 -0.979915 -0.713477 0.734872 0.530136 -0.770570 -0.633904 -0.199087 0.888434 -0.749038 -0.301965 -0.463032 -0.665188 0.852072 0.345942 0.459579 -0.257382 0.562894 -0.580545 -0.873464 -0.624163 0.344984 -0.022251 -0.679221 -0.621116 0.025997 -0.419979 0.333509 0.468039 0.893028 0.178554 -0.305127 1.050974 0.536670 -0.399374 0.321786 0.951775 -0.017845 -0.756681 0.799826 0.255901 -0.073905 -0.703085 0.585176 -0.203501 0.647646 0.050163 0.571915 0.361201 0.377083 0.730331 0.761813 -0.098349 -0.230768 -0.816596 0.330053 0.988021 -0.267290 -0.458651 0.439059 -0.405819 0.779553 -0.810180 -0.373664 0.430581 -0.406460 1.011950 0.162386 0.517855 -0.743014 0.083699 -0.099520 0.367233 0.408863 -0.605452 -0.895446 0.213000 0.618633 0.603246 -0.538972 0.122026 0.305514 -0.733021 0.976261 -0.876483 -0.547633 0.271853 -0.713131 0.106450 0.839821 0.663624 0.806479 0.755057 0.754225 -0.613629 0.112157 -0.662593 -0.664007 -0.644554 -0.976151 -0.305591 0.393438 -0.099531 0.928915 -0.226781 0.340547 -1.000308 -0.930180 0.025485 0.634911 -0.387630 -0.976580 0.068683 -0.165375 -0.971364 0.283019 0.275180 0.415978 0.469106 -0.481303 0.115293 0.230860 -0.610263 0.076579 -0.032580 -0.185140 -0.808414 0.462282 0.261680 -0.497063 0.476260 0.777472 0.993684 -0.637962 0.752115 -0.190284 0.851738 0.665695 -0.050949 -0.165351 0.435244 0.577587 0.036748 -0.487970 -0.439783 0.044844 0.825278 0.926581 -0.526423 0.425353 -0.574964 0.891368 -0.316916 -0.243232 -0.081525 0.661364 0.567421 -0.066077 0.114189 -0.326609 0.489052 -0.379955 -0.409995 0.430232 0.036446 -0.735603 -0.685675 0.039925 -0.899463 0.277631 0.972861 0.550605 -0.197867 -0.040029 1.076582 0.386181 0.997253 0.840829 0.337940 -0.622889 0.300184 0.756625 -0.840533 0.923444 -0.199770 0.031467 0.530956 -0.651276 0.964150 -0.081557 0.132613 0.357775 0.378056 0.624322 -0.028389 -0.452027 1.016926 0.308343 0.661936 -1.041871 -0.391485 0.516870 0.566623 0.597753 -0.630194 0.444882 -0.234811 -0.548630 0.341574 -0.776720 -0.096904 -0.416597 -0.883702 0.118247 -0.438915 -0.077542 -0.909638 -0.832695 0.233487 -0.929846 0.017458 -0.592997 0.523269 -0.599066 0.951545 -0.413217 -0.014082 1.060383 0.865359 -0.493524 0.986557 -0.515951 -0.889101 0.565421 -1.048164 -0.514736 -0.036412 -0.102363 -0.097606 -0.688148 0.178909 0.878737 -0.053160 0.340851 -0.184319 0.541275 -0.693370 -0.068072 0.652465 0.611559 0.151679 -0.360945 0.964072 -0.378180 0.011576 0.934443 0.147623 -0.871582 0.868407 0.074557 -0.352423 0.807751 0.580854 -0.264908 0.501381 0.574941 0.357573 -0.548661 -0.411717 -0.821731 -0.307973 0.734454 -1.003004 0.744991 0.253610 -0.038924 0.231348 0.399514 0.918869 -0.032816 0.074888 0.040428 0.586770 0.043850 0.585342 -0.387348 -0.090192 -0.184775 -0.168476 -0.163154 0.997142 0.504192 -0.243656 0.545102 -0.757612 -0.820022 0.136427 0.588124 -0.416538 0.643563 0.838740 0.346766 0.545595 0.779599 -0.015757 -0.170511 -0.655398 -0.716093 -0.136748 0.364418 0.578585 0.927685 -0.089505 -0.227091 0.438419 0.664978 0.770088 -0.705523 -0.506068 -0.229188 -0.651356 1.024810 0.445746 0.785481 -0.693628 0.710404 -0.164145 0.896595 -0.947772 -0.177965 0.573122 0.652423 -0.524195 0.550841 -0.294640 0.169800 -0.597043 -0.046484 0.359042 -0.003597 -0.818629 0.033791 -0.183911 0.142066 0.629659 -0.723386 -0.118624 0.251318 -0.298522 0.328725 0.955183 -0.070443 0.227260 0.367818 -0.274598 0.467834 -0.110422 0.811461 0.349366 0.174022 -0.460270 -0.083091 -0.473770 -0.103560 -0.600932 0.206323 -0.924030 -0.008632 -1.063984 0.629246 0.904053 -0.777202 -0.427321 -0.179006 0.337775 -0.559874 0.144857 -0.907422 0.672913 0.718372 0.352143 0.466650 -0.415175 -0.222584 -0.286688 0.268934 -0.958291 0.639609 0.150451 0.534686 -0.224119 0.539834 -0.692403 0.141256 -0.506317 -0.227086 -0.576718 -0.517781 0.620042 -0.429042 1.003458 0.596191 -0.298451 -0.452414 -0.712111 0.996941 -0.326199 0.547725 0.958862 -0.445617 0.235339 0.405739 0.907440 0.815853 0.881924 -0.148686 0.164457 0.831493 -0.631446 -0.894657 0.236984 0.004167 0.636657 0.494442 -0.631152 -0.873290 -0.571609 -0.376759 -0.553844 -0.932708 -0.058971 -0.350247 0.578288 0.553373 0.228540 0.932403 0.412533 -1.009071 0.163232 0.359199 -0.476933 -0.473083 -0.432642 -0.643168 -0.844406 -0.600460 0.210901 0.269430 -0.737396 0.477410 0.551451 0.406612 -0.482912 0.261950 0.040624 -0.123482 0.428532 0.726065 0.333570 1.000114 0.712786 -0.741045 -0.448936 0.368319 0.935309 0.685895 0.154058 0.174353 0.841782 -0.385968 -0.361693 -0.856330 0.044034 0.060583 -0.536810 0.215611 0.500086 0.859831 -0.335301 0.568671 0.618672 -0.783111 0.384870 1.132121 0.389988 -0.577408 -0.280768 -0.157169 0.863998 -1.037946 -0.101499 0.538301 -0.709470 0.321659 -0.215265 -0.910111 0.035742 -0.888893 0.253914 -0.136145 -0.312227 0.788571 -0.186938 0.602931 -0.046654 0.767773 -0.336390 -0.491987 0.425030 0.469329 -0.977701 -0.142818 0.774082 0.512214 -0.187545 0.292894 1.041787 0.522406 -0.973524 1.010485 0.615867 -0.172151 0.507141 0.913791 -0.998436 -0.613466 -0.906808 0.133742 -0.554183 0.449582 0.874144 0.049307 0.277249 -0.237642 -0.404174 -0.735838 -0.635324 0.513258 -0.227620 0.879431 -0.006876 -0.097185 -0.401222 -0.286328 -0.526435 0.340488 0.939531 -0.421348 0.026498 1.048338 -0.456098 -0.326874 -0.309275 0.800562 -0.582895 -0.346631 -0.606396 -0.467135 1.048581 -0.273182 0.986212 0.800137 0.635608 0.413448 -0.388229 -0.594683 0.507717 0.009654 0.807182 -0.815169 -0.243013 -0.157576 0.227718 0.542310 0.492725 0.709611 -0.173984 0.481761 -0.920459 0.736171 0.460453 -0.492308 -0.774833 -0.948214 -0.653107 -0.221230 -0.004589 -0.387589 0.328630 0.049215 0.358507 0.291624 -0.177821 0.139141 -0.539642 0.529195 0.521988 0.935253 -0.560243 0.396974 -0.942086 0.222493 -0.857558 0.279260 -0.223609 0.785224 -0.075529 0.352029 0.171100 0.076206 0.113450 -0.428927 0.473151 0.457833 -0.344014 0.735756 -0.804779 0.643533 -0.613847 0.461999 -0.358161 0.608885 -0.330426 0.326116 -0.149494 0.033806 -0.141634 -0.802410 -0.058479 0.214201 0.634121 0.114281 -0.570248 0.976152 -0.582343 0.017578 0.452107 0.251291 -0.463871 -0.341493 -0.565790 0.762933 0.255936 0.651845 0.362647 0.851494 0.728724 0.436073 0.736194 1.024544 -0.155647 -0.879038 0.564822 0.554150 0.230736 -0.571048 -0.513870 -0.806199 -0.378727 0.496728 0.769690 -0.989689 -0.515336 0.860107 0.783664 0.162907 -0.033629 0.314649 -0.592673 0.446904 0.966936 -0.419720 0.127567 0.100093 -0.393416 -0.468790 0.102436 1.072717 -0.932706 -0.375915 0.997212 -0.154969 -0.447494 0.720953 -0.294557 0.951975 -0.802359 0.024350 -0.985043 -0.096340 -0.296498 0.779553 0.230882 0.191716 0.502304 0.049404 -0.593509 -0.592296 -0.509351 0.799050 -0.711320 0.121018 0.036336 0.320652 0.468915 0.646098 -0.611136 0.435294 0.879440 -0.080454 0.574555 -0.010005 0.665635 0.142603 0.145262 0.621268 0.344101 -0.824613 0.594335 -1.013976 -0.294505 0.381793 0.210881 -0.934031 -0.160060 -0.595140 -0.758694 0.233889 -0.424159 -0.078060 0.251866 -0.359666 0.821754 -0.609633 -0.903087 0.267083 -0.901804 -0.512540 0.030373 -1.113580 0.562362 -0.812946 -0.340893 0.166502 0.624152 1.068595 -0.207814 -0.084518 -0.828471 -0.777710 0.171187 -0.069991 0.785493 -0.419311 0.142758 -0.520224 -0.224902 0.481537 0.710291 0.472141 -0.871423 0.271388 -0.813837 0.969239 0.399049 -0.548155 0.331350 0.681832 0.050554 -0.773711 0.651806 -0.373166 -0.429783 -0.184284 0.774228 -0.579933 -0.653037 -0.739116 0.248974 -0.513278 -0.332733 -0.448745 0.379823 -0.755955 0.111794 -0.622542 0.048816 1.195299 0.746835 -0.138172 0.437636 0.606446 0.782835 0.760347 0.580634 0.388123 -0.977856 0.045146 -0.097157 0.139907 0.195573 -0.184712 0.771215 0.922371 0.260312 0.729172 -0.778541 0.557167 0.936988 0.511502 -0.711970 -0.710629 -0.931057 0.898742 0.001678 0.313803 -0.878511 0.821196 0.174639 -0.945859 -0.578558 -0.541152 0.569103 -0.584225 -0.854754 0.337352 0.712614 -0.736894 -0.489438 -0.091433 0.575679 0.744103 0.737689 0.154532 0.653743 0.030983 -0.347537 1.004271 -0.240710 -0.388427 0.359945 -0.163367 0.244355 0.350352 -0.183659 -0.911767 -0.617510 -0.055508 0.753765 0.558693 0.029882 -0.592762 -0.593199 -0.161413 -0.320441 -0.374448 -0.912162 -0.442459 -0.264762 -0.608022 0.377398 -0.946960 -0.752468 0.203759 0.524691 0.764906 -0.756998 -0.802079 0.635255 -0.265922 -0.028110 -0.075932 0.869706 -0.671165 -0.733836 -0.407231 -0.880882 -0.478582 0.624614 0.859245 -0.526897 -0.187044 -0.771538 -0.274674 0.524758 -0.023408 0.542754 0.589807 0.573793 -0.957921 -0.657389 -0.049050 -0.523932 -0.088025 -1.191437 0.775108 -0.552011 -0.890135 -0.801773 -0.718539 -0.166681 -0.033420 -0.004047 -0.268389 0.116475 0.147937 0.479646 0.421138 0.846581 -0.101893 0.195882 -0.637563 0.737532 0.637143 0.211465 0.238749 -0.595941 -0.628870 0.048305 -0.840971 -0.406069 0.429568 -0.086491 0.146501 -0.864852 0.047125 -0.254250 -0.410078 0.221113 -0.256199 -0.248349 -0.843945 1.103289 0.713509 -0.209863 0.245576 -0.341754 -0.651032 -0.567550 -0.281840 0.318902 0.770216 0.199711 -0.077514 0.272193 -0.704522 -0.600778 0.928302 -0.219242 0.218438 0.914618 0.530828 -0.315871 -0.085581 -0.764349 -0.144896 1.080673 0.147605 0.664940 0.048971 0.881183 -0.645334 0.240213 0.698963 -0.820150 -1.063627 -0.032319 -0.288413 -0.723909 0.393843 0.743017 0.514611 0.201967 -0.473469 -0.313883 -0.633654 0.233182 0.154075 -0.850989 -1.007999 -0.935541 -0.983219 0.274148 0.139795 0.229798 0.668524 -0.855823 0.030382 -0.398930 0.741823 -0.769255 -0.292140 -0.936786 0.442293 -0.412460 -0.842703 0.362206 0.462309 0.068477 0.757944 -0.056369 -0.350788 0.054462 -0.896261 0.281607 -1.127050 -0.443932 -0.232417 -0.052045 0.045427 -0.142412 0.234805 -0.090687 -1.048371 -0.636798 -0.940480 0.829083 -0.354600 0.327464 -0.138932 -0.392079 0.513556 0.369247 -0.395961 -0.038610 -1.039030 -0.211946 -0.347878 0.696656 0.867147 -0.816051 -0.411754 -0.198391 0.519796 -0.295629 -0.707172 0.588242 0.380403 -0.213532 -0.377400 1.103435 0.486586 0.869217 -0.078103 0.801363 -0.671656 0.302072 0.458851 -0.067985 -0.417409 -0.692560 0.512654 -1.178142 1.066135 -0.642212 0.179390 0.927952 -0.031214 0.459050 0.438483 -0.043909 0.716604 -0.918950 0.354268 0.467016 -0.251303 0.613767 -0.281578 0.849034 -0.406218 0.388343 0.980599 -0.715151 0.438498 -0.098813 -0.969991 0.875692 -0.978380 0.782670 0.192345 -0.375339 -0.854399 -0.300170 -0.027730 0.846578 -0.089260 0.970334 0.570241 -0.944928 0.201376 0.175678 0.034375 0.207975 -0.220784 -0.636777 1.016925 -0.494767 0.319824 0.988508 0.197092 -0.144685 0.968797 0.507415 -0.620103 0.005590 0.581489 -0.602135 0.169258 0.317430 0.517452 0.843758 0.457339 -0.652950 -0.357741 0.352438 0.406365 -0.518383 0.067775 0.576891 0.755703 -0.793924 -0.273080 -0.206216 0.418967 0.443856 0.159250 0.432998 0.993400 -0.578530 0.382069 0.101235 0.272192 0.341199 -0.415920 0.611051 -0.680152 -0.831915 0.951521 0.458883 0.452367 0.488083 0.295121 -0.070047 0.732330 0.915920 -0.740997 0.160521 -0.674312 0.319560 -0.370114 -0.941103 0.503855 0.358591 -0.133736 -0.093435 -0.224058 0.981990 -0.629146 -0.244816 -0.685936 0.713128 0.819903 0.544422 0.066258 -0.609100 0.174423 0.389363 -0.443918 0.117061 -0.195216 1.009274 -0.479919 -0.970501 -0.119999 -0.731618 0.907616 0.092941 0.349751 -0.728025 -0.635645 1.000157 -0.686793 0.884989 0.330329 0.087387 -0.240582 -0.861870 0.000134 0.100757 -0.149608 0.309557 -0.235912 -0.325375 -0.104449 0.799958 0.029358 1.008530 0.185474 0.521930 0.077138 0.943893 0.484217 0.647796 0.937478 -0.629445 0.882655 0.861292 0.430847 0.236229 -0.940736 0.748961 0.233306 -0.655657 0.563290 -0.476717 0.420957 -0.623087 -0.350510 -0.564431 0.431463 0.444165 0.738218 -0.846859 -0.924997 -0.414111 0.983203 0.088891 -0.403014 0.108286 -0.425148 0.684272 0.035521 -0.914594 0.276714 -0.061075 -0.641119 0.103567 -0.221514 0.749859 -0.701957 -0.182256 0.512463 0.474604 0.147303 0.087262 0.942900 -0.467945 0.393333 -0.452104 -0.050721 -0.253003 0.988502 -0.402606 -0.090762 0.980767 0.162667 -0.097123 0.059452 0.717520 0.998920 0.614718 0.360071 0.007118 0.627072 -0.394300 0.904569 0.966772 0.688724 -0.276204 0.709265 0.896798 0.527167 0.184643 0.330647 -0.385696 -0.758653 0.329037 0.169411 0.598564 0.850296 -0.944072 -0.621969 0.797686 -0.343652 0.262077 0.803916 0.807044 -0.865889 -0.212119 0.507610 -0.905542 -0.612247 -0.164061 0.023370 0.991420 0.405370 -0.087556 0.921821 0.043158 0.609432 0.607786 -0.043403 0.063686 -0.197261 -0.732754 0.682556 0.037736 0.588022 -0.153908 -0.434601 0.361311 -0.185953 -0.081873 0.179670 0.458460 -0.845743 -0.083992 0.228131 -0.754007 0.656577 -0.274437 -0.695662 1.039335 0.537922 0.311909 0.963923 -0.107097 -0.791674 0.843738 0.978127 0.754822 0.437746 -0.158599 -0.171687 -0.755972 0.081526 -0.522002 0.217467 -0.343490 0.323031 0.779497 1.015387 -0.861755 -0.318202 0.143406 0.516381 -0.238740 -0.939027 -0.282115 0.021878 0.669156 0.427767 0.227160 0.663030 -0.079543 -0.513715 0.600153 0.814525 -0.349866 0.436114 0.698798 -0.576376 -0.140515 -0.465324 0.221566 0.052932 0.630534 0.678605 -0.711556 -0.690564 -0.035872 1.005374 -0.707168 0.003876 -0.388355 0.368180 -0.443853 0.409566 0.422507 0.244639 -0.677050 0.105968 -0.356774 0.550754 -0.271161 0.481504 -0.974873 -0.678422 0.287575 -0.315530 0.730613 -0.038848 0.042195 -0.366031 0.481599 -0.807480 0.653595 0.128803 0.875169 0.892864 0.417073 -0.210242 0.853017 0.601001 0.781148 -0.537560 -0.035606 -0.669860 0.841183 -0.614651 0.537972 -0.888034 0.434782 -0.840020 0.659910 -0.850809 0.598254 0.653287 -0.604960 -0.104606 -0.683276 -0.818976 0.847270 0.310808 -0.250174 0.313162 0.498229 -0.602280 -0.569019 0.347664 -0.752027 0.833905 -0.879515 -0.948198 0.387446 0.909040 -0.442826 -0.593016 -0.831817 -0.688123 -0.291974 0.670126 -0.586847 -0.886850 0.764733 1.034506 -0.764959 0.405202 0.628957 -0.381527 -0.750217 0.879753 -0.283051 -0.932147 0.185894 0.476114 0.336988 -0.365647 0.825332 0.753112 0.951606 -0.948635 0.530312 -0.906898 -0.937253 -0.050535 0.944910 -0.452941 0.275527 -0.951678 -0.113191 0.997111 0.710860 0.254685 -0.930957 0.501883 0.223136 -0.770048 -0.190796 -0.156284 -0.174801 -0.432108 0.476735 0.082612 0.859837 -0.150615 -0.648197 -0.432571 -0.244894 -0.812343 -0.475932 -0.316573 0.675830 -0.488778 -0.209494 -0.741701 -0.838194 0.158814 0.790334 -0.336318 -0.805670 0.842174 -0.745672 0.306718 0.673891 0.574190 -0.254428 1.042229 -0.703552 0.298955 -0.250598 0.402835 -0.931544 -0.557503 -0.479093 0.999128 0.227796 -0.267268 -0.612193 1.004999 -0.125354 -0.159338 -0.446135 -0.324490 0.421889 0.262388 0.021273 0.722623 -0.223075 -0.320812 -0.942510 -0.059930 -0.443842 -0.721077 -0.796021 -0.619078 0.785455 -0.208070 -0.550787 -0.692205 -0.717377 -0.002374 0.707825 -0.706330 0.479533 -1.456486 -0.738854 -0.347541 -0.176360 -0.421179 -0.503374 0.620038 0.637266 0.160944 -0.758783 -0.140172 -0.669838 -0.153586 -0.330731 0.144143 -0.862333 -0.139382 1.202717 -0.308471 -0.080136 -0.696831 0.055681 0.138728 -0.010619 0.368087 0.150187 0.032904 -0.516771 -0.212097 0.279187 -0.922627 0.002537 0.360057 -0.380953 0.691802 -0.606865 0.252322 0.654586 0.741914 -0.689472 0.542280 -0.177397 -0.420753 -0.342161 0.652748 0.784834 -0.065821 -0.690606 1.067519 0.468281 0.532790 -0.889380 -0.575806 -0.839978 0.027405 -0.767460 0.590113 -0.980822 -0.017773 -0.586174 0.680446 -0.021040 0.155180 0.094393 0.729611 -0.439767 0.272733 -0.456167 0.937692 0.092459 0.346335 0.729837 0.855001 0.916682 -0.885767 0.322301 0.789642 -0.321675 0.435456 0.837851 -0.629328 -0.367419 0.653010 0.081792 -0.007930 0.086464 0.332489 -0.319551 0.104950 -0.738199 -0.032244 -0.315343 0.062031 0.968565 0.619094 -0.210038 -0.605466 -0.071709 0.558011 -0.433404 0.918396 -0.108385 0.688000 0.382547 0.004284 0.928649 0.070748 -0.384799 -0.127895 -0.653119 -0.370536 0.176330 0.027066 -0.612396 -0.507375 -0.798610 0.446110 0.931125 -0.214255 -0.600528 -0.926892 0.779171 -0.021460 0.423381 0.584558 -0.523147 -0.800759 -1.112921 0.742573 0.763358 -0.484697 0.590558 -0.439146 -0.699944 0.246963 0.531738 -0.673725 -0.567194 -0.763640 -0.044649 -0.498713 -0.124030 -0.716701 0.672553 0.176603 -0.167568 0.594295 -0.397199 -0.322993 -0.738807 0.450769 -0.080224 0.978202 -0.746816 -0.858768 0.598627 -0.154098 -0.703823 0.241204 -0.421410 -0.947329 -1.103164 -0.934168 -0.350591 -0.647844 0.487463 -0.513910 -0.362912 0.615612 -0.479260 0.485692 -1.012215 0.518413 0.969008 0.667347 -0.154463 -0.028757 0.068575 0.530231 0.876230 0.950225 -0.475850 -0.260757 0.636674 -0.029878 -0.274128 0.149469 0.578369 0.180490 -0.313928 -0.613732 0.039615 -0.324554 -0.754334 0.929912 0.144276 0.582703 -0.857819 0.491487 0.416030 -0.156111 -0.053414 0.374554 -0.729060 -0.080518 0.257486 -0.088472 0.681506 -0.434844 -0.376086 0.304945 -1.108109 0.228175 0.989812 0.713527 -0.931061 -0.331721 0.164487 0.863802 1.081748 0.735282 -0.714610 0.097309 -0.485689 -0.414198 -0.008112 0.214980 -0.590668 -0.030853 -0.203254 0.594514 0.924650 0.731973 0.062196 -0.503727 -0.163332 -0.602381 0.434009 -0.553780 -0.292372 -0.880552 1.335297 -0.127839 0.583574 1.062241 -0.451892 0.548777 -0.485325 0.548896 0.522087 -0.564279 0.439223 0.998277 0.192528 0.750531 -0.638318 -0.669033 0.038656 -0.558683 0.346741 0.917464 -0.927817 0.218821 0.713313 0.015526 0.488421 -0.599187 0.313821 -0.012201 -0.082226 -0.880055 -0.119212 -0.173864 -0.052730 -0.651047 -0.366686 0.694898 -0.783728 0.445622 0.008169 0.756662 0.995108 -0.144124 0.794590 0.497886 -0.547522 0.890285 0.562763 0.583817 -0.675812 -0.087770 0.228677 -0.985517 -0.868051 0.238762 0.248775 0.611943 0.843215 -0.137858 -0.441763 -0.213925 0.013974 0.580980 0.258646 0.705356 -1.081571 -0.534453 0.568458 -0.769973 0.720189 -0.039273 0.935191 0.463490 0.617828 0.653754 -0.331405 -0.903136 0.316110 -0.765710 0.643334 0.639453 0.077962 -0.002250 -0.902195 0.184119 -0.743256 0.600472 -0.176837 -0.551015 0.496115 -0.302239 0.411827 -0.108771 -0.909131 0.673021 -0.341215 -0.442757 -0.032245 -0.089224 -1.052545 0.732438 0.053556 0.514856 0.620076 -0.472896 -0.693993 0.557650 0.715309 -0.641770 0.397067 0.635204 0.631924 -0.833404 0.162925 -0.025219 -0.375600 0.186822 0.556985 -0.659316 0.601823 -0.219244 0.462738 -0.172319 0.195181 0.269063 -0.876248 -0.566700 0.637200 -0.180353 0.076125 0.751693 -0.091049 -0.911763 0.210151 -0.872291 -0.558893 0.506012 0.526930 -0.654800 -0.886353 -0.123161 0.528684 0.632978 -0.072331 0.033705 -0.426643 0.506428 1.156435 -0.927041 0.821957 0.310906 0.121645 0.231017 -0.972330 -0.490538 -1.219063 -1.033382 -0.032657 1.100703 0.619047 -0.885368 0.425156 0.652149 -0.796264 -0.211559 0.738409 -0.315489 -0.914887 0.306483 -0.103067 -0.824253 -1.076611 -0.732344 0.798659 0.012041 0.439939 -0.868850 -0.864512 0.497619 -0.500663 0.940288 -0.354768 0.182867 0.033512 -0.294102 0.689458 -0.097916 -0.146527 -0.120088 -0.552699 0.919922 -0.452977 -0.763783 0.823751 -0.207614 -0.229316 0.129413 0.634035 -0.080287 -0.065498 -0.702169 0.054184 -0.154548 -0.197582 0.035226 0.635362 -0.983598 0.303207 0.970133 0.443661 0.860443 0.769948 -0.531654 -0.272369 -0.411759 0.128863 -0.251139 0.225771 0.840637 0.001590 -0.650189 0.767824 0.552006 -0.720374 0.508936 -0.672808 0.074786 -0.132765 0.894953 -1.161617 0.412675 -0.610580 0.184757 -0.210279 0.073746 -0.971877 -0.415239 0.260814 0.464831 -0.534894 -0.226395 0.159874 -0.770123 0.547628 -0.731310 -0.368783 -0.757327 -0.569893 -0.782303 -0.882164 0.543656 -0.307244 1.037406 0.210605 -0.305875 0.266670 0.462951 0.713017 -0.871330 0.541847 -0.779024 -1.128236 0.874373 0.593914 -0.463573 0.275235 0.710913 0.282784 -0.983347 0.490020 0.789197 0.501255 -0.550330 -0.473573 -0.355307 -0.197116 -0.155352 0.053873 0.392811 0.266961 0.156849 0.134814 0.739698 0.151994 -0.918506 -0.257957 -0.612411 -1.053441 -0.378943 -0.521790 0.722575 -0.201975 -0.433185 0.447568 -0.763496 0.755664 -0.650496 -0.877703 -0.439283 0.190895 0.641346 -0.746524 -0.226543 -0.525617 -0.367205 0.453450 0.184736 0.286328 -0.498731 -0.315513 -0.512389 0.482507 0.955493 -0.436195 -0.102030 -1.056383 0.319068 0.192115 -0.759082 -1.220749 0.403566 -0.797569 -0.036062 0.982075 0.675232 0.272419 -0.038514 -0.917565 0.218823 0.967567 0.572033 0.234233 -1.595169 -1.172984 0.475639 -0.689251 0.373109 -0.189235 0.689959 0.955487 0.328624 -0.567593 0.430668 0.097380 -0.151510 -1.009244 0.413533 -0.753727 -0.141884 0.792280 -0.624534 -0.637962 0.956953 0.344248 -0.920361 0.669777 -0.314880 0.676116 -1.088066 0.874879 0.671761 0.701883 -0.383500 0.014085 0.342842 -0.702631 1.390263 0.317014 0.087359 0.742803 0.370491 -0.852424 -0.792192 -0.631771 0.489921 0.282997 -0.395556 -0.171323 0.744935 0.317975 -0.703299 0.623939 0.772610 -0.776354 0.065583 -0.900222 -0.462905 0.658966 0.838242 -0.829959 0.706205 0.282223 0.774697 -0.359507 -0.248521 0.318346 -0.256029 -0.232110 -0.545692 0.716273 -0.454401 1.002029 0.770155 -0.640983 -0.857346 0.288146 0.604181 -0.086420 -1.146065 0.416909 -0.911978 -0.390222 0.131077 -0.765738 0.130296 -0.815938 -0.849198 0.366561 1.340876 -0.831710 -0.118186 0.558099 0.351880 0.148138 -0.976346 -0.872925 -0.340174 0.130518 -0.282706 0.283268 0.130163 0.216967 -0.176100 -0.456795 0.835656 0.169906 -1.090550 0.473609 0.767059 -1.281556 -0.264949 0.677808 -0.190623 0.951004 0.919562 0.559385 -0.998147 -0.589130 -0.024968 -0.750088 -0.695566 -0.295559 0.763795 0.706653 0.730613 0.769092 0.812966 -0.348960 -0.296990 -0.217657 0.530217 0.519761 0.624943 -0.459326 -0.868441 0.505239 0.627430 -0.962867 -0.174296 0.208091 -0.667934 0.567776 0.165313 -0.145918 0.310832 0.184533 -0.042620 0.405363 0.174977 0.931167 0.750520 -0.202675 0.070617 0.310592 -0.304364 -0.075491 -0.078114 0.050985 0.117373 0.476421 -0.357226 -0.296446 0.119216 0.125667 0.032342 -0.209595 -0.296789 0.268370 0.885887 0.631464 0.475944 0.156932 0.028011 -0.260432 -0.763576 0.966042 0.649451 0.862912 0.335535 0.478969 0.138373 -0.221358 -0.949426 -0.686694 0.941840 -0.382840 -0.067205 0.128342 0.271461 -0.654069 -0.604519 -1.097145 0.021683 0.472573 0.092606 -0.967018 -1.061240 1.047828 0.231165 0.457708 0.099633 -0.014849 -0.498530 -0.321468 0.199866 -0.497749 -0.622579 0.043631 -0.698941 0.817831 -0.395088 0.217936 -0.671357 -0.414807 0.776327 -0.700005 0.050293 -0.650150 0.272067 -0.650089 -0.469340 0.720814 -0.837059 0.388466 0.337329 0.240880 0.778408 0.232196 0.112011 0.069419 -0.345047 -0.484770 0.977105 0.019959 0.168428 0.378119 0.663946 0.520563 -0.613410 -1.109658 0.035690 -0.123478 0.405237 0.984469 0.322321 -0.280359 1.059069 -1.028722 0.023996 0.304905 -0.437471 0.695037 -0.169557 -0.127708 0.481920 1.088713 -0.525543 -0.056615 0.316439 0.806098 -1.132490 0.757987 -0.562484 -0.730530 -0.177466 0.508775 0.748403 -0.394753 0.143922 -0.842893 -0.185669 -0.875272 -0.109671 0.822298 0.967443 -0.828632 -0.261177 0.910357 -0.721671 -0.687191 0.148723 0.220451 0.833132 -0.842020 0.556858 -0.079064 0.911160 -1.069872 -0.495795 0.036356 0.745244 -0.474263 -0.086921 0.924104 -0.524089 0.586787 0.221821 -0.624690 -0.917260 -0.717995 -0.815999 -0.278231 -0.344088 0.164263 0.133601 -0.422534 0.489646 0.816031 -0.455488 0.599671 0.973793 0.892928 -0.334833 0.325879 0.614721 -0.671697 -0.249636 0.555394 -0.890769 0.120499 -0.287584 1.416315 0.649242 0.514574 0.814993 -0.564661 0.133283 0.093810 -0.535796 0.592916 0.652509 -0.207504 -0.569220 -0.661668 -0.929408 0.201927 -0.145221 0.316539 0.086605 0.443851 -0.115859 -0.061415 0.197726 0.556293 -0.453519 -0.487959 0.566571 0.640530 -0.999955 0.887253 -0.623816 -0.192765 0.802620 -0.400737 -0.925232 0.697857 -0.448220 0.779757 -0.194049 0.199237 0.193276 -0.454903 -1.103740 0.687601 -0.426446 -0.937030 -0.503836 0.715334 0.656361 -1.018372 0.136115 -0.556986 -0.119533 -0.943983 0.887196 0.565234 -0.256931 0.222731 -0.597832 -0.358313 -0.022342 -0.125525 0.403450 -0.346334 0.099281 0.875640 -0.836282 0.557190 0.333250 0.048934 -0.270803 -0.553788 0.449468 -0.495684 -1.156426 -0.827578 0.038603 0.079215 1.200605 -0.593648 0.197609 0.204252 -0.254606 -0.928205 0.008880 -0.331405 0.284866 0.848824 0.793901 0.690465 -0.463087 -0.059927 0.001093 0.908293 0.625345 -0.791654 -0.145013 0.868133 0.729608 -0.385197 -0.220235 -0.569706 0.093599 -0.805650 0.387798 0.505017 -0.703634 -0.745161 -0.429277 -0.120292 -0.467700 0.457760 0.938314 0.404486 0.357612 -0.190179 -0.919819 0.021960 -0.720257 1.238793 -0.198384 -0.649447 -0.166195 0.841036 -0.988519 -0.598169 0.738694 0.477359 -0.908142 0.766616 -0.836877 0.241631 -0.658904 0.311793 0.490685 0.412627 -0.508754 -0.884149 0.585860 -0.084208 -0.461049 -0.419083 -0.537044 -0.782116 -0.858080 0.817224 0.165834 -0.800965 0.009018 0.357597 -0.860729 0.572089 0.818763 0.263601 0.475555 1.082785 0.649856 0.544786 0.212936 -1.088319 0.543129 0.360973 0.409376 0.536712 -0.418811 -0.080570 -0.005905 0.121619 0.168710 0.315422 -0.906690 0.763345 0.744731 -0.635255 0.990566 0.739672 -0.596427 -0.146238 -1.079958 0.404899 -0.910588 -0.747223 0.064840 0.855761 0.312648 -0.436289 1.025808 -0.188059 -1.130149 0.105829 -0.143449 0.448133 -0.551437 -1.012662 -0.192899 -0.091260 0.231696 1.111668 -0.904658 -0.950477 0.063643 -0.681487 0.898051 -0.285785 -0.423066 0.869536 -0.316543 0.026868 -0.147235 -0.317876 -0.700119 -0.072643 0.041146 0.300574 -0.237631 -0.507940 -0.910396 -0.432401 0.257805 -0.857695 0.326901 -0.661652 0.933853 -0.364001 -0.821023 0.017012 0.794695 -0.892096 0.247418 0.957897 0.141890 0.385139 0.818711 -1.032669 -0.822213 0.670497 -0.315657 0.255743 -0.547292 0.484364 0.794382 0.344460 -0.544721 0.413495 -0.844369 -0.155805 0.530413 -0.416330 -0.864391 0.664029 -0.863035 -0.545642 0.104613 -0.893093 0.108179 0.409208 0.209721 -0.176066 0.347459 -0.558996 -0.210501 -0.437644 0.880953 -0.293312 -0.445834 -0.907551 -0.608434 0.322787 0.362988 -0.225392 -0.131431 0.183500 -0.785894 0.342929 -0.452111 -0.727018 -0.739383 -0.966518 -0.146856 -0.644470 0.750852 -0.036254 -0.161383 -0.124026 0.132894 0.971783 -0.820638 -0.625262 -0.177536 0.490123 -0.262903 0.760848 -0.943800 -0.336217 -0.552065 -0.301910 -0.215147 -0.154428 -0.895509 -0.774610 0.625200 -0.096905 0.425851 0.835744 -0.708805 0.941432 -0.902762 -0.470370 -0.960174 0.087488 -0.011177 0.837289 -0.863373 0.791105 -0.275904 0.269923 0.799505 -0.048849 0.673820 -0.264686 -0.583230 -0.513384 -0.519163 -0.537304 0.225041 -0.083391 0.195673 -1.009693 0.762580 0.302543 -0.839009 0.410696 -0.797021 0.709640 0.289500 -0.503609 0.608969 0.472372 0.041618 0.669597 -0.385382 -1.015608 0.529214 -0.264567 0.842027 -0.668825 -0.916822 0.699656 0.164420 0.810272 -0.609178 0.646492 -0.709697 -0.078069 -0.808013 0.523974 0.770873 0.446577 0.570848 0.626043 -0.190155 0.868808 0.108189 -0.021503 0.561571 -0.628015 0.515533 0.224591 0.863467 -0.466722 0.038248 -0.464263 -0.462604 -0.362591 0.241091 -0.523142 -0.028749 0.407529 -0.777587 -0.819161 0.196420 -0.377271 0.790244 0.595994 0.525994 -0.913832 0.139772 0.378515 0.529182 -0.307953 0.062291 -0.645371 -0.482381 -0.840712 0.305864 -0.944927 -0.410275 -0.187190 0.414135 -0.459720 0.479744 -0.547209 0.024471 -0.866832 0.141944 -0.553043 -0.398320 -0.884602 0.775843 -0.209660 -0.796179 -0.001283 0.475665 -0.943710 -0.458330 0.048000 -1.000544 0.691379 -0.565756 0.545628 -0.650693 0.567127 0.898404 -0.064028 0.735448 0.148744 0.118921 -0.636008 -0.937194 -0.454958 -0.176719 0.509817 -0.064315 0.940171 0.628272 -0.855254 -0.743735 -0.675567 -0.717067 -0.898143 0.052126 -0.524331 0.229183 -0.446794 -0.453329 0.653269 0.577131 -0.391580 0.410676 -0.928352 -0.801733 0.767622 0.609279 -0.950854 -0.268682 0.358649 0.293056 0.849246 0.685815 0.425774 -0.651117 -0.408430 -0.085165 0.474502 -0.496307 -0.363489 0.530034 -0.131882 -0.093520 0.914397 0.032877 0.981000 -0.623262 -0.828272 -0.457680 -0.120616 0.823385 -0.862816 0.518840 0.291404 -0.835774 0.780063 0.082885 0.840539 0.865365 0.829495 0.252014 0.242337 0.764073 -0.034758 -0.446121 -0.877885 0.527167 0.555610 0.692213 -0.884059 -0.849280 0.260778 -0.069363 0.197080 0.187144 0.934911 0.153310 0.505615 -0.912512 0.660340 -0.538667 -1.023487 0.864560 -0.955337 0.302040 -0.975585 0.766514 -0.600389 0.957782 0.672268 -0.805655 0.143717 -0.192257 -0.979395 -0.836675 0.457253 -0.790348 0.714408 0.107321 0.865232 0.743994 0.288775 0.210557 -0.258588 -0.552126 -0.576724 -0.247221 0.543976 1.025755 -0.209060 0.215160 -0.721411 -0.162510 0.008490 -0.572732 -0.838914 0.051854 -0.753597 -0.469792 0.051530 0.867561 -0.140928 -0.765415 -0.277859 -0.071245 -0.573104 -0.703029 0.109814 -0.894925 0.367023 0.010616 0.916071 -0.271970 -0.743112 -0.267198 0.200205 -0.437061 0.454092 -0.275281 -0.355727 -0.673842 -1.022111 0.054317 0.157830 0.003212 0.521654 0.298735 -0.836191 0.714342 0.923113 0.212915 0.607763 -0.184330 0.516756 -0.589501 0.815076 0.922681 -0.320865 -0.080014 -0.938412 -0.847402 1.016932 -0.959972 -0.123155 -0.732169 -0.195425 -0.974561 -0.154815 -0.831233 -0.158946 0.448969 -0.485107 -0.281876 -0.424987 0.667359 0.859196 -0.979637 -0.016453 -0.980441 0.796155 -0.100685 0.286615 0.401932 0.812807 -0.112536 0.893540 0.567500 -0.162072 -0.519558 0.146463 -0.319654 -0.470021 0.139703 0.284299 -0.147617 1.024137 0.412760 0.601910 -0.809004 -0.779819 0.151849 -0.338903 0.206684 0.752406 -0.604615 0.045176 0.764085 0.349178 -0.105486 0.739091 -0.610858 -0.564381 0.240085 -0.579578 0.687773 -0.116276 0.877736 -0.712863 0.376364 -1.053073 0.139490 -0.510177 -0.351258 -0.730864 0.810085 0.505532 -0.888583 0.351983 0.222462 -0.696562 0.631852 -0.672406 0.027898 -0.288807 -0.992137 0.459530 0.651357 -0.716672 -0.180481 0.054904 0.837804 0.408665 0.357355 0.113451 0.532682 -0.170492 0.563472 0.159050 0.285927 0.269186 0.390609 -0.424908 0.758191 -1.018406 -0.137716 0.374548 0.865102 0.377818 -0.366132 0.093475 0.603859 -1.026577 0.564267 -0.131719 -0.028079 0.781668 -0.792979 -0.252394 0.872067 0.134224 0.657629 0.515136 -0.677980 0.047172 -0.528087 0.878303 -0.996271 -0.706649 -0.029620 0.188768 0.621821 -0.249097 0.333820 -0.035682 -0.154684 -0.665810 -0.736850 -0.167598 0.504419 -0.142686 0.879888 0.529782 -0.115205 0.493648 -0.887775 0.912021 0.054656 -0.604902 -0.625309 -0.029239 0.766303 -0.724717 -0.367133 -0.786651 0.529963 0.171226 1.050904 0.598535 0.394354 0.052468 -0.156255 -0.163862 0.557554 -0.640120 -0.675280 -0.566697 0.041952 -0.431394 0.275087 -0.183289 0.551617 0.148743 -0.574724 -0.654206 -0.507512 -0.405839 -0.543893 0.608179 0.215243 0.092001 -0.257613 -0.250246 0.443488 0.385865 -0.052528 -0.155894 -0.688189 -0.204473 -0.762022 0.790243 0.829749 0.020541 -0.173437 0.530142 0.319991 0.230128 -0.969220 -0.635637 0.639888 0.190684 0.268599 -0.057391 -0.735872 0.455882 0.670007 0.182444 -1.039208 1.123947 -0.181180 0.331680 0.149519 0.621757 -0.633666 -0.857816 -0.028937 0.005318 0.136150 0.252910 -0.754656 0.426202 0.217055 -0.792020 -0.488824 -0.934172 0.862166 0.888325 0.390027 0.487290 -0.772635 0.040835 0.002521 0.717015 -1.074322 0.419514 0.278527 0.503411 -0.534107 0.210831 0.555306 0.592597 -0.555312 -0.396634 0.165979 -0.315552 -0.107995 -1.173158 1.036710 0.819115 0.406271 0.692027 0.345215 -0.539806 -0.921773 0.580373 -0.187347 0.791372 0.252648 1.083842 0.169147 0.574276 -0.588266 -0.648998 -0.022705 -0.225953 0.962675 -0.962991 -0.675262 -0.504224 0.049723 -0.805576 0.965512 0.803399 -0.429216 0.101264 -0.642230 0.714869 0.057506 -0.865499 0.483897 -0.670124 -1.104047 -0.435194 -0.001504 -0.929900 -0.821558 0.673664 0.862957 0.900979 0.682581 -0.031803 0.158135 -0.805770 0.425668 -0.539148 -0.033466 -0.083102 -0.891028 0.251402 0.771691 0.311677 0.517257 0.704784 0.215089 -0.695997 -0.310210 0.481092 0.580910 0.706821 0.350481 0.268330 -0.714293 0.431103 0.727682 0.342914 0.657190 -0.706925 -0.366889 0.577339 0.925843 -0.514166 -0.760378 -0.203732 -0.378847 0.661630 0.291425 0.913816 0.078442 0.506189 0.218416 -0.616657 0.184776 -0.574712 -0.782654 -0.755379 -0.637355 0.156199 1.016732 -0.706990 -0.219558 0.500328 0.395057 0.025160 0.099883 0.439583 -0.825612 -0.190100 0.578182 -0.157528 -0.990550 0.270793 0.428074 -0.547623 -0.899146 -1.086715 -0.965934 0.581537 0.511504 0.199314 0.215712 -0.374123 0.885236 -0.579954 0.049639 -0.858256 -0.229705 0.727493 0.135061 -0.290861 1.150378 0.927461 -0.822953 0.576713 0.073942 0.409738 -0.226016 0.152627 0.981709 -0.650575 -0.805311 1.002507 1.020420 0.496029 -0.667285 -1.025270 0.574433 0.030451 0.383490 0.547652 1.088457 0.018081 0.909433 0.849075 0.336296 -0.357860 -0.852710 -0.896022 -0.441114 0.042974 -0.250069 -0.394792 0.253171 -0.301732 1.086729 -0.691121 -0.814395 0.021104 0.473916 -0.874252 0.185082 0.374807 -0.973657 -0.161739 0.113127 -0.413901 0.179420 -0.272832 0.266526 -0.117251 -1.036142 0.230568 0.797109 0.838002 -0.046890 0.212999 -0.156009 0.045249 0.386776 0.450220 -0.937204 0.801535 0.543981 0.068922 0.965241 0.859137 -0.067954 -0.119229 0.071218 0.036502 -1.084559 -0.471408 0.262646 0.023457 0.669298 0.645667 -0.394056 -0.346837 0.148737 0.243611 -0.226349 -0.801493 0.415894 -0.252507 0.080682 -0.754115 0.501635 -1.011525 0.341035 -0.241637 0.054384 0.160328 -0.313115 -1.049239 -0.795156 -0.012374 1.224973 0.173828 0.651942 0.015673 -0.813696 0.672244 0.313924 0.552142 -0.037381 0.245267 0.110949 0.221265 0.475273 -0.338482 -0.406571 -0.863787 -0.394085 0.492296 -0.647424 0.610208 0.473739 0.798651 -1.079636 0.237719 -0.266029 -0.302651 -0.615636 0.333756 -0.281126 -0.215168 -0.519071 -0.517922 0.847064 -1.221067 0.058599 -1.238381 0.849113 0.157092 0.716503 -0.922462 0.572807 -0.027109 0.332580 0.095946 0.825668 0.835315 0.251147 -0.884861 0.147417 0.635774 -1.031632 0.004842 0.656273 -0.834014 1.474339 -0.367132 -0.334808 -0.691579 0.788260 0.560819 -0.441051 -0.387098 1.046299 -0.531695 -0.587755 0.330367 -0.401569 -1.558799 0.712541 -0.516947 -0.406945 0.650401 0.692182 -0.888246 -0.058154 0.469875 0.957047 0.719010 0.437511 0.310779 0.522434 0.489624 -0.889541 -0.154599 0.873943 -0.997135 0.798643 -0.554600 -0.755961 0.592528 -0.849950 0.284603 0.410422 1.081050 0.694321 -1.323254 0.019942 -0.760783 -1.119741 0.273559 -0.446176 -0.539228 -0.851161 -0.987098 -0.371844 -0.299053 0.114648 -0.685553 -0.672741 -0.213138 0.678037 0.806735 -0.906247 0.750371 -0.441142 1.059059 -1.053920 -0.430816 -0.473109 -0.690730 0.447569 -0.535323 0.613671 0.580256 -0.144814 0.051127 0.305372 1.038029 0.477692 0.585164 -0.120436 -1.170823 -0.904390 -0.478776 -0.906511 -0.383273 0.316243 0.571442 0.352497 0.746768 -0.996953 0.166985 0.796907 -0.451024 0.261254 -0.127487 -0.917321 0.112435 0.338725 -0.416148 0.347993 0.193819 0.499523 -0.163845 -0.498985 -0.917739 0.915437 0.448866 0.493300 0.113816 -0.055463 -0.738452 -0.275711 0.731204 -0.624548 0.568769 -1.218592 -0.776894 -0.090974 0.708353 -0.842332 0.766752 -0.421221 -0.948100 0.529689 0.666789 0.270519 -0.790617 -0.121685 -0.943773 0.298344 -0.339789 0.323684 -0.576159 0.100610 0.743648 -0.323315 0.095938 0.438298 -1.079615 -0.610774 -0.185717 -0.778414 0.829046 -0.744898 0.108795 -0.195319 -1.013076 0.032250 -0.852706 0.712012 0.480334 0.312715 -0.722574 0.368754 0.457880 -1.091362 -1.017386 0.374495 0.087928 -0.940526 -0.831318 0.345164 -1.065296 -0.462153 -0.549097 0.695220 0.135172 0.783488 0.334720 -0.243438 0.936293 -1.014207 0.807046 0.782581 -1.060217 -0.898309 -0.327907 -0.467715 0.065296 -0.142773 -0.804745 -0.979965 -0.662210 -0.379005 0.511272 0.711999 -0.066886 0.784837 -0.295342 0.911654 -0.983956 0.023466 0.563275 -0.618470 0.652823 0.700046 -0.927374 0.088580 0.499985 0.585339 0.972187 0.449985 -0.023013 0.004039 0.188613 0.685515 0.301649 0.577591 -0.955598 -0.477199 -0.600982 -0.229885 0.083938 -0.249490 0.431120 -0.460059 -0.706371 -0.881476 -0.800904 0.005322 -0.995243 -0.551794 -0.847509 0.050219 -0.050074 0.495839 0.081414 0.024794 -0.121967 -0.459314 -1.022181 -0.600256 -0.865079 0.716837 1.093513 -0.085030 0.441110 0.267518 -0.227818 0.791302 0.798012 0.287810 -0.728556 -0.391140 -0.987485 0.882770 0.383165 -1.119962 -1.078915 0.391013 0.392731 -0.912105 1.052076 0.615389 0.640741 -0.515791 0.232191 -0.246451 0.356026 -0.424563 0.032573 0.629677 -0.106497 0.562377 0.386000 -0.475231 -0.321187 -0.467231 0.735113 0.583172 -0.102805 0.904961 -0.466682 0.174787 -0.243985 -0.564245 -0.088317 0.936024 0.065548 -0.047362 0.406980 -0.319387 0.262301 0.143492 -0.657882 -0.416784 0.817938 -0.960823 0.242669 -0.044469 -0.614896 -0.628670 0.288608 0.567940 -0.887335 -1.021794 1.008823 -0.715493 0.299727 1.182776 -1.136524 0.370371 0.753606 -0.345636 -0.287944 -0.380584 0.213409 -0.633207 -0.476026 -0.161345 0.955204 0.487452 0.837640 0.117016 0.947038 -0.702791 -0.110515 -0.838834 0.666824 -0.855571 -0.503607 -1.020607 -0.077790 0.905451 -0.601796 0.155149 0.742151 0.176125 -0.727208 0.776600 -0.268208 -0.936708 0.825256 0.545167 -0.251168 -1.182129 0.268560 -0.371833 -0.733216 0.899840 0.247683 -0.735882 0.668384 -0.055913 0.192868 0.555810 0.443941 -0.800866 0.756344 -0.308658 -1.020820 1.316835 0.233845 -0.019507 0.439187 0.353976 -0.914044 0.552229 -0.369505 -0.768602 -0.128112 0.528594 -0.642327 -0.305213 0.272170 0.710333 -0.118347 -0.478391 1.053882 -0.116024 -0.523880 0.120464 0.597459 0.897622 -0.858163 -0.419471 0.434023 0.402917 -0.551344 -0.113405 -0.674773 -0.454493 -0.050857 0.356879 0.822578 -0.459980 -0.110729 -0.855302 -1.161708 0.287344 -0.148248 0.075848 0.000474 0.231573 0.956239 -0.924176 -0.577379 -0.508446 -0.510949 -0.404811 0.576878 0.260314 0.771940 0.063256 0.275624 0.885306 0.774145 -0.538610 0.493169 -0.649151 0.319857 0.664012 0.257858 -1.025895 0.028076 -0.275021 -0.579127 0.944218 0.194004 -0.452614 0.098275 0.887518 0.997857 0.798042 -0.235265 0.761494 -1.076542 0.602989 -0.839301 -0.204631 -0.820167 0.990186 0.822919 0.893252 -0.022476 -0.067732 0.996019 -0.485547 0.299902 0.241998 -0.382782 -0.493636 -0.030681 0.858775 -0.621346 0.698144 -0.200563 0.028761 0.415739 1.070328 0.857426 -0.285891 0.663873 0.855868 -0.400267 -0.037433 0.517240 -0.155984 -0.592060 0.496656 0.452888 -0.443350 0.460194 0.100213 -0.426070 -0.288681 -0.885724 -0.690138 -0.072618 0.297742 0.632273 0.811708 0.859346 -0.742693 0.681813 -0.678136 -0.819629 -0.557255 0.470967 0.608015 -0.558174 0.659681 -0.348774 0.733022 -0.125217 -0.158823 -0.336446 -0.452417 0.926095 -0.101082 -0.595177 0.414329 0.618264 0.602821 -0.398957 0.883534 -0.875363 -0.227392 -0.799308 0.192329 -0.897526 0.830053 -0.179062 0.882711 -0.950447 -0.599405 -0.634738 -0.836062 -0.471018 0.977823 -1.375497 -0.085516 0.136572 -0.469340 0.053633 -0.372543 0.494078 0.148881 0.030177 0.274590 -0.664286 0.419035 -0.005934 0.855329 0.163703 0.330756 0.460329 0.171067 0.955914 0.459633 -0.589067 -1.004238 0.449204 0.079611 0.884124 0.288130 0.360162 -0.570545 0.796460 -0.899110 -0.671848 0.383803 -0.267842 0.786164 -0.576019 0.663141 -0.787602 0.672443 0.178566 0.401198 0.482083 0.262798 -0.393799 -0.922370 -0.202077 0.784534 0.167838 -0.751697 -0.028416 0.463915 0.851824 0.556708 0.371965 0.307542 -0.402134 0.176385 -0.236642 -0.915552 0.890545 -0.717222 -0.794741 -0.947223 0.907505 0.056547 0.838626 -0.963959 -0.244653 -0.923700 0.996092 0.818020 0.767281 0.066502 -0.129825 -0.553734 0.153177 1.020729 -0.567240 -0.603693 -0.746760 0.449485 0.975559 -0.814183 0.057508 0.307460 0.412830 0.832061 -0.266853 0.987916 0.879207 -0.779225 -0.881997 0.825103 -0.574870 -0.901949 0.057154 -0.409280 -0.922356 0.799565 -0.603399 1.112234 0.648488 -0.808127 0.204909 -0.312734 -0.528460 -0.774155 -0.724635 0.016108 -0.297149 -0.446324 -0.693498 -0.189036 -0.149961 0.682912 0.674807 -0.895477 -0.089489 -0.342512 0.887085 -0.402165 -0.161960 -0.801730 -0.350054 0.054826 -0.693654 0.743964 0.385103 -0.679707 0.577072 0.665786 -0.755388 0.000238 0.593641 0.134134 0.613142 -0.745753 0.215420 -0.705397 0.143702 -1.016155 -0.119049 0.513367 -0.206848 0.903566 -0.222115 -0.662113 0.729856 0.851975 -0.094109 0.807200 -0.431161 0.508514 -0.857529 -0.464185 -0.663007 -0.927143 -0.627475 0.851408 -0.357106 0.754846 0.445698 -0.429172 -0.244429 0.095641 0.707929 -0.422666 0.029336 0.239938 -0.183364 -0.746454 0.366240 1.240545 0.624078 0.738417 0.515424 -0.569241 -0.837594 0.606079 0.943441 0.357503 0.526293 -0.992003 -0.295194 0.609762 -0.150011 0.457728 0.514708 0.609262 0.121964 -0.079900 -0.438539 -0.297330 0.773430 0.530766 -0.272993 -0.554307 -0.229188 0.564948 0.205521 -0.182545 -0.084096 0.185278 -0.531514 -0.260800 -0.518732 -0.005575 -0.314715 -0.703549 0.004079 0.758499 0.551259 0.275345 -0.715970 0.155613 -1.044399 0.810904 -0.011583 0.464250 0.084010 0.184051 -0.741082 0.556256 -1.065913 -0.928789 0.262139 -0.320297 -0.677539 0.619810 -0.484353 0.638882 -0.174487 0.287478 -0.062282 0.276856 0.847624 0.627337 -0.645210 -0.231332 -1.081537 -0.089067 -0.605945 0.633590 -0.695358 -0.122760 0.142884 -0.828580 -0.221399 -1.037114 0.498240 0.911468 0.107080 1.010565 0.342144 0.567996 1.018188 -0.624857 -0.904067 -0.575372 0.927237 -0.416155 -0.826817 -0.299558 -1.103594 0.281323 -0.930272 -1.024430 -0.182693 -0.620608 -0.426822 -0.130989 0.496055 0.235271 -0.095527 0.971072 -0.765776 0.972330 -0.816537 0.429118 -0.862236 0.994677 -0.228644 0.502017 0.756077 1.156140 -0.318130 1.017483 -0.720292 -0.006243 -0.632427 -1.014841 0.558885 -0.387564 -0.280254 0.765615 0.667085 0.040211 0.514846 -0.390420 0.450676 -0.712906 0.411845 -0.056666 0.605966 -0.813537 -0.168251 1.100066 -0.831181 -0.078071 0.096023 -0.792920 0.278618 0.853863 0.611822 0.000012 0.437180 -0.735414 -0.271252 0.744639 0.378770 0.063602 -0.967370 -0.205677 0.637830 -0.202990 -0.357272 0.414869 0.799349 -0.662682 0.953629 0.265733 -0.092053 0.272708 -0.941637 -0.125539 0.650875 -0.082703 -0.425539 1.027717 -0.842482 0.442287 -0.757036 0.521340 0.350364 0.745295 -0.835566 -0.011008 -0.851842 0.162138 0.271040 0.413247 -0.640450 0.511049 -0.575699 0.900523 -0.764623 -0.215501 0.210927 -0.890155 0.400886 0.275789 0.508239 -1.206061 -0.290920 0.239083 0.033054 -0.605823 -0.718239 0.236336 -0.820671 -0.630232 -0.132675 -0.664015 0.644868 -0.657125 -0.896148 -0.826980 0.498575 -0.729190 0.319174 -0.525439 0.624974 0.307526 -0.978636 0.807492 0.385796 -0.671249 -0.118282 -0.284927 -0.301800 -0.700166 -1.014747 0.686556 -0.634424 -0.110916 0.281888 0.227295 0.557026 0.391094 -0.677139 0.815490 1.049436 0.016485 -0.831081 0.556956 0.458715 -0.939518 0.702660 0.037814 -0.453142 -0.026369 -0.954750 -0.973215 -0.947821 -0.924712 -0.766844 0.680608 -0.372619 -0.069468 -0.544727 0.112181 0.061600 -0.213478 -0.028082 0.532691 0.668335 -0.818247 -0.468585 0.245990 0.815171 -0.307908 0.031700 0.731494 -0.847996 0.214077 0.473928 1.170929 0.484465 -0.033228 0.115946 -0.861514 0.965438 0.381670 -0.670888 -0.650423 0.417200 -0.500176 -0.773063 1.067976 0.359031 -0.557599 0.128568 -0.280646 0.606140 -0.651039 -0.848197 0.050428 -0.230386 -0.180051 -0.574120 -0.311579 0.713562 0.436035 -0.618377 -0.752440 -0.323359 0.689748 -0.911132 -0.634895 -0.452862 0.353490 -0.660826 -0.136792 -0.648275 -0.269751 0.233386 1.050841 0.191198 -0.157358 1.015022 -0.506196 0.621523 0.131747 0.881012 0.175910 0.390492 -0.979832 -0.732932 -1.104907 0.150781 -0.447510 -0.376717 -0.114566 -0.847965 -0.188988 -0.147508 -0.097264 -0.548651 -0.140480 0.326170 0.814094 -0.726867 0.914768 -0.987907 -0.083822 -0.922436 0.283215 -0.139893 1.082458 -0.649837 -0.500393 0.059244 0.945454 0.602162 -0.354973 0.054215 -0.031139 -0.383980 0.703090 -0.076698 0.848568 -1.171857 0.957053 -0.272739 -0.846395 -0.357580 0.658615 0.257692 0.272336 0.115139 -0.605324 -0.167523 0.000051 -0.991833 0.255360 -0.804830 -0.565647 -0.787483 -0.003119 -0.439954 -0.448136 0.612286 0.116289 -0.198040 0.170595 -0.705577 0.696684 -0.871535 -0.142085 0.246700 0.250542 -0.195216 0.228252 0.001957 0.549505 0.609436 0.634109 0.168715 -0.294163 0.171062 -0.428515 0.185205 -0.933198 0.595547 -0.040138 0.442513 0.612223 0.496073 0.826089 -0.123952 -1.077037 -0.267703 -0.598969 0.344839 0.513831 0.671662 0.449362 0.216471 -0.999530 -0.469982 -0.559495 0.609006 0.837988 -0.447496 0.214408 0.391582 -0.467872 -0.400550 -1.176636 0.463352 -0.305290 0.200086 0.923548 -0.302814 -0.861826 0.196868 -0.395410 0.764049 0.247326 0.574943 0.716822 -1.026095 -0.878143 0.206813 0.412372 1.086938 -0.363669 -0.159860 -1.043905 0.273597 0.595208 0.470884 -0.257699 0.463399 -0.761570 0.800763 -0.136253 -0.076631 -0.657216 -0.201362 -0.683394 0.303177 0.870977 -0.591512 0.904264 -0.935293 0.583243 -0.412251 0.930129 -0.149485 -0.747627 0.996736 -0.054070 -0.716790 -0.103753 -0.592542 -0.842850 0.796921 0.558845 -0.614159 0.079326 0.318646 0.895338 0.813331 -0.209895 1.049201 0.784407 0.489011 -0.353569 -1.020930 -0.604996 0.273368 0.352793 -0.717807 0.217737 0.220942 -0.710092 -0.240636 0.977657 -0.789117 0.497180 -0.859284 0.854959 -0.843549 -0.648582 0.305459 -0.146781 -0.535224 -0.452710 -0.529238 -0.033350 0.864257 0.585289 -0.713203 0.774779 -0.639929 -0.633227 0.367263 1.256430 0.115619 0.495468 -0.732032 -1.208241 -0.125487 -0.443877 0.326163 -0.860914 -0.129504 -0.636801 -0.791911 0.146680 1.207865 -0.952364 0.192014 -0.491815 -0.498173 0.890315 0.179449 0.121952 -0.433150 0.662389 0.378147 -0.500520 0.411092 -1.095616 -0.546699 0.598348 -0.439273 0.466502 0.481922 0.527168 -0.132722 0.729725 0.655239 0.559905 -0.583223 -0.091846 0.594473 0.130141 0.298833 0.786013 -0.591436 -0.051910 0.852259 0.477815 0.171829 -0.534004 0.436764 -0.709004 0.189199 1.167089 0.733143 -0.078985 -0.573424 0.289845 -0.103203 -0.436261 -0.178820 0.369889 -0.923023 -0.620924 -0.171155 0.070428 -0.742465 -0.562520 -0.501545 -0.603550 0.245878 -0.758337 0.303956 -0.674897 1.078603 0.933486 0.475656 0.711795 0.353966 -0.568137 -0.901410 -0.359257 -0.411768 0.359945 -0.392679 -0.523362 -0.825901 -0.053152 0.824122 0.176922 0.487501 -0.077022 -0.442511 0.803988 0.067760 0.344145 -0.185945 0.257324 0.927431 0.092884 0.555639 0.267216 0.387636 -0.204524 0.715051 0.430764 -0.243803 -0.218558 0.218382 -0.788383 0.512008 0.413599 -0.220862 1.029756 -0.478483 0.372313 -0.290391 -0.360903 -0.480964 -0.756830 1.022970 -1.010823 -0.159520 -0.612569 1.031018 0.817954 0.776457 -0.418838 -0.187339 0.693339 0.813994 -0.806037 -0.180613 0.256784 0.027647 -0.553706 -0.260745 0.894060 0.254599 0.652539 -1.037211 -0.110608 0.017831 -0.222579 -0.134691 0.445457 -0.606784 0.368210 -0.765916 -0.208867 0.609859 -0.694036 0.125045 -0.774142 -0.467549 0.036283 -0.853880 -0.558507 0.593286 -0.171603 -0.985970 0.533370 0.120646 -0.320630 -0.302149 -1.132630 0.435381 0.279537 -1.013262 -0.143435 -0.028385 -0.941739 0.620645 0.707049 -0.104889 -0.568724 0.329942 0.088848 0.719724 0.738332 1.000679 0.074196 0.869289 -0.132842 0.608600 -0.613598 -0.970521 0.753705 -0.278275 0.676223 -0.589479 -0.023648 -0.080206 0.404652 0.893433 0.425271 0.548505 0.168552 -0.133347 0.628714 -0.982463 0.990901 0.625553 0.651608 0.797725 -0.639513 -0.810957 0.003948 0.740594 0.860718 -0.188021 0.716198 -0.415515 -0.567007 -0.517637 -0.259462 0.171378 -0.041935 -0.813813 0.842109 -0.551676 -0.104098 -0.157728 0.318164 -0.997813 -0.391392 -0.063212 0.648007 0.779407 0.975273 0.275113 0.655510 0.820783 -0.164102 0.186582 0.565558 0.506810 0.746418 -0.284874 0.292691 0.149606 0.303754 -0.227748 -0.402181 0.773246 0.822242 0.214994 -0.325141 -0.655239 0.385052 -0.348832 -0.173396 -1.132791 0.288425 -0.590085 -0.870921 0.849433 0.291198 0.972253 0.369606 0.358704 0.104893 0.210352 -0.178182 1.238562 -0.978761 -0.389902 0.483630 0.733732 -0.144966 -0.440785 0.177741 -0.698113 0.634944 0.315710 1.090367 0.389249 -0.208765 -0.173991 0.958521 -0.862389 0.433949 -0.297765 -0.866867 -0.473904 -0.226979 -0.755302 -0.932483 -0.810643 -0.972719 0.484676 0.334692 -0.015113 -0.454193 -0.581524 0.175516 -0.090460 -0.372187 -0.388420 0.909572 0.329386 1.016003 -0.691739 -0.011949 0.351885 -0.609084 -0.660973 -0.787677 -0.029028 -0.720068 -0.601419 -0.851611 -0.094758 -0.284740 -0.348192 0.925572 -0.225327 -0.240328 -0.913779 -0.172295 -0.911836 0.691498 0.947513 0.030330 -0.649269 0.074102 0.891247 0.033627 0.998654 -0.592438 -0.022515 -0.269347 -0.848724 0.357930 -1.112568 0.881801 0.637796 -0.548319 0.945766 -0.562071 -0.520471 -0.706161 -0.267850 0.456399 -0.426542 0.273547 0.296213 0.673283 -0.898476 0.655232 -0.616821 -0.431719 0.453658 -0.747277 0.587838 0.682212 0.314895 0.238375 -0.295994 0.132102 0.412391 -0.906847 -0.709872 0.654586 0.496798 -0.788726 0.475871 0.087874 -0.351200 0.229406 0.624662 0.342589 0.532182 -0.800122 -0.254738 -0.578491 0.536626 -0.770688 0.429535 0.610679 1.215676 1.026470 -0.908172 0.471698 -0.786855 0.557204 0.138738 0.660917 -0.229207 0.990729 -0.312398 -0.740064 0.725867 -0.019124 0.973987 0.324325 0.208065 0.205581 -0.583168 0.759675 -0.430564 0.944217 -0.268239 -0.918988 -0.837583 0.745646 -0.814384 0.634614 -1.217910 0.758686 0.225780 -1.017221 0.762317 0.549078 0.309912 -1.182518 0.021459 -0.603550 0.717443 0.851430 -0.697713 -0.440131 0.759376 -0.565070 0.251364 0.767132 0.664702 -0.390382 0.231966 0.879287 -0.971037 0.769105 0.974797 0.784892 0.402407 1.166082 -0.087006 0.850075 0.603749 -0.122189 0.594548 -0.091383 0.183949 0.544463 -0.589853 -0.526432 0.459886 0.138714 0.143269 0.445354 -0.099848 0.360909 0.940133 -0.541393 0.510538 0.334194 -0.267058 0.263037 0.774562 0.692202 0.161176 -0.572231 0.294893 -0.104624 0.844221 0.091725 0.094664 -0.405629 -0.050609 -0.476370 0.407242 -0.448851 0.893786 -0.506808 -0.997026 0.946177 -0.032822 0.841067 0.104095 0.868092 0.121262 0.886283 0.486339 -0.133200 -0.376190 -0.145440 -0.859254 -0.111344 -0.899833 -0.951247 -0.127671 0.314913 -0.601348 -0.652854 -0.834948 0.873775 0.292201 0.557394 -0.703121 -0.997399 -1.059369 0.950224 -0.279191 0.679449 -0.782785 -0.266592 0.346896 0.556002 -0.436841 -0.324064 0.330236 0.683163 -0.430427 -0.463366 -0.438189 0.019880 0.437834 -0.142515 -0.681164 0.513610 -0.133839 0.080282 0.077571 0.306505 0.054275 0.476054 -0.184417 -0.645902 -0.104760 0.501895 -0.551529 -0.051959 0.242415 -0.068155 -0.405485 0.500152 0.713399 -0.769712 0.104839 -0.558042 -0.027741 -0.565270 1.016115 0.388238 0.006036 -0.454958 -0.452849 -0.478647 0.582316 -0.031196 -0.784716 -0.740391 1.017546 0.109095 0.140272 0.126480 -0.418263 -0.494789 0.533048 0.351573 0.879396 0.996975 -0.657639 -0.000941 0.188739 -0.198595 -0.420333 0.002831 -0.058330 0.962253 0.482142 0.709355 -0.650094 0.182116 -0.027068 0.434165 0.700431 0.622409 0.828010 -0.521923 -0.659508 -1.070516 -0.261788 -0.751643 0.292979 -0.898945 0.369034 0.722607 -0.465372 -0.078071 0.400810 -0.554827 -0.160567 0.426260 0.763405 0.652099 -0.731062 -0.568616 -0.118375 0.138804 -0.593814 -0.797832 -0.383885 -0.230596 0.228418 0.884172 -0.746293 0.196051 0.301516 -0.797853 0.592209 0.634584 -1.098869 -0.346873 0.891331 0.481696 -0.096044 0.124345 0.440870 0.487722 0.997620 -0.611682 1.025628 -0.121574 0.867071 1.151245 -0.313593 0.890229 -1.024397 0.755685 0.077331 -0.616545 0.667892 0.856724 0.142596 0.006958 0.872129 0.319079 -0.900916 0.079045 0.657919 0.788143 -0.281373 0.671774 -0.671238 -0.471619 -0.045986 0.317151 0.116547 -0.796164 -0.208828 0.447367 -0.236804 -0.116214 -0.718635 -0.490176 -0.743779 0.293675 -0.524219 -0.579998 -0.155720 0.638743 -0.221486 -0.409329 0.200513 -1.041437 1.139425 0.164609 0.372403 0.933323 -0.706190 0.021455 0.862916 -0.224508 -0.646543 -0.882328 0.448150 0.500109 0.901095 0.143118 0.675797 -0.138809 -0.375501 -0.255473 0.507932 -0.046689 0.367010 -0.872732 -0.607033 -0.498621 0.170673 0.254813 0.268510 0.900698 -0.322424 0.386553 0.707331 -0.883314 -0.285678 0.709245 -0.630960 0.462069 0.588337 0.448378 0.914561 0.892858 -0.183885 0.374814 0.859850 0.784102 0.294684 -0.366337 -0.558991 0.817482 -0.683804 0.467741 -0.012656 -0.647736 0.653469 -0.338848 -0.180010 -0.208960 1.037336 -0.844421 -0.451525 -0.181882 0.579510 -0.623268 -0.146537 -0.748559 -0.907354 0.350580 0.650373 0.598887 -0.341078 0.562480 0.668530 0.472243 0.046230 0.491089 0.341206 -0.772811 -0.807506 0.835882 0.976698 -0.527093 0.241035 0.012586 -0.193669 -0.113284 0.725950 0.745033 0.832441 0.634883 0.828626 -0.540847 -0.488019 0.438573 -0.068636 0.376426 0.681653 -0.057715 -0.380695 0.390190 -0.276147 0.323686 0.006373 -0.594157 -0.204582 1.024806 0.989716 -0.804683 -0.899563 -0.941652 0.939190 -0.916352 -0.467291 0.258331 0.131724 0.417483 -0.812933 -0.184440 0.071305 0.896325 -0.534858 0.012952 -0.585808 -0.086218 -0.627427 0.336733 -0.708322 -0.918759 -0.670874 -0.047817 0.458196 0.038972 -0.664965 -0.490356 0.425948 0.150893 -0.483884 0.298128 0.298393 -0.385279 0.456959 0.299956 -0.332919 -0.973319 -0.471747 0.822139 0.444255 -0.342200 -0.449547 -0.466528 -0.400011 0.146974 0.535787 0.055059 -0.971099 0.992000 -0.475686 -0.655525 -1.022854 -0.274907 0.346212 0.574223 0.809186 0.751091 -0.912366 0.243356 -0.124527 -0.384687 -0.399965 -0.795908 0.125945 -0.931719 0.415501 0.904184 -0.904401 0.960345 0.704320 0.576356 -0.288746 -0.714109 -0.860181 0.260173 0.432351 0.654025 -0.633917 0.474274 0.596572 -0.148303 0.911826 0.751241 0.526661 0.313299 0.430116 0.294173 0.006157 0.475109 -0.498432 1.015085 -0.915119 0.084881 -0.883090 0.340936 0.225916 0.609460 0.264960 0.273934 0.525472 -0.058126 -0.167583 -0.832841 0.285042 0.020982 0.447679 -0.339319 -0.306224 0.880612 -0.833067 -0.605782 -0.246182 -0.995031 -0.906736 -0.732945 0.380233 0.535693 0.607468 -0.549408 0.052772 -0.946661 -0.734074 0.133490 0.249653 -0.661188 -0.532178 -0.587452 0.913722 0.619755 0.792024 0.389744 -0.429099 -0.239739 0.616041 0.833657 0.754592 0.075518 -0.505173 -0.517103 0.034313 -0.394008 -0.132262 0.769260 -0.334089 0.015303 0.946615 -0.947071 -0.432038 0.563608 -0.615676 0.600423 0.706952 -0.251878 -0.242889 -0.138518 0.111062 0.157817 0.408524 0.000233 -0.158603 0.186373 -0.494247 0.444619 1.005305 -0.989880 0.255959 0.719940 0.147526 0.710815 -0.811644 -0.778110 -0.632637 0.059496 0.876802 -0.023111 -0.953373 0.888899 0.056116 -0.302649 0.495756 0.435917 -0.622327 0.162770 -0.774306 0.063428 -0.950372 0.161799 -0.744969 0.442286 -0.793658 0.131518 -0.378687 -0.332791 -0.380471 -0.416600 -0.298231 0.803494 -0.739880 0.852277 0.567729 -0.524709 -0.975565 1.013849 0.487441 0.912931 -0.011606 0.646080 0.767077 -0.928982 -0.715898 0.294184 0.525224 -0.385084 -0.540858 0.598943 0.664291 -0.520310 -0.095942 0.998770 0.961865 0.144445 0.082952 -0.363738 0.772437 0.620248 0.163126 -0.479976 0.415510 0.325999 -0.641503 0.015570 0.751467 -0.642129 -0.047625 0.234027 -0.727253 0.931171 -0.059772 -0.930237 1.027387 0.292326 0.398860 0.450392 1.038179 0.913113 0.153320 0.610798 -0.507380 -0.984817 0.760593 -0.657855 0.172687 -0.290270 0.011094 0.004988 -0.682364 -0.836641 0.518634 0.823813 0.541350 0.872638 