-0.473452 -1.476067 0.723195 -1.751139 -0.990258 -0.639195 0.803822 0.244951 0.453844 -0.028147 -0.783034 0.636126 -0.141584 1.882651 -0.318827 -0.821895 0.710924 -1.414252 0.191807 1.164729 -0.458313 0.173478 0.500430 -0.407734 -0.744367 0.388464 0.819072 -0.335063 -0.472319 0.926141 -0.891860 0.932760 1.416578 -0.729327 0.860996 -1.061727 -0.336263 -0.320837 1.433853 -0.577610 -1.292006 -1.435542 0.394004 0.106153 -0.456352 -0.496738 0.817051 1.290949 -0.420591 -1.013115 0.012664 1.685271 0.077856 -0.821025 -0.932716 0.099843 0.726134 -0.421849 -0.982666 -0.506990 -1.723036 -0.310727 -0.677526 -1.776258 -0.102148 -0.469562 -0.191246 0.897033 0.756234 -0.499102 -1.526751 0.838639 0.593303 -1.029390 0.249093 0.623792 0.197740 -0.737018 1.133435 0.333605 -0.356496 -0.042332 0.419120 0.586329 0.447791 0.707408 0.324968 0.688271 0.860852 0.072483 -0.795784 1.527588 -0.043489 0.427023 1.240354 -0.534214 1.018251 -0.741210 0.044427 -0.325924 0.172702 -0.534260 -0.552081 0.649364 -1.756020 -0.801806 -1.046300 -1.262835 1.184603 1.135969 1.497541 -0.214383 -0.777540 -0.200437 -0.645074 0.599551 -0.874010 0.641541 0.150427 0.588371 -0.604884 -0.026387 -0.449757 0.094722 1.357540 -0.071890 -0.390750 1.092666 -0.892336 -0.787857 0.104702 0.802369 0.508039 -0.089262 -0.114435 1.497645 1.727638 0.870514 -1.150217 1.809837 -0.232880 1.151230 -0.231391 0.185619 -1.606976 0.139448 0.151460 -1.109931 0.147504 -0.389194 0.842464 0.033457 -1.213419 0.262420 -0.357395 0.435090 -0.188110 1.241062 0.973369 -1.547431 -1.157006 0.020996 -1.922819 0.555770 0.793579 0.326141 0.036297 0.254008 -0.148210 0.091857 0.891821 0.230871 -0.504536 0.627879 0.036184 -0.650036 0.272759 -0.664159 -0.839132 -1.107480 0.179540 0.057520 2.795677 1.055507 -0.070342 -0.173443 -0.491883 0.109855 -0.551847 1.619331 1.262023 0.058289 -0.847936 -1.136711 -0.842489 0.261037 0.323401 -0.254975 -1.293099 0.403188 -0.517434 1.044204 1.015677 -0.043420 -0.133870 -0.298507 0.976905 -0.239249 2.316811 -1.227369 -1.148013 1.192743 -0.650142 0.101416 -0.951258 -0.171397 -1.102792 0.763097 1.560153 -1.278480 0.714572 -0.277913 -1.582516 0.393300 0.095149 -1.214143 -0.520975 -0.288400 1.078247 -0.150475 0.221827 -1.549735 -0.230103 -0.041636 -1.212868 -0.686369 0.357080 -0.235439 -1.447931 1.126936 0.069711 -0.253745 -0.585541 0.135878 -0.443188 -0.856189 -0.068034 -0.878662 1.624580 -0.775270 -0.619456 -0.450150 0.121513 -0.503269 -0.384454 0.289012 -0.642388 -0.354717 -0.566565 -0.189387 -1.324770 0.319745 -0.302082 0.005297 -0.673352 0.723337 0.605466 0.535133 0.009476 -0.517420 0.210431 1.081664 0.241784 -0.739784 0.858589 0.343196 0.810865 0.946891 0.667167 0.793348 1.906203 -0.181496 0.076592 0.510679 0.090573 0.406916 -0.275755 0.866320 -0.310165 -0.069303 -0.438552 0.509726 0.697646 0.636554 -1.427683 -0.552510 0.110883 0.965491 -0.604464 1.915141 -1.631443 -0.208155 -0.342886 -0.333626 0.468925 1.563047 -1.156307 0.017442 1.412836 -1.124311 0.352183 0.964994 0.309416 0.624299 -0.603279 -1.271650 -1.197078 -0.183861 1.268948 0.103819 -0.711738 0.288922 -0.085529 1.019215 0.091088 0.483343 -0.453135 -0.681137 -0.489814 0.404585 0.839937 -0.096931 -1.267924 -0.496194 0.990590 1.043937 -1.116305 -0.445913 0.033523 -0.927436 -0.414565 1.321185 1.312817 -1.352482 1.373921 0.106319 -0.356570 -0.923947 0.063410 -0.066929 0.269453 1.225399 -1.326681 -1.124770 0.211380 1.477802 0.524948 1.178215 -1.181059 0.917502 0.110830 1.027317 -0.629300 0.378834 -1.168013 -0.893976 0.598712 -0.854366 -0.299733 1.826315 -0.264359 0.703022 1.718377 -0.380259 0.130632 1.294128 -0.062968 -0.814412 1.468194 -0.950968 1.152876 0.403435 -2.210914 -0.015990 0.635829 1.353958 -0.962486 -0.136714 1.525530 0.567002 0.711772 -1.074968 -0.198508 1.133912 -0.419421 0.904642 -0.538332 -1.680621 1.378913 -0.149661 -0.177478 0.703672 -0.470031 0.627001 -0.902851 -0.638929 -0.042754 -0.993047 -0.879290 0.058980 0.404004 -0.002495 -1.046616 -1.432170 -0.288812 -0.635529 0.035976 -0.675917 1.180049 0.847479 -0.009958 1.021464 -1.063072 -0.866552 -0.165157 0.591764 -0.905163 -0.966043 0.968084 0.853642 0.398320 0.200092 0.292781 0.481935 -1.584017 0.042615 -0.937450 -0.104200 0.160263 -0.590585 0.313045 -0.178134 -1.440116 -1.773014 0.146130 1.216787 -0.289234 1.034395 0.773449 0.207347 0.348241 -0.159507 -0.750845 0.238301 0.675769 -0.213322 1.755343 0.856387 -0.742607 0.180200 0.891517 0.204457 -1.563521 -0.104289 -0.297893 -0.808979 -0.796991 -0.489506 1.120644 -0.999780 1.211089 -0.024891 0.418298 1.201178 1.491756 0.346313 0.782369 -0.960122 -1.553971 0.194790 -0.223335 -0.193129 -0.842733 1.116750 0.956118 -1.203342 1.277083 0.247347 0.868356 1.202764 0.547463 0.538374 -1.460153 -0.722660 -0.942782 -1.416081 0.097889 0.429116 0.748425 1.201310 -0.036070 -0.704640 0.670962 -0.598410 0.084634 -0.962683 1.311163 0.090304 -0.672925 -0.290054 -1.204911 -0.149255 0.755493 1.358414 -0.361761 0.251632 1.252856 0.753381 0.165132 1.341548 1.815192 -0.573545 -1.324460 -1.232748 0.429158 -0.990058 -0.317015 -0.087976 1.221698 -0.559354 0.816115 -0.031179 0.407898 0.601229 0.119019 0.371552 -0.501647 0.137334 -1.705497 0.405143 0.384137 -1.239693 -1.552129 0.022021 1.006425 0.003179 -0.680844 1.488336 -0.148255 0.326689 -0.646169 -0.599569 -0.941874 -0.007336 -0.978249 0.578787 0.417538 0.445240 0.985052 0.389514 0.519050 0.728866 0.466663 0.365563 -1.045743 0.030940 -1.594148 0.749288 1.283722 -0.499110 -1.095358 1.106175 -0.101758 -0.304933 -0.527162 -0.339310 0.788535 0.094398 2.521582 -0.614576 -0.459298 -0.781659 -0.342951 -0.479265 -0.421200 1.076009 -1.769506 -0.121799 -1.132571 1.159698 -0.901202 1.652376 0.261392 1.079363 -1.197806 -0.335562 -0.805335 0.201665 -0.382148 -0.389909 1.587901 -0.700530 0.416840 -1.497516 0.258795 -1.103609 -0.951109 -1.220277 -0.919884 -0.937052 0.033385 -0.896505 1.051055 0.355995 0.830874 -0.138960 0.709931 1.938985 1.526975 0.559967 0.832277 -0.002044 0.408386 -0.212987 -0.114528 1.541099 -0.389898 0.089116 0.241390 2.173966 0.560183 0.479791 -0.788608 -0.091367 0.341892 0.052296 0.406382 -0.014250 0.523890 -0.095298 1.038116 -0.743610 0.756983 -0.269093 0.454589 -0.405513 0.601467 -0.639525 -0.862940 -0.225077 -0.536391 -1.208298 -0.968472 0.778421 0.326746 0.296012 0.374348 0.168094 -1.202581 -0.582650 -0.136232 0.107627 -0.077432 -0.389240 -1.025553 -0.863868 -0.276091 0.203925 0.538697 -0.895976 -0.878593 0.237520 -1.142469 0.373725 1.271280 0.895819 -0.344088 0.395951 -0.497256 -0.585577 -0.435317 -0.778475 0.672728 0.986564 -0.921692 0.012355 1.156125 -0.700563 0.147076 -0.631974 0.194603 -0.076548 0.017900 0.941295 -0.002374 0.274149 -0.982264 -0.538298 -0.192157 -2.118816 -0.821550 -1.776246 -0.958322 -0.860872 0.908456 -0.635578 0.005523 0.368402 -0.250786 -0.183306 0.369716 0.473114 0.354419 -0.859429 0.579693 0.749775 -0.034161 1.335785 0.246283 -1.515129 0.915684 1.008399 -0.076584 -0.148203 1.334665 1.496965 -0.362123 -0.775287 0.693087 -0.302190 -0.256839 -0.654849 1.169473 0.761419 -0.575974 1.030297 0.734961 -0.552947 0.747957 -0.048703 -0.278428 0.992853 0.826268 -0.834898 0.297346 1.110901 1.151861 -0.881244 0.600811 -1.023202 -0.382211 0.352481 -0.634500 0.651288 -0.506570 -1.325890 0.205841 0.030165 -1.820039 0.880936 -0.339710 0.370425 1.040369 1.605128 -1.389290 0.861763 1.072892 -1.113690 -0.275031 -0.619781 -1.024084 0.595293 1.475923 -1.751029 -1.336718 -0.023743 0.837327 -1.275356 0.806772 0.278958 -0.469141 -0.449078 -0.378066 0.385147 0.746189 0.337254 0.431885 -0.927497 0.694436 -0.524225 -0.550792 -0.359218 -0.544796 -1.195906 -0.058252 -0.633660 1.410815 0.697191 0.714069 -0.798022 0.511256 -0.095446 0.911385 0.261862 -0.100167 0.094271 1.204510 1.139354 -0.153245 -0.122184 -1.007076 0.476085 0.746904 0.763731 0.730315 -0.733665 -0.679179 0.227310 -0.263997 -1.281170 -0.691888 -0.400759 -0.795857 -0.269853 0.858540 -1.631181 0.648619 1.268342 0.167565 -0.590208 1.363864 -0.329095 1.112818 0.873132 -0.133268 0.083624 0.263566 -0.709748 -0.080401 0.641539 0.101576 0.610957 0.284492 -0.313312 -0.113988 -0.624771 0.464957 1.020262 -2.019603 -0.737605 -0.963589 -0.262593 0.341383 -0.180556 1.150908 0.145885 0.290308 0.780737 0.427429 -0.562260 0.266584 -0.773653 -0.280929 -0.100577 0.338461 0.343276 1.241899 0.317860 1.037307 -0.938049 0.614289 -0.120053 1.153128 -0.747768 0.920828 -0.621250 -0.324300 0.604987 -0.343057 1.147402 0.471271 -1.278174 0.378353 0.863338 -0.764693 -0.481018 -0.736084 -0.289705 0.541249 -0.283298 -0.463361 -1.464752 0.851885 0.329275 -1.105155 0.998113 0.658372 1.134862 -0.030128 0.446373 0.032121 -0.909787 1.352750 -0.073147 -0.911581 -0.994775 -0.013088 0.645890 -0.507898 -0.534273 0.099629 -0.027227 -0.024521 -0.672252 -0.580369 0.441471 -0.227237 0.140185 0.995409 -2.084650 0.421359 -1.403761 -1.101801 -0.622823 0.799124 -1.002133 -0.762022 -0.237025 -0.525928 0.693409 -1.406517 1.570097 0.909495 1.279827 -0.006240 0.922157 -0.904843 1.560897 0.173364 0.122329 -0.484556 -0.904557 0.795990 0.389960 -0.189829 -0.850762 1.206232 0.360399 0.061523 0.800487 0.503453 -0.370397 -1.571143 0.543794 1.625318 0.521530 0.889871 0.797700 -1.512295 -0.965884 0.034186 -0.527400 1.229647 -0.395071 -0.920316 0.106592 -0.896675 -0.438872 -1.078357 1.286177 1.075241 0.274499 0.782465 0.214233 -1.062402 -0.418097 1.153763 -0.591581 0.305348 -0.716817 -0.050781 -0.380433 1.395540 -1.348218 0.266631 -0.146225 -0.653816 -0.466551 0.532274 -0.392262 0.614576 1.474325 -0.818773 -0.444782 -1.418772 1.030217 -0.487135 -0.210554 -0.746988 1.022521 -0.089557 0.582365 0.584504 -1.479985 -0.053975 0.492789 1.475809 0.281222 -0.557611 -0.616128 0.956370 1.207418 1.012942 0.507512 1.000512 -0.832142 -0.545737 -0.914529 0.622458 1.093091 -0.131456 -0.659751 1.206760 0.835095 -0.129655 -0.873091 -0.263493 0.444613 1.021647 0.332585 -0.498190 1.641399 -0.968409 -0.913715 -1.198896 0.167098 0.832070 -1.453486 -0.228356 -0.731949 -0.725518 1.424895 -0.376524 -0.996934 0.292464 -0.701201 0.325640 0.271087 -0.350978 -0.839486 -0.109273 0.338246 -0.216300 0.068819 -0.064441 -1.804837 0.087781 0.730228 0.022904 0.857682 -1.307481 -0.426923 1.144139 -0.209472 -0.013389 0.524912 -1.440228 -1.154463 1.620726 0.004846 0.206201 -1.428410 0.258492 -0.191001 0.307158 0.564026 0.998879 -0.768661 -1.132970 0.505114 1.511813 0.212480 -1.325226 -1.155187 1.710626 -0.724197 0.480341 0.555078 1.500849 0.941550 0.357062 -1.596371 0.445275 -0.469464 -0.717287 -0.336407 -0.451401 -0.196016 0.220682 0.351200 -0.496379 1.431956 0.004318 0.863951 -0.869437 -0.983591 -0.393758 0.038765 0.315803 1.078205 2.626977 0.019251 -0.109420 0.987571 0.704473 -0.973033 -1.711565 0.290218 -1.410585 0.503926 -1.095098 1.544840 0.706684 0.265806 0.159374 -0.230465 2.571536 0.477601 0.946037 -0.955250 -1.192997 -0.138074 0.181266 1.078932 -0.711491 1.204989 -0.700701 1.126022 -0.767307 1.185013 0.343211 -1.075881 -0.774628 0.949950 -0.805291 -0.690934 0.016199 -1.013116 -0.279818 -0.011652 0.622773 1.240599 0.189315 0.551614 -1.255394 0.145277 -1.117764 -0.421994 -0.055963 -1.463942 -0.248523 -0.338329 -1.080348 -1.572996 -0.125047 -1.080856 -0.991635 -0.616333 -0.504664 -0.136706 1.176742 -0.199515 0.069864 -0.262336 -0.301392 0.199765 0.326330 1.223568 -1.002507 0.949902 0.269472 0.728761 1.076530 -0.443423 -0.745930 -0.357603 -0.213848 -0.424068 -0.359371 1.187805 -1.454911 0.979647 -0.886159 -0.797684 -0.190951 -0.560062 -0.524321 -0.034139 -0.669489 0.143205 0.409094 -0.616402 -0.268264 0.549916 2.255802 1.190070 -0.355545 0.550132 0.143768 -1.177657 -0.049411 -1.202741 -0.699996 0.297867 0.442559 -0.483263 0.605295 0.791105 0.524175 -0.904280 0.689042 0.760439 1.516372 0.348267 -0.771411 0.040838 -0.599115 0.510673 0.145605 1.348460 -0.803391 -1.137930 -0.875575 0.638964 -0.304177 -0.947972 -0.105779 -1.196088 -0.668547 -0.902789 0.691080 0.244904 -0.696532 0.965318 0.928424 -0.140322 -0.119476 0.311079 1.016882 -0.876862 0.535168 1.433680 -0.407702 0.999628 0.721735 0.220364 0.236638 -1.511130 -0.061914 -0.582441 2.079055 0.500505 0.933815 -1.263686 -0.359630 0.565002 -0.619189 0.183538 -0.641278 0.445309 0.565118 0.597340 -1.671759 0.484560 -1.256081 0.462208 -0.510026 -0.101033 0.988806 0.821772 0.964567 -0.299956 -0.415675 -0.132370 1.313694 1.219339 -2.397888 1.319995 -1.085450 -0.054054 0.507588 0.134977 -0.870353 -1.005834 1.305297 0.956101 0.120767 -0.048748 -1.651392 0.647784 -1.013677 0.942174 0.726592 -1.045642 1.583303 0.805438 0.706335 -0.497628 0.016752 0.648721 -0.655454 -0.815705 0.691061 -0.816674 1.080922 0.653780 -1.422288 -1.268073 0.327912 -0.623079 0.668858 0.039229 0.862327 -0.074461 -0.617214 -0.486702 -0.283423 1.090614 0.644429 0.085369 0.570266 0.280510 0.107510 0.382843 -0.257280 0.403582 -0.423466 -0.756738 0.612560 0.492585 0.166857 0.474662 1.203419 -0.386471 -0.845621 1.133455 1.882964 -0.663113 -0.520650 -0.379034 -1.254976 0.260367 -0.450552 0.804970 -0.720380 0.677250 -0.002425 0.470932 0.968759 -0.629144 -1.447108 0.471251 0.796002 0.402399 -0.633092 -1.721056 0.975883 -0.242353 -0.624290 0.716184 -1.760622 0.748521 -1.559661 -2.180327 -0.525556 -0.720304 -1.221335 0.974424 -1.126077 0.476753 0.634327 -0.130787 1.051329 -0.136240 1.533415 0.947946 -1.039125 0.066591 1.425449 -0.146880 0.274707 0.073919 -0.831255 -0.588224 -0.453814 -1.298009 -0.736147 0.526182 -0.320489 0.742642 0.313215 -1.152730 -0.210927 0.675668 -1.925134 1.095740 0.515588 -0.070772 -0.493728 1.243934 1.547790 0.798085 0.217457 0.909943 1.197604 -0.625216 0.239009 0.375505 0.177269 -0.310206 -0.592663 0.125129 0.434924 0.020717 0.505922 -1.260662 -0.396312 0.832889 0.763059 0.051111 1.335062 -0.543456 -1.010197 -0.168192 -0.560377 0.461389 1.401552 -0.957363 0.408065 0.862021 0.704530 0.373288 0.758339 -0.149080 -1.000096 0.170807 0.876411 0.324375 -1.475241 0.255816 -1.326641 -0.842069 -1.895561 1.449779 -0.838963 0.619431 -1.595004 -0.506597 1.065768 0.665351 0.700254 0.074864 -0.126521 -0.751336 0.246821 -0.354428 0.300082 -0.509962 1.383117 0.752671 -0.045101 -1.333860 -0.636198 0.561550 -0.336570 0.362384 0.269421 -0.659091 0.381675 -0.886397 -0.369032 0.497738 -0.967234 -0.196001 0.569761 0.764220 -0.141610 -0.454757 0.062838 -0.569845 0.741909 -1.159528 -0.126739 -1.049327 0.192347 -0.819156 0.273690 0.940960 0.404419 -0.742250 -0.624996 -0.561421 -0.519908 -0.262629 0.983414 -0.135451 1.074237 -0.263024 0.175645 0.178908 0.192438 -1.289385 -0.373504 0.124019 -0.384872 -0.394575 0.160074 0.304752 -0.092284 -1.027115 0.301312 -0.370320 -0.355456 -0.853508 -0.330375 0.731357 -0.455355 -0.657244 0.576186 0.652001 -0.005777 1.348474 -0.846136 0.294791 -0.049400 -0.878803 -0.862713 -0.201250 0.274743 0.508170 -0.937562 -0.488838 0.478438 0.145809 0.904104 -0.788698 0.669233 0.119124 0.592622 -0.752794 0.471278 -0.199157 -0.090631 0.623783 0.121908 0.199318 0.215269 0.792804 0.718942 -0.393883 0.591854 -0.869436 -0.489848 0.796858 0.357654 0.637851 0.907342 0.464418 0.021621 -0.083680 -0.629883 0.420698 -0.545850 0.193033 0.369195 -0.349888 -0.349743 -0.588150 1.017477 -0.156150 0.633662 -0.193531 0.638614 0.217081 -0.919557 0.098610 -0.751841 0.714856 -0.460402 -0.071167 0.272688 -0.304770 0.492006 -0.065149 0.948066 -0.129481 -0.349796 0.326532 0.097743 0.657417 -0.779888 0.417775 -0.036135 -0.411759 -0.360238 -0.667833 0.159449 0.182937 -0.401084 0.147741 0.948029 -0.770464 0.869044 0.635199 0.391505 0.935786 -0.382789 0.592520 0.627972 0.124129 -0.499281 -0.170682 0.817880 0.895849 0.696899 0.658261 -0.183066 -0.742506 -0.030329 0.869526 0.879471 0.097240 0.249775 -0.239215 0.607914 0.773060 0.096408 -0.177702 -0.079417 0.690998 0.877359 -0.118080 0.796826 0.710655 -0.555154 0.144288 0.609124 -0.068458 -0.296571 0.180590 -0.902223 0.183920 0.909779 0.828185 0.007813 0.503929 0.439592 0.833801 0.794829 -0.673266 0.611727 0.538975 0.394629 -0.117548 -0.689887 0.024393 0.768798 1.129251 1.162229 0.152248 0.810176 -0.300643 -0.492627 0.313714 -0.346544 1.060094 -0.034528 1.105359 -0.285963 1.377983 0.871876 0.788836 1.442647 0.500562 -0.424838 -0.279863 -0.386882 -0.133808 0.348967 -0.824476 0.981962 -0.494898 -1.317146 -0.341714 -0.360025 1.596478 -0.221629 -1.137510 -1.431807 -0.758205 -0.026483 -0.237113 -0.052524 0.941230 1.600328 -0.138250 0.349002 -1.041620 0.215595 1.677275 -0.495020 -0.199047 0.746656 -0.314612 -1.238561 0.718579 1.934366 -0.314663 -1.710860 -0.972990 -1.261500 -2.084052 0.029954 -0.341751 -0.088766 0.830805 0.518287 -1.318934 0.849890 0.788481 -0.670182 -0.194465 0.542240 0.620730 -0.558693 0.360605 0.190136 0.866613 -0.168819 -1.334232 1.214240 0.067775 0.002604 0.469426 -0.073992 0.349783 0.373481 -1.034538 -1.097844 0.400180 -0.440263 -0.729061 0.980538 0.450877 -0.971784 -0.689161 0.621489 -0.744991 -1.530182 0.126363 1.587460 0.298997 -1.817830 -0.204724 -0.213483 -0.438956 0.971555 -0.412227 -0.391719 -0.654708 -0.599994 0.274270 0.637200 0.546545 1.033140 -0.056658 -0.241025 -0.666265 0.147229 -0.855128 0.212476 0.568317 0.529066 0.052962 -0.834814 0.871471 -0.293732 -0.202791 -0.841710 -0.785476 -0.697547 0.071035 -0.654951 0.511145 0.679371 0.140442 0.916337 0.685709 0.614043 -0.470471 0.978617 1.056331 0.735560 0.392056 0.433975 0.673321 -0.785361 -0.866545 0.806768 0.402480 -0.888711 0.058277 -0.222551 0.611220 0.986765 -0.134833 0.574824 -0.423193 0.611788 0.543257 -0.331265 0.739374 -0.358485 -0.153078 0.235607 -0.678245 1.010654 0.018871 0.782568 0.504885 0.438293 0.600794 0.575321 0.253005 -0.076659 -0.018561 -0.373761 0.164368 -0.048337 -0.580039 -0.611233 -0.019157 0.388346 -0.060685 -0.532788 0.311903 0.691541 0.971729 0.742442 0.260828 0.438631 -0.778470 -0.148399 0.954694 0.147257 0.955555 -0.950032 -0.052914 -0.039658 0.957563 -0.448149 -0.629409 1.590052 1.268399 -0.351999 0.137852 0.915481 0.110451 0.474264 -0.261644 0.899274 -1.021575 0.711685 -0.353616 -0.423356 -0.101078 -0.260590 0.157871 -0.080839 0.301600 0.883016 -0.260991 -0.180533 2.029449 1.067478 -0.750005 1.753086 -0.312187 0.526672 0.676166 -0.491073 0.723952 -0.353075 0.462741 0.401421 0.851823 0.336730 -0.801341 0.070224 -0.520610 -0.509842 0.233254 -0.033203 -0.906445 -0.427587 -0.061333 0.395101 0.735224 -0.733825 0.895024 0.267150 -0.838459 -0.470540 1.052940 -0.723462 -0.532177 0.770813 -1.360089 -0.148307 -0.722841 0.993549 1.097890 -1.094920 -0.751266 -0.610167 -0.923738 -1.258631 0.478998 0.492714 0.292400 -0.493680 -0.559171 1.189889 0.707876 0.233622 -0.298519 0.302794 -0.993150 -1.059733 -1.446035 -0.764857 0.628011 0.187169 -0.871227 0.517151 0.242538 -0.369398 0.046723 0.130642 -0.064155 0.569644 0.218329 -0.000593 -0.320729 0.529164 0.047484 -1.067491 -0.550973 -1.411334 1.011384 -0.467389 -1.060175 0.479191 -1.259136 0.646073 -0.688604 0.484031 0.460963 0.132325 1.197752 0.627023 0.130593 -0.041448 -0.436991 1.056077 0.770464 0.888477 -0.762278 -0.113900 -0.214934 0.773304 0.860841 0.008427 0.901891 0.538934 -0.685438 0.669577 -0.735950 -0.693663 0.800335 1.444754 -0.063255 0.470132 0.833777 0.698090 0.215431 -0.966856 0.134697 0.223218 0.493864 0.185223 -0.716897 -0.652946 0.615307 0.043202 0.895638 -0.314412 -0.715897 -0.642870 -0.572065 0.038093 -0.914034 -0.748930 -0.681326 0.977137 -0.608570 -0.173403 1.242374 -0.712697 0.718889 0.487168 -0.062107 0.030900 0.898319 1.034240 -0.193234 -0.525355 -0.948571 -0.865119 0.295314 0.177191 0.498705 0.358139 0.546346 0.538943 -0.608629 0.692107 0.840075 -0.258713 0.875121 0.600064 -1.214163 -0.549622 0.920202 -1.168410 -0.754571 -0.922714 0.402151 1.230563 -0.271016 0.049000 0.504244 0.255912 -1.504858 -0.339831 0.169877 0.066937 -0.026340 0.241679 -0.622610 -0.922657 0.081391 1.237292 1.357376 -1.168539 -0.593842 0.285669 0.313826 0.803324 -0.614530 0.483305 0.587413 0.703221 0.831793 -0.362331 0.852376 0.251069 0.659155 0.526020 0.593576 -0.413062 0.936137 0.055426 -0.119867 1.570364 -0.761496 1.674262 0.376580 0.897119 -0.614296 0.111155 1.517503 -1.001450 0.712610 0.825268 -1.123777 -1.257600 1.077929 0.796164 1.339379 -0.627782 -0.482067 0.357283 -1.030210 0.057646 0.512091 0.721676 -0.216415 -0.451217 0.565918 0.372713 -2.387524 -0.077539 0.496559 -0.026443 0.407294 -1.018951 -0.393704 0.975259 1.134101 -0.849490 0.699519 0.338694 -0.812406 -0.304581 0.498725 -0.590476 0.294410 0.136421 -0.873075 -1.478673 0.362538 -0.381520 0.829329 0.698582 0.228617 -0.086963 0.154865 0.988431 -1.103158 -0.840678 -0.611506 -1.296916 0.430905 -0.817786 0.942449 1.346608 -0.534777 -0.345981 0.965717 -0.965530 0.342606 -0.864211 0.952025 0.321970 0.414653 1.854012 -1.216050 -0.682263 1.522609 -0.071951 0.726414 0.314200 -0.057429 0.033767 0.860314 1.183450 1.002937 0.124497 -1.240178 -0.489402 1.120918 0.876015 0.910880 1.018025 0.322095 1.226826 0.006137 1.220779 0.739548 0.480480 0.076143 -1.783503 -0.139302 -1.250819 0.682927 -0.762828 0.540380 0.671544 -0.060514 0.515732 -0.384347 1.071173 -1.223644 -0.226365 -0.787895 0.748046 -0.499570 -0.308841 -0.607305 0.123022 0.516324 -0.700099 -0.572144 -0.637493 -0.274773 1.007101 -0.569448 0.915615 0.445416 -0.654279 1.332217 -0.380983 -1.383798 0.210195 -0.271263 1.726910 -0.167698 -0.559406 0.999704 1.042859 0.551351 0.520180 0.389618 1.129254 -0.669077 -0.277473 0.841916 -0.961813 -0.507260 -0.735428 -1.607602 1.882606 -0.598867 -0.436452 0.141475 0.906625 -0.773762 -1.206716 -0.555467 0.830455 -0.762848 -1.321047 -0.702918 -1.609909 0.228676 -0.347027 -1.289578 -1.155744 -0.756520 0.291436 1.105963 -1.885074 0.914219 1.037378 0.231903 0.759700 0.442485 -2.140572 1.191731 -0.917977 -0.577678 0.911697 0.327747 0.508212 -0.259490 -0.389066 -0.004044 0.176475 -1.006698 -0.775914 0.499065 -0.537280 -0.316351 1.830186 0.291957 0.475263 1.760773 1.468001 1.067735 -0.321184 0.446191 -1.251392 -0.966539 0.009553 1.494915 1.323089 0.833526 0.589776 1.256871 0.496936 0.407371 -1.457263 -0.382200 -0.347983 -0.454321 1.708416 -0.998779 0.769004 0.040788 -0.611550 -0.185308 -0.922408 0.653997 0.066128 1.459396 0.945917 -0.139590 0.495408 -0.548533 -0.402855 -0.548038 -1.520385 -0.848233 0.510319 -0.344115 -0.547463 -0.791233 -1.349908 -0.969593 -0.601276 0.637048 0.745349 0.204460 0.218723 -0.610025 0.415607 -0.368637 -0.573690 0.426872 0.073881 0.548513 1.043339 0.422272 -0.258122 -0.357504 -0.136021 -0.583009 0.271732 -0.709469 0.076040 1.516998 -0.246481 0.338125 -0.550963 1.742872 -1.313771 -0.599523 -1.564513 -0.813069 -0.256918 -0.569338 -0.798433 -0.376697 -0.287152 -0.409312 0.995609 1.033396 -0.373031 1.009555 -0.541411 -0.348324 -0.253788 0.302248 -0.477542 -0.417153 -0.184290 0.584269 1.284573 0.702633 0.635987 1.053106 -0.826159 -0.184570 0.914940 -0.835057 -1.328938 -0.614853 -0.425206 0.275886 0.528634 -1.593014 0.018681 0.880653 1.352109 1.339938 -0.777414 -1.058977 -0.131511 1.423429 -0.781020 0.589221 0.201625 1.028839 1.798987 -0.169314 -0.611220 -0.346144 1.499307 -0.795111 -1.307708 1.016324 1.872100 0.183806 -0.999117 -0.651019 0.281253 0.171253 -1.105168 0.605233 -0.919033 0.700048 -0.277291 1.146387 -0.069075 -0.363478 0.583929 0.193650 -0.163566 -0.403568 -0.291876 -0.030566 -0.664132 0.409270 0.335626 0.475683 -0.453463 0.899760 -0.262905 -0.595481 1.051005 0.136512 0.745410 0.542563 -1.103756 -1.157205 -0.614176 0.934090 0.637908 -0.599392 -0.946492 0.472013 -0.807663 0.089719 0.872257 0.406155 0.716432 -0.462738 -0.867775 -1.649057 -0.609158 0.610865 0.333053 -0.461625 0.662336 0.535027 0.396957 -1.083750 -0.583826 0.869271 0.204235 0.587340 1.856025 0.209941 0.835705 1.306277 1.302948 0.368955 -0.085143 -0.169539 -0.001949 -0.167420 0.002073 0.163593 -1.002294 -0.761234 -1.089778 -0.027731 -0.380421 0.098216 0.198557 -1.071956 0.193745 -1.481755 -0.134346 0.824998 -1.065590 -0.781026 -1.121336 -1.074417 -1.067423 -1.653427 -0.775962 -1.123492 0.546220 0.882643 1.341526 0.105411 -0.116551 -0.104812 -0.618939 0.084396 0.824350 0.183181 -1.020569 -0.382017 0.799185 1.049639 -0.917747 -0.563947 -0.806053 -0.351662 -0.435113 1.066193 -1.134363 0.517013 0.397995 0.082876 0.749555 0.852792 0.764661 -0.894931 -1.153921 1.485862 -0.665909 1.206866 1.916647 2.152767 0.150811 0.195354 -0.114791 0.176210 0.084627 0.840097 0.066605 -0.053320 0.472890 -0.200010 1.694293 0.394312 0.710414 -0.104367 -0.579800 -0.156586 0.312866 0.530196 -1.385564 0.106654 0.885052 -0.125407 -0.866425 -0.898093 0.070344 0.960128 -0.663997 -0.184277 0.750425 -0.680184 -0.886879 -0.051009 -0.016744 0.833897 0.377697 -0.066401 0.102646 -0.881979 -0.794557 -0.739987 0.925541 0.768392 -0.929918 -0.892463 -0.866955 -0.439051 0.719064 0.557818 -0.433589 -0.223077 -0.931876 -0.543472 0.661647 -0.792300 -0.436013 -0.266527 -0.834875 -0.099127 0.554680 0.918794 0.232142 0.665365 -0.136142 -0.783177 0.512185 -0.748302 0.138162 -0.389092 -0.621284 0.351689 -0.133008 -0.685532 0.126260 -0.054127 -0.581304 0.253332 0.511748 -0.856250 -0.189151 -0.910949 -0.073126 -0.123180 -0.456448 -0.410327 0.083013 0.112630 0.321300 0.259121 -0.985197 -0.128197 0.181292 0.248086 -0.460423 -0.939699 0.468400 -0.944683 -0.681895 -0.385707 -0.327568 -0.304448 0.964443 0.547510 0.004834 0.087503 -0.494557 0.436364 -0.653638 -0.974457 0.583046 0.157921 -0.896643 -0.485150 -0.953876 -0.342587 0.099451 0.131075 0.771734 -0.573878 0.741042 0.158019 0.216005 0.315098 0.603420 1.020000 -0.281886 1.091426 1.232173 -0.024271 -0.206523 -1.388648 1.486053 -1.018418 1.195487 -0.842280 -0.637131 0.575152 -0.498034 0.035084 -0.493179 0.764200 -0.277225 -0.146572 0.620846 0.703390 -1.067353 -0.122885 0.532555 -0.762994 -0.063144 -0.395227 -1.450373 -0.319465 -0.956341 1.150095 -0.233532 -0.330722 1.053666 -1.296453 1.423662 -0.905966 0.473354 -0.310616 -0.476013 0.026349 -0.068440 0.361818 0.267733 1.033037 0.575385 -0.976519 0.107155 -0.654086 1.283751 0.042958 -0.679446 -0.706450 1.338777 0.281779 -0.556602 -0.078809 -0.817092 0.297039 1.949292 -0.772487 -0.340584 -0.604924 0.022548 -0.264019 0.251024 -0.306167 -0.019236 1.265758 1.405991 0.281518 -0.227605 -0.860880 -1.095900 -0.485945 0.411384 -0.325926 0.882119 0.023448 -1.117453 0.150612 0.949953 -0.353864 0.319359 0.626400 -0.711337 0.439499 -0.951990 -0.565869 -1.037315 -0.409623 -0.459539 0.470708 0.241065 0.802336 0.475494 1.243571 -1.056094 0.496579 0.177451 0.248613 -0.835945 -0.786664 0.883070 -0.583872 -0.470989 -0.156178 1.197965 1.088182 0.183971 -0.837468 -0.056445 0.467277 0.535727 -0.793089 1.385608 -0.748524 -0.087623 -1.002003 0.741877 0.261862 -0.502248 -1.813531 -1.306857 1.880166 0.659117 0.953162 0.394267 0.111665 0.134248 -0.895851 0.015899 0.655479 0.414476 -0.239581 -1.425543 0.566570 -0.207279 0.830346 -0.160076 0.519831 -0.313493 0.277848 0.674802 1.260456 -1.029879 -0.321053 -0.495315 0.126276 0.173377 1.429096 0.400967 0.510967 -0.144969 -1.267669 0.443024 0.243327 -0.656108 -0.124089 -0.645929 0.348143 0.017011 0.111850 -0.608747 -0.737121 1.047722 -0.273992 -1.043918 -0.371869 -0.434994 -0.478239 -1.456350 0.160628 -0.103629 1.259463 -0.844948 0.270353 -0.405020 0.703648 -0.532102 -2.274407 0.025778 0.125687 0.774516 -0.190908 0.282618 0.584938 0.272243 0.461340 -1.484706 1.086237 0.312078 0.519741 0.522765 0.795041 -0.245439 -0.933868 1.232084 0.713250 0.457692 -0.181242 -1.017419 -0.590273 0.664390 0.654998 0.746593 0.124390 -0.214877 0.100151 0.540365 -0.286821 0.627796 -0.647113 0.284240 -1.221219 1.333419 -0.784603 0.497307 0.573539 -0.770790 0.250222 -0.569899 0.866322 -0.399492 -0.673202 0.436314 0.502029 -0.017680 -0.182783 -0.130690 -0.685569 1.079027 -0.075460 -0.303571 0.478354 0.044090 -0.654582 -0.375014 0.862521 0.015124 -0.845263 -0.089461 -0.431442 -0.275236 0.557178 -0.094006 -0.017754 0.619749 -0.740646 -0.093412 1.125638 0.810955 -0.204958 0.810076 -0.516730 0.093796 0.195764 0.899260 0.944176 -0.593881 0.205275 -0.805158 -0.737513 -0.561049 0.031428 0.806177 0.101171 0.775459 -0.736533 0.236347 -0.553407 -0.177128 0.965038 -0.077080 0.280360 -0.083366 1.045051 0.846093 -0.240856 -0.461423 1.047104 0.012867 -0.838208 -0.572925 -0.425227 -0.151190 0.904380 0.827150 -0.031344 -0.737676 0.856571 0.938251 -0.545021 -0.760758 0.034743 -0.764555 0.720202 -0.504177 -0.369155 -0.011094 -0.019774 0.244227 -0.110416 -0.913809 -0.617729 -0.716081 -0.994464 -0.741133 0.235507 -0.471897 -0.770713 -0.778344 -0.107550 0.017055 -0.097367 0.582874 -0.284020 -0.160302 -0.673255 -0.610479 0.086733 -0.836292 -0.665662 0.519648 -0.620163 0.426262 0.751783 -0.892715 0.951987 -0.605065 0.071089 -0.067952 0.621956 -0.967349 -0.011341 -0.924852 -0.696837 0.052645 -0.690445 0.605651 0.562764 -0.414334 0.762089 -0.585030 0.572798 -0.330811 -0.981231 -0.719853 0.542134 -0.709427 -0.381683 -0.425814 -0.609519 -0.020415 -0.885165 -0.182110 -0.530102 0.853368 -0.094195 -0.588264 -0.737427 -0.983433 0.362704 0.877250 -0.932402 -0.652414 0.956056 -0.563636 0.424794 -0.662927 0.966715 0.009478 -0.126483 0.740046 0.421207 -0.591761 -0.558901 0.432999 -0.307001 0.931576 0.737887 0.398377 -0.458702 -0.796769 -0.589726 -0.411172 -0.037848 0.295193 0.959782 0.454007 -0.054003 -1.104787 -1.039502 -0.675912 -0.884102 0.088739 0.942792 -1.294066 -0.215345 0.281608 -0.922573 0.231180 1.770331 -0.864655 0.075292 -0.600547 -0.336217 -1.738831 0.300715 -1.232300 -1.436380 -0.449824 0.228390 -0.793440 -0.124586 0.937337 -0.223071 0.878675 -1.763754 -0.088072 0.432342 0.136150 0.385909 0.805066 0.916792 0.131199 -0.392171 -0.087740 1.440343 0.338973 0.700842 -0.553796 -0.280415 0.089989 -0.431483 0.655524 1.077750 -0.359219 1.406909 0.210661 1.225799 1.377367 0.246063 0.171120 -1.313692 -1.028161 -0.460279 1.114319 2.304631 0.527486 -0.241817 0.607632 -0.657925 -0.719497 -0.196497 -0.773637 1.171454 1.086489 -0.139418 -0.191847 -0.342547 -0.426144 -0.484176 0.006694 1.558042 -1.088064 -0.134069 0.775898 -1.518052 -0.855959 -0.357217 0.615304 -0.552576 0.978230 -0.494173 -0.581888 -0.708195 0.937980 -0.608216 -1.205670 -0.353880 0.525820 0.427466 1.368254 1.308755 0.721305 0.757999 0.359277 -0.347630 0.401082 -0.813772 -0.400690 0.324151 0.664697 -0.315101 -1.060903 -0.200424 -0.674342 -0.827989 0.788098 -0.343649 -0.687399 0.859023 -0.281546 0.207751 -0.259521 -0.408006 -0.092206 0.788769 -0.048503 0.962060 0.302469 -0.841341 0.471574 0.037025 -0.513471 -0.183051 -0.603360 0.708688 0.331064 0.920003 0.995138 -0.311261 -0.061393 0.905455 -0.146681 0.293943 -0.761189 -0.103845 0.207137 0.350884 0.797358 0.084130 0.562218 -0.927418 -0.824711 -0.754786 0.411671 0.067628 0.851475 -1.226843 0.081546 0.017120 -0.433535 -0.972638 0.574450 -0.351230 0.329420 -0.535666 -1.001345 -0.345144 -0.696041 -0.787632 -0.240002 0.742492 0.865955 0.397964 -0.642194 0.952076 -0.664868 0.736511 0.262718 0.933056 -0.113146 -0.514780 -0.657304 0.049498 -0.515704 0.666749 -0.849076 -0.745233 1.035797 0.236668 0.290217 -0.669854 0.837049 -0.279157 -0.205289 0.068211 0.588330 0.098684 1.156232 0.717812 -0.680677 0.315679 -0.168203 0.867575 1.147092 0.279517 -0.677411 0.654764 -0.708636 -0.829741 -0.516394 -0.483670 -1.006066 0.822513 0.517452 -1.618034 -1.697787 1.124586 -0.924534 -0.025039 0.111699 -0.308617 -0.121233 -1.024201 -0.001664 -0.454042 0.480048 -0.839618 -1.683769 0.511181 0.089050 -0.764102 -0.232274 -1.599060 -0.261684 -0.633021 0.571618 -0.220231 -1.865416 1.430225 -0.299725 -1.054645 -0.315381 1.414409 -0.425598 0.926139 1.020889 -0.151378 1.288567 0.314093 -0.517525 -1.344892 0.801758 1.068963 -0.811399 0.200677 -0.646883 -1.133176 0.887900 0.531877 0.609169 -0.613276 0.318646 -0.571356 -0.448942 -0.909783 0.073162 -0.325998 0.178167 -0.085222 -0.888355 0.995257 -1.123323 -0.074259 0.748606 -1.669814 -0.021918 0.281860 0.115147 -0.511941 -0.135519 0.483107 0.472455 -0.306798 -0.478090 1.097008 0.535158 0.695680 1.124768 0.008530 -0.784563 0.584696 0.709189 1.048923 1.762253 -0.869282 0.998096 -0.596287 -1.062013 -0.825023 0.597388 -0.536237 -0.936843 -0.543142 0.845343 -0.164863 0.712633 -0.842556 -0.831305 -1.489312 1.311695 1.473260 0.592712 -1.047113 0.504310 0.136157 -0.858545 0.194439 -1.191475 0.731413 -0.925131 -0.699155 -1.985785 -0.418713 -1.421802 0.189239 -1.496231 0.087135 -0.172151 -0.880763 0.262936 -0.474576 0.094682 1.213564 0.127728 0.000965 0.306986 0.315579 -1.192804 -0.156077 -0.459599 1.315720 -0.628176 0.966078 -1.557371 0.734882 0.598563 -1.172405 -1.384663 0.205786 0.535443 0.172147 0.539701 0.981122 1.050888 0.722891 0.803097 1.935474 -0.126910 0.844354 -0.484785 0.799989 0.772675 0.686045 0.443445 -0.019481 -0.226105 0.903639 0.579812 -0.052100 -0.933542 -1.374573 -0.034559 -0.964172 -0.948904 0.714663 -0.826768 -0.148974 0.466256 -0.697192 -1.100839 -0.008110 -0.841103 1.171852 -0.087946 -0.261179 0.124062 -1.009601 -0.798772 0.507773 0.767710 -0.110824 0.431321 0.755458 -1.014942 -0.360229 -0.258383 -0.661084 -0.496672 1.169448 -0.222145 -0.405957 -0.052260 0.863419 -0.056915 -0.183247 0.923815 0.669041 0.128316 0.104899 1.029677 -1.392462 -0.159365 0.629628 -0.137674 0.320995 -1.143009 0.093432 -0.196379 0.525282 -0.527937 -0.875732 -1.361903 -0.734516 -0.826165 0.481429 -0.864955 0.700995 -0.998407 0.622103 0.549689 0.016416 0.939655 -1.289114 -0.756477 -1.122110 1.543696 -1.646447 -0.628020 0.415486 0.239924 -0.758109 -0.235196 -0.945032 0.369077 1.071388 0.550691 0.009068 -0.429791 0.427897 0.282101 1.242073 -0.126470 -1.138531 1.166262 0.722471 0.640167 0.100590 -0.102446 1.571168 0.818716 -0.713939 -0.129772 0.633319 -0.350231 0.360549 -1.157981 -0.500970 1.813098 -0.000729 1.173274 -0.335345 -0.463810 -1.042065 1.192336 -0.764099 -1.006547 -0.124310 2.215843 0.294817 1.008441 0.164577 0.126159 -0.410111 -0.295820 -0.599022 0.644700 -0.067524 -0.025811 -0.430001 -0.418797 -0.476568 -1.075378 1.159699 0.489353 -0.543830 0.007859 0.694082 -0.183389 0.936052 -0.040308 -0.565352 -0.643906 -0.676093 1.048312 -0.820305 1.142332 0.044413 -0.726474 0.179430 -0.723900 -0.163329 0.577529 0.671230 -0.729441 1.195902 -0.842717 -0.023920 -0.349227 -0.409367 0.682550 0.455958 0.105873 -0.374952 1.158244 -0.747412 -0.298309 0.101348 0.552844 0.495157 0.973394 -1.487982 0.691658 -1.294422 1.144218 0.244202 0.158672 0.789095 0.739728 -0.194683 -0.278630 1.027529 0.713311 -0.318213 -0.029723 2.199150 -0.907428 -0.599827 0.368743 -0.130159 0.167342 -0.069497 -1.306675 -1.396040 1.040091 -1.336792 -0.746108 1.435976 -0.462854 0.668308 0.056356 -0.707877 -0.733920 -0.330597 -0.534666 1.120373 0.656252 0.130067 0.811120 -0.215418 0.467936 -1.592612 0.123342 0.171962 -1.158307 1.106579 0.326803 -0.557346 -0.544821 -0.463326 0.188523 0.294891 0.019260 0.526523 0.541963 -0.383516 0.959452 1.124013 -0.923090 0.731248 0.433661 0.313252 0.338413 0.799810 -0.577250 0.238069 0.334948 0.099497 -0.191515 -0.353776 -0.484381 -0.078522 0.794506 0.656315 0.171534 0.417152 -0.190598 0.494149 0.698344 -0.040691 -0.514407 0.005719 0.618442 0.785216 -0.581680 0.940556 0.070163 0.904792 -0.761431 -0.189147 -0.028177 0.518063 -0.114436 -0.678105 0.273129 0.256361 0.465636 -0.461643 -0.638434 -0.693857 0.136202 -0.207056 0.154195 -0.117296 -0.632286 -0.629326 -0.784518 0.171452 0.809516 0.953270 1.037434 -0.719696 -0.080964 0.589157 1.045276 0.229315 0.517173 0.046844 0.092363 0.643030 0.872757 0.997717 0.118825 -0.239523 -0.693361 -0.668176 0.932067 0.692515 -0.160196 -0.804456 1.002276 1.014566 -0.079211 0.160004 -0.168236 0.280717 0.403774 0.014006 -0.630998 0.146408 -0.116535 -0.707636 0.399031 0.742020 0.828821 0.423918 -0.085729 0.298870 -0.577914 0.916719 -0.144584 -0.721710 0.973252 0.921617 -0.074278 -0.857459 -0.697674 -0.105565 0.878372 0.061329 0.803785 0.018222 0.943644 -0.114090 0.738133 0.165404 -0.706963 -0.156055 0.553329 0.435204 0.668750 0.787361 -0.283969 0.345832 0.565311 -0.872131 -0.686422 -0.100418 -0.587321 -0.800475 0.667936 -0.321152 -0.871683 0.591181 0.532242 -0.759594 0.793099 -0.670132 0.959553 -0.053701 0.344651 0.827825 0.937988 0.274497 -0.453336 0.650490 -0.506589 -0.165407 -0.487908 0.881206 -0.894061 -0.902532 0.651336 -0.125899 0.373252 0.304373 -0.088921 0.702243 -0.982068 0.274026 0.820139 0.732120 0.950611 0.848616 0.360993 0.393066 1.033507 0.102033 0.791455 0.947073 0.981833 0.137401 0.724183 0.810304 -0.605803 -0.811745 0.457421 -0.261807 0.027222 0.949571 -0.346910 0.130324 0.924679 -0.731227 0.853737 0.290378 0.521887 -0.213206 -0.029222 0.533468 1.048242 -0.322364 0.228026 0.933655 -0.513378 -0.393521 0.333263 -0.576586 0.602729 0.045123 -0.624917 0.582069 -0.976919 0.942711 0.479172 -0.563296 -0.878003 -0.088958 0.191473 -0.195948 0.803869 -0.776403 -0.334787 1.022250 1.077451 1.043526 0.637422 -0.215237 -0.067476 0.099059 -0.287884 0.462760 -0.698480 -0.392665 0.874485 -0.066855 0.761559 -0.722123 -0.535619 -0.175192 -0.351579 1.039516 -0.090734 -0.356087 0.494479 0.109791 -0.317960 -0.642721 -0.760729 0.775564 -0.009598 0.977871 0.833080 0.589229 1.060356 0.910996 0.526833 0.517427 -0.465091 -0.605868 -0.548478 0.270060 0.676349 -0.192623 0.737692 0.656183 0.528770 0.470422 0.851304 0.862195 -0.670216 -0.567373 0.954963 -0.016701 -0.055796 0.240110 -0.872257 0.439155 0.529971 -0.638244 0.263554 -0.543549 -0.761564 -0.056216 0.922673 -0.928578 -0.085168 0.553445 0.491981 0.427890 0.715679 0.924796 -0.463786 0.350964 -0.407470 -0.836833 -0.054365 0.931420 0.643974 -0.318823 0.828191 0.930460 0.007890 0.623578 -0.203901 0.787196 -0.233839 -0.113621 0.256273 -0.805503 0.024016 -0.724705 -0.413293 0.315756 0.255706 -0.468508 0.870377 1.089051 -0.556350 0.289174 -0.076280 -0.672425 1.095709 -0.287713 -0.052713 1.877632 0.323327 -0.776325 0.821214 -1.519762 -0.120380 0.506595 -0.686702 -0.816995 0.832654 -0.520481 0.036686 -0.202241 1.417322 0.448457 0.933651 -0.911083 1.747052 -0.218173 1.298597 -1.527873 -1.645306 0.335665 1.622613 -0.194899 -0.556891 -0.272373 0.181762 -0.587466 -1.032336 -0.391044 0.798360 1.380122 0.630406 0.373815 0.910210 -1.053262 -0.760119 0.119706 -0.616270 -0.461342 1.071439 0.149104 -0.895172 0.727683 -0.424939 -0.907943 -1.067525 -0.980141 0.302210 0.229607 -1.551243 0.614687 -0.324763 -1.452610 0.990515 0.100601 0.282601 0.250968 0.027350 0.413460 1.523744 -0.034851 0.322829 -0.010137 -0.399652 0.507961 -0.251282 -0.709212 0.757792 0.305453 -0.323680 0.837506 -0.011892 0.654074 0.654629 0.330478 -0.829284 0.547298 0.524488 0.280967 -0.054346 0.847844 -0.501613 0.961218 0.307530 -0.553101 0.347940 -0.213433 1.999552 -0.667960 0.099896 0.579171 -0.040492 -1.063587 -0.163610 0.964570 0.379127 -1.244858 0.864528 -0.472344 -0.199641 0.417483 0.272355 -0.713226 0.026296 -0.126281 -0.061669 -0.250757 1.813581 -1.116726 -2.107880 0.882150 -0.157626 0.732792 -0.435417 0.709749 -0.604017 -1.150210 1.056964 -0.111287 -1.212222 0.585900 0.546978 1.258269 0.507645 1.074518 0.210202 -0.150381 0.154260 0.956271 1.595530 0.353494 -0.113810 -0.182541 -0.573477 -1.081160 0.202885 0.513079 -0.098704 0.420827 0.832517 -0.374558 0.117472 -0.130989 -0.164083 -0.853355 0.022227 0.281785 -0.248993 -1.072477 0.815074 -1.986185 1.110792 0.371276 0.922439 -0.067986 -0.805202 -0.002472 0.962586 0.315566 -0.679593 -0.163491 -0.083810 0.004080 -1.682030 1.098105 -0.032663 0.387871 0.398800 -0.545942 -0.980159 0.473964 0.688285 0.366678 -0.615338 -0.130561 0.889424 0.267947 0.914136 -2.302357 0.864306 0.364034 -1.270673 -0.230683 0.030395 -1.230801 0.497358 0.826709 0.747426 -0.259788 -0.548325 -0.059473 1.001604 0.940559 0.031749 0.827077 0.551056 -0.637480 0.367366 -0.785535 0.070119 -0.134439 1.017944 -0.172294 0.214421 -0.365293 -0.428227 -0.549577 -0.406918 -0.447846 0.848697 -0.610970 0.123290 -0.223492 0.421140 0.613210 -0.325889 -0.098163 0.412920 -0.592365 0.560632 0.801188 0.319139 0.538450 0.654300 -0.800689 0.378372 0.093046 -0.569144 -0.266768 0.184356 0.560461 0.516266 0.243983 -0.773122 -0.319698 0.776000 -0.331156 0.147979 -0.698650 0.253388 -0.066354 -0.387843 -0.690753 0.745383 0.920433 0.926176 -0.610410 -0.144810 0.334714 -0.341879 -0.697691 -0.023631 0.820721 0.927390 -0.308316 0.944156 0.280938 0.731749 -0.586746 0.886209 -0.184049 0.867917 0.337362 1.032318 0.927356 1.003235 0.685932 -0.369427 0.125794 0.929066 0.787667 0.945453 -0.564264 0.949922 0.647082 -0.605045 0.824728 0.860250 0.070667 0.022525 -0.432658 0.385297 0.955013 0.355555 -0.263401 -0.622861 -0.705386 -0.859071 -0.568343 -0.787471 0.046186 -0.565069 0.357769 -0.033605 -0.613388 0.573115 -0.468986 -0.168221 -0.513141 -0.441771 -0.431049 -0.681913 -0.221873 -0.393491 1.006272 0.087986 -0.707436 0.826707 -0.813183 0.106540 -0.852360 0.426325 0.201073 -0.427175 -0.369222 0.753629 -0.435947 -0.131310 0.681145 0.277899 0.173447 -0.557780 0.704761 -0.548162 0.657756 0.912661 1.001289 -0.897532 -0.229705 -0.491647 -0.396127 0.378896 -0.432096 0.469441 0.790545 -0.384545 -0.612437 0.988627 -0.882449 -0.376299 0.107218 -0.671162 0.955551 -0.733181 -0.350043 -0.324214 0.602492 0.354385 0.429100 0.434642 -0.374541 -0.494439 -0.894945 -0.633089 -0.012362 0.681166 -1.091607 -0.246276 0.871554 -0.245379 0.263921 -0.592498 0.983856 0.933712 0.654345 0.669581 -0.599636 -0.792658 0.623640 -0.249944 -0.379507 -0.281629 -0.042793 -0.312035 -0.354424 0.732797 0.213617 -0.338469 0.166722 -0.529565 0.833180 -0.325589 -1.172673 0.528526 1.750662 0.934813 1.197735 -0.104234 0.484647 -0.350829 1.204349 0.618635 -0.413848 0.329797 0.481554 -0.754325 -1.232541 0.032484 1.027099 -0.381270 -1.106963 -0.363140 -0.174422 -0.458878 0.537901 0.317320 0.822444 1.423660 -0.802542 -0.276299 1.070907 0.797072 0.129096 -1.435795 0.581443 0.477577 0.719659 0.687173 -1.388137 0.726268 -0.112884 -0.597797 -0.290437 0.455355 0.707726 -0.553093 0.421891 0.686888 0.819250 -0.318767 -0.178574 -1.506979 -1.462428 -1.295634 0.240053 0.448826 0.372330 -0.445500 0.416865 0.975698 0.453013 0.662083 0.329872 -0.487925 0.799144 0.359878 -0.940054 0.311240 -0.222096 -0.644103 -0.428318 -0.007998 -0.586023 -0.039273 -0.770370 -1.278750 0.443471 0.628986 -0.791792 1.271016 0.221747 0.017180 1.164975 0.784328 -0.098263 -0.538419 -0.180546 -1.285565 0.707089 -0.548962 0.584075 -0.742637 0.644163 -0.248052 -0.070423 -0.128429 0.469840 -0.001017 -0.168670 1.308324 0.216531 1.363334 0.281174 0.114964 -0.774399 -1.252156 -0.674238 0.870425 0.012046 -0.539211 0.449601 0.822461 -0.470166 -1.146458 -0.414105 0.045022 0.151430 -0.549831 -1.085146 1.293476 1.422605 -0.469708 0.003454 -0.627035 0.486121 -0.946521 -0.526253 -0.600454 -0.468655 -0.195250 0.748355 -1.480711 -0.632589 0.482187 -0.482088 -0.119849 1.622100 0.988892 -0.151103 -1.162789 -0.054315 1.091357 0.245654 -0.837887 -0.734736 0.563677 0.166473 0.653601 -1.662810 1.412457 -0.234264 -1.593987 -0.955124 -1.241887 -1.027776 0.635346 -0.270761 -0.112154 -0.533662 0.692559 -1.334432 0.907723 1.037330 0.665354 0.232352 -0.558330 -0.947755 -0.208414 0.541932 0.257490 -0.179769 1.147834 -0.306672 0.124567 1.130927 0.070009 1.431100 -0.358030 -0.594245 -0.972697 -0.480190 0.508183 -0.769213 0.753526 0.677960 -0.070854 1.151165 -0.554727 -0.736928 -0.975868 1.080111 -0.234835 0.772044 1.174256 1.052896 -0.371392 -2.081046 0.180458 0.043726 -0.093462 -0.438973 0.086573 1.283060 -0.794453 -0.031344 -0.666360 -0.151801 1.356424 -0.879009 -0.167091 -1.393396 -1.352633 0.388961 -0.760033 0.575200 -0.725583 -0.301857 0.734262 -0.782204 -0.748600 1.357744 -0.101881 -0.774327 0.634116 -0.081704 0.437900 1.973039 -0.592699 -0.427617 1.441194 0.314946 0.668653 0.320854 -0.249236 -0.751181 1.943130 0.668298 0.213678 1.172172 1.080067 -0.908605 0.886261 0.736619 0.710215 -0.771805 0.058241 2.291153 -0.750616 0.516721 -0.960014 0.264886 -0.312297 1.917772 0.308746 -1.095824 -0.929715 -0.170806 -1.219426 0.024015 0.661632 1.305969 0.261774 0.147555 -0.200682 0.093689 0.584111 -0.542728 -0.970614 0.041647 -1.487007 1.196566 0.036972 -0.567490 0.296054 0.663744 -1.317791 -0.274731 -1.024792 0.562638 1.011838 -0.274916 -0.736885 -0.511813 -1.015049 0.472849 -0.814085 -0.700703 -0.712634 1.028715 0.484336 0.675103 0.183791 0.960609 -0.425322 0.980257 -0.922271 -1.035016 0.131246 0.803543 -0.288614 0.223845 -0.030449 0.628519 -0.722257 1.028148 0.414538 -0.014904 -1.487821 -0.341770 -1.016628 -0.907740 1.250567 0.892776 -0.229888 0.766611 -0.749800 0.265204 1.114860 0.249403 0.613180 0.687693 -0.793657 -0.583705 -0.728050 2.663675 0.366508 -0.014105 0.312526 -1.612856 -0.398220 0.759618 0.102201 1.042836 -0.753856 0.477123 -0.674835 0.323402 -0.990949 0.281471 0.815243 -0.170078 1.199494 0.683984 -0.788737 0.017062 0.513385 0.212931 1.729204 0.116973 1.080989 -0.514908 -0.281134 -2.029004 -0.577263 -0.092559 -0.433970 -0.814419 -0.932829 -1.391001 -0.947249 -0.292537 0.795673 0.493846 -0.751352 -0.810142 -0.018786 0.360731 -0.389384 -0.833617 -0.802479 -0.843383 0.377026 -0.108339 -0.793473 0.434767 0.224329 0.631170 0.813080 0.022287 -1.290099 0.402986 1.338512 0.560201 -1.588133 -0.605587 -0.808166 -1.277938 -0.256910 -0.464066 0.107776 0.065050 0.354160 0.276154 0.749191 -0.113883 0.690136 -0.652734 2.092880 2.386827 -0.361687 -0.589664 0.481004 1.064142 -0.490817 -0.015303 -1.656194 -0.025522 -0.663061 -0.453733 -0.704710 -0.313214 -0.658043 0.011155 0.125996 -0.104309 1.015958 -0.058609 -0.204641 -0.843596 -0.472699 -0.503336 0.330537 -1.278623 0.040884 -1.966589 0.334307 -1.639915 -0.529856 0.047933 -0.441275 0.582298 0.793023 1.218239 -0.727708 0.942434 -0.642578 -1.921438 1.003393 0.334591 0.620468 0.085128 0.511756 0.371771 -0.915204 -1.376515 -1.372252 1.341292 -0.463419 -0.683694 1.073979 -0.599332 -1.528835 -0.152109 -0.391493 0.198025 0.088621 1.607845 0.841643 0.413284 -0.098304 -0.952640 -0.400968 -0.743455 1.312068 -0.067916 2.210912 -0.583846 1.030437 1.816418 0.492079 -0.802845 -0.545586 0.242402 0.942566 -0.647742 0.797019 0.879028 -0.105388 -0.905908 0.757159 -0.504877 -0.053269 0.427996 0.448820 0.918465 -0.899591 -0.529125 0.938383 -1.050878 1.396563 -0.765159 