0.115861 0.658069 -0.775474 -0.182542 -0.168502 0.264135 -0.884195 -0.563122 1.047506 -0.607078 -0.895333 -0.644585 0.868925 -0.515556 -0.463823 -0.633596 0.579006 0.537238 0.937539 0.344029 1.342459 0.916282 0.113857 0.907592 0.704090 -1.213551 0.087169 0.929723 0.816071 0.891867 -0.876999 -0.349709 0.156054 -0.177671 0.432658 -0.725068 0.283825 0.939158 -0.627286 -0.262191 -1.159639 0.150933 -0.005789 0.526748 0.547402 1.228474 -0.776272 -0.517033 0.488657 -0.543270 0.586842 0.324047 0.539522 0.181573 0.448039 0.661162 0.158619 -0.979720 0.268883 0.058409 -0.981610 -0.389525 0.228041 0.145425 1.030800 0.000322 0.905672 0.159977 -0.320711 -0.939166 -1.635648 -0.117319 0.017069 0.741676 -0.406232 -0.830643 0.382621 -0.150349 0.790916 0.037910 -0.061827 -0.357815 -0.556475 -0.539372 0.838391 0.673277 1.317335 -0.008835 -0.733942 -0.231234 1.270885 -0.630109 0.976298 0.550081 0.647594 0.189100 -0.156477 0.449549 -0.800465 0.471349 0.191654 -1.071661 0.915615 -0.775640 0.972993 -0.376316 -0.869687 -0.222692 0.799869 0.618512 0.852939 -1.009265 -0.943762 -1.355389 -0.308619 0.997863 -1.526367 -0.396838 -0.380462 -0.461528 0.393028 0.137237 -0.095406 0.336265 -0.427448 0.099550 -0.600097 0.018503 1.035139 -1.014229 -0.780264 0.061613 -0.296462 -1.091806 0.632675 -0.863441 -0.514393 -0.844460 0.515545 1.031560 0.686652 0.206689 -0.707297 1.238624 0.584272 0.134267 0.946993 0.812403 0.820223 -0.072597 -0.737138 -0.283227 1.249019 -0.055315 -0.762733 -0.549603 0.778077 -0.228833 0.898351 0.107792 1.269224 1.112662 -0.423649 -0.835434 0.763020 -0.662231 -0.388954 -0.753218 -1.158510 0.615217 -0.918051 0.608202 -0.235229 -0.168911 1.334852 -0.704570 0.599922 0.559556 -1.230895 0.375093 -0.544305 -0.742821 -0.886261 -0.641035 0.287607 -0.297053 -0.422871 -0.100385 0.581951 -0.694082 -0.341786 -0.521900 -0.301889 -0.206254 -0.009547 0.473318 0.236215 -0.919497 0.723106 0.016807 -0.746883 0.357637 0.784085 -0.329893 0.474242 -1.112892 -1.480091 -0.057460 -0.809588 0.316998 0.218902 -0.455145 0.852320 0.394740 -0.559404 0.788329 -0.090992 -0.567053 0.097091 0.752291 0.808729 1.081412 0.433290 0.343398 0.135682 0.439929 -1.045784 -0.624896 0.457730 -0.660511 -0.062692 1.095844 0.745671 -0.185802 -1.001532 0.677382 -0.106672 -0.268805 -1.028657 0.245009 1.425085 0.964146 0.605399 0.112534 1.262163 0.984104 -0.031370 -0.749364 0.060172 -0.619986 0.777748 0.270330 -0.537681 0.439771 0.925961 0.234623 -0.382643 -0.712046 0.010967 0.308149 -0.454475 0.069194 0.975555 -0.633037 1.591676 -1.228530 -1.035029 -0.132147 -0.398355 -0.420780 -0.868268 -0.654132 -0.562491 0.299069 0.658905 -0.636517 0.551947 -0.478145 -0.089277 -0.546801 0.201009 -0.688379 0.171734 -0.090294 0.984956 0.183664 1.136447 -0.471111 0.752001 0.520384 -0.368352 -0.727474 -0.542022 -0.560305 0.309763 -0.779049 -0.546451 -0.107406 -0.033097 -0.243858 0.860486 -0.063097 0.406544 -0.402126 0.317216 -0.651490 -0.817304 -0.239892 0.637072 0.326181 -0.564769 0.787085 -0.949663 0.956433 -0.902325 1.126719 -0.342728 -0.537057 -0.540304 -0.551612 -1.034785 -0.190067 -0.136359 -0.497869 0.371517 -0.986628 -0.731290 0.539276 0.642932 0.644182 -0.704582 0.512279 -0.325859 0.374255 0.898115 0.978180 -1.120586 1.256112 0.996021 0.918184 0.122910 -0.206929 0.238973 0.276960 0.044037 0.103156 0.021398 1.081206 -0.587821 0.683522 -0.402463 -0.596109 -0.178881 0.826229 -0.496008 0.497015 0.353278 0.237549 -0.284132 0.464012 -0.311900 0.142031 0.141318 0.151050 -0.232268 -0.555678 -0.045757 -0.223795 -0.487100 0.432454 0.786228 0.562602 0.736541 -0.046719 -0.622150 -0.972723 -0.941473 -0.780851 1.077737 -0.809130 0.700752 -0.283813 -0.741638 -1.167165 0.664713 0.053661 0.894171 1.245880 -0.752514 -0.389670 0.254594 -0.571890 -0.736567 1.011413 -0.499320 -0.457763 -0.570979 -0.097764 -0.064454 0.217756 -0.038224 -0.378287 -0.385582 0.845263 0.145324 0.078635 0.654333 0.320279 -0.242680 -1.077024 -0.345067 0.254761 -0.116121 0.299572 -0.201642 0.827865 -0.182404 -0.015007 0.872809 0.565618 -1.193439 -0.463625 0.234197 -0.686441 -0.666324 0.938452 -0.013635 -0.062123 -0.337042 0.163803 0.903163 0.379826 -1.243860 0.040663 0.276603 0.060502 0.468972 0.597781 -0.757978 -0.888692 0.270871 0.398399 0.243518 -0.662357 -0.447265 -0.687428 -0.751066 0.274243 0.363413 -1.108370 -0.713513 0.415600 -0.322279 -0.945906 0.917150 0.012086 1.303345 0.030071 1.416056 -0.269593 -0.729303 0.762469 -0.816067 -0.535925 -0.690044 -1.076895 0.520137 0.501390 0.478185 -1.019537 0.396178 1.033986 0.501723 0.085834 0.354833 0.897408 0.331365 0.760678 0.324360 -0.475058 0.609390 1.133640 -0.786747 -0.794900 0.657343 0.917214 0.057623 0.543946 -0.451212 -0.601968 -0.540393 -0.308637 -0.508039 0.233782 -0.084560 -0.149065 0.359958 -0.411273 -0.437890 -0.452130 -0.437497 -0.686062 0.620564 1.140900 0.547662 0.312301 0.703558 -0.332861 -0.238192 -0.080519 0.279516 -0.653256 -0.167254 0.455210 -0.551740 -0.434353 0.362505 0.828376 -0.516630 0.669185 -0.571936 0.068425 -0.190944 -0.112683 -0.773305 0.379160 0.771770 0.593669 0.891010 0.705264 -0.406770 -0.453383 -1.156770 -0.770542 -0.680146 0.191525 0.538544 -0.896032 -1.035561 -0.858056 -0.259491 0.757855 -0.871926 0.704111 -0.207334 -0.460584 -0.571340 -0.670162 -0.049090 -0.505298 -1.347775 -0.220121 0.620782 -0.484977 0.735604 0.813067 0.802942 0.203680 0.083101 0.696631 0.016970 0.728857 -1.195335 0.063233 0.972720 -0.852111 -0.141129 0.294379 -0.703686 -0.193054 0.094727 0.363220 -0.882946 0.396153 0.205358 -0.039492 -0.660933 0.516910 0.189010 -0.302355 -1.112945 0.283188 0.605075 1.465400 1.029825 0.389868 0.981152 0.961809 -0.073507 0.472752 0.322511 -0.330670 0.679063 -0.113290 -0.506487 0.896360 0.232632 0.751515 -0.341383 -1.035465 0.197534 0.691958 -0.562044 -0.062209 -0.331133 0.548000 0.511085 -1.005669 -0.126114 -0.769136 -0.390734 -0.536152 -0.471478 -0.922856 -0.679794 0.168725 0.578100 -0.973926 0.713402 -0.455506 0.704532 -0.161380 -0.624133 0.462250 0.620407 0.674141 -0.396657 -0.520923 0.479112 0.100867 0.119667 -0.542621 0.075697 0.048018 0.363497 0.478145 -0.449077 0.292065 0.906569 0.371532 0.248772 1.066189 0.740679 0.617509 0.645649 1.045053 0.362066 1.238141 0.945273 -0.488643 -1.570642 0.472374 -0.292331 0.052492 -0.554425 -0.080785 -0.194974 0.131748 0.390951 -1.030688 -0.402929 0.579886 -0.518453 0.356556 -0.580784 0.948433 -0.258064 -0.986800 0.125637 -0.387392 -0.939160 -0.601685 -1.137307 0.114459 1.155063 -0.249736 0.610660 -0.198467 1.118939 0.586467 0.547609 -0.928153 0.526685 -0.482373 0.060808 1.285463 -0.132727 0.822842 -0.170818 0.704585 0.885012 0.377620 0.496524 -0.580097 -0.500051 0.759598 -0.690892 0.621877 -0.433940 -0.433541 -0.709404 -1.030914 0.330431 -0.213117 -0.699588 0.292497 0.148957 0.948966 -0.626499 -0.130434 0.142250 0.385776 0.095035 -1.158022 0.526740 -0.746048 0.573380 -0.525000 -1.131051 -0.489872 -0.754594 1.138273 -1.243897 0.480090 -0.879538 0.505201 0.146233 -0.833258 -0.487019 0.673449 0.431794 0.180357 0.515636 -0.147525 0.458087 1.008986 -0.796150 -0.423091 0.808761 -1.180345 0.917346 -0.176139 0.698124 -0.233925 -0.273965 0.492507 -0.181911 -0.990783 0.308692 0.282109 -0.437497 0.838113 0.310247 0.044491 0.249384 0.040417 0.850519 -0.606252 -0.002342 -0.487504 0.857272 -0.342106 -0.032846 0.635714 0.547546 -0.564672 0.792033 0.926353 -0.084237 0.535969 0.761961 -0.040726 1.055717 0.408796 0.678730 -0.545418 -0.151015 0.091823 -0.527856 -1.420252 1.370258 -0.084385 -1.464611 -0.267537 0.425611 0.728097 0.833915 0.597738 0.225456 -1.024576 0.076422 0.960382 -0.148786 -0.418357 0.703264 0.299637 -0.384097 -0.054379 -0.324892 0.688304 -0.238307 0.553520 0.241717 -0.901625 -0.700904 0.772048 -0.313355 0.954415 -0.054497 0.365261 0.497379 1.055673 -0.567231 -0.385919 -0.622449 -0.970211 -0.612465 0.637020 1.083809 0.885535 -0.829616 0.510333 0.668811 -0.342413 -0.587250 0.590999 -0.719034 0.008387 -0.724050 -0.360905 -0.679145 -0.075393 1.059733 -1.239085 -0.112453 -0.161688 0.855732 0.651923 -0.659014 -0.765808 -0.641176 1.023659 -1.393192 0.188520 -0.600883 -0.687429 0.443054 -0.172374 -0.461210 -0.107768 -0.011063 -0.296982 -1.124965 -0.553815 0.523605 -1.169649 0.942440 1.072616 -0.063873 -0.463847 -0.631175 0.617261 0.659472 -1.108749 0.594666 -0.767023 -0.146741 0.512372 0.851534 0.597909 0.902497 -0.720388 0.076565 -0.757265 0.308722 0.554115 -0.645576 -0.260247 -0.832215 0.056366 0.741288 0.444833 0.661659 0.816811 -0.707022 0.150139 -0.907440 -0.848511 -0.147158 0.096288 -0.861438 0.140085 -0.267678 0.304550 1.043479 -0.761972 1.056610 -0.606092 0.768200 0.694125 0.291173 0.765512 -1.112463 -0.658061 -1.319556 0.512831 -0.703782 -0.658964 -0.756755 -0.285113 1.177999 1.177254 -0.728444 -0.351674 0.800179 -0.868691 -0.805156 0.991546 -0.260261 -0.025830 -0.092873 -0.184415 -0.908416 0.675229 -0.585227 0.514281 -0.949949 -0.498128 0.677853 0.953814 -0.738989 0.425485 1.116595 -1.025629 -1.166751 1.365789 0.967628 -0.488508 -0.435319 0.782667 -0.028289 -0.709327 1.316235 0.881625 0.579855 1.137400 0.665590 0.789731 0.909912 -0.439479 -0.444378 -0.437448 0.555159 -0.197271 -0.722464 -0.561283 -0.886282 -0.429025 -0.065536 -0.751682 -0.813841 -0.164513 0.438534 -1.135960 0.322400 1.019947 -0.950117 -0.101155 -0.837001 -0.359279 -0.268056 0.651957 -0.175798 -0.739688 -0.251993 -0.879214 -0.330390 -0.195693 -0.892046 -0.722334 -0.122508 -0.187364 0.078406 0.851601 0.045697 0.208714 -1.166162 0.577180 -0.692604 -1.243947 1.325952 -0.240119 -0.895862 -0.762486 -0.191664 0.927865 -1.180888 1.081305 1.306150 -0.502967 -0.612759 0.391209 0.813956 0.802268 0.973242 1.111121 -0.531346 -0.703211 -0.889208 -0.535521 1.176271 0.175046 0.694362 0.144021 -0.182961 -0.473702 -1.144303 -0.002326 -0.590765 -0.509302 0.721124 -0.979779 1.643698 0.193356 -0.855527 -0.787491 0.627229 -0.907288 -0.950123 0.154151 -0.439854 0.016410 -0.863587 -1.035381 -0.503456 -0.566508 -1.138187 -0.655185 -0.859587 -0.580897 0.239063 -0.285210 -0.455741 -0.442216 0.282320 -0.418121 0.443232 0.741733 0.293209 0.361898 0.712774 -0.288993 0.742971 0.880003 -0.744455 1.199743 -0.659761 0.472450 1.164612 -0.904663 0.239778 -0.396777 0.050035 0.574462 -0.278427 1.098210 0.944792 -0.150641 -0.915419 -0.512784 0.196249 0.241154 0.291663 -0.350826 0.952274 -0.212104 -0.413139 0.618291 1.329690 -0.537098 -0.048972 1.181128 0.231286 -0.512397 0.924594 0.306055 -0.423885 0.880212 -0.112361 -1.076620 -0.292167 -1.026787 -0.136833 0.869951 0.785557 0.607405 0.303197 0.330850 -0.256131 0.199181 -1.070294 0.817196 -0.614347 0.173167 -0.695594 -1.052813 0.769104 0.112336 0.877444 0.425399 0.221193 -0.683030 0.149150 -0.256077 0.338345 -0.185127 0.948137 1.238384 -0.382662 -0.312790 0.543407 -0.020474 0.284445 -0.253318 -0.839293 -0.113633 -1.064650 0.843096 -0.006828 -0.541568 -0.248998 -0.383639 -0.423480 -0.114447 0.210986 -0.613664 0.041334 0.471608 0.043240 -0.349240 -1.070135 -0.094264 -0.034615 0.415226 0.659226 -0.329134 -1.073851 0.187500 0.502987 -0.098162 -1.023931 1.010077 0.795964 0.323720 -0.785624 -0.368710 -0.814441 -0.930066 -0.686350 -0.213342 -0.223325 0.884984 0.296923 -0.198934 -0.325047 -0.351576 0.023404 0.547820 0.424355 -0.942814 -0.480216 -1.450773 0.569234 0.701956 0.279666 -0.048123 0.160215 0.762530 0.506556 -0.525326 0.901442 0.130159 -0.382907 0.368787 0.043448 -0.045219 0.594509 0.008258 0.540938 -0.752269 0.929654 -0.307234 0.855527 -0.906253 -0.361996 -0.665929 0.223159 -1.013449 -0.634720 -1.058273 0.046754 -0.726506 0.349945 -0.380608 0.923030 0.926718 -1.210243 0.357970 0.344425 0.722684 0.669004 0.368318 0.203166 -0.296490 -0.067465 1.120948 0.456245 -0.413452 -0.289665 -0.055194 0.659495 -0.108530 0.984382 -0.329645 0.608637 -0.366653 0.267605 0.092319 0.318854 0.623191 -0.120669 -1.120319 0.346058 -0.735746 0.002131 -0.126814 -0.533780 0.363128 -0.730981 -1.183767 -0.087248 -0.688002 0.509166 -0.504284 -0.282109 -0.332964 1.029256 1.138717 0.417168 -0.074077 -0.205682 -0.865899 0.983007 -0.656033 0.692364 -0.113425 -0.148533 -0.753389 -0.846289 -0.876842 0.949202 -0.202200 -0.713627 -0.295226 0.625770 0.600489 0.623908 0.943673 -0.419284 -0.952977 -1.108362 0.644907 -0.578659 0.381845 -0.024797 -0.073822 -0.979139 0.529942 -0.001185 0.691191 -0.529712 0.419516 -0.912373 0.042524 1.387449 0.480814 1.098255 -0.051791 1.196482 -1.032646 -0.115936 0.220225 -0.068776 0.368739 0.995031 0.328402 -0.095652 0.680180 -0.128101 -0.162782 0.686529 0.193159 0.004009 0.881489 -0.479200 -0.653432 -0.865514 0.154021 -0.869443 0.790697 -0.379284 0.017368 0.418940 0.274640 0.634087 0.407697 0.289135 0.248044 -0.766117 -0.239543 0.000236 0.293183 1.164094 -0.587686 -0.121577 0.902339 0.326923 0.178388 0.192065 -0.740705 -0.453994 0.003773 0.297631 0.578813 -0.516533 0.466319 -0.586730 0.388165 -0.160476 -0.761349 0.237879 0.566433 0.373551 -0.122164 -0.184605 -0.604077 -0.692953 0.454291 0.627723 -0.256426 -1.374652 -0.253600 1.386475 1.188967 0.554723 -0.885667 0.801513 -0.598504 0.815312 0.152856 -0.152427 -0.495697 -0.947008 0.674337 -0.582256 0.185319 0.475536 -0.948207 -0.666325 -0.965826 -0.669455 -0.839728 0.427018 -0.017068 -0.875607 0.888426 0.278080 0.427287 0.453284 0.765154 0.470623 -0.917938 0.548827 0.575276 0.381353 0.988344 0.168349 0.894108 0.859658 -0.838385 -0.363534 -0.565836 -0.758254 -0.488862 -0.387799 0.176377 1.019218 -0.228626 0.873048 -0.753514 0.148993 1.004563 0.794538 -0.390812 -0.022544 0.752710 -0.456707 -0.758490 0.410030 0.987078 -1.079179 -0.189757 -0.684722 0.478781 -0.666828 0.629682 0.616764 0.382538 0.347128 0.441152 0.607010 -0.873933 0.837657 0.869902 -0.539883 -0.740819 -0.021317 -0.442638 0.097458 -0.042012 -0.315721 -0.790969 -0.169775 -0.608533 -0.189276 0.758148 -0.794800 0.313214 -1.030206 0.545298 0.251136 -0.929731 -0.639006 0.493508 0.649331 -0.544274 0.041226 0.037326 0.809891 -0.451520 -0.554296 0.375778 -0.539403 -0.560227 0.341891 0.112706 -0.264644 -0.793795 0.689780 1.043996 0.149940 -0.777894 -0.893369 -0.996900 -0.219514 0.015808 0.852483 -0.006537 -0.621111 1.038867 -0.455875 0.680462 -1.014365 -0.259137 0.184669 0.686863 0.236444 -0.820078 -0.080960 0.060456 -0.328974 0.469420 -0.520988 0.277710 0.948440 0.571873 -0.670027 -0.261591 0.905350 -0.896532 -0.259998 -0.009955 -0.583536 -0.212928 0.116956 0.244811 0.843895 -0.127599 -0.872634 -0.772115 -0.103955 -0.422313 0.899073 -0.147518 0.342056 0.061740 -0.448334 -0.275240 0.249477 0.476766 0.657626 0.971267 0.050968 -0.905874 0.175151 -0.176059 0.765482 0.518018 0.648660 0.759477 0.529212 -0.746792 -0.010735 0.918977 0.004886 1.001435 0.095139 -0.075865 -0.067277 0.029741 0.111407 0.968192 0.757419 0.101626 -0.279927 0.006509 -0.938417 0.362852 0.721171 0.358901 -0.083300 0.254777 0.303811 0.776527 0.392491 -0.575564 -0.382484 0.169533 0.893483 -0.822295 -0.173651 0.695558 -0.555441 0.776321 0.435006 0.403336 0.889707 -0.537063 -0.497007 -0.336878 0.531582 0.663549 -0.432469 0.290007 -0.164100 0.374885 -0.720151 -0.192925 0.844933 -0.878350 0.510209 0.103958 0.397757 0.254907 -0.537104 0.882933 0.851898 0.639828 0.864117 -0.975205 -0.432798 0.414084 -0.525406 -0.620137 -0.134911 0.987783 -0.813199 0.323348 -0.537057 -0.079710 -0.114274 -0.902242 0.496806 -0.875788 -0.246487 -0.191531 -0.659770 0.524745 0.490470 -0.799263 0.634923 0.006281 0.292989 0.046424 -0.744925 0.763245 -0.086423 -0.901777 0.375661 -0.213838 -0.870416 0.909753 -0.814259 -0.380881 -0.693350 0.033757 -0.399803 -0.542513 -0.660340 0.096518 0.363404 0.243761 0.142215 -0.150169 0.365787 0.879599 0.667408 0.710774 0.400753 0.139772 0.886134 0.008728 -0.856708 0.191917 -0.945431 -0.606970 -0.061025 -0.041495 -0.519002 -0.709780 0.749478 -0.382545 -0.779993 0.929434 0.216268 -0.508403 -0.051643 0.817042 -0.052232 0.309435 -0.118735 -0.671322 -0.435008 -0.969887 0.192211 0.908604 0.910007 -0.143370 0.622204 0.304693 0.989006 0.517242 -0.667919 -0.865112 -0.299007 -0.611422 -0.491247 0.613477 0.338947 -0.016153 0.899464 0.067313 0.582869 -0.895880 0.000323 -0.210226 -0.410755 0.932395 -0.413439 0.527778 0.231244 0.460641 0.858351 0.777642 0.453031 0.018746 0.651786 0.363854 0.845106 0.258313 -0.334950 0.829274 -0.231716 -0.016327 0.938771 0.451944 0.341832 -0.556115 0.062641 -0.350302 0.429761 -0.046944 0.765772 0.003359 0.038818 -0.263516 0.776223 0.630188 -0.322029 -0.654118 0.167058 0.902148 0.821612 0.026200 0.649353 0.277557 -0.953648 0.347946 -0.380269 0.891540 -0.405666 0.269542 0.715977 0.356388 -0.732104 0.679996 -0.190311 0.591952 -0.893382 0.865734 -0.744415 0.515487 -0.208744 0.998661 -0.498162 0.815703 -0.255554 -0.717331 0.432510 0.398590 -0.375608 -0.402502 0.292941 -0.582692 0.598682 -0.055400 0.670162 0.640924 -0.747544 -0.677868 0.521753 -0.175191 0.585496 0.230928 -0.818994 0.843788 -0.115074 -0.025985 0.433206 -0.022407 -0.169901 0.677788 -0.497188 0.633973 -0.068510 0.446077 -0.625634 0.238546 -0.249459 1.224674 0.983917 0.431282 0.029088 -0.795297 0.063632 1.161221 1.049274 -0.234875 -0.809457 -0.749077 -0.799042 -0.086028 0.745164 0.552453 0.609097 0.263400 -0.608401 -0.933597 0.319775 0.282955 0.076657 -0.138072 0.724819 -0.427355 -0.854045 -0.301852 -0.956855 -0.572245 0.718643 -0.073553 -0.193464 0.868988 -0.297226 0.772618 -0.794657 0.217801 0.767561 -0.958731 -0.945049 1.004228 -0.708681 -0.757451 0.497112 -0.862143 0.668860 -1.120554 1.178187 1.005032 -0.562047 0.410658 0.290739 0.842461 0.830043 -0.206800 -0.806887 -0.834180 1.167106 -0.908886 0.061741 0.559552 0.247334 0.881953 0.235955 1.024140 0.370833 0.723685 0.176760 -0.101217 0.772390 0.404284 -0.031288 -0.235284 0.397883 0.807410 -0.582696 0.308346 -0.857581 -0.679253 0.026583 -0.497036 0.410790 -0.266610 -0.867292 0.150930 0.671056 -0.686379 0.296030 0.081756 -0.336163 -0.084043 -0.554862 0.967371 -0.177751 -0.898328 0.348930 0.670549 0.515161 -0.022228 -0.032336 0.271953 -1.089104 1.521788 0.759040 0.949764 0.874020 0.652281 0.569604 -1.192724 -0.911334 -0.787863 -0.175604 0.819185 -0.418158 -0.031605 -0.083414 -0.612731 0.172517 -0.756094 0.329560 0.902089 -0.189258 0.957323 0.592346 0.822087 -0.755248 0.601328 0.437443 0.837143 -1.093758 -0.553028 0.253140 -1.273905 -0.599034 -0.648530 0.571670 -0.553197 -0.473681 -0.554356 -0.920363 -0.322436 -0.125440 0.037201 -1.060530 0.097907 1.103064 -0.154727 0.556520 0.259968 0.465336 0.152993 -0.162100 -0.559469 0.143718 -0.204353 -1.124137 0.406737 -0.685088 0.499998 0.028157 -0.941526 1.360548 -0.708149 -1.452649 -0.769434 0.125078 0.135606 -0.594393 0.520905 -1.075229 -0.174054 -0.531702 -0.077110 1.319740 -0.546426 -0.552668 0.879863 0.355070 -0.871668 0.270166 -0.152661 0.035526 0.596900 0.624103 -0.775577 -0.504872 0.357872 0.657916 0.043322 -0.360634 -0.635337 -0.115930 -0.185084 -0.219727 0.051690 0.851337 -0.680862 0.326145 0.428171 -0.331734 -0.742551 0.745182 0.347794 -0.821429 -0.812960 -1.340408 -0.935694 0.682150 -0.547544 0.282607 -0.670296 0.319504 0.246971 0.648877 1.030135 0.633451 -0.291236 0.279793 -0.595445 -1.084858 0.957023 0.377817 -0.164331 -0.200820 1.304430 0.597251 -0.714676 -0.638674 0.471024 0.804504 -0.171297 0.688671 0.392500 -0.264978 0.932565 1.178764 -0.503784 -0.995964 0.364960 -0.288058 0.430636 0.802549 -0.087488 -0.938534 0.640163 -0.440137 0.735244 -0.419061 0.592228 -0.417103 -0.155537 0.569197 0.708059 -0.042026 -0.402624 0.546021 0.372552 -0.447846 0.791110 -0.296894 -0.313346 0.241652 0.014659 -0.701416 0.453913 -0.428713 -1.051942 -0.718831 -1.017050 0.444108 -0.100131 1.184957 0.203877 0.968354 0.908005 -0.001312 -0.860667 0.926651 0.405116 0.997588 -0.880382 -0.498410 0.624393 0.655823 -0.990944 1.302222 0.174291 0.718021 0.184802 0.212976 -0.480004 0.411157 -0.961111 0.174168 0.634859 0.684830 0.829232 0.756792 0.428051 -0.792324 0.072966 -0.033850 -0.819581 -1.493364 -0.301348 -0.675974 0.049992 0.044055 0.872229 -0.235837 0.211428 -1.093146 -0.183568 -0.194647 0.985050 -0.012705 -0.915449 -0.408142 -0.689530 0.306918 0.890848 0.115750 -0.803853 0.807955 -0.958748 -0.615676 0.305830 0.802183 1.501309 -0.056787 -0.616434 0.328939 -0.328027 -0.431029 0.168450 0.515227 -0.224840 -0.886103 -0.511777 -0.295948 0.057359 0.722294 -0.708170 0.983276 -1.049985 -0.314318 -0.217285 0.126203 0.272616 0.175288 -0.837825 -0.401053 -0.359777 -0.283232 -0.377633 -0.920403 0.542428 -1.356571 -0.927457 0.291877 0.313294 -0.843701 -0.761767 0.707559 -0.247695 0.798328 0.027106 0.584253 0.719270 0.450050 -0.126481 -0.097697 0.073172 0.049943 -0.163554 0.279415 0.545870 0.813225 -0.692299 -0.446786 0.089906 -0.544385 0.473949 0.600349 0.695443 0.741699 0.310627 0.697106 0.569699 -1.038253 0.111755 0.823697 -1.168890 -0.216270 -0.333825 0.707075 0.944671 -0.335548 1.006805 0.453335 0.110868 -0.868261 -0.491406 0.470528 -0.346746 -1.331768 0.135597 -0.891696 -0.396666 0.295436 0.286738 0.350301 -0.221363 -0.320463 -0.001199 -0.696054 -0.832487 0.558154 -0.541729 0.793752 0.396361 0.920809 0.289020 1.255363 -0.541409 -0.953577 0.687213 -0.555264 -0.397998 0.684513 1.094938 0.358658 0.717803 -0.676458 0.174072 0.147788 -0.600437 -0.801853 0.480270 -0.179147 0.767247 0.080918 -1.008452 -0.458744 1.118456 -0.455530 0.670333 -1.037456 -0.419250 1.287649 0.696337 -0.542398 0.799694 0.125668 -0.690429 -0.601921 0.617250 0.950604 -0.142861 0.870389 0.527982 -0.648663 0.292901 -0.096988 -0.064685 -1.235758 0.844186 0.508889 -0.301742 0.295108 -0.426890 0.039388 -0.297208 0.060461 0.023392 -0.599384 0.824218 -0.497730 -0.557139 -0.684218 -0.409494 -1.209739 -0.451786 -0.900668 0.111350 -0.712029 -0.761666 -0.421052 -0.269976 -0.175476 -0.563650 0.586755 0.545692 0.909775 -0.554784 -0.022359 -0.917404 -0.008449 -0.000553 0.110391 -0.914525 0.242985 0.714991 -0.185504 -0.944201 0.360302 -0.158246 0.491860 0.784288 0.498302 -1.248788 -0.374634 0.261988 -0.200952 0.081010 -0.135167 0.681982 0.482417 0.942126 -0.926104 -0.165094 -0.345316 1.081652 -0.549570 -0.746409 0.069722 0.812210 -0.318969 0.302031 -0.720496 1.229345 0.398097 0.680431 0.500925 -0.987559 1.207705 -0.447533 0.155496 1.048452 -0.240705 -0.473179 -0.611341 0.397269 -0.572715 0.002650 -0.873163 0.579415 -0.539419 0.687210 0.379941 -0.421927 -0.915111 -1.193555 -0.520797 -0.166795 -0.337508 0.240481 -0.453810 0.111261 -0.371032 -0.525852 -0.455943 -0.874967 -0.751513 -0.726266 -0.851316 -0.292415 0.033719 0.124269 -0.700484 0.741013 -0.862607 -0.500289 0.135499 0.096597 0.066447 0.360701 -0.992692 1.431328 0.413852 -0.481656 -0.875464 0.763479 0.051343 -0.701703 -0.546962 -0.716399 -0.315498 0.240375 -0.367765 0.615659 -0.741930 0.192641 -1.061046 -0.521655 0.287826 -0.197729 0.887026 -0.340045 -0.130814 0.447812 -0.004645 0.653714 0.023966 1.098343 0.387142 -0.469664 -0.809788 -0.147363 0.639076 -1.026188 0.542720 0.213949 -0.502523 -0.686800 0.389003 0.031369 -0.756968 -0.408834 -1.098575 0.316040 -1.265677 -0.641495 -0.085199 -0.732734 0.103407 -0.844782 -0.194484 -0.817768 -0.399833 -0.926297 -0.907295 0.869999 0.704605 0.208934 0.196445 -0.538926 0.628358 0.990175 0.854433 0.033929 0.859612 0.563698 -0.449692 0.504818 0.136331 -1.222018 -0.157323 0.682150 0.200425 -0.259267 0.322329 -0.311177 0.487238 0.981357 0.023311 -0.506551 1.026081 -1.134397 0.289267 -0.325281 -0.853989 0.891527 -0.879057 0.624932 -0.218869 0.375729 -1.571772 -0.442576 -0.151621 1.002524 0.794234 -1.248459 -0.712714 -0.635283 -0.778301 0.736600 -0.060395 0.158133 0.789826 0.627524 1.540136 -0.197548 -0.658995 -0.000286 -0.866614 -0.027613 0.981363 0.081492 0.519708 0.247241 -0.195094 0.210375 -0.055963 0.471605 -0.458555 0.568826 -0.630216 0.089391 -0.795688 0.658401 -0.251881 0.937571 0.962532 0.583083 -0.758962 1.135235 0.248541 -0.121293 -0.273575 -0.338590 -0.585714 -0.036282 0.386372 -0.769311 0.937766 -1.211791 0.002491 0.679332 -0.385087 -1.139452 -0.535058 0.930587 0.628301 0.480208 0.300060 -0.832665 -0.239820 -0.812406 0.538875 0.263502 0.569523 -0.812215 0.493020 0.654085 0.466596 0.094016 0.071955 -0.171708 -0.579694 -0.944786 1.114333 -0.326830 -0.189926 0.054242 -0.821176 -0.143675 0.378476 0.614047 -0.266948 0.922065 -0.556888 0.408492 0.455038 0.615564 0.139310 0.016109 -0.795226 -0.849786 0.224320 0.490441 0.215829 -0.042933 1.152228 -0.502622 -0.590642 0.863636 1.072375 0.906319 -0.188635 -1.730789 -1.469148 0.097218 -0.466689 -0.392777 1.172677 -0.196632 0.536701 0.299389 -0.615543 0.358780 -0.213562 0.841750 0.049165 -0.965112 -0.092717 0.995541 -0.577414 0.057670 0.580788 -1.331434 -0.764534 -0.451445 0.823773 -0.011861 -0.662459 1.378892 0.051765 -0.826330 -0.785235 0.375647 -1.293210 0.921461 0.568567 0.336384 0.310724 -0.391661 -0.586897 -0.414918 0.475330 0.435190 0.933900 -0.997697 0.548915 -0.398479 -0.759888 -1.271639 -0.282777 0.262481 -0.061372 0.619622 0.389490 0.207297 0.583980 0.349624 -0.787079 -0.809225 -0.149776 0.548727 -0.902007 1.059863 -0.660247 -0.158899 -0.315891 -0.985206 0.950668 -1.231185 -0.562046 -0.095595 -0.382402 1.435081 -0.380257 -0.731359 -1.510573 0.907409 -0.479031 -1.044989 1.116907 0.330231 0.757422 -0.268213 0.348810 -0.029763 -0.807492 0.074914 0.941398 -0.439116 -0.167708 -0.024822 0.579197 0.740372 -0.552719 -0.778418 -0.616007 0.165624 -0.641988 -1.201771 0.123720 0.850693 -0.049353 0.765114 0.233782 0.386477 -1.204497 0.022462 -0.019201 -0.768066 0.295886 -0.437742 -0.537111 0.355224 0.498642 0.766334 -0.947955 0.657935 -0.130990 -1.582439 0.577173 -1.074917 -0.071935 1.106277 0.224351 0.864040 0.533950 -0.809617 -0.619864 -0.844538 -0.665610 -0.070213 0.005950 0.702468 -0.075923 -0.797467 -0.248280 -0.171242 0.416048 0.682945 0.753139 0.041764 -0.674653 -0.921073 -0.912419 0.765566 -0.614742 -0.717874 0.130107 0.134871 -0.640714 0.169872 0.104789 -0.378042 -0.488541 0.155037 -0.829652 -0.806601 -0.211379 -0.753393 -0.794050 0.939683 0.065708 0.601599 -0.091889 -0.996618 0.415063 0.629762 0.577943 -0.146966 0.265736 0.373034 0.508464 0.606145 0.836500 0.614484 0.955190 1.048617 -0.161199 -0.221680 0.137005 0.879280 0.380489 1.096680 -0.018896 -0.713433 -0.278057 -0.106747 -0.621468 0.559838 -0.065308 -0.303151 0.301113 -0.278095 -0.683282 -0.842575 -0.135538 0.811555 1.035766 0.180377 -0.614145 0.006046 1.233723 -0.968268 -0.444279 1.261067 1.163765 0.314436 0.486334 0.748992 -0.458188 0.297990 0.537032 -0.387994 -0.694606 0.763201 0.295728 0.122963 -1.183117 -0.360169 -1.003661 0.018133 -0.138361 -0.354577 0.248092 -0.256284 0.062071 0.018318 -0.463150 -1.557105 0.669317 -0.821923 -0.852472 0.804644 0.309058 0.540021 0.168575 -0.464675 0.227640 -0.180133 -0.198762 1.179946 -1.075898 1.381819 -0.023033 -1.278002 0.790923 0.723483 -0.005649 -0.756414 -0.216502 0.594810 0.313148 0.360192 -1.011845 -0.703019 1.502221 0.908116 0.392263 -0.728971 1.045291 0.056803 -0.560029 1.142063 -0.233054 0.770406 0.935154 -0.781102 -0.623059 0.174072 -0.023935 -0.761313 -0.213184 0.303726 -0.091883 0.117492 -0.131302 0.063342 0.517385 -0.800057 -0.391042 -1.357485 0.940788 1.038908 0.336806 1.389925 -1.919397 0.025193 0.921407 0.467223 0.722874 0.589211 -0.912890 -1.454450 0.680008 0.465639 0.931108 0.395660 0.512036 -0.617481 -0.674066 -0.830824 0.411550 0.321880 0.913827 -1.093684 0.030176 -0.589572 -0.512312 -0.416092 0.016570 -0.011875 -1.077625 0.248260 -0.260863 -0.122443 0.134658 0.008781 -0.220069 0.136469 -0.401161 -0.551119 -0.858009 -0.044255 0.300697 0.965763 -1.192968 -0.929158 0.277873 0.149975 -0.447741 0.629291 0.446905 0.769688 -1.030295 -0.204370 -0.877581 0.471812 -0.143617 -0.343279 0.240134 -0.742581 -1.118789 0.418272 0.305663 0.240596 -0.187739 -0.886574 -0.760758 0.362969 -0.004861 -0.667333 0.811297 0.324787 0.061644 -0.881155 0.005403 0.240630 -0.340333 0.987791 0.160969 -0.419727 0.490594 -0.439203 -0.082872 0.609042 0.872969 0.019567 0.170363 -0.929479 0.790981 -0.986260 0.115598 1.190701 -0.108265 -0.555480 -0.247986 -0.823819 -0.047900 -0.395858 0.846090 0.712920 -0.483746 0.466458 0.065813 -0.376409 0.406624 -0.804486 -0.652957 1.213300 -0.885195 0.198567 -0.351398 0.441734 -1.075019 -1.457162 0.196194 1.089929 -0.112975 -0.244110 -0.920947 -0.208610 0.480719 0.506312 0.226768 0.923561 0.155789 0.221754 -0.503841 0.402582 -0.077031 -0.641553 0.081926 -1.060826 -0.178100 0.575623 0.977778 0.551564 1.063685 0.894862 0.824192 0.425369 0.096894 -0.280724 0.573224 -0.068308 0.487135 -0.128587 1.002343 0.144740 0.156293 -0.170092 -0.057045 -0.506716 -0.449241 0.878498 -0.637581 -0.902014 0.189352 -0.676075 0.505752 1.096211 0.019910 0.318655 -0.913245 -1.023663 -0.636344 0.806839 1.110867 -0.752201 0.731051 0.402548 0.990740 -0.300866 -0.627951 0.581110 0.485594 0.878061 -0.931754 0.572078 0.083457 0.120907 -0.900914 0.600469 0.744222 0.217816 0.466645 0.812005 0.003971 -0.238141 -0.610491 0.495842 -0.680677 0.685498 -0.515476 -0.495191 -0.811176 -0.418645 -0.359829 -0.715599 0.542908 -1.070222 0.994570 0.343295 -0.388064 0.655084 -0.384438 -0.312256 0.327593 0.246606 -0.730166 -0.531589 -0.858847 -0.643407 -0.853223 0.772298 0.676645 1.028491 0.309703 -0.292742 -0.557086 -0.781621 1.115025 0.076160 -0.940536 -1.107868 1.419443 -0.922426 -0.305659 -0.983629 -0.822761 -0.430900 -0.337708 0.514907 0.789065 0.780272 -0.162345 0.077385 -1.056952 -0.337795 0.341700 -0.618867 -0.038499 0.610539 -0.971697 0.326409 0.540613 -0.827707 0.380975 -0.259316 -0.232445 1.042817 0.412944 -0.372537 -0.006677 -0.243649 0.010911 -0.283391 0.487459 1.323496 -0.163769 1.270144 -0.874188 0.425748 0.578347 -0.375206 -0.091331 -0.861178 0.189846 0.044149 0.137752 -0.127774 0.755368 -1.353550 -0.606355 1.454583 0.418094 0.980712 -1.584156 -0.057059 0.065668 -0.408678 -0.449403 -0.389826 0.796172 0.585833 0.380934 -0.454337 -0.294781 -0.018924 -0.412882 -0.034848 -0.398524 0.131091 -0.644295 1.006337 0.492949 0.503955 -0.747874 -0.225607 -0.530376 0.518891 0.787181 0.463806 0.243843 -0.755986 0.597070 -0.013234 0.855877 0.708258 0.701221 -0.229967 -0.935392 -0.705615 0.037978 0.895470 0.485305 -0.544644 -0.775749 0.662249 0.214039 0.110635 -0.961659 -0.932407 0.245189 0.852256 0.925351 -0.740820 -0.986579 -0.277105 -0.342747 0.497054 -0.982136 1.115522 -0.046341 -0.924981 0.624148 0.806381 -1.216528 0.150802 -0.204094 0.070965 0.222394 0.258083 -0.993548 0.285391 -0.110217 -0.105644 0.593747 -0.302449 -0.713206 -0.192421 0.893931 -1.436973 0.042421 -0.166425 0.752192 -0.353899 0.077369 -0.396140 0.071027 -0.003103 0.760039 0.056372 0.123633 -0.741006 -0.327186 -0.036140 1.278762 0.338798 -1.180390 -0.058480 -0.874887 0.427049 -0.813679 -0.821756 -0.255246 0.010088 -0.218444 -0.518747 0.732393 -0.026807 0.866464 0.258936 -0.030822 -0.611683 -1.515598 -0.428082 -0.266286 0.680516 0.064228 0.688573 -0.268595 -0.434927 -0.136718 -0.857409 0.002134 1.427417 -0.531591 -0.050197 0.079922 0.223420 -0.720260 0.337400 -0.455684 -1.219105 0.615176 0.619312 0.283134 -0.499884 -0.779886 0.068850 0.570486 0.441764 -0.946505 -0.580704 0.831304 -0.478890 0.349730 -0.406163 0.448360 -0.493295 -0.559802 -0.277913 0.112241 0.337901 -0.539068 -1.196531 0.619463 0.902358 0.263130 0.096222 -0.104027 0.554516 0.508007 0.757370 0.542228 0.951800 0.333009 -0.708493 1.135269 0.427521 0.936262 0.665346 -0.148390 -0.312487 0.084364 -0.431406 0.173735 0.333206 0.553075 -0.146637 0.498759 0.794819 0.274566 -0.073076 0.161592 0.618068 -0.218369 -0.465595 1.103932 -1.046533 -0.024052 -0.146029 0.549460 -0.173141 -0.477306 0.289364 -0.876359 0.724373 -0.732937 -0.929678 -0.145008 -1.114994 -0.162304 0.779687 -0.443540 -0.517508 -0.494458 0.498527 0.830573 1.185873 -0.164459 0.165630 0.374755 1.055331 1.224045 -0.419773 0.537710 -0.031627 0.053313 0.387108 0.243655 -0.948634 -0.957649 0.060731 -0.092988 -0.394367 -0.529762 0.526601 -0.473146 -0.499253 0.093396 0.502946 -0.433851 -0.735911 0.897027 0.557760 -0.131658 -0.608597 -0.114027 -0.366823 0.319046 0.512539 0.815052 0.282148 0.676201 0.755177 -0.051952 -0.315821 -0.242812 -0.440947 -1.006884 -0.165055 -0.365634 -0.186027 0.881889 0.426592 0.353432 -0.163346 -1.005877 -0.984319 -1.081523 0.952700 -0.186322 -0.699077 0.564563 -0.848070 0.351887 0.153946 0.389384 0.909863 0.088262 -0.336815 0.682166 -0.831187 -0.722020 0.403843 0.974433 0.307432 -0.894207 -0.329170 0.244550 -1.070403 0.694101 0.634655 0.207435 0.233756 0.252528 -0.318378 -0.925484 0.305925 -0.370951 -0.660520 0.154578 0.474809 -0.332685 -0.459867 0.820703 0.820725 1.022277 0.111721 0.514997 0.223391 0.716250 0.670666 0.244646 0.861295 -0.049831 0.738039 -0.270935 -0.041925 0.963035 -0.861759 -0.080840 1.054764 -1.023443 -0.495626 -0.130579 0.521371 0.397649 0.387855 -0.050490 -0.780307 0.460186 -1.185239 0.961326 -0.944802 -0.328342 0.617909 -1.358170 -0.206701 -0.327496 0.830726 0.824440 -0.802570 0.513025 0.199893 -0.916390 -0.603177 -0.538679 -0.082744 0.325441 -0.327635 0.358462 -0.059241 -0.868872 0.220779 0.470899 0.047783 -0.036538 -0.100141 -1.310454 0.659446 0.220412 0.653862 1.172867 -0.265992 0.474405 -0.726007 -0.341930 0.653020 0.439064 0.188987 0.640226 0.173942 0.570298 -0.211881 -0.503585 1.049884 0.448782 -0.093592 -0.416786 -0.112764 0.481081 0.672802 0.898810 0.570065 0.017568 0.122277 -0.309772 0.871044 -0.934053 -0.137601 0.591942 -0.470564 -0.395943 0.725683 -0.852387 -1.170434 -0.716929 -0.249178 0.336861 0.818424 -1.038770 -0.009566 0.360282 0.517094 -0.486596 0.510282 0.364275 0.721748 -0.374441 -1.183150 -0.231192 -0.856926 0.719013 -0.630391 0.870829 -0.196344 0.572275 -0.425369 -0.488792 0.713237 -0.012184 -0.579342 -0.209893 0.371780 -0.886221 -0.184883 0.777277 -0.391698 0.789075 0.294834 -0.333602 1.131324 -0.440717 0.641354 0.512887 -0.136113 -0.123877 -0.119862 -0.597502 0.690319 -0.056153 -0.107175 0.865613 -0.654691 0.655123 0.659431 0.500582 -0.070236 -0.815596 -0.210668 0.689250 -0.392469 0.706509 0.357652 -0.207211 -0.211518 0.027813 0.399481 -0.317330 -0.608239 0.822414 -0.432749 -0.020605 0.390408 -0.868874 0.821286 -0.446064 0.039271 -0.680299 -0.665649 0.929376 0.418291 -0.673651 -0.411393 -0.114818 -0.791667 -0.929402 0.984769 -0.376243 -0.754068 -0.207543 -0.697970 -0.131177 -0.481395 0.668155 0.670874 0.326089 -0.283183 0.077587 -0.987054 0.093165 -0.057570 -0.395754 -0.902526 -0.664255 -0.266330 0.915558 -0.079514 0.748288 -0.731331 0.241927 0.680453 0.676997 0.579845 -0.696395 -0.436536 0.796472 -0.620498 -0.429494 -0.601318 -0.359460 0.382088 -0.278052 0.532288 0.915637 -0.607815 0.234064 0.213923 0.111232 -0.687060 0.248740 -0.774044 0.249865 0.853129 -0.685919 0.597477 -0.406853 -0.752707 -0.485620 -0.654011 -0.497736 0.746589 -0.923338 -0.804813 0.349541 -0.629463 -0.239642 0.131352 -0.207213 0.341498 0.532341 0.429155 -0.263349 -0.725822 -0.005273 -0.338111 -0.326123 -0.799536 0.916580 0.790489 -0.454474 0.185823 -0.997258 0.796423 0.040488 -0.645057 0.411129 0.647251 -0.378401 0.937967 -1.003581 0.131626 0.709505 -0.942478 0.315409 0.040022 -0.545839 -0.899282 -0.818438 0.215774 0.442961 0.731644 -0.324438 -0.804366 -0.996270 0.670016 -0.130516 -0.320962 0.889647 -0.226792 -0.513887 -0.566963 0.961066 -0.494775 -0.754818 0.007368 -0.114690 0.686097 -0.354388 0.511629 0.618828 -0.360005 -0.367321 0.328829 -0.264551 0.955671 -0.622379 0.193246 -0.931828 -0.428152 -0.583535 0.529764 -0.658607 0.126880 0.735216 -0.651283 -0.197848 -0.390177 0.050415 -0.310143 0.394197 0.549689 0.117604 0.392928 -0.925425 0.396645 -0.606406 -0.035691 0.093046 0.039937 -0.507563 -0.279621 0.709280 0.136569 -0.942646 -0.565207 0.111057 -0.534736 0.654616 0.167136 0.040388 -0.909555 -0.290058 0.378614 0.223657 -0.534713 0.759940 -0.990129 0.081843 -0.203564 -0.321174 -0.515227 -0.662104 0.818746 -0.525267 0.294366 -0.660389 0.474907 -0.595562 0.168259 0.646924 0.108362 0.058876 0.316092 0.084974 0.491920 -0.802217 0.728547 0.448897 0.414766 -0.565304 0.351742 -0.786056 -0.963300 -0.569658 -0.341370 0.704387 -0.298327 0.901047 -0.281437 0.246619 -0.583242 0.138524 0.118912 1.033670 0.379939 -0.719429 -0.963955 -0.134478 -0.314247 0.854081 -0.240479 0.463426 -0.444111 0.843728 -0.464064 -0.567126 0.897343 -0.739063 -0.100200 0.090937 -0.107475 -0.378394 0.093546 -0.004041 0.098979 0.510182 -0.360201 0.556776 0.134797 0.415470 -0.529983 -0.026879 -0.869542 0.674699 0.504995 0.366375 0.852312 0.924614 -0.741855 -0.502726 0.176646 -0.363219 1.199634 0.885661 -0.592880 -0.322909 0.495936 -0.780168 -0.227013 0.339484 0.616815 0.637313 1.164707 -0.589160 -0.307499 -0.100352 -0.809072 -0.009796 -0.668849 0.155684 -0.631506 -0.029262 -0.123446 -0.766935 -0.429659 -0.549106 0.982218 -0.688108 0.915651 -0.827407 -0.605657 0.055642 -0.241467 -0.489411 0.276395 0.016775 0.304774 -0.031919 0.317655 -0.918487 -0.675312 -0.557422 0.949287 1.271894 0.187379 -0.226955 -0.007201 0.000719 0.933666 0.424955 -0.321668 -0.573470 0.928176 0.649595 0.073118 -0.431305 0.852394 -0.196613 0.000846 0.556028 -0.175909 0.627041 -0.222294 0.420052 -0.799274 0.561277 -0.341800 0.706846 -0.372752 0.911751 1.059136 -0.396471 -0.614002 1.052131 -0.506908 0.414369 -0.852828 0.429082 -0.491938 -0.435121 -0.461013 0.454823 -0.210361 -0.571833 -0.100915 0.737148 -0.377032 1.147703 -0.859736 1.143627 0.511707 -0.170961 0.813783 1.173578 -0.488093 1.001348 0.436747 0.437456 0.323843 0.705096 0.053444 0.583407 -0.467898 0.084947 0.608446 0.108636 -0.568672 0.734742 -0.539882 0.320158 -0.509347 -0.127056 -0.906145 0.013195 0.487361 -0.336433 -0.449241 -0.502207 -0.407276 0.033434 -0.882868 0.755147 -0.949503 0.409434 0.774255 -0.354239 0.720295 0.336835 1.142687 -0.285464 0.271321 -0.667657 0.645249 -0.718530 0.414648 -0.290347 0.100818 0.599623 -0.355769 -0.540745 0.595276 -0.896433 -0.454203 -0.322168 0.500668 0.214145 1.080258 0.443237 0.514827 -0.482374 0.869864 -0.019974 -0.495387 0.165900 -0.059574 0.112187 -0.589577 -0.606369 -0.099778 0.247066 0.651741 1.075168 1.660665 0.200756 0.635854 -0.091789 0.680151 -0.153404 0.047493 -0.495139 0.175880 -0.043614 -0.480082 0.682686 0.671581 -0.185851 -0.351220 0.235070 -0.934644 -1.282725 0.418318 0.843134 0.859322 -0.884815 0.366311 -0.362503 -0.217988 -0.699425 0.565754 0.789202 0.939013 -0.470100 -0.246919 1.243091 -0.648405 0.349883 0.428396 0.898090 -0.315002 -1.594611 0.156043 0.365846 0.385353 0.860460 -0.092923 -0.112084 -1.408580 1.041493 -1.146180 -0.618412 0.847224 0.591163 -0.431891 1.098322 0.972118 1.868827 -1.123719 -0.239944 -0.767847 0.803510 -0.505443 1.000506 -0.509685 1.073989 0.187009 -0.581223 -0.341200 -0.967383 -0.277777 0.087199 -0.745156 0.724421 -0.609581 0.831286 0.438017 -0.135955 -1.230654 0.989140 -0.397626 -0.529663 -0.954804 -0.087024 -1.354921 -0.410578 -0.803269 0.164874 -0.415528 -0.661097 -0.690792 -0.346785 1.441607 0.040846 -0.156298 -0.651656 -0.229583 0.602792 -0.399424 0.666016 -1.175957 0.519221 0.045317 -0.478900 -0.416172 0.658202 1.348365 -0.707910 0.793832 -0.335223 0.374719 0.882428 -0.335591 -0.727380 0.426187 -0.143327 -0.119371 -0.117244 -0.248680 1.637885 0.104838 0.312567 -1.139699 0.708739 -0.703304 -0.480473 0.739248 0.261407 -0.598959 -0.755027 -0.642515 -0.484490 0.628122 0.722888 -0.171359 -0.431943 0.607480 -0.549526 -0.181951 -0.980479 0.153028 -0.152030 -1.092501 0.471275 0.177885 0.834983 -0.391811 0.747931 -0.809467 0.391677 0.144093 0.373703 -0.673916 0.904126 -0.116587 -0.379201 -0.291801 -0.741831 0.985984 -0.076698 -0.679091 -0.326936 0.198636 -0.473820 -0.051043 1.305412 0.109354 -0.407276 -0.776001 -0.614108 0.892004 -0.278807 -0.403189 0.779291 0.882715 0.886715 -1.036578 0.787767 1.032611 0.453152 0.322200 0.843867 -0.856640 0.097273 -0.908783 -0.150259 0.632773 -0.178190 0.177390 -0.841088 0.440776 0.542460 0.380335 -0.921923 0.793771 0.481651 0.271138 0.851492 -0.807032 0.185425 -0.293530 -0.502388 -0.879814 -0.638948 0.429250 -1.348942 -1.083386 0.881379 0.683791 -0.210874 0.366997 0.367084 -0.843327 0.747522 -0.870759 -1.005541 -0.656428 0.584792 0.410685 0.034420 0.771566 -0.458516 -0.519512 0.254769 -0.803285 -1.331712 -0.387802 -0.797029 -0.642261 -0.318408 0.534962 -0.204077 -0.132015 0.932322 0.952408 -0.353781 0.589189 -1.247771 -0.360337 0.505178 0.134430 0.805944 -0.678109 0.367461 -0.095646 0.589893 1.752935 0.375378 -0.770396 -0.049227 -0.476440 -1.080743 1.360754 0.416200 0.133622 -0.367643 0.010092 0.823074 -0.298025 0.144199 -0.215951 -1.184889 0.775727 0.633820 0.555754 0.198867 1.240953 0.394695 0.406888 -1.156872 -0.092900 -0.193833 0.984839 0.600120 0.675638 0.654992 -0.825024 0.863693 -0.113619 -0.687877 -0.179817 0.020059 -0.696490 -1.110191 0.929897 0.331374 0.256977 0.389141 0.421000 0.694902 -0.595888 -0.716336 0.911807 -0.745984 0.754340 0.725310 0.127404 0.852876 0.240612 -0.260569 0.903976 1.455964 -0.221947 0.962883 -0.121418 -0.233421 0.024660 0.271448 -0.802974 0.715413 0.649769 -0.272699 -0.148960 0.387474 0.222977 -0.447244 0.518821 -0.942244 0.639993 -0.003775 0.551995 -1.245250 0.105586 0.361943 -1.069214 -0.154670 -0.053001 0.642097 -0.535826 1.153976 -0.977726 -0.389564 0.996351 -0.187054 -0.639742 -0.246942 0.974670 -0.077737 -0.521621 -0.917519 -0.263403 -0.726364 0.023020 0.918301 1.021902 -1.197386 -0.434378 0.433265 -0.774229 -0.643382 -0.735238 -1.034358 -0.523495 0.040218 0.508979 -1.018662 -1.217512 -0.457310 1.061284 -0.259722 -1.159896 0.599174 0.414303 -0.079854 0.241294 0.152106 -0.255208 -0.038682 0.558003 -0.148711 0.937047 0.690637 -1.239154 0.573037 0.481966 -0.807524 -0.493182 0.099152 -0.511659 -0.207768 -0.156642 -0.441459 0.131671 -0.841429 -1.370227 0.701731 0.030431 -0.382013 0.171851 0.460467 0.057770 0.013591 -0.347950 0.057888 0.698508 -0.896687 -0.656718 -0.326261 -0.045967 0.992575 0.946862 -0.435007 0.571917 0.680659 -0.145727 0.028731 0.473156 0.759401 -1.096844 -0.651120 -0.933686 0.473090 -0.258661 0.161199 0.773320 -0.211829 -0.308645 -0.268184 0.526248 0.598590 -0.862863 -1.017208 -0.248907 -0.294362 0.240339 -0.855217 -0.652418 0.952527 -0.197308 -1.237598 0.698804 -0.800416 -0.077943 0.387921 0.914655 -0.924380 -0.808670 0.528447 0.062668 -0.549348 1.002571 0.857316 0.607427 -0.418405 -0.250966 0.798274 0.658653 0.324567 -1.002842 0.351261 0.198434 -0.383975 0.740942 0.500974 0.379676 0.248884 0.943957 -0.458030 -0.269845 -0.007962 -0.563722 -0.538646 0.118296 0.473683 0.960366 -0.009130 0.380328 1.031338 -0.413628 0.046259 -0.234747 0.013836 0.088473 -0.477872 0.295813 1.550176 -0.898611 -0.572274 0.051774 -0.804085 -0.651375 -1.179157 -0.286799 0.754999 1.082837 -0.308530 0.023962 0.858459 0.440314 0.763734 -0.199190 0.760334 -1.005599 0.635352 0.189021 0.702559 -0.060342 -0.121950 0.758903 0.600599 -0.366112 -0.766167 -0.441120 0.740288 -0.895399 0.481367 -0.053548 -0.919114 -0.448379 -0.951829 -0.081626 0.168441 -0.626053 -0.594768 -0.196660 -0.588203 0.207592 0.663344 -0.828425 -1.028739 0.391310 -0.054059 1.115951 0.810340 0.136134 -0.198111 0.405476 0.313508 -0.567798 0.400436 0.215257 -0.142292 0.034943 0.147814 0.891114 0.421287 0.181795 -0.028836 0.744157 0.509482 0.355686 -0.875716 -0.832220 0.912487 0.393759 -0.108975 -1.029391 1.437059 -0.407271 -0.854230 0.672578 0.937377 -0.219401 0.360476 0.113334 0.716205 -0.827897 -0.087651 0.446134 -1.432254 -0.402076 0.169250 0.183586 0.774948 0.241059 -0.204919 -0.283670 -0.785809 -1.114132 -0.997677 0.332368 0.103357 -0.548292 0.390074 0.930320 0.612210 0.802547 0.702995 -1.018582 0.679269 0.929645 -1.260296 -0.470435 -0.066087 0.511184 -0.859613 0.258963 -0.566617 0.272303 -0.643411 -0.154593 0.756478 1.014029 -1.363725 0.093145 -0.847998 -0.451860 -1.737377 -0.454234 -0.230409 -0.500215 -0.111792 0.396316 -0.600119 0.711951 0.873763 -0.777277 0.703585 0.198153 -1.409848 -0.218642 0.289576 -0.382703 0.114891 -0.098040 -0.611447 0.521105 0.006646 0.015892 -0.278527 0.014967 0.476272 -1.565611 -0.578982 0.657421 0.369312 -0.190178 -0.434961 0.717342 0.565264 -0.112593 0.959271 -0.485824 -0.039493 0.024674 -0.654406 -0.425139 0.435799 0.606693 -1.213667 0.405321 -0.253676 0.526208 1.025519 0.614950 -0.693085 1.092512 0.319896 -0.683413 -0.451475 0.954938 0.190462 -0.757471 -0.199600 0.699669 0.680425 1.207959 -0.877824 1.235921 0.396338 -1.063730 -0.281341 0.119410 0.057073 1.000299 -1.304681 0.408966 -0.601913 0.198957 -0.433325 -0.087380 -0.102961 -0.492207 -1.263003 -0.701830 -0.294390 -0.354435 -0.978562 -0.949549 0.069447 0.033212 -0.774903 1.331357 -0.028683 -0.783241 0.155375 -0.501826 -0.766998 0.349370 -0.461390 0.436306 0.878636 0.669081 -0.445664 -0.030537 0.720710 0.199386 0.759949 -1.193243 1.075189 -0.367477 0.027996 -0.106637 0.373897 0.406560 -0.096156 -0.896881 1.032700 -0.389212 -0.617673 -0.685821 0.946162 -0.387656 -0.736227 -0.301410 -0.013457 0.571964 0.142747 0.076969 -0.355306 -1.330150 -0.399049 -0.257428 -0.951921 0.687080 0.932631 0.828892 -0.827595 0.003107 -1.011167 -0.988746 -0.005476 0.318497 0.611799 -0.558047 -0.596640 0.750949 -0.408191 -0.568060 -0.424898 0.362681 -0.560492 -0.813005 0.237696 -0.238847 -0.227649 -0.737251 0.491610 -1.137801 0.270990 -0.405335 -0.472107 1.753027 0.817147 -0.371178 -0.403924 -0.416214 0.611605 0.831414 -0.237672 0.984503 0.111425 0.979446 -0.187815 0.658667 -0.840363 -0.611766 -0.913081 -0.454112 0.079430 -0.176561 0.067032 0.226137 -0.397047 0.457655 -0.269663 -0.796854 0.196808 -0.278426 0.344202 -0.945916 0.669520 -0.027277 0.380731 -0.444495 -0.799259 -0.566523 0.406576 1.192834 -1.143199 -0.762241 0.937548 0.397575 -1.038495 -0.401901 -0.099333 -0.417571 0.138509 -0.633681 0.310855 -0.821890 0.595845 -0.976657 1.070363 0.660149 0.206537 0.524608 0.410130 -0.134120 -0.193485 0.060794 -0.027977 -0.507609 1.226799 0.114776 -0.069535 -0.993644 0.038733 -1.275467 -1.115573 0.398915 -0.841317 1.227321 -0.548623 -0.700569 -0.623382 0.417946 0.072595 0.563971 0.919106 -0.510579 0.788875 0.588369 -0.759334 0.089613 -0.237115 0.690518 0.188149 -0.217447 -0.276713 -1.328509 1.227815 0.803055 -0.502604 0.952813 -0.583838 0.410785 1.113792 0.326639 1.388806 0.824821 -0.482264 -0.738254 0.633220 0.061532 -0.468436 -0.738768 -0.454373 0.034551 0.802332 -0.992398 0.704675 0.799600 0.736772 0.602240 -0.320771 -0.168843 0.785633 -0.763644 0.412245 -0.857002 -0.829787 0.179221 0.592118 -0.261777 0.396049 -0.751204 -0.764754 -0.174075 0.354846 0.798043 -0.491848 0.950250 0.912797 -0.432862 0.038508 -0.500480 -0.122014 0.483426 -0.910628 -0.149058 0.629693 0.953432 -0.390110 0.579048 0.483019 0.148358 -0.786229 0.085568 0.381183 0.805644 0.395565 0.694307 0.183190 -0.094865 -0.322998 -1.192084 0.210059 -0.112315 0.251058 -0.419998 -0.436785 1.167623 -0.643396 -0.484288 -0.522189 0.566203 -0.251090 0.511114 -0.007620 -0.115220 -0.927227 -0.465257 -0.329326 -0.675515 1.252237 -0.973689 0.455638 -0.707470 0.375187 -0.312795 0.925924 -0.384769 -0.458447 0.036602 0.678390 0.257512 0.124050 -0.382938 0.910905 -0.757468 0.210352 -0.808062 -0.734910 0.952382 -0.245733 -0.649872 0.384280 1.202250 -0.938783 -0.857029 -0.538150 -0.145761 0.245590 -0.228220 -0.219915 0.463415 -0.838109 -0.093939 -0.177564 -0.121306 -0.211006 0.457620 0.289086 0.787996 0.146248 -0.784643 -0.117511 0.982139 0.901625 0.054768 0.347797 -0.790396 0.206466 0.193734 0.014218 1.005145 -0.414755 -0.293964 -0.695460 -0.118669 0.297330 -0.232481 0.715981 -0.460683 0.525413 -0.524643 0.987721 0.666640 0.360993 -0.190062 -0.459355 -0.850753 -0.723817 0.800875 0.929408 0.417858 1.014987 -0.200243 0.383424 0.888977 0.853100 -0.273973 -0.912254 0.074878 0.897120 0.087521 0.073226 -0.520313 0.797181 0.363127 0.347730 0.077747 -0.871654 0.040932 0.601270 0.639536 0.503230 0.586494 0.293606 -0.124248 -0.596898 0.815221 0.023784 -0.330561 0.620195 -0.058122 -0.922972 0.608438 0.730089 0.461307 0.499962 0.597133 -0.822377 0.592277 -0.342978 -0.931141 -0.330615 0.714053 -0.458939 -0.537325 0.065658 0.873524 0.536530 0.194192 -0.092946 0.130647 -0.193797 -0.591892 -0.288237 -0.902251 0.262813 0.107787 0.899941 -0.733304 0.772463 0.508569 0.204335 0.820261 0.101156 -0.076841 0.277356 -0.398331 -0.485566 0.436837 -0.824626 0.160888 0.486232 -0.156352 -0.155003 -0.987494 0.281694 0.920105 0.883711 -0.186215 0.086705 -0.231900 0.930449 0.889419 0.159046 -0.344674 0.980259 -0.578290 0.758889 0.876461 -0.308277 0.509749 0.370268 0.874947 0.325431 -0.545497 -0.188548 -0.411907 0.057383 0.311740 -0.974418 0.223161 -0.542608 0.511851 -0.946462 0.309695 0.507396 0.323329 0.213104 0.377635 -0.879947 -0.707974 -0.857030 -0.937852 -0.813608 0.311672 -0.312899 -0.848291 0.727491 -0.571153 -0.978898 -0.604788 0.929979 0.365069 -0.718980 0.264274 0.821055 0.083606 0.833721 -0.134215 -0.625087 0.843222 -0.917231 -0.168237 0.346952 -0.880468 -0.887872 -0.139494 0.434866 0.311828 -0.770796 0.551590 0.609855 -0.619230 0.587421 0.780392 0.677626 -0.717880 0.928710 0.387872 -0.289320 0.940883 -0.564562 0.204620 -0.936990 0.905351 0.202826 0.241472 0.701426 0.985988 0.489175 0.464629 -1.574938 -0.820577 -0.094503 -0.955199 -0.873542 0.773197 0.716282 1.065437 1.530165 0.151708 0.522321 -0.575152 -0.392389 0.382928 1.278733 -0.355848 0.106301 0.536550 0.511316 0.142967 -0.028856 -0.678336 -1.025068 0.016613 -0.888872 0.504105 -0.676360 0.836271 0.666936 1.343685 0.778783 0.228433 -0.777705 -0.620943 0.770942 -0.916790 -0.603601 0.172424 -0.923134 -0.679093 -0.970679 0.791256 -0.749229 0.056810 -0.229442 -0.644982 1.201016 0.271251 1.014662 -0.119357 -0.438047 -0.182228 0.938306 -0.458656 0.859849 0.649964 -1.066435 -0.753977 1.069221 0.156096 -0.896179 0.359494 -0.028486 -1.535163 0.638270 -1.325844 -0.459302 0.463447 0.377512 -0.210182 0.635011 0.913697 -0.864349 0.977319 -0.064321 -0.555465 -0.998256 -0.365283 -0.632363 1.467652 -0.833570 -0.045277 -0.143481 -0.879026 1.391020 -0.166561 -1.452405 0.831006 0.202272 0.972785 0.438489 -0.181743 0.208982 -0.667978 -0.007152 0.186826 0.260055 0.657571 -0.937997 -0.311124 -0.846402 -0.669142 -0.005955 -0.579357 -0.969972 0.357781 0.226461 -0.544502 -1.131157 0.459672 -0.834623 -0.605099 -0.410422 0.620315 -0.689825 -0.515983 1.092914 -0.594390 -1.031743 -0.245107 -0.709795 0.026694 -0.838109 0.735135 -0.797059 0.312428 -0.611460 0.342372 -0.208123 -0.537530 0.922680 0.309364 -0.098047 -1.311570 1.048952 -0.078604 0.496662 0.020876 0.550821 0.865521 -0.100239 0.809528 0.934148 0.279831 -0.047916 -0.381060 0.340145 -0.199179 -0.302697 0.749976 0.370183 -0.245330 -0.049176 0.888687 -0.440019 -0.089058 0.170832 -0.102803 0.820219 -0.854475 0.689844 0.696761 0.255623 -0.150916 0.336163 0.161828 0.296756 -0.251643 -0.387034 -0.243424 -0.696185 -0.032764 -0.606217 -0.994125 1.101511 0.048316 -0.450540 0.651359 1.292416 -0.535796 -0.196223 0.686693 0.396926 0.947062 0.901338 -0.983123 -0.396839 0.066036 -0.917034 -0.280610 -0.241359 0.508218 -0.882326 0.310877 0.011376 0.290636 -0.236331 0.906539 0.481192 0.468166 -0.765653 -0.741012 0.767321 -0.714155 -0.907805 -0.181232 -0.562321 0.170118 -0.402945 0.143746 0.582443 -0.868983 -0.210074 -0.100765 0.559889 -0.042723 0.121614 -0.838675 -0.978131 0.200710 -0.119484 -0.221045 -0.289587 -0.002231 -0.911193 0.726458 -0.709525 -0.150641 0.634091 0.768965 -0.681869 0.867993 -0.973922 -0.913635 -0.846361 -0.880539 -0.096471 -0.408921 0.284658 0.500856 0.734864 -0.128637 0.631944 -0.475835 0.773036 0.189119 0.480617 -0.107608 0.352869 0.498429 -0.905125 -0.771121 -0.723258 -0.188084 0.222582 -0.627928 -0.463453 0.514396 0.225610 -0.829415 0.279402 0.543479 -0.962605 0.302960 0.633268 -0.811981 0.425912 -0.461933 -0.220245 -0.287102 -0.960300 -0.486005 0.584557 0.668846 0.038060 0.355158 -0.144354 -0.482216 -0.748284 -0.791615 -0.979658 -0.655907 -0.567148 -0.697005 0.153473 0.661726 -0.328379 0.688170 0.172131 0.895448 0.858583 -0.549917 0.442668 0.897477 0.755738 0.072555 -0.916186 0.181621 0.609384 -0.136213 0.887724 0.647659 0.374110 0.473877 0.314701 -0.586470 -0.169488 -0.824309 -0.069489 0.077704 -0.620392 -0.052454 0.419251 -0.183607 0.245176 -0.429466 -0.524641 0.916422 -0.739459 0.649823 0.819213 -0.880789 -0.900005 0.259333 -0.990166 0.855129 -0.669522 -0.905771 0.032881 0.938076 -0.043632 -0.076795 0.586971 -0.666954 -0.601498 -0.100366 -0.254324 0.225219 0.072950 0.678266 -0.700625 0.453320 -0.377524 0.721117 -0.732379 0.871016 -0.709840 -0.252875 0.789664 -0.450668 -0.603783 0.603738 -0.335814 -0.508205 -0.139496 -0.321062 -0.652660 0.188461 -0.226628 0.379944 0.124192 0.729145 -0.698896 -0.292495 -0.939001 -0.305551 0.604786 -0.192540 0.920940 -0.324335 -0.517093 -0.779145 -0.874669 0.103988 0.938003 -0.610639 -0.025509 -0.774275 0.136899 -0.236200 -0.222386 0.529182 0.558965 -1.295822 0.219930 -0.876652 -0.735542 -0.449363 -0.010438 0.745171 0.446092 -0.508717 -1.173649 -0.817366 -0.120079 -0.340204 0.783270 0.495820 -0.595674 -0.143253 1.402974 -0.122414 0.360363 0.063762 -0.323450 0.164424 -0.731946 0.094978 -0.878084 -0.296059 0.916972 0.775375 -0.211724 0.290906 0.912959 -0.882412 0.479643 -0.936345 -0.363168 -0.039058 0.877830 -0.353537 0.112220 0.456479 -0.384916 0.594307 -0.577003 -0.623799 0.420769 0.278939 0.292607 -0.036653 -1.183493 0.266667 -0.865150 0.088281 -0.312514 -0.900174 -0.822076 0.205950 0.180012 0.504820 -0.488225 -1.084841 0.157305 -0.796716 -0.593761 -0.626086 -0.587245 0.017563 -0.113738 -1.013106 0.652794 0.662822 0.994455 -0.592544 0.492229 -0.039382 -0.283272 -0.286315 1.326685 0.506271 0.142561 -0.987938 0.268530 0.577063 0.489853 1.130407 0.474886 -0.045733 -0.389215 -0.551191 -0.317800 0.092261 -0.150601 0.941395 0.272768 0.445859 -0.682324 0.381312 0.126933 0.120599 0.760600 -0.505781 0.413835 0.631286 -0.264075 -0.978201 -0.338519 1.118636 -0.475156 -0.854750 0.384384 -1.104482 -1.305840 -0.264397 0.783077 0.155868 -1.091938 0.365592 -0.492862 -0.028651 -1.271572 0.322158 1.045498 -0.254405 -0.058138 0.115558 -0.130509 0.358004 0.028019 0.459507 -0.256123 -0.450617 -0.966334 0.563299 -0.943231 0.105757 0.713014 -0.466175 -0.612455 -0.601138 -0.129503 0.832155 -0.678636 0.108014 -0.404409 0.960773 1.153444 -0.497652 0.514277 -1.032236 0.287276 0.867600 -0.002779 0.506021 -1.123380 -0.994933 -0.705619 0.565826 0.323316 0.708286 -0.870421 -0.792411 -0.965446 -0.549225 0.626385 -0.967533 0.717744 0.255049 -0.340450 0.905778 1.038654 0.798249 0.370992 1.065321 -0.678771 0.891659 0.964964 -0.426682 -0.672348 -0.086184 -0.345791 1.049966 -0.549135 0.570571 0.330184 -0.244739 0.750608 0.923874 0.568807 0.059105 0.561022 -0.623330 -0.092374 1.127675 -0.519840 -0.227662 -0.888699 1.197511 -0.409005 -1.054671 0.776027 -0.739372 1.074812 0.324067 -0.549375 1.286060 0.623276 0.142290 0.846557 -0.542652 0.126205 0.708222 -0.482009 -0.278729 -0.260602 0.417864 -0.360275 -0.314307 0.384209 0.774990 -0.475928 0.584702 -0.106165 0.867381 -0.337255 0.705737 0.600010 -0.567426 0.465112 -1.561631 -0.846082 0.236447 -0.068314 -0.686457 -0.777861 -0.276826 0.961184 0.449430 1.224460 0.752272 0.799690 0.067367 0.528075 -0.433388 -0.554687 0.090921 -1.254320 -1.019420 0.447760 0.290201 -0.090854 0.316681 0.063134 1.043593 0.337099 0.771042 0.203254 -0.259015 1.456801 -0.054780 -0.680193 -0.816980 -0.769150 0.770325 -0.492283 -0.155917 -1.000924 -0.786943 -0.784944 0.789375 -1.017693 -0.732263 -0.303284 1.234756 -0.935561 -0.344306 1.398017 -0.103598 0.623332 0.135856 -0.771801 -1.380765 -0.621685 0.775202 0.658129 0.697047 0.003070 -0.127186 -0.591707 0.113996 1.117911 0.665801 0.864568 0.706727 -0.280828 -0.889118 -0.666964 -0.088255 -0.458983 0.225390 -0.244254 -0.554082 -0.167914 1.311360 -1.061611 0.633342 -0.931921 1.485632 0.087236 -1.280362 -0.062494 0.097958 -0.684835 0.893268 -0.102779 1.129665 1.040086 1.014696 -0.233773 -0.517643 0.021530 -0.386249 -0.699158 -0.224243 -0.327294 0.401520 0.097803 0.315948 -0.916197 0.993143 0.748013 -0.602439 -0.920062 -0.740508 -0.269835 -1.077976 -1.097315 0.144991 -0.909580 0.338645 -0.569235 0.391670 -0.143234 0.178830 0.378543 -0.131515 -0.059313 0.047480 -0.350212 -1.099857 0.775166 -1.200648 -0.435940 1.045963 -0.361960 0.358037 0.140268 1.211875 -0.878695 0.275574 0.293139 -0.763638 -0.919122 0.672874 -0.186748 -0.455796 0.995965 -0.396845 0.423717 1.000120 0.590245 -0.529621 0.298372 -1.037931 0.676391 -0.198076 0.064862 -0.082395 0.608264 0.704138 -0.114532 0.238910 -0.943787 0.694039 0.593129 -0.297264 0.208751 -1.124563 0.342203 1.191409 0.543880 -0.433190 1.149005 1.019395 -0.531621 -0.364105 0.895490 0.249795 -0.618248 0.833474 0.249498 -0.426905 0.104879 0.208026 -0.753604 0.528977 -0.603334 0.229083 0.407135 -0.235810 -0.913144 -0.468487 -0.291328 1.284912 0.686518 0.472655 -0.009398 -0.604835 -0.813463 -0.043317 -0.879199 -0.515515 -0.374074 -0.703177 -0.470592 -0.347453 -0.253282 -0.874009 -1.038728 -0.006503 0.682145 0.277556 0.216580 -0.284827 -0.507961 0.595310 -0.953738 0.349966 -0.566355 0.639170 0.898822 -0.326114 -1.282626 -0.721075 -0.256571 -0.790723 0.592319 0.794144 -0.380749 0.689498 0.020541 -0.064887 -0.880206 0.169717 0.305761 -0.838082 -1.027919 0.731257 -0.964148 -0.549341 -0.745993 -0.441641 0.686215 0.440460 0.278705 0.199655 0.295407 1.084468 -0.792199 1.029879 0.555167 0.906398 -0.503484 0.602451 -0.840424 0.186787 0.789206 0.421053 -0.228585 -0.329772 0.398647 0.812904 0.462232 0.530202 -0.133661 -0.559253 0.982882 0.083836 -0.839984 -0.322224 0.749524 -0.346584 -0.220715 0.301950 -0.697322 0.869725 -0.670707 0.663194 0.694132 -1.168413 0.255909 -0.313830 -0.829997 0.999888 -0.858563 -0.214997 -0.261953 0.961071 0.629001 0.791198 -0.943417 -0.012750 0.447354 0.852724 -0.416360 -0.482068 0.757862 -0.193623 0.214809 0.771910 -0.166002 -0.107599 -0.458057 0.280086 -0.662092 -0.155994 0.512959 -0.804620 -0.736627 -0.624919 -0.653338 0.223655 0.390792 -0.271606 -0.062674 0.480427 0.391555 0.599213 0.242703 0.241274 -0.040300 0.292890 -1.092594 -0.810285 0.092138 0.120950 -1.181985 -0.124947 0.157416 0.537596 0.344745 1.010168 -0.623914 0.371850 0.476627 -0.378806 0.789411 -0.096101 -0.083049 0.958911 0.278376 0.963060 0.361458 -0.737938 -0.593511 -0.840212 1.417180 -0.875323 0.646249 0.075268 -0.014636 -0.342626 -0.241796 0.489212 -0.196291 0.701595 -0.709365 0.206637 -0.176892 0.822275 -0.660269 -0.470203 0.698698 -0.444064 -1.418397 -0.330907 0.563134 0.994585 -0.805258 0.749511 -0.372616 -0.468970 0.002044 0.197939 0.081690 0.228277 0.146913 0.425287 -0.199637 -0.487697 -0.175820 0.358247 0.182883 -0.690483 1.160254 -0.778175 -0.300851 0.120751 -0.438460 -0.595116 0.834483 -1.329527 0.674123 -0.198236 -0.893535 -0.207008 -0.447012 0.810471 -1.032260 -0.099073 0.743426 0.118608 0.247643 0.003563 0.986014 0.104222 -0.757316 0.192783 -0.436098 0.033722 0.729618 0.292058 -0.364058 -0.902967 0.901100 -0.752478 -0.280200 -0.651913 0.214124 1.144975 -0.682525 0.163220 1.020706 -0.771231 0.245482 -0.894981 0.043183 0.704997 0.968579 0.277024 -0.968683 0.753185 -0.199683 -0.777432 -0.145378 -1.026088 0.239879 -0.107666 0.227878 0.725253 0.828819 -0.975429 -0.575920 -1.510837 -0.169041 -0.874203 -0.647282 1.268556 -0.402955 0.596697 0.831547 -0.097367 -0.112414 1.048002 0.615936 0.633532 0.815321 -0.669246 0.613942 0.775264 1.120584 -0.690384 0.634365 -0.934637 -0.501638 -0.780251 -0.812518 0.511611 -0.145752 0.694839 -0.139333 -0.029666 1.060876 0.398319 0.401785 -0.295485 0.778764 0.419664 -0.208465 -1.224733 0.142373 -0.255160 -0.010204 0.627105 -0.452028 -0.628155 0.763833 -0.846996 -0.403270 0.357172 0.863707 -0.084218 0.663146 0.785720 -0.084823 -1.034012 0.743347 -0.107481 0.521096 0.541789 -0.510049 -0.544637 -0.838837 -0.188830 -0.938808 0.931550 0.328844 1.159413 0.086985 -1.122811 0.932517 -0.677191 -0.479175 -0.056338 0.404976 -0.318324 0.876740 0.526462 0.020798 -0.890547 -0.414944 -0.692914 0.437973 -0.712701 -0.555206 1.140908 -1.455805 -1.180727 -0.289486 1.105399 0.265751 0.480557 -0.912422 0.301287 1.345214 -0.671671 0.138067 0.286617 -0.984635 0.496592 0.499161 -0.968133 0.575046 0.758875 0.020102 0.483027 -0.748237 -0.953242 -0.337675 0.247058 -0.258193 0.150499 1.057340 0.730175 0.374359 -0.778180 0.954601 0.534012 -1.127465 0.203821 0.442313 0.230292 -0.889041 0.710166 -0.899046 0.730615 0.071971 0.458898 0.564327 -0.051358 0.236570 0.955070 -0.620758 -0.440569 -0.145338 0.652999 0.114835 0.457648 -0.617635 -0.771391 -0.337896 0.125355 -1.294372 -0.684069 -0.592166 -1.320556 1.151835 -1.161458 -0.655898 -0.565622 0.312845 0.645902 -0.207865 -0.396413 -1.350555 0.032430 -0.570727 0.174813 -0.887713 -0.876176 0.820015 0.988840 -0.623271 -0.700187 1.113130 0.777318 0.820651 -0.020220 0.258164 0.549527 0.772620 0.328053 0.180229 0.468731 0.994263 0.422279 0.774239 0.968502 -1.053374 -1.422567 -1.005496 0.955858 0.532623 -0.369601 -0.697428 0.832813 -1.094744 -0.297677 0.448286 -0.553013 0.542298 0.465203 -1.429168 -1.081481 0.364702 1.177510 0.809512 -0.873877 -0.125344 -0.276660 -0.387451 -1.100564 -0.168464 0.925687 0.515415 -1.018512 0.564209 0.134081 1.103218 0.876102 0.096841 0.662756 0.049330 0.142906 -0.520916 0.335782 -0.220782 -0.434635 -0.511369 0.973624 0.102797 -1.034097 0.056578 0.169747 -1.057681 -0.307464 0.551611 -1.237277 -0.284723 -1.259349 0.102905 0.811706 -1.055524 0.364466 0.034715 0.623589 1.161791 0.200423 -0.269650 0.049195 -0.227152 -0.547584 -0.264030 1.086345 -0.427568 0.287528 0.175703 0.757824 0.901633 0.542635 0.991165 -0.078823 0.815919 -0.104023 -1.075891 1.526189 0.105856 -0.084271 -0.766633 -0.378232 0.446215 0.727132 0.502994 0.355022 -0.009895 0.094566 0.274845 -0.404707 -1.070253 -0.820259 1.004917 -0.230987 -0.051137 -0.567877 -0.416700 0.596636 0.395605 0.806127 0.540549 0.568614 0.421794 0.476469 -1.306608 0.249956 -0.628172 -0.132470 -0.110410 0.486950 -1.070138 0.007471 0.909941 0.481436 -0.715846 0.224912 0.029530 0.016744 -0.813377 -0.312912 0.454955 -0.556702 0.031072 0.881187 0.352326 -0.867222 0.953533 0.981449 -0.627353 0.381579 0.675724 0.661081 -0.260361 -0.239369 0.318901 -0.076300 -1.383878 0.883644 0.433440 0.376923 0.009755 0.678838 -0.108313 0.179564 -0.332560 0.824871 -0.701260 -1.055478 -0.766743 -0.247545 0.945979 -0.420611 -0.063771 0.307724 0.800708 -0.688417 0.158499 0.660955 0.115920 -0.332068 0.319194 -0.434937 0.352062 -0.337106 0.671914 -0.496730 -0.356495 -0.047418 -0.865547 0.809806 -0.757627 0.957038 -1.068174 -0.213023 -0.078385 0.084443 -0.218400 0.176026 -0.331566 0.176014 -0.742232 -0.254218 0.404875 0.347767 -0.813819 0.213437 1.188249 0.615337 -0.258938 -0.296407 -0.684387 -0.324956 0.256596 0.886462 -0.551049 -0.210057 -0.948809 0.410087 -0.725683 -0.790969 0.309388 -1.065167 -1.019245 0.435750 0.057194 0.427307 -0.860277 0.801718 -0.816108 0.017068 -0.851781 -0.442578 1.442179 0.532134 -0.890719 -1.345897 0.312699 -0.597296 0.672520 -1.265339 -0.295591 0.876151 -0.899594 0.803834 0.801693 0.293322 -0.502309 1.043858 -0.477004 -0.220691 -0.926560 -0.886607 -0.338923 -0.799582 0.915688 0.894267 0.415705 -0.842647 0.532005 0.934651 0.727346 -1.029836 -0.625447 0.193180 1.690026 -0.674723 0.079474 0.066755 0.025171 -0.505493 -0.034818 0.457193 -0.343208 0.577072 -0.391296 -0.119461 -0.389892 0.858268 -0.437314 0.559481 -0.341081 -0.488152 0.833765 0.349500 -0.223990 1.078834 0.428652 -0.940928 0.090840 -0.311077 -0.735174 -0.153029 -0.153956 -1.120220 -0.850595 -0.358701 -0.067633 0.688451 0.731999 1.560140 -0.991716 0.127549 0.579596 0.741025 -0.653096 -0.893754 -0.001399 0.288004 -0.774330 -0.102417 0.398520 0.013991 0.776136 0.038026 -0.411134 -0.617175 -0.629184 0.785365 -0.327882 -0.955746 -0.373600 -0.165839 0.341140 0.916310 -0.005976 0.337628 -0.457571 -0.814160 -0.144189 -0.747626 1.310233 0.569563 0.258967 0.518349 0.427285 0.494636 0.610322 0.758300 -0.107080 0.803684 -0.547054 0.602055 -0.281648 -0.665336 -0.406366 0.319897 -0.771300 0.097054 0.399556 -0.110663 0.520393 0.859739 0.062265 -0.227092 0.444283 -0.175133 0.643394 0.670639 -0.342010 -0.942184 -0.555497 -0.726534 0.141900 0.654068 0.600080 -0.407828 0.297813 0.372166 0.306154 0.281447 -0.936873 -0.046555 -0.887966 -0.757522 0.511632 0.329059 -0.270446 -0.418517 -0.667813 0.619390 0.855562 -0.993242 0.029627 -0.692589 0.357737 0.389191 -0.911798 0.179613 0.861008 -0.245877 0.235454 -0.652835 0.056601 -0.609299 -1.001985 -0.338872 0.011359 0.294985 -0.937384 -0.687316 -0.446594 -0.853746 0.294876 -0.279878 -0.582252 -0.211340 -0.919818 0.133916 0.383261 -0.576841 -0.233273 0.235877 -0.524313 0.793694 0.507313 0.841830 0.203652 0.599124 0.018213 0.076459 -0.648957 -0.700431 0.448974 0.421805 -0.313680 0.454480 -0.882443 0.692144 -0.237850 -0.817884 -0.999284 0.317724 -0.682709 0.261413 -0.957180 -0.311366 -0.932514 -0.854560 0.875024 0.436778 -0.430668 -0.394005 -0.309897 0.056217 -0.593356 -0.793214 -0.118119 0.609180 0.826840 0.913680 -0.293407 -0.810883 -0.801545 -0.835440 0.641371 -0.089625 0.599747 0.741125 -0.408075 -0.614542 0.922992 -0.376613 0.718162 -0.741507 0.896294 0.778122 -0.009172 0.986364 0.926331 -0.172052 0.438183 -0.527268 0.470367 -0.889689 0.554838 0.873076 -0.660077 -0.523888 0.486667 -0.857060 -0.623348 -0.758345 -0.639366 -0.422563 -0.577406 1.014119 0.490314 -0.968453 0.742924 -0.877681 -0.574650 0.681876 -0.273427 -0.838367 0.947174 -0.314586 0.955489 -0.042073 -0.359919 0.879963 0.805280 -0.919058 -0.616036 0.280802 -0.809832 0.963795 0.170851 -0.459474 -0.560326 -0.307447 -0.317327 -0.182648 -0.048114 0.065474 0.433685 0.353703 0.059966 -0.067046 0.394973 -0.188814 0.047443 0.844876 -0.526576 0.781089 -0.980105 -0.533664 -0.563139 0.957680 0.431014 0.088812 0.858628 0.243983 0.192673 -0.732705 -0.477213 0.393111 -0.769480 0.732822 0.947790 -0.348992 -0.576748 -0.333345 0.494961 0.372432 0.716931 -0.057391 -0.245864 -0.223309 0.886682 -0.849778 0.599352 -0.053206 0.982732 -0.906346 -0.828204 -0.297370 0.244633 1.020211 0.958660 -0.309416 1.031940 0.276990 0.656589 -0.849054 0.870877 0.132256 -0.788092 0.578673 -0.279855 0.080967 1.093594 0.939985 -0.522045 0.304587 0.518149 0.644476 -1.066958 -1.232572 0.205613 -0.888560 0.550136 -0.837158 -1.044355 0.618661 -0.221984 -0.749565 -0.698510 -0.434464 -0.846737 -0.510633 -0.544127 -1.416652 0.763284 -0.975849 -1.057894 0.327291 0.087187 -0.408501 -0.349437 1.071313 0.523104 -0.292596 0.181831 -0.523512 -1.008531 -0.601710 0.783570 -1.110213 -0.201419 -0.027041 -0.586767 -0.646902 0.143529 -0.706171 -0.881646 -0.275578 -0.338506 -0.173693 -0.040322 0.145271 -0.142578 0.356385 0.122413 -0.721337 0.237993 0.520681 0.412549 -0.320202 0.878327 -0.678116 -0.078931 0.424388 -0.044681 -0.296502 0.626519 -0.071936 0.053714 0.142935 0.270354 1.042751 -0.612067 0.284103 -0.802660 0.545042 1.340626 -0.757796 -1.193762 -0.268763 -0.365129 -0.059338 0.836675 -0.290119 -0.330190 -0.095550 0.141768 -0.728866 -0.980750 -0.362428 0.471735 0.756024 -0.347165 -1.113029 0.301304 0.495498 -0.565129 -0.534344 -0.735590 0.524381 1.071346 0.451842 0.668843 0.869304 -0.092445 0.724260 0.566409 -0.373929 0.903733 0.768713 0.441642 -0.601551 -0.349047 -0.096282 0.451730 0.449542 1.017618 0.126226 0.802592 0.815966 0.152986 0.022454 0.761459 0.926380 -0.026528 -0.323236 0.023183 0.882433 0.568283 0.530345 0.880654 0.275756 -0.046623 0.222129 0.089502 -1.037790 -0.047979 -0.705456 -0.673127 -0.431981 -0.569764 -0.753910 0.268545 -0.128208 0.174563 -0.809397 -0.790235 -0.059340 0.527881 -0.937771 -0.157694 -0.523737 0.210436 -0.420364 -1.000695 -0.417858 0.645934 0.454114 -0.556328 -0.331074 0.887993 -0.826686 -0.864831 -0.200977 0.601717 0.312579 -0.162562 -0.624744 -0.771369 0.585528 -0.485015 -0.456785 0.522736 -0.834782 0.938860 -0.250713 -0.034679 0.650272 0.408309 -0.436769 0.709689 -0.301498 0.084067 0.177789 0.059723 0.640098 -0.337581 -0.147231 -0.853436 0.671639 -0.558503 -0.698946 0.938160 0.282291 0.672440 0.466353 -0.828390 0.887722 0.654291 0.730883 -0.135101 -0.850551 0.368160 -0.042114 0.679860 -0.920763 0.769666 0.504359 0.782213 0.883222 0.354246 -0.640486 -0.522716 -0.555363 0.517100 0.552986 -0.949414 -0.859784 -0.606055 -0.822167 0.766215 -0.181918 -0.543145 0.716341 -0.884994 -0.937853 0.171758 -0.728764 0.953591 -0.192238 -0.973974 -0.246266 -0.027839 0.350981 0.719768 -0.334808 0.405966 0.464886 -0.867647 0.227167 0.378491 0.471456 0.535792 0.827536 0.879868 0.026809 0.340489 0.919485 0.136348 0.730630 -0.942267 -0.073454 -0.483136 -0.502227 -0.355334 -0.387561 -0.436795 0.801237 -0.091802 -0.542577 -0.398903 -0.101094 0.249077 0.581571 -0.739115 -0.040622 -0.768809 0.643652 -0.617069 -0.672347 -0.149479 0.758574 0.763991 -0.641093 0.571100 0.654921 0.349788 -0.089099 0.516855 -0.519750 -0.386848 0.596467 0.363560 0.123408 -0.916070 0.982872 0.742207 -0.401979 0.737156 -0.355370 0.053987 -0.654493 0.487779 -0.742761 0.903219 0.706154 0.209529 -0.888633 0.359060 0.591436 -0.614943 -0.820271 0.314647 -0.840510 -0.459434 -0.127842 0.764015 0.855867 0.769245 0.280666 -0.719974 -0.583292 -0.161557 0.657752 0.539419 -0.061154 0.666876 0.242469 0.505286 0.475592 0.865070 -0.501967 0.795761 0.312235 -0.204146 0.658553 0.031735 0.978383 0.727792 -0.606693 0.565367 -0.871670 -0.439928 -0.156849 -0.735550 0.098248 0.733497 -0.998529 -0.090337 0.496338 0.260177 0.203674 0.896887 -0.876039 -0.099265 0.398045 0.031595 -0.480927 -0.333149 -0.481780 0.923507 -0.525530 0.049095 0.719558 0.745677 0.809153 0.357937 -0.251367 0.767147 0.119106 0.115326 0.296242 0.191926 0.669417 -0.847860 0.438678 -0.264583 0.852167 0.447026 0.636962 0.354343 -0.241711 -0.175610 0.209050 -0.068832 0.674786 -0.375951 0.906347 0.721797 -0.493062 -0.916336 0.618619 0.286601 1.018446 0.403947 0.200187 0.080688 -0.022753 -0.199549 -0.454591 0.310089 -0.636897 0.355230 -0.109270 -1.231973 0.107580 0.661440 -0.627504 -0.111854 0.417226 0.187282 -0.123692 -0.595202 -0.541194 0.909976 0.825796 0.333050 0.722813 1.413576 -0.370738 -0.441663 -1.107620 -0.582325 0.964389 1.017732 0.918902 0.047469 -0.051381 -0.976622 -0.806632 0.992667 0.099002 -1.189537 -0.213771 -1.301587 -0.222148 0.576288 0.965141 0.656330 -1.172808 0.048328 -0.668054 0.235844 0.399206 0.272981 0.482686 -0.223647 0.289734 -0.127059 -0.367645 0.762696 0.947597 0.147561 0.938380 0.040358 -0.387902 1.260892 -1.207041 0.750078 0.753071 -0.864568 0.605903 0.114254 -0.674647 -0.949919 0.937989 -0.003049 0.847717 -0.278866 -0.714652 1.075688 -0.644187 -0.411543 0.062071 0.897910 -0.463836 -0.774339 -0.577193 0.141717 0.214691 0.288308 -0.108388 -0.303155 -0.511934 -0.009037 0.444780 0.583674 -0.387665 1.135369 0.052186 -0.721373 -0.921606 -0.514425 0.531206 -0.149954 -0.337264 -0.665998 1.029343 -0.784580 -0.872835 -0.677834 -0.352059 -0.616992 0.243473 0.522130 -0.613189 0.955880 -1.565156 0.341712 0.119866 0.277144 -0.948142 -0.946620 0.690120 -0.205044 0.258703 0.420261 -1.035187 1.076092 1.120645 0.141271 -0.827701 0.447500 1.072753 -1.046641 -1.439107 -0.421030 0.013713 -0.913909 0.067112 0.217005 -0.464420 0.709006 0.879438 1.105082 0.120205 -0.790408 0.482416 0.289228 0.571991 -0.669825 -0.782182 0.724267 -0.433261 -0.824796 -0.946253 0.870973 -0.801424 -0.793275 0.572274 0.349952 0.511450 -0.723393 -0.485872 0.334863 -0.815555 0.408295 0.562661 0.322099 0.641494 -0.667327 -0.652140 -0.950447 -0.914497 -0.673986 0.741506 0.570405 0.653369 0.484323 -0.630580 0.820947 -0.944161 0.565595 0.235833 0.342894 0.688058 0.650476 0.048384 0.531964 1.570015 0.044640 0.462080 0.581174 -0.538440 -0.527571 0.349392 1.010105 -0.602490 -0.577411 0.655880 -0.018009 -0.198482 0.702086 -0.136910 0.474215 0.655398 -0.634527 1.162094 -0.433082 -0.202081 1.013145 0.111204 1.422694 0.271495 -0.688329 1.012894 0.248641 0.641289 -0.725372 0.234062 -0.707400 0.853009 -0.279295 0.155063 -0.172852 0.278461 -0.846156 -1.169779 1.170742 -0.688245 -0.959566 -0.235797 0.646977 1.415046 0.716467 -1.126986 0.547757 -0.911148 -0.327475 -0.203981 -0.221180 -0.622255 -1.244677 -0.608125 0.154779 -0.107284 0.831472 -0.286588 -0.671261 -0.239458 0.821913 -0.817140 -0.509303 -1.347677 0.415064 -0.521677 1.014365 0.397250 0.167927 -0.007706 0.111980 0.215748 1.179449 -0.009539 -0.105320 0.748510 0.403827 -0.163456 0.589905 0.291317 0.425504 -1.098603 -1.084690 0.831379 0.653713 0.772615 -0.861001 -0.350042 -0.132113 -0.571900 -0.327627 -1.107155 -0.580247 0.421931 -0.469790 0.697314 -0.912877 0.809669 -0.080705 0.617272 -0.401446 -0.061012 -0.424872 -0.334704 1.018308 -1.015199 -0.991110 0.519710 0.090708 0.910534 0.389295 -0.278652 -1.102886 -0.053174 -1.329637 -0.162149 -0.316927 -1.152632 0.691295 0.252624 -0.643521 -0.471455 0.567391 -0.079148 -0.994505 0.878230 -0.422365 -0.148555 0.500996 0.845692 -0.347412 -0.417188 -0.895769 0.500991 0.449022 -1.570466 0.552426 0.872796 0.559438 -0.706542 0.410488 -0.663993 0.294667 0.543091 0.567290 -0.281669 -0.306893 -0.629457 -0.094669 -0.640838 0.120558 0.663896 0.310934 -0.111691 -0.213117 0.317412 -0.933519 0.215900 -0.774166 0.625488 -0.637702 -0.345203 -0.518927 -0.566616 0.734971 0.558642 0.081750 0.481641 -0.345838 -0.702315 0.760412 -0.516740 -0.714043 -0.130126 -0.839125 1.388453 0.901974 -0.096698 0.891823 0.009443 0.006037 0.133938 -0.355043 -0.244953 0.778863 -0.146986 0.850305 -0.805296 -0.678685 -0.862130 0.721895 0.602439 0.239248 -1.020591 1.541202 0.255204 1.320530 0.324362 -0.251844 -0.719944 -0.740542 0.148560 0.917564 0.088659 0.125545 0.741291 -0.262175 0.861471 0.463318 1.163468 -0.114442 -0.126373 -0.311601 0.279514 -0.853025 0.783970 0.512056 -0.381006 -0.363883 0.560421 -0.925836 0.077297 -0.699761 -0.485197 -0.059319 0.105578 0.873796 0.979277 0.202375 -0.509787 0.159083 0.586980 0.529816 0.000384 -0.298160 -0.346611 -0.327877 1.034208 -0.176851 -0.722841 0.524365 0.703663 -0.149364 -1.069044 -0.027018 0.327157 0.668786 -0.786505 0.746961 0.831069 0.769050 -1.026645 -0.301222 -0.893501 -0.416371 0.460147 0.143807 -0.402545 0.431424 -0.585193 -0.138635 -0.199205 -0.843583 -0.039275 0.986712 0.002429 0.202004 -0.359825 -0.677102 0.335683 0.206020 0.675079 0.214826 -1.317578 0.734577 -0.614226 0.256688 0.582457 -0.615368 -0.129576 0.745837 -0.883253 -0.064499 -0.604045 -0.493051 0.558020 -1.382830 0.360367 0.733546 1.028769 -0.968704 -0.407454 -0.605830 -0.718978 0.304244 -0.604566 0.250538 -0.830069 0.215299 0.462346 0.703351 -0.519439 0.738620 -0.114856 -0.733796 -0.016429 0.248035 0.886798 -0.372091 0.633432 -0.895176 -0.726166 0.576972 0.466041 -0.076593 0.910513 0.177025 -0.122828 0.537589 -0.426590 -0.822800 0.774938 0.335779 -0.123808 0.722410 -0.582837 0.685174 -0.192628 -0.305251 -0.245224 -0.096509 -0.598221 0.392123 0.577218 0.592435 0.748613 -0.195168 -0.040147 0.344249 0.768186 -0.628350 -0.806461 -0.913275 -1.254726 1.237040 -0.156042 0.867652 -0.164370 0.873597 0.712032 0.255715 0.244379 -0.247262 -0.222755 0.713551 -0.238664 0.726179 -0.091924 0.405388 1.012225 -1.223797 1.039779 -0.579365 0.469352 0.281051 -1.406950 0.115394 -0.896829 -0.201625 -0.225902 0.609862 -0.114701 -0.120178 0.862390 0.753544 -0.275139 -0.490054 0.139402 0.538088 -0.786787 -0.561128 0.242626 -0.008689 0.236101 -0.885742 -0.604329 0.793849 0.510037 0.673060 -0.197271 0.328353 0.922447 -0.562251 1.502369 0.585538 -0.899375 -0.367572 -1.015537 -0.396978 0.189800 1.104311 0.825291 -0.942475 0.820120 0.050271 -0.278362 -0.379938 -0.840276 -0.568570 0.001638 -0.119684 0.427253 0.928582 -0.778949 0.633727 -0.799668 1.119146 -0.384978 1.089069 0.138741 -0.617729 0.729565 0.777346 0.855237 0.055036 1.022351 0.674396 0.090971 -0.915148 -1.332078 -1.001444 1.047179 0.903278 -0.475771 1.228849 -0.258198 0.027850 -0.869647 0.021902 0.527040 0.524419 0.931152 -0.378083 0.149509 -0.700333 -0.852101 0.022797 1.077516 -0.007848 0.123637 -0.024986 0.239537 -0.053186 -0.144047 -0.077528 0.145281 -0.598410 -0.714085 -0.724583 -0.425730 -0.455473 -0.781273 -0.759133 -0.690761 -0.554121 -0.538144 0.308367 0.710056 -0.334332 -0.414973 0.227400 1.420789 -0.716366 1.225088 -0.135422 -0.808066 -1.145315 -0.578203 -0.687357 0.299191 0.475592 -0.118858 -0.576916 -0.514149 0.892820 -0.059519 0.764203 -0.531124 1.016211 -0.801933 0.236376 -0.686885 -0.426657 1.120070 0.214623 0.404566 -0.949120 0.948272 0.333163 -0.176801 -1.051926 -0.791506 -0.444970 -0.758279 -0.598455 0.551333 -0.248898 -0.724209 0.322091 -0.330402 0.959708 0.576662 1.129965 -0.859818 0.772365 0.876748 0.535576 0.824935 -0.713319 0.562392 0.914959 0.280943 0.292880 -0.347702 0.164798 -0.763758 -0.821892 -0.727795 0.863891 0.425276 0.287503 0.767363 0.681249 -0.673325 -1.171981 0.965835 0.694999 -0.228440 -0.592402 0.814599 0.712468 -0.870494 -0.028560 0.587975 -0.714791 -0.515438 0.569337 0.331052 -0.021000 0.714129 -0.398107 -0.577320 -0.022488 -0.073022 0.246298 1.043249 0.211012 0.788447 -0.306330 -0.519758 -0.409012 -0.625373 -0.445420 -0.982301 -0.334678 -0.446809 1.065944 -0.454137 0.455632 -0.786411 0.372235 -0.108997 -0.364142 -0.492668 -0.878506 -0.260460 0.479479 1.140876 -0.773618 -0.691105 0.614583 0.392885 -0.262585 -0.826435 0.905589 0.930341 -0.898147 -0.980976 -0.143903 -0.671865 -1.004493 0.196489 0.204144 0.140710 0.450090 0.751954 -0.157794 0.508794 0.480709 0.309429 0.094067 0.956860 0.346673 0.451027 -0.472795 -0.782647 -0.302103 -0.856624 -0.437355 0.813196 1.293925 0.708979 1.062776 1.296338 0.409656 0.497629 0.952524 -0.996853 -0.716253 -0.408592 -0.460270 0.447156 0.407774 -0.780772 -0.510832 -0.382195 -1.009365 0.551267 -0.463610 0.785955 0.314579 0.761055 0.574749 -0.619495 1.176385 0.130827 0.278169 -0.434553 0.480754 0.597362 0.516651 0.257887 0.544875 0.751073 -0.111526 -0.149262 0.502746 -0.220081 0.079863 1.053164 0.294113 0.634969 -0.092593 0.108878 -0.997673 0.986241 -0.832786 -0.794207 -0.006226 -0.270816 0.590256 -1.283873 0.618402 -0.382418 0.014907 -0.720462 -0.803820 -0.704502 -0.117522 0.762659 0.918187 -0.428054 -0.020189 -0.031829 -0.319882 -0.701967 0.823841 1.407473 0.035649 0.045442 0.645970 0.053577 -0.260590 -0.166605 -1.055510 0.082219 0.166233 -0.263450 0.185166 1.009362 1.303920 -0.321589 -0.543885 -0.387843 0.496893 0.194398 -0.138682 0.336013 0.914998 0.803071 -0.276949 0.275054 -0.881169 -1.077619 -1.443188 0.338252 -0.572873 -0.744321 0.209519 -0.757807 0.478405 -0.218832 -0.334429 -0.935446 0.772349 0.376029 0.371851 -0.991687 0.680641 -0.430751 -0.147168 0.481508 0.738267 -0.470256 -0.903983 -0.034426 -0.818102 0.139714 -0.810364 1.202878 -0.679272 0.435786 0.336384 0.867110 0.883570 0.165749 0.228401 -0.287746 0.567186 -0.818073 0.010244 -0.310044 0.028489 1.300215 0.186176 0.178112 -0.022472 -0.670668 0.213933 -0.200724 -0.293393 0.874500 -1.313167 0.148689 -0.689868 -0.229257 0.872969 -0.699504 0.909746 0.901565 -0.185645 -0.150287 0.361574 1.068604 -0.314344 0.419421 -0.043891 0.588860 -0.981204 -0.335178 0.676373 0.381205 0.716682 0.407860 -0.142013 -0.139332 -0.577138 -0.946399 0.686247 0.942089 0.644510 -0.326579 0.199963 1.060682 0.624926 1.571527 -0.084497 -0.131242 -0.887845 0.065862 0.442153 0.324028 -0.766240 0.220545 0.517833 0.689102 -0.619577 0.919475 0.419388 0.355966 0.417853 -0.450008 0.303120 -0.589177 0.790592 0.807694 -0.127594 0.776395 0.455995 1.736384 -0.122554 -1.502252 -0.138424 -0.287215 0.678117 -0.006242 0.217322 -0.343459 1.102524 0.687264 0.818458 0.366133 0.236601 0.981397 -0.579675 0.663782 1.004680 -0.373859 -0.349217 0.514343 -0.837233 -1.026917 -1.300812 0.130863 -0.640945 0.834837 -0.599359 -0.534729 0.383279 -0.087140 -0.471995 -0.834255 -0.652530 1.091760 0.089117 0.086293 0.075266 -0.951190 -0.572544 -0.238965 -0.602584 -0.968307 1.230715 0.111372 -0.877966 -0.694091 -0.555945 0.652440 -0.319139 -0.268280 0.199005 0.885466 -0.081460 -0.184573 -0.607330 0.340251 0.099674 0.482118 -0.869712 -0.278939 0.858805 0.417377 0.161073 -0.238261 0.735975 -0.654431 -0.928826 -0.710878 -0.324165 -0.459564 0.524680 -0.078887 -0.514158 0.265142 -1.212132 -0.344722 0.996012 -0.431481 -0.411061 -0.358657 1.026215 0.780028 -0.672771 -0.183494 0.654187 -0.732167 -1.181806 -0.291327 -1.297987 -0.258419 -0.603180 0.901521 -1.017609 -0.761547 -0.935010 0.547700 -0.506702 -1.049608 -0.983325 0.816924 -0.286982 0.324645 -0.505202 0.713526 -0.627079 -0.407287 -1.073041 0.647261 0.777850 -0.554481 -0.356301 -0.693147 -0.786457 -0.054949 0.383724 -0.312980 -0.017813 0.606885 0.288635 0.314615 -0.452725 -0.289655 0.462331 -0.196661 0.079384 0.393157 -0.579020 0.753290 0.382486 -0.056338 -0.286952 -0.705198 -1.170091 0.067049 0.884609 -0.771006 1.008558 1.086958 -0.910619 0.305453 -0.429813 -0.087578 1.285872 -0.473294 0.841618 0.341864 0.832283 0.123219 0.342153 0.258832 -0.247718 0.898137 1.033814 0.976938 -0.517229 -0.356903 0.124164 0.329639 -0.944746 0.094423 0.899236 -0.081393 0.474848 1.034221 -0.996390 0.658867 -0.358204 -0.716235 0.368102 -0.473403 0.474777 1.088239 0.546987 0.250301 0.247253 -0.429064 -0.788590 -0.635099 0.727763 0.357477 -0.107680 0.382428 0.364066 0.323700 0.610642 0.964062 -0.662226 0.092799 -0.676469 0.449916 0.188596 -0.056103 -0.105079 0.068936 0.294824 -0.824779 0.449019 0.458359 0.827374 0.869293 -0.121313 0.516220 0.760062 -0.745594 0.760549 -0.410594 -0.193391 -0.852695 -0.161102 -0.207212 0.484917 0.973814 -1.113616 -0.331635 0.034164 1.130097 -0.621972 0.611777 0.556820 -0.020372 -0.209452 -0.777309 -0.870736 0.908329 0.779975 0.339865 -0.752981 -0.205316 -0.181419 0.924616 -0.395537 0.695153 0.335306 1.152040 -0.769797 -0.049411 -0.534465 0.087916 0.089484 0.509694 0.970155 -0.423910 0.170836 0.787170 0.725536 -0.667703 0.813383 -0.393311 0.675637 -0.453726 0.667066 -0.149273 0.120057 1.171509 -0.573751 -0.575573 0.267124 -0.655554 -0.432622 -1.512178 -1.000442 0.730980 0.933123 0.480333 0.328590 -0.879920 -0.317289 -0.988557 0.345846 0.644263 0.620131 0.060245 -0.095649 -0.162479 -0.093111 -0.130289 -0.025974 -0.148747 0.312706 -0.080642 0.845509 0.112479 0.724187 0.105799 -0.592882 1.168256 0.356805 1.208330 -0.971996 -0.514453 0.788715 -0.515454 -1.219608 0.595844 0.800594 0.456203 0.854684 -0.803615 0.519901 0.860211 -0.899805 0.095733 -0.808367 0.028635 0.948972 0.745671 0.753092 0.253482 -0.609163 -0.089147 -0.618072 -1.410352 -0.582454 1.238031 0.197406 -0.157591 0.752263 -0.860760 -0.178855 0.982793 0.014293 -0.525266 -1.068792 0.336445 -0.794617 1.218893 -0.893837 -1.021846 -0.128247 -1.111106 0.501574 -0.550090 0.112503 1.275725 0.851895 0.293819 -0.110331 0.491172 -0.533862 0.242324 -0.323784 -0.224856 0.521548 -0.247479 -0.270093 -0.997723 0.672297 -0.743386 -0.274101 -0.660280 -0.224068 1.084857 -0.578996 -0.294787 0.088932 -0.063893 -0.351721 0.453752 0.189353 0.006145 0.547320 -0.870929 0.353994 0.151808 -1.255484 0.305727 0.830347 -0.416516 -0.105905 -0.729413 0.415781 -0.184139 0.451558 -0.818037 0.507705 0.954780 0.877616 -0.994147 -0.110555 -0.816977 -0.563030 -0.179500 -0.029479 0.030718 0.922017 -1.015268 0.720450 0.499238 0.093411 -0.304287 0.057543 0.571761 -0.693757 0.661319 0.442149 0.636153 0.470320 -0.551829 -0.526648 0.576750 -0.321422 -1.016962 -0.534826 -0.798584 -0.829090 -0.955854 -0.901332 -0.828031 -0.896353 -0.018768 -0.688909 -0.416883 0.899417 0.316359 0.538727 0.801105 0.291676 0.389151 0.263601 -0.475430 -0.952577 -0.603188 -0.943413 -0.733556 -0.826876 0.591581 -0.960239 0.719687 -0.927122 -0.372723 0.277056 -0.244059 -0.378031 0.769534 -0.040684 -0.084679 0.819091 0.043063 0.037433 -1.056410 -0.896079 0.369790 -0.429702 0.962740 -0.248052 -0.692033 0.733810 -0.826772 0.661466 0.030772 -0.357011 0.671998 0.424862 -0.230364 -0.873382 0.666953 -0.549136 -0.824379 0.294923 -0.528661 -0.154801 -0.378498 0.185137 0.495739 -0.514210 -0.802997 -0.520938 -0.608645 0.333709 0.503171 -0.602535 0.265726 -0.035248 -0.076252 0.291775 0.734788 0.304735 0.085214 0.936700 -0.086716 -0.867562 -0.309304 -0.407624 0.643951 0.505710 -0.286432 0.280679 0.898305 -0.044382 -0.398187 -0.628827 0.793903 0.252053 0.662050 0.392129 0.702797 0.804480 0.866381 -0.861830 0.073699 0.396260 -0.493454 -0.589734 -0.639731 0.501257 0.724004 -0.862479 -0.151340 -0.148206 -0.825198 0.640120 0.094674 -0.122126 -0.651381 -0.250007 -0.564258 0.094369 0.940374 -0.646100 -0.982408 -0.419155 -0.197150 0.940553 0.929969 -0.504019 0.347796 0.733252 -0.683985 0.159594 0.735509 0.389170 -0.406917 -0.654351 0.893604 -0.020477 0.926807 0.652653 0.219151 -0.278820 -0.486566 0.400364 -0.582905 0.620525 -0.666264 -0.134285 -0.670693 -0.305689 0.884815 -0.679975 0.202610 -0.975052 -0.003197 -0.970077 0.975925 -0.190398 -0.475681 0.285261 -0.503456 -0.099464 -0.541430 -0.641686 -0.683045 0.066675 -0.231620 -0.835341 -0.851192 0.884065 0.404249 0.494035 -0.514992 -0.190229 0.937641 -0.912592 0.139798 -0.266054 -0.571552 0.921999 -0.331024 -0.241132 0.183465 -0.299403 0.685119 0.257376 -0.320491 -0.452964 0.788377 0.949321 0.044275 -0.323667 -0.511874 0.424622 0.023600 0.601708 -0.779184 0.211530 0.756102 -0.066410 0.128416 0.122262 -0.589071 0.566171 0.886538 -0.679145 0.633817 -0.023018 0.037619 -0.942072 -0.090328 0.715212 -0.254062 -0.931610 -0.600616 -0.566925 0.273297 0.045868 -0.089108 0.070458 0.010636 0.945717 0.767549 0.424983 0.369331 -0.238073 0.028939 0.564626 0.955583 -0.247530 -0.522918 0.039451 0.819267 -0.156429 -0.401391 0.689295 0.144993 -0.772501 -0.347356 -0.817873 -0.754355 0.579218 0.864390 -0.009297 0.630185 -0.734972 0.356451 -0.110779 0.269729 -0.732691 0.957149 -0.722723 -0.753891 0.666918 0.675281 0.583504 -0.583051 -0.298194 0.176489 -0.663164 0.418610 0.656252 0.375645 0.203610 -0.527949 0.927967 -0.081887 0.607274 -0.862982 0.532579 0.786501 -0.670078 0.074526 0.669900 0.278247 -0.339101 0.866308 -0.374865 0.521556 0.114049 -0.105000 0.469747 0.369576 0.094933 0.136180 0.034069 -0.290553 0.486218 0.693688 0.804837 0.809405 0.112032 0.463807 0.135999 -0.710119 0.911095 0.047405 0.169754 0.513071 0.141414 -0.317947 0.315755 0.481867 0.746580 -0.066713 -0.258779 -0.567870 -0.209757 0.339304 0.968924 0.873200 -0.759600 0.422342 0.258116 0.335639 -0.499506 -0.714090 1.001022 0.997177 0.943971 0.814149 0.787759 0.018519 0.239939 -0.088211 0.291729 0.150938 0.956545 -0.527734 -0.367603 0.120888 0.126816 0.914689 -0.449100 -0.132818 -0.134508 0.247715 0.310872 0.608830 -0.441879 0.229618 0.448335 -0.190148 -0.393821 -0.329559 -0.892850 0.094876 -0.080720 -0.938250 0.026248 -0.099380 0.856859 -0.213921 0.906454 0.079282 0.683150 0.200352 -0.805355 0.649387 0.642496 -0.186628 -0.264023 -0.244186 -0.252611 0.317106 0.576184 -0.423261 -0.160823 0.098071 0.181169 -0.713662 -0.652390 0.855300 -0.427295 0.511204 1.320758 0.674011 -0.839330 1.028553 -0.151458 0.002209 0.738052 0.520829 -0.129256 -0.070569 -0.248516 -0.972112 0.046091 0.122549 0.619066 1.067616 0.519739 -0.481924 -0.178802 -0.146605 0.984783 -0.930238 0.516564 -0.872179 0.359176 -0.467042 -0.125042 0.980002 -0.113755 0.741830 -0.119040 -0.740834 0.377501 0.175230 -1.018016 0.935621 -0.804662 -0.995553 0.529081 -0.168545 -0.443419 -0.463805 0.031673 1.019857 0.635518 -0.596559 0.657561 0.308437 0.094825 -0.923544 0.989475 0.069937 -0.400180 0.388431 0.945583 0.330123 0.852751 -0.430501 0.094629 -0.830564 -0.718036 -0.861937 -0.603524 0.551739 0.283107 -0.047527 0.416628 0.973514 -0.668659 -0.088220 -0.413552 0.630477 0.454830 0.594219 1.038937 0.293497 -0.864594 0.220183 -0.973404 0.303838 0.776517 0.859178 -0.385481 -0.891970 -0.334987 -0.387669 0.774929 -0.247775 0.282086 0.024836 -0.037721 0.778597 0.241004 0.770966 -0.015393 -0.483235 0.935759 0.033641 -1.018011 -0.334674 0.491402 -0.453141 -0.300957 -0.126612 -0.189336 0.894648 0.920124 -0.178770 0.527789 1.002582 -1.065617 0.455718 0.911597 -0.639413 0.105079 0.208692 0.535913 -0.114297 -0.863990 -0.446990 1.167649 0.143961 -0.905011 0.396364 -0.693208 0.175996 0.871698 -0.814798 0.742690 -0.869627 0.049377 -0.050629 -0.222531 0.758669 -0.742666 0.051112 0.257306 -0.852805 0.650173 -0.303499 -1.133969 1.006883 0.440064 -1.149788 -0.544983 -0.072319 0.110806 1.242955 0.745671 0.199275 -1.068767 1.260682 -0.788261 -0.628381 -0.078243 -0.428055 0.696920 -0.382076 0.152819 0.375580 -0.070808 -0.743599 -0.525145 0.523890 0.294418 -0.149492 -0.506500 -0.269653 -0.055336 -1.123415 0.393321 0.286041 -0.828861 -0.090058 0.208472 -0.415311 0.639079 -0.258735 -0.312724 0.085732 0.916133 -0.650187 -0.350313 -0.535217 0.073740 0.643883 -0.241239 -0.758921 0.901794 -0.820138 0.008972 1.025420 -0.083224 -0.549107 0.408236 1.001020 -0.120822 -0.867145 -0.362207 0.343120 0.593791 0.873104 0.447581 -0.504859 0.194328 -0.784739 -0.648943 0.437679 -0.319244 0.732467 0.341195 0.502324 -0.566129 0.395858 -0.626119 -0.901438 -0.833957 0.360208 -0.778155 0.740866 0.428710 0.203781 0.987563 -0.693697 0.560742 0.410828 0.867177 -0.420366 0.541888 -0.819778 0.890102 -0.043089 -0.474844 0.258459 0.551150 0.208124 0.248878 0.638991 -0.274782 -0.693405 0.227057 0.578908 0.659697 0.576241 0.185608 -0.777809 0.571383 0.175007 0.414186 0.653599 0.221678 -0.011768 -0.012292 -0.069332 0.138392 -0.560206 -0.958940 -0.108589 0.095027 0.823661 0.323865 -0.013945 -0.370340 0.624931 -0.683227 -0.940249 -0.353777 0.688359 0.601831 0.320748 0.824200 -0.354727 0.000306 0.328929 -0.715531 -0.332412 0.574294 0.842513 0.415965 0.176887 0.847472 -0.473712 -1.023245 -0.513720 0.193057 0.250621 0.091895 0.542989 -0.719117 -0.950516 0.051733 0.329228 0.082252 0.828753 -0.184620 0.177877 0.554449 0.609097 -0.275415 0.326008 -0.241135 -0.342704 0.717203 1.011148 -0.915776 -0.791842 -0.796222 0.598315 0.956841 0.514693 -0.236505 0.577149 -0.757146 -0.158643 -0.797597 0.375684 1.067983 0.346918 -0.141276 -0.715932 0.463405 0.876553 0.502522 -0.943729 0.606883 -0.699509 0.483237 0.005826 0.796702 -0.696265 -0.795331 -0.464529 0.078985 -0.831704 -0.519891 0.034478 -1.054726 -0.444384 -0.340956 -0.887023 -0.738762 0.324179 0.712319 -0.455011 -1.007480 0.902290 0.626577 -0.923983 -0.088764 -0.542252 -0.770250 -0.778374 -0.836575 0.622248 -0.490323 0.761636 0.872342 0.942614 -0.317668 0.637965 -0.784139 -0.053999 -0.869854 0.209338 0.062919 -0.561810 -0.872750 0.314669 0.152340 -0.542992 0.517981 0.312069 0.968146 0.243384 0.629261 -0.984938 -0.099535 0.192655 -0.945937 0.826957 0.698516 -0.557639 1.037520 0.635604 -0.786980 0.721223 0.620497 -0.925127 -0.786956 0.522192 -0.502241 0.258788 0.546818 0.548137 -0.515020 -0.935600 0.645334 0.737127 0.030832 -0.774300 -0.069599 -0.447302 -0.845089 -1.166280 -0.951321 -0.552103 -0.117352 0.421286 -0.582032 -0.549187 -0.257899 -0.106456 -1.071988 0.039526 -0.469325 -0.265431 -0.313821 -0.269091 -0.181145 -0.259825 -1.023754 -0.455898 -0.823798 1.321362 -0.714135 0.444476 1.090799 -0.163265 -0.497011 0.085157 -0.269650 0.743379 0.858670 -0.197308 1.071639 0.389176 0.312614 0.176453 0.081775 0.792406 0.522639 0.830541 -0.501650 0.494948 -0.485088 0.317243 -0.763495 0.869691 1.541502 -0.365437 -0.096987 -0.839415 1.128360 0.250294 0.737751 -0.659782 -0.767565 1.314076 0.059120 -0.759771 -0.702597 1.133077 -0.218212 -0.843251 -0.521124 -0.469362 0.890879 1.144378 0.067718 -0.336176 0.612973 -0.171235 -0.445641 -0.827410 -0.451346 0.509065 0.759549 -0.057749 0.628004 0.631729 0.846411 0.896788 0.520094 0.838536 0.243982 -0.099015 -0.692951 0.456437 -0.313461 0.377923 -1.183112 0.394963 0.248677 -0.577872 0.403351 0.763185 0.588610 0.275554 0.965845 -0.774704 0.802740 0.728994 0.584156 -0.918148 0.369170 -0.668601 0.714631 -0.644900 0.036243 0.042870 -0.700099 0.409422 -0.138290 0.453876 -0.104337 -1.281093 -0.246590 0.046724 0.362268 0.904202 -0.235506 0.643341 -0.427880 1.134642 -0.825337 -0.797822 1.329657 0.400597 0.535719 0.493786 -0.962860 0.626683 -0.322534 0.486079 -0.609854 -0.831819 -0.361271 0.918936 0.158279 0.119120 -0.113649 0.007208 -0.923498 0.160730 -0.463245 0.222985 0.606109 0.227281 -1.042713 0.193782 0.176066 0.387088 -0.575180 -0.842925 0.399588 -0.493564 -0.016710 0.146796 -0.640179 -0.404868 -0.603943 -1.000546 -0.811988 0.179514 1.120773 -0.479124 0.169320 1.079107 -0.705117 -1.552643 -0.010881 0.312620 -0.266726 1.207153 -0.156004 1.172895 -0.189611 0.045508 0.166316 -0.761028 -0.402915 -0.235527 -0.008807 -0.083952 -0.690075 0.588076 0.625751 0.411849 0.844139 -0.771053 0.914378 -1.150178 -0.545368 0.120611 1.365112 -0.294416 -0.617449 0.846465 -0.015988 -0.012972 0.392528 -0.997135 -1.495641 0.224044 0.279813 -1.098931 1.099040 -0.699281 0.516482 0.121531 -0.540835 -0.874045 0.839291 0.098353 -0.319381 1.527235 -0.256805 -0.432932 0.060520 -0.944963 -0.975015 -0.285938 -0.618892 -0.245605 -0.588633 -0.674920 0.500145 -0.490812 -0.819553 -0.565276 0.589742 0.597971 -0.014942 0.289506 -0.667263 0.876814 1.061487 -1.444336 -0.964958 0.087380 0.148549 -0.980745 0.420674 -0.051037 0.367259 -1.021358 -0.319383 0.962661 -0.744494 -1.220789 -0.567993 0.137383 0.275919 0.049145 0.893507 0.681496 0.253755 0.327062 -0.380435 0.527227 1.031035 0.981317 0.922655 -0.345221 0.043990 0.409722 -0.417994 0.497298 0.731008 -0.372846 -0.440308 -0.000294 -0.017843 0.676056 -1.079121 -0.583999 1.188431 0.215905 -0.742218 -0.334953 1.228110 -0.026925 0.553837 -0.038483 0.850586 0.756576 -0.215661 -0.054876 -0.656240 0.395865 -0.675095 -0.022130 0.135232 0.348599 0.742307 -0.099805 -0.369232 -0.319774 -1.065634 -0.111079 -0.021911 -0.170392 0.642972 1.177951 -0.892871 0.796323 -0.694106 -0.514713 0.130500 -0.806650 -0.145773 -0.225195 0.443228 -0.599142 0.786708 0.164040 -0.931593 -0.711257 0.402700 0.064555 0.807964 0.877473 -0.518264 -0.008785 0.023965 0.891334 0.724943 -1.063914 -1.272591 0.532381 -0.256301 0.099193 -0.647660 -0.483930 0.029037 -0.436782 -0.662867 0.028214 -0.593648 0.598847 0.998310 0.645291 -1.011220 0.250653 -0.725767 0.837370 -0.708126 -0.685839 -0.426626 0.711065 0.497036 -0.234080 1.042237 0.749715 0.281274 0.182209 0.011078 -0.339891 -0.104721 1.050351 -0.178811 0.810973 -0.419002 0.328794 -0.556272 0.684700 1.233075 -0.618565 0.504023 -0.923560 0.740438 0.350996 -0.916246 0.882617 -0.749583 0.676461 -0.451380 -0.440121 0.891652 -0.470019 -0.900522 -0.810014 -0.940520 0.775712 0.487656 0.349424 0.558807 -0.448440 1.103065 0.326510 0.267394 1.012008 -1.133882 -0.633515 1.132610 -0.747857 1.012228 -0.989451 0.165727 -0.630016 -0.907726 -0.551428 -0.832252 0.728541 -0.282822 -0.236455 0.627950 0.212225 0.268174 0.559824 1.036667 0.355879 0.939871 0.683544 0.106607 -0.208527 0.586392 -0.330549 0.568589 -0.492889 -0.834327 -0.408460 -0.540979 -0.600881 -0.100504 -1.012572 -0.756545 -0.274917 -0.371719 0.916506 0.067039 -0.092695 -0.540114 0.965084 -0.416826 -0.290617 -0.173225 -0.887523 1.361610 1.349839 0.403894 0.408727 0.440624 0.339897 0.059136 -0.467369 -0.988382 0.933041 0.172895 0.286640 -0.663815 0.551038 -1.791030 -0.102531 0.521854 0.099123 0.025713 -0.785278 -1.103938 0.456990 1.717871 0.501968 -0.646762 0.819031 0.613602 -0.041218 -0.041320 0.877296 -0.054691 -0.205202 0.662286 -1.229382 -0.438427 0.202715 0.181688 0.526834 1.066732 0.159305 0.298997 0.572867 -0.033437 0.114040 -0.281092 0.073402 -0.556311 -0.161137 -1.381051 0.192941 -0.339714 -0.849070 -0.398488 0.172959 0.647383 -0.524065 -0.176291 0.001039 -0.827318 0.601569 -0.148769 0.445637 -0.934724 -0.450906 0.420682 -0.298531 1.195672 0.431023 0.978759 0.807491 -0.555133 0.916383 0.077352 -0.116020 0.057957 1.191834 -0.496138 0.262752 -0.539292 -0.280492 -0.940133 0.186953 -0.613819 0.388947 0.964820 -1.206166 0.222246 -0.754371 -0.620501 -0.718971 -1.073320 0.156119 0.699724 -0.941771 -0.991990 0.357310 -0.093648 0.994845 -0.544235 -0.338531 0.368751 0.182136 1.197717 -0.189624 0.610632 -0.040550 -0.234112 -0.789708 -0.372559 -0.053124 -0.906270 -0.142476 -0.667843 0.146911 -0.831681 0.099110 0.131271 -0.274221 -0.038844 -1.179102 0.608026 0.116057 0.537984 0.575666 0.499571 1.310259 -0.212933 -0.629867 1.366134 0.466862 -0.484752 0.415702 -0.329530 -0.381379 -0.708966 0.706363 -0.017191 -0.862283 1.063751 -0.739962 0.132319 0.190157 -0.317971 -0.998216 -0.052287 0.203368 0.430903 0.982271 -0.929742 0.409800 0.137455 0.320166 0.434655 0.023849 -0.625858 -0.471465 -0.477350 -0.301579 -0.322697 1.017602 0.266198 1.126051 1.204099 -0.902125 -0.580349 -0.365681 0.761634 0.232410 -0.182800 0.347880 0.294970 0.447512 -0.415937 -0.883461 0.877577 0.777357 0.118837 -0.011657 0.778494 0.304664 -1.127408 0.249764 -0.924124 0.843392 -0.824942 0.025874 0.922208 -0.890298 1.074976 -1.326924 -0.961580 -0.470895 -0.742713 -0.433340 0.073746 -0.326002 -0.456196 -0.037780 0.540637 0.248107 -0.948033 0.288987 -0.748471 -0.011470 0.388089 -1.076108 -0.425919 -0.413094 0.571699 0.781077 0.803317 1.743217 -0.495306 -0.684936 0.239084 0.248260 0.535213 0.545009 0.929073 -0.350787 0.493045 0.749241 -0.774433 0.780138 1.360241 0.484747 -0.405395 -1.015940 -1.042751 -1.407984 0.372683 -0.154132 0.456663 0.690472 1.487642 -0.498057 -0.923151 -0.702677 0.397789 -0.338166 -0.999018 -0.479887 0.322796 0.985062 0.259714 0.450794 -0.457050 -0.370728 0.875042 -0.980302 0.532458 0.652169 0.904687 1.142731 0.013957 1.465177 0.538687 0.389597 0.678361 0.815434 0.643835 -0.243510 -0.661135 -0.096633 -0.679725 -0.588347 0.448374 -0.314593 -0.308580 0.316423 -1.216955 -0.156883 0.308525 0.224854 -0.759302 -0.335849 -0.686581 -0.322678 0.738467 -0.813848 0.199666 0.178756 0.037793 -0.262248 0.327746 -0.919896 -0.576365 -0.355373 1.129806 1.082738 -1.587616 0.201630 0.276807 -0.163366 0.963075 -0.153136 0.813971 0.141403 -0.404221 0.798523 0.771212 0.302347 -0.363366 0.239368 -0.059853 0.078335 0.488173 0.150410 0.562355 0.089781 -0.004731 -0.878540 -0.984153 -0.362855 0.071983 0.232191 0.074241 0.320802 0.787472 -0.668523 0.073611 1.163893 0.249902 0.989201 -0.387299 0.409466 -0.556697 1.389014 1.068796 0.598915 0.666587 0.087864 -0.538501 -0.236001 0.986525 0.220379 -0.329782 0.221278 -0.158117 0.517585 -0.613264 -0.036187 1.188729 0.024185 -1.441252 0.251097 -0.907922 0.465020 0.131238 -0.180062 -0.526144 -0.602183 -0.767023 -0.880907 0.414135 0.124033 0.214182 0.240050 1.103644 0.083912 0.105821 1.013025 -0.859396 0.221955 -0.701114 -1.191867 -0.787375 -0.363662 0.306267 0.271366 -0.385629 0.773297 -0.801653 -0.720464 -0.079470 -0.130892 0.346784 0.172460 -0.489556 -0.804444 0.595909 0.026138 0.065135 -0.841882 0.759473 -0.684097 1.100926 0.249626 0.701593 0.685080 1.067150 0.253078 0.098672 -1.220464 -0.918601 0.863885 -0.968265 0.083382 -0.396278 0.888785 -0.858792 0.130503 0.480270 0.170891 0.650596 1.130242 0.671883 0.226689 -0.559757 0.944940 0.440328 -0.606056 -0.275562 -0.400459 -0.278711 -0.430872 -0.017275 -0.832623 0.151357 -0.234322 0.984941 0.056473 0.784801 0.158347 0.452555 0.551936 -0.072487 0.257217 -0.514645 0.094399 -0.493066 -0.638539 -0.614546 -1.086349 0.416324 -0.964773 0.803133 -0.052653 0.422983 -0.477879 0.024930 -0.118464 0.012301 -0.941355 0.314605 0.586100 -0.372171 -0.111891 1.656918 1.010539 0.294732 0.709111 0.023911 -0.065840 -0.413258 -0.868990 -0.692232 0.905338 0.291590 0.526625 -0.073256 -0.836748 0.736532 0.288571 -0.705060 -0.168142 0.745093 -1.141742 -0.828181 0.169942 -0.040958 0.229652 -0.682339 -0.790503 0.261823 0.720673 0.742402 1.010214 -0.441087 0.477773 0.640455 0.696101 0.782121 -0.058090 -0.539969 -0.512906 0.439289 -0.150545 -0.549230 -0.781280 -1.037179 0.114100 0.105525 0.565630 -0.975838 0.251754 -0.104833 -0.727349 0.728114 -0.499011 0.293102 -0.768032 0.845578 0.663666 -0.400022 0.304736 0.525080 -0.464300 0.455304 0.821311 -0.760152 0.235229 0.534496 0.742609 1.057252 -1.217122 -0.444275 -0.136746 0.398190 -1.030877 0.482447 0.237556 0.459772 -0.321470 -0.855704 0.612003 -0.721468 -0.460523 0.321704 0.259725 0.738288 0.770546 0.093764 0.494309 -0.265786 -1.006499 0.309963 -0.202837 0.795213 -0.072423 0.128988 -0.711111 -0.878073 -0.024720 -0.668869 -0.535843 0.513342 0.320594 -0.609620 1.063978 0.174294 -0.768779 0.549928 0.594756 0.893865 0.536130 0.181144 1.030928 1.140678 -0.577576 0.014728 0.717433 -0.558009 0.987906 0.371253 -0.216386 -0.867741 -0.832633 0.385126 1.194350 0.604701 -0.403289 -0.944270 0.808631 1.069343 -0.254502 -0.040954 -0.062429 -0.929881 0.140293 -0.413200 0.123464 0.316610 -1.058172 -0.032137 -0.175802 0.545478 -0.552306 -0.723092 0.721251 -0.010587 0.621536 1.288709 -0.321932 0.364962 -0.212898 0.248180 1.311312 0.655041 -0.576501 0.343805 0.142305 0.329533 0.157895 0.790282 -0.035127 -0.860126 0.989440 1.198663 -0.767835 -0.489240 -0.623844 0.812974 -0.691520 -0.269254 -0.336450 -0.098036 -0.844488 -0.773430 0.447173 0.252659 0.058615 -0.661694 0.093497 0.936397 -0.935812 -0.708694 0.315882 0.699317 0.953118 0.907254 0.495726 0.127322 -0.161918 -0.048074 -1.031486 1.268218 -0.259749 -0.298998 0.674416 -0.086681 0.045821 -0.974285 0.311663 0.146580 -0.632578 0.544649 -1.301157 -0.213398 -0.642440 0.859101 -0.420207 -0.207887 -0.605416 0.142608 0.217079 -0.298587 0.717962 -0.850955 -0.741532 0.663435 0.629011 0.895723 -0.030091 -0.667261 